1858 128
3390 0.103297 -0.26503563 0.8790502 0.18143243 -0.6415103 -0.37440798 -0.114219435 0.7152484 -0.07132761 0.96695703 0.01858823 0.11233934 0.30996734 0.20667541 -0.24920297 -0.38122398 0.09550029 0.6980349 0.3020212 -0.47764003 0.11168292 0.3838683 0.30422932 -0.46589208 -0.24989079 0.21698393 0.70143944 -0.41328236 0.6337304 -0.7712522 -0.53234875 -0.5643715 -0.36437395 0.46715266 -0.4725689 -0.25967678 -0.55080295 1.3623745 0.3349318 -0.23843944 0.5824103 0.7495104 -0.29017195 0.33500394 -0.50790167 -0.10023948 0.37210074 0.70574576 -0.53342813 -1.0051587 -0.48514646 -0.23042302 0.7239965 0.5294256 -0.53710747 -0.23916237 -0.114827566 -0.5433567 0.076365 0.21147013 0.10636523 0.23924777 0.11349202 -0.29781583 -0.61145025 -0.23173372 0.95215034 -0.6669406 -0.00125187 -0.781717 0.023018308 0.32412633 -0.7331601 -0.39531428 -0.12272542 -0.06478404 0.20760418 -0.064895205 -0.27478004 0.32561594 -0.2968781 0.25098038 0.3321167 0.09235268 0.536838 0.24122514 -0.18965402 -0.56884825 -0.496838 -0.15050077 -0.20762193 -0.03855632 -0.39581966 -0.35521698 -0.0008297667 0.31355962 0.434362 0.31686044 -0.007315511 0.16995837 -0.6628785 0.21728233 0.406436 -0.13772476 -0.3772477 0.045283746 -0.23557247 0.2620716 -0.7468559 0.100778244 -0.35581297 0.16341029 0.13379937 -0.28927046 0.16703409 0.30621564 -0.11819648 0.5064094 0.48032606 0.50339574 0.43972722 -0.044355337 0.6950829 -0.73447424 -0.45111603 0.517393 0.5256559 0.32494718
3393 1.0528125 -0.62578714 0.4841888 -0.46281007 -0.26018193 -0.96322227 0.091434 0.7955481 0.33463338 0.9448957 -0.00433774 0.03081116 0.18459783 -0.010047965 0.09429491 -0.6551931 -0.6874864 0.85072976 -0.22775394 -0.22241855 0.049591072 0.57255083 0.8645849 -0.38415566 -1.2915233 0.7157403 0.3447751 -0.33436415 -0.38771915 -0.4702793 -0.37225455 -0.37851447 -0.6027816 0.5440725 0.3327524 -1.2664021 -0.025019122 0.95933086 -0.60968685 -0.014545705 0.38288522 -0.5770405 0.262243 -0.67405784 0.6252909 1.099741 -0.7120998 0.41179505 0.18463539 -0.18226738 0.3282793 -0.8181384 -0.38510728 0.68828493 -0.01366709 0.05222155 -0.0084517915 -0.2609203 -0.49089155 1.1634846 -0.146789 1.0008177 1.6689364 -1.7003742 0.5115413 -0.58900297 0.08223946 -1.102038 0.1973827 0.2506015 -1.1651539 -0.23151791 -1.0510736 0.24713741 0.82910657 0.34804434 0.20140342 -1.2992765 -0.52566093 -0.3543586 -0.8757843 0.40595612 0.04428275 1.2263048 0.18560106 0.71847165 0.19446103 0.21739072 -0.3960975 0.79925984 0.6501526 0.14614362 -0.8718686 -0.40884978 0.27605173 0.8059983 0.31760377 -0.41482323 0.24537002 0.1228201 0.08819445 0.12186271 0.16191371 -0.14549415 -0.72232753 0.2879379 -0.25742137 0.72145 -0.041467436 -0.22157766 0.6480968 0.24722342 0.12375103 -0.20863827 0.7832835 0.29859206 0.07958662 1.3242984 1.5267863 0.25986677 0.6529471 0.0078614 -0.32390237 -0.26619458 -0.23981352 -0.12259994 0.22956474 0.6157305
3418 -0.34180087 -0.016251406 0.7855325 -0.23759402 0.08997577 0.6510565 -1.0790662 0.24741492 -0.6063737 -0.5524837 0.66535324 0.45161217 -0.39903915 -0.15524314 0.46330455 -0.15354624 0.5129127 -0.16820331 1.4503763 0.7595145 -0.81326085 -0.5788718 -0.34907526 0.37703863 -0.15988496 0.3704166 0.5716771 -0.109538235 0.03211458 0.015637085 0.78176355 0.113077536 -1.1345348 -1.0460551 0.79436314 -0.44609886 -0.5217703 -0.75663716 0.56607753 0.25120953 -0.26017332 -1.0036819 0.88864684 -0.40386328 0.24494424 0.09230589 0.5029865 0.8256777 -0.042823263 -0.42804286 0.8244828 1.0390928 -1.1799772 -0.32802635 -0.30485407 -0.79805875 0.366832 -0.55247664 -0.1689381 0.15956306 -0.84003186 0.6851272 -0.9493995 0.425108 -0.8663798 -0.27767074 -1.5407397 0.58979625 0.48400402 0.1782827 0.8728323 -0.28173506 -0.20075044 0.20197418 -0.091077596 -0.7110208 0.18293996 -0.95419884 -0.2724132 -1.0168705 -0.20763616 0.33729854 0.7292332 0.37840724 -1.1342258 -0.7965661 0.0010430127 0.76686966 0.033433795 -0.54704875 0.017391188 -0.013543683 0.28132412 -0.32370415 -0.5799875 -0.21977185 -1.6645837 -1.4275931 -0.6768047 -0.369239 0.033673033 0.42986524 -0.045643575 0.724015 1.0184437 0.4741995 -0.113240875 -0.26547566 1.413371 -0.018570615 -0.9412562 0.6993611 0.30865902 0.095362514 0.9835731 0.5945169 0.9489695 -1.1356401 -0.27400574 -0.348445 -0.19513142 0.29733178 -1.0375091 -0.69965106 1.3915079 -0.067174636 0.24149303 -0.4363733
3427 0.27898958 -0.45659772 0.8979477 -0.82003796 -0.46700498 0.55413747 -1.0165373 -0.3271917 -0.54744035 -0.04442125 1.0974122 0.87933475 0.31721222 0.4389584 0.7686172 0.24850222 0.2479564 -0.45377383 1.3622683 -0.22792654 -1.3554646 -0.47069436 -0.49090934 1.1935902 0.32449597 0.23556603 0.36879402 0.38429344 1.1568944 0.10154157 0.8792227 0.36863336 -0.7498387 -0.46277463 1.0870273 -0.6465735 -1.4865695 -0.80771285 0.45950186 0.31053293 -0.6795861 -1.1954508 1.1504842 -0.73402643 -0.06871254 0.40338007 -0.3467011 -0.22897163 -0.35906103 -0.60213774 -0.06993112 1.157266 -0.9712956 0.49231958 -0.74440736 -0.6480113 0.047486994 -0.71174556 0.43690285 -0.79503804 -0.9856616 0.068239614 -0.78555834 0.13698313 -0.105930045 -0.054673996 -1.0010535 0.76381654 0.5771256 0.76333123 0.026579726 -0.8347694 0.07327956 -0.256475 -0.11413448 -0.788481 0.5203274 -1.2975241 0.3909136 -0.39358512 -0.9211819 0.49192154 0.48750535 0.90409213 -0.48269397 -0.38456312 -0.25725657 0.9109061 0.19172801 0.11073101 -0.31543192 -0.72260356 0.55143577 0.4231641 -0.4808198 -0.6287553 -1.4191042 -0.96552175 -0.6006753 -0.18655427 0.53109777 0.39195356 0.14686908 0.5878405 -0.07713112 -0.22218382 -0.022982243 0.28494626 0.5910779 0.029754402 -0.5165444 0.839746 -0.15755805 0.08136287 1.350453 0.34611028 0.5835389 -0.8346249 -0.77023244 0.09901743 0.23871902 0.16907161 -1.1542751 -0.22365856 1.0488124 0.15412287 -0.08652092 -0.41859698
3438 0.18410847 0.73465407 0.5015725 -0.69372326 0.3764743 0.60713255 0.43684828 1.4496686 -0.36614528 0.9331791 -0.16929303 1.1032784 0.007475842 0.5029355 0.8643863 0.24625453 0.5231256 0.4305631 0.76891893 -1.6641203 -0.8665819 0.5420106 -0.24874796 -0.22100893 -1.6047174 0.1781931 1.3078548 -0.37396064 0.35064015 -0.88390577 -1.1405483 -0.4062892 0.6353269 0.028884111 -1.0387944 0.44823983 -0.55240613 0.9605607 0.44855466 -0.7914783 -0.28878015 1.0218155 1.1104983 0.7794736 -0.61625594 0.68746686 0.99952585 -0.850581 -0.9227854 -0.8643404 -1.2408466 -0.22854635 0.15478724 -0.18634486 -1.2296842 -0.6904946 0.6833692 -0.9580156 0.44378307 -0.055269852 -0.81804794 0.7807622 -0.34806803 0.5696064 0.81119543 -0.40521345 1.0292726 -0.28796148 0.5587333 -0.6533974 -1.307265 -0.29484084 -0.35683945 -0.9637023 0.17657815 0.6835758 0.8990414 -0.6229559 -0.15916437 0.62879395 -0.6187443 0.06189009 0.80591285 -0.81868017 -0.7361347 0.122155 -2.044812 0.067883424 -0.2067672 -1.2077188 0.5810559 0.06755155 0.49180496 0.3049832 -0.58912855 -0.007326992 -0.28075033 0.16326162 -0.25205034 0.5153599 -0.86800766 0.5917966 0.48374566 0.993701 0.24833107 -0.748007 0.3582008 -0.30058205 0.8567 0.6057433 -0.896143 -0.01995588 0.45675412 -0.16585964 -0.56800777 0.13546139 -0.52551913 0.17498775 -0.92985445 0.81350625 0.21367915 -0.36281565 1.0022885 0.055078752 0.47090542 0.60508543 0.92453957 1.2869152
3431 -0.36150897 0.31011152 1.3841316 0.14117101 -0.5313211 -0.08937728 -0.09958264 -0.081984244 0.33473462 -0.044404525 0.6765254 0.6322436 0.46544075 0.19314213 -0.5229285 1.1684262 0.51393026 0.6094025 -0.27768454 -0.48359895 -0.6838657 0.5130102 -0.63711625 -0.7721208 0.15382853 0.5399513 0.28226474 0.5316177 1.0173693 0.34309238 0.5581438 -0.5849833 0.1650605 -0.1595407 0.06473489 0.31051663 -0.25161293 1.0328342 1.3651487 0.6950397 0.9048141 0.6949837 -0.78508633 -0.2609067 -0.054978564 -0.5327015 0.25375593 0.046439853 -0.83818775 -1.1021391 -0.4486987 -0.8945922 0.34380332 0.12676066 0.20673944 -0.22591928 0.26687184 -0.31423467 -0.13572994 -0.73898697 1.0907177 0.3701821 -0.569961 0.63320595 -0.9321163 -0.014252604 0.6245748 -0.52000546 -1.0886583 -1.4277866 1.41977 1.2409877 -1.0607245 -0.8433908 -0.46866405 -1.2133226 -0.18439832 0.30651727 -1.1607724 0.7859324 -0.45477465 -0.23257029 -0.35753676 -0.7431374 0.57346714 -0.30607694 -1.3600842 0.59075403 -1.4223993 -0.10943302 -1.3502117 0.93814355 -0.9022707 -0.5960628 -0.30502397 1.0258833 1.1312103 0.10538858 -0.62188125 0.33069205 1.1424178 -0.24675779 0.19491278 0.4927411 -0.47041097 0.6892248 0.012190384 -0.4786983 -0.41297746 -0.45282352 -1.2924163 0.68694395 0.94784427 0.07085705 0.9657762 0.35302544 -1.157941 -0.45131835 0.13892645 -1.035452 -0.07555013 0.7598019 -0.5756673 0.009423912 0.20857833 0.8756149 0.4232493 -1.8320841
3391 -0.4730129 -0.17659453 0.5433783 -0.7788476 -1.0926743 0.99234873 0.07121211 -0.25906703 -0.3306424 0.67210096 0.8411867 -0.23670019 0.5592487 0.414887 0.6143089 0.24992129 0.5672353 0.5790249 -0.3667826 -1.4270808 -1.4798964 0.1515778 -0.45591965 -0.4069533 -0.007624727 0.5620778 0.21182907 -0.88826823 -0.74747854 -0.6131529 0.5585329 0.41997793 -0.8862128 -0.31172407 -0.69381523 -1.4043779 -0.38010618 0.2966665 -0.5721778 0.2748898 0.66920745 -0.6285649 0.6595609 -0.23382054 -0.3030875 0.059420813 0.87336546 -0.08869275 -0.27071685 -1.4893436 -0.9532337 -0.39487982 -0.9092265 0.7692882 -1.4722658 -0.63741237 1.3312347 0.03550169 -0.11023804 -0.32829323 0.28932372 1.0936098 0.10675161 -0.6611216 0.43278238 -1.0696496 -1.0375292 0.15006988 0.48802787 0.0147225065 0.69485945 0.7611201 0.05978477 0.30682617 0.589358 -0.6831941 0.455717 0.05664044 -0.7624843 -0.51329005 -0.82891524 1.5313524 0.67995906 0.39162058 -0.5420172 0.63649195 -0.63355756 -0.6119521 0.13116957 -0.35646752 -1.3766199 0.9694302 0.95250744 -0.80407476 -0.40132818 -0.49991515 0.04108881 -1.5658951 -0.21181525 0.27773595 0.05363984 2.147247 -0.28518647 1.3885934 -0.4709288 0.7898864 0.7130386 -0.5099326 0.46993333 -0.6781592 -0.9420916 -0.3388501 0.73862237 0.09723911 1.2759087 -0.43344548 -1.1861151 -0.5740079 0.38658035 -0.66712034 0.5074937 -0.45841336 -0.08834922 0.030029617 0.5029455 0.6043036 0.8280549 -0.33187357
3471 0.34870762 0.19951598 1.0571237 -0.0472907 0.06013838 -0.1634316 -1.4897002 0.4060486 -0.7780133 -1.0095674 0.8280621 0.07791336 -0.07013722 0.56973565 0.046498932 -0.9556229 -0.2658836 -0.27982146 -0.26229563 0.5123362 -0.37112233 -0.13475537 -1.0044072 -0.055536125 0.44114476 0.35063773 1.1636742 -0.4980199 1.4079773 -0.9897741 0.12241197 -0.22161311 -1.4838402 0.1729307 -0.62140095 -0.5756233 0.22757493 1.1694216 1.0259672 0.94685036 0.64201474 1.2410423 -0.21460064 -0.36241317 -1.113344 0.028394544 -0.6581506 1.0190419 0.07137626 -1.9465774 -0.6608611 0.763155 1.1095774 -0.03890612 0.2912534 -0.8203441 -0.6941527 -1.3921118 -0.9373861 0.43971318 -0.31113854 -0.66472787 0.5872573 0.30623764 0.15137121 0.7897434 -0.1919173 -0.5684731 0.511072 0.16896856 0.66756535 0.381828 -1.6549293 -1.4680698 -0.54293257 0.420679 -0.3930999 0.62799656 -0.6106672 -0.64478076 0.53319925 -0.9776658 0.060198117 -0.21439365 0.5055858 0.33024815 -0.7472456 -0.743309 0.1400395 0.50191945 -0.9362891 -0.63312167 -0.12051173 -0.60693693 -0.0137256 -1.1693016 -1.2227641 -0.24336034 -0.3253835 0.339107 -0.19677827 -0.21326476 -0.67129344 -0.052885797 -0.26749924 0.07389899 1.034864 0.7786929 -0.6844037 -0.96257 -0.87033236 0.674741 0.78786904 0.51127857 -0.48584735 0.96042943 0.7374519 0.9142707 -0.62095356 1.1521654 -0.4679432 -0.7998112 1.0091275 -0.6379814 -0.19056617 0.9081602 1.262978 -0.20528105
3491 -0.7889897 -0.33287844 1.4619769 -0.6595329 -0.6969438 0.016561182 -1.0928831 0.67507017 -1.1681964 -0.7291574 1.1190252 1.0350531 -0.20506549 0.0094618 -0.0422751 -0.20015855 0.42500204 -0.97096795 0.5905117 0.08791466 -1.2468576 0.19207469 -0.25747055 1.2929311 0.57434803 1.0359011 -0.16030148 0.22552472 0.44374642 0.15233372 0.46525708 0.039333116 -0.4336675 -1.0059569 0.6173389 0.13665293 -0.8387332 -0.62677413 0.5089514 0.15923029 -0.76616305 -0.20445211 1.332758 0.8351497 -0.5031874 0.0068299808 -0.7528447 0.248242 0.40709072 0.3430767 0.49400306 0.39032367 -0.01988622 0.07492088 -1.0000943 -1.0057853 0.4409938 -0.37283573 -0.63027865 -0.77251554 -0.6757883 1.2373866 0.03693905 -0.44251698 0.366424 0.22445059 -0.8686786 0.12710305 0.80725265 -0.24457309 0.8101566 -1.0275009 0.09657373 0.2903813 0.72465116 0.24608998 1.3221846 -1.1037557 -0.14620773 -1.4074357 -0.802697 1.1502632 1.3589121 0.56136256 0.27261207 0.0982719 -0.6899692 0.39654398 0.22460817 -0.3285517 -1.0203358 -0.70607483 1.1745396 -0.7248664 -1.0844966 -0.3887656 -1.4765717 -1.6692092 -1.0072474 -0.64547247 0.9700273 1.1642468 -0.28822 0.66330975 -0.24918288 1.2278541 0.6682532 0.46083203 1.0006118 0.24073552 -0.10356535 0.043588873 0.20116189 0.73942715 1.6046052 1.2296988 -0.011913169 -0.9368899 -0.077950135 -0.4309082 0.68963337 -0.076323755 -0.7323491 -1.1684399 0.9184628 -0.3497129 0.80688685 0.023398887
3399 1.2052897 -1.2471989 1.2674091 -0.09642934 0.043218456 -0.21216379 0.8804649 -0.647568 -0.24294916 -0.58496237 -0.4741955 0.7267396 0.47147635 -0.07782027 0.76456296 -0.57808304 -0.9506902 -0.063194156 0.06773516 0.02924305 -0.694207 0.7172656 0.7980004 -0.73240703 -1.4374803 1.502803 0.85025346 0.024369597 0.38048443 -0.8880001 -1.2048538 -0.7762157 -0.10537662 -1.1989396 0.64571714 -1.0158755 -0.19056098 0.55847627 -0.7139766 0.9492526 0.8114438 0.8892673 -0.32947522 -0.031092636 0.7631243 0.4818539 -0.02198138 0.6674145 -1.4360826 -0.40595385 0.19040905 0.3484235 -0.42140454 1.6697019 -1.3083076 0.34139258 0.45683846 -0.11146874 -1.2955713 0.46164286 -0.9688475 0.34341046 1.3122889 0.09849406 -0.67187864 0.27424416 -0.8083539 0.7209671 0.8706882 -0.5094972 1.0206252 0.0898757 -0.7300034 -0.5060332 -0.66096085 -0.5853021 0.53656185 0.24248207 -0.38968104 0.04107497 -0.1691776 1.5855228 0.014858311 -0.7005065 -0.13461083 0.6326178 -0.18723772 0.32309416 -0.15652747 0.04645558 -0.6779426 0.88832283 -0.5140634 1.1513891 0.40628168 1.4368073 0.17118102 0.5205061 0.17324267 0.13305524 2.161609 0.047761906 -0.8744889 0.11063473 0.4257724 0.7545746 0.1893288 0.21590276 0.36947474 0.8843525 0.4689483 1.4121536 -0.07937753 0.58229595 0.78266686 -0.45560628 -0.2385896 0.8449371 0.40656224 0.040528815 1.3287004 0.3769366 -0.9772727 0.45330712 -0.8007791 0.7559045 0.02646332 0.5543083
3483 -0.13695394 -0.013764313 0.012851484 0.13071632 -0.31329578 -0.57322323 -0.6371269 0.51421046 -0.6915367 0.18175767 0.9170518 0.2728939 -0.634546 -0.71788657 0.34975442 -0.73155427 0.3838116 0.7155869 0.79319483 0.5011485 -0.34310666 -0.64707726 0.9231697 -0.48168552 0.55815727 -0.561941 0.07116419 0.40965888 0.09290232 -0.5364376 -0.22906938 0.920392 -0.53915906 -0.9271221 0.45284644 -0.10784179 -1.6133369 1.4776914 0.10205439 -0.18352392 0.38053784 -0.09748419 0.9881106 0.74462223 -1.2870536 -1.3120621 1.3994969 -0.14333339 -0.4400922 -1.049945 -1.0069736 -0.9007449 0.55713004 0.41860235 0.524666 -0.024049565 -0.9591559 -1.0379655 -0.6897156 0.0420247 -0.24624486 1.4206408 0.04033365 0.4560293 -1.0810261 -0.5493008 0.83991754 0.5656939 -0.49865213 -0.30659282 0.16487616 1.5647418 -0.03305986 -0.7846805 -0.54956853 0.23190579 1.2659546 -0.9897862 -0.4704528 -0.66618747 -0.17773521 0.36427978 0.1752604 0.11308481 -0.10683085 -0.2700187 -0.5523356 -0.31979334 0.4179694 -0.65806705 0.37765753 -0.58482593 -0.2766114 0.78436464 -0.80347437 0.50578463 0.31061456 0.5997366 -0.09939439 0.52920455 -0.49159825 1.180238 -0.18545705 -1.0280915 -0.66637564 1.0339322 -0.8906993 -0.2450924 0.54546016 1.2201924 -0.1641013 -0.20255001 -0.47133178 -1.2061366 -0.13795234 0.6657945 -0.24923036 -0.08526421 0.31149617 1.5078753 -0.31341535 1.1515808 0.04241511 -1.4008756 0.44752085 0.86601526 -0.41199473 0.32209003
3395 0.104772 0.030813823 1.3779535 -0.2546366 0.5105027 -0.55310714 -1.2365179 0.97397107 0.08169402 -0.07956483 1.1088477 -0.39013612 0.97256255 -0.076815896 -0.0745874 -1.1238893 -1.2738978 -0.8214738 1.4439732 0.7696898 -0.1482923 0.7141768 -0.47280025 -1.3054746 -0.874377 -0.61699885 -0.29969883 0.13476858 1.0040663 -1.1910831 -0.07498942 -0.2514932 -1.4742546 -0.6239213 -0.7355912 -0.8781974 -0.47301108 0.49290982 1.0692581 0.39080477 1.0201448 -1.0067537 0.77698654 0.6600197 0.54267365 -0.4051216 -0.44282666 -1.1476854 0.8269423 -0.09766511 0.9340822 -0.7912657 -0.10032712 0.38807705 0.2817704 0.31762418 0.15325503 -0.23656744 -0.54871285 0.16011949 0.6210734 0.33419546 0.014048764 -1.5425705 0.13875397 0.505716 0.23560806 -1.4388692 -0.029762631 0.73233986 0.6117371 0.8722879 0.06730137 0.1272188 -0.075676434 1.0617245 0.2953247 -1.1365483 -0.097059876 -0.67899835 -1.1676916 0.16189525 0.21327431 -0.4690836 0.19672346 -0.2684891 -0.8881102 0.8137198 -0.27479622 -0.9011746 -0.17058568 0.37040398 1.0196322 -1.0363994 -1.5521158 -0.10649164 0.46538258 -0.66988647 -0.2888277 0.7839707 0.28531083 -0.9703097 -0.6419125 0.75151694 -1.217161 0.35374278 -0.9932727 -0.3137925 0.7018918 0.63079613 0.006808163 -0.21554337 0.20749992 -1.3212605 1.4205784 -0.36491483 0.74824005 0.38588682 -0.8784505 0.9456589 0.57210994 0.39201862 -0.18107806 0.2078093 1.4164777 0.95723265 0.5313832 -0.7555876
3396 -0.38454697 -0.2058882 1.5416874 0.76111364 0.6934879 0.33204764 -0.2680241 0.18081476 0.36125582 -0.5058218 0.4301646 0.7337814 -0.74412787 -0.43615577 -0.17962053 -0.15980089 -1.7897215 1.0717252 0.59846085 0.21902893 -0.3340164 0.37416512 0.93429655 -1.2827975 -0.13346285 -0.10169485 -0.5599724 -0.31964397 1.4024738 -0.48402104 -0.49708757 -0.93220454 -1.3528417 -0.8951943 -0.15698095 -0.3031175 0.0040815813 -0.17541666 0.90103126 1.0645417 -0.42533416 0.13861626 -0.3290184 -0.9283968 -0.4840125 -1.5397223 0.2383876 0.39713293 -1.8627571 -0.61250234 -0.30478874 0.84849304 0.52547574 0.7355056 -1.1481004 -0.5034086 -0.28670517 0.2599697 -1.6689943 1.2581434 0.97570145 -0.22150749 0.109794505 -1.2503496 0.82778114 0.18485329 0.020221038 -0.4793102 0.5900581 -0.8838682 0.6984036 0.4537844 -1.1964374 -1.6875339 1.0459034 0.88293606 -0.15350144 -0.42734268 -0.90736145 0.13927172 -1.0579127 1.3979461 0.81939685 -0.44499215 0.09352838 0.7977669 -0.39069018 -0.53858346 -1.2611486 0.326439 -0.1416357 -0.66914034 -0.7883685 0.89315945 -0.100727856 0.007097244 -0.08512797 -0.5939649 -0.8610595 0.049944203 0.8577751 0.8599256 -0.8824207 -0.80996805 0.5294009 -0.941169 0.38398093 -0.7064806 -0.46036884 -0.04375773 0.028741563 1.074976 0.072449625 -0.5870142 0.106928825 -0.12622376 -0.42578134 0.23061454 -0.35722578 1.2959127 0.22979474 0.43652713 -0.95741147 0.6391065 0.6199325 -0.09776519 0.0025850935 0.5334326
3392 0.37645862 -0.6363016 1.3323561 0.4240136 0.2764928 0.17813517 -0.31702095 -0.503427 0.5153675 0.9678907 1.0430727 0.021354256 -0.4276968 -0.47195432 1.0517975 0.3411121 0.19433558 0.22076368 0.804686 0.29446948 -1.2943262 -0.15189886 -0.44809014 -0.7830593 -0.118534155 0.25169003 -1.0043998 0.06308396 -0.58846253 0.40008023 0.7376 -0.41606256 0.18014687 0.69879586 -0.60080075 -1.6913848 -0.11922359 1.1514167 0.5619578 0.25194728 0.70051664 -0.67871404 -0.8259832 -1.2953824 0.72606957 0.3672176 0.39329508 0.20743066 -0.037382584 -1.6950738 0.377655 0.6238978 -0.7362698 0.032135226 -0.7978632 -0.61483043 1.2413641 -0.4250428 -1.6007992 1.7257658 0.7085733 0.3093895 0.09407857 -0.52089417 -0.43850818 -0.059243392 -0.9164758 0.84194964 0.76395607 -1.2481976 0.3208218 0.61601853 0.23784731 -0.10824964 0.3136315 -0.6073316 -0.4717388 -0.27322394 -0.9076259 0.8069178 -0.5256077 0.8539759 -0.1496181 -0.5408367 -0.198562 -0.08146354 -2.1862495 0.18414748 -1.0885172 -0.19650966 -0.31810245 0.63403475 -0.20482238 0.33158034 -0.6487975 1.3973563 0.92078346 -1.0206562 -0.8417395 0.82899016 -0.041866686 0.8493236 -1.2533692 0.07308761 -1.5049158 -0.38006106 0.21125475 -1.1078722 1.0254892 -0.53773767 -0.35723907 0.37914732 1.008522 0.46669024 -0.46541223 0.6315515 -0.79008955 -0.2666896 0.28252393 -0.10386183 0.67274 0.78301644 0.116235495 -0.6391451 1.0246644 0.19382983 0.79164773 -1.1300647
3394 1.173934 0.4453492 0.011503442 0.15234362 0.35844776 0.5013581 -0.6382029 1.471359 0.08078292 -0.55234957 0.7774245 -0.12813766 1.3761315 -0.08480468 1.3834281 0.20449506 0.734696 0.105275735 1.3948399 1.181565 -0.71136177 -0.69738114 0.30314338 -0.0049699675 -0.83938444 0.32921615 0.1961244 -0.41702065 -1.1158032 -0.65593886 -0.5905671 -0.45818973 -1.2754582 -0.20812526 -0.37835437 -0.5925142 0.22758572 1.0758096 -0.6329192 -0.06892675 1.8024622 -0.82229584 -0.5748004 0.789218 -0.5891886 0.24627505 0.12563016 0.90789753 -0.4984411 -0.729149 -0.30436972 -0.82378024 0.17998752 -0.043236665 -0.3386645 -0.26006678 0.20163457 0.119445905 -0.30742076 0.78041685 1.230809 1.368822 0.3041718 -0.7162882 -0.84115666 -0.8998052 -0.8905301 0.49899575 -0.0047860015 -0.7065005 -0.15995024 0.497978 -1.5049567 -1.1291448 -0.31588882 0.05376939 0.65428734 0.47477308 0.2365653 -0.23840354 -1.0554646 0.11360763 -1.1575445 -0.14450845 -0.5388849 -0.10666106 0.48361248 0.23757271 -0.6898924 -1.2131478 0.6592584 0.43997365 -0.08163468 0.30560637 -1.1271887 0.07312259 0.887354 0.25684372 0.1661768 -0.6216281 1.1503863 -0.6733275 -0.7004774 1.1245476 -0.32984716 0.90339977 0.06349205 -1.2149667 0.475517 0.17064092 -0.4035268 0.34752253 0.22725706 -0.70646894 1.3662364 -1.1333815 -0.5755628 0.7608049 0.58407074 0.6200035 -0.9592136 -0.63100225 0.04560032 0.6596683 1.2038109 0.60315406 -0.6590685 -1.7055721
3505 -0.16065264 -0.6186794 0.37059078 -0.023988632 -0.6415516 0.27430174 -0.31086293 0.8457201 0.0903063 0.51630753 -0.5766354 -0.16903916 0.6501313 -1.0233457 1.5357301 0.6948101 -1.2869949 1.0220543 -0.2060133 -0.33712497 0.93182 1.2673386 1.3110834 -0.36444238 0.5390593 -0.43577087 -0.91467863 -0.081107475 -0.5875286 -0.95757663 0.27976924 0.5745997 -0.750902 0.47958183 -0.40181968 -1.9216216 0.095223606 1.0362219 0.51794595 0.79000497 0.4685042 0.38331184 0.8897133 -0.5557223 0.8956242 0.37682164 -0.2550029 -0.08846981 0.86779535 -0.678334 -0.63028544 -0.4659531 -0.061880436 -0.37038374 -1.0714447 -0.4814992 0.61858004 -0.20032951 0.7100319 1.2784331 0.059021972 1.6805784 0.27855012 -0.60028017 -0.5941597 -1.4049494 -0.9681784 -1.1971434 1.0738596 -0.07724085 0.50764924 -0.4433973 -1.1573706 -1.1206889 1.2517267 1.1121043 -0.0810404 -0.36691797 -0.4814779 0.028281948 -0.60945076 -0.0019427184 -0.2824645 0.97720337 -0.51546025 0.12987879 -0.3268111 -0.3424341 -1.7538415 0.46753332 -0.41453782 -0.0031578494 -1.1221662 -0.43481633 -0.6887114 0.38236076 0.13297677 -0.558137 -1.136341 -0.53573716 0.14226899 0.981607 -0.801021 -0.462879 -1.5999526 1.0171833 -1.0153242 -0.018384932 -0.57888305 0.37085313 -0.14301115 1.1129793 0.6477034 -0.8747997 1.6220803 1.2079275 -0.9907379 -0.030627152 0.721035 0.0486745 0.369225 -0.5614834 -0.60921496 -0.47559243 0.048906557 0.14642103 0.09371869 0.9937397
3419 -0.14988989 0.5549289 0.6154432 -0.8222547 -0.051421184 0.8161863 -1.1995271 -0.6322434 0.78556275 0.58575666 -0.44916978 1.075937 -0.25909087 0.10480948 0.73574823 0.46703056 -0.3071404 -0.54445165 -0.5370842 -0.37228957 -1.1415441 0.50623286 -0.24021475 -0.48458877 -0.44561014 1.1037505 0.5315392 -0.25025952 -0.33001184 0.18005963 0.3567966 -0.95421356 -0.58762026 -1.2085371 1.1709229 -0.87038106 -0.6737479 2.0743022 0.94211656 1.1999875 0.6452638 -0.2932417 -0.60220915 -0.3194344 0.2869051 1.0681355 0.35055327 -0.4137236 0.38988346 -0.74511856 0.6079613 -0.5962677 -0.97517014 0.48199585 0.3834538 -0.72762996 0.32869118 0.576643 -0.4641232 0.94232607 1.0297121 -0.118810184 -0.5159188 1.1526157 -0.7630468 0.56691897 0.3499792 0.32087374 -0.7667138 -0.08225746 -0.7536073 0.8521068 -1.1478275 0.5962089 0.5579324 -0.8334808 -0.096640974 0.21179989 0.1770181 0.19406946 -0.97490185 1.9328755 0.46652853 -0.15892959 -0.64009583 0.6873034 -1.4688206 -0.045408357 -1.047488 -0.054494254 -0.13326651 0.82642335 -0.13775884 1.0133487 -0.5634637 1.2187035 -0.114549875 0.29078534 -0.85559106 -0.76985526 1.212514 0.4908251 -0.7898819 0.43606958 0.00029538065 -0.6064369 -0.506836 0.2319214 -0.3809975 0.7515721 -0.876693 1.750887 0.8761298 -0.15055987 0.6204602 1.0432571 -1.1911342 0.8720062 0.467003 -0.3769096 0.6957809 0.7514243 -0.82273483 -0.18936467 1.0584704 0.82789004 -0.6666901 -0.79170495
3398 -0.007927142 0.20164365 1.1597761 -1.1299373 -1.3292428 0.4611328 -0.6117204 0.2611582 0.8780258 -0.19596496 -0.17806193 -0.59255904 0.56912446 -1.2385553 -0.19443539 0.27982485 0.21694173 -0.36047566 -0.33812147 0.2591588 -0.6786651 -0.20756097 0.74424267 -0.97985095 0.88192344 0.21711516 -0.026064081 0.2556616 1.3520892 -0.055189557 -0.5941262 -0.47164786 -0.5827414 -0.3996711 1.7527395 0.22639583 -0.3639675 1.0087744 -0.64086556 1.1807768 0.42582467 -0.00889492 0.10471679 -0.39675477 -1.1372559 -0.20117821 0.8180846 -0.6420898 -0.92029744 0.3944873 -0.8612479 1.2833563 0.4243248 0.5821222 -0.39689586 -1.3078824 0.382823 -1.1727914 -1.8107718 0.17403856 -1.2473923 1.5530175 0.63380456 -1.1779032 -0.35696778 -0.80918145 -0.13242467 -0.16551755 -0.61810726 0.48517957 -0.2324145 0.32772243 0.11790161 -0.9405615 0.35809326 0.5993181 0.87650126 -0.81426674 -1.7745472 -1.0804744 0.32284433 0.4488365 0.0039662663 0.065105364 0.22561038 0.38236415 -0.8911349 -0.033521038 -0.52280104 0.22245045 0.1544799 -0.58738476 -0.053720336 -0.07626381 -0.5876745 -0.02435874 -0.416356 -0.34411302 0.36471504 -0.69915307 1.4199482 0.6795622 -0.052702464 -1.124682 -0.9021286 1.4529163 -0.73358786 0.14567465 1.0635551 0.41961098 -0.21033156 0.6154775 0.18282111 0.4925474 -0.39395422 0.40674943 -0.6104377 0.009365404 -0.41412225 1.2806109 -1.0816573 -0.285112 -1.1969349 -0.05751454 -0.24822901 0.4664292 0.7875198 -0.2545108
3397 0.6603389 -0.35875022 0.6664877 -0.4688166 0.85773015 0.7764332 -0.23685233 1.0490727 0.944934 0.42918867 1.8354342 0.47561023 0.3290304 -0.57165176 0.7008441 -0.8398597 0.24530244 0.7599656 0.13305531 -0.51077294 -0.11458982 -0.6835176 -0.35566676 0.08058086 -1.1179589 0.050966956 0.029407838 -0.31200776 0.12866433 -0.9644129 0.50053453 0.49330154 -1.5810803 -1.2037517 1.3619215 0.20490113 -0.8860891 0.12789236 -0.056974575 0.8363568 1.8444235 0.2320585 -0.28082713 -0.51730525 1.0462478 -0.54141814 1.032981 0.62889695 -1.4509442 -1.07682 -0.83586437 -0.8861677 -1.0808295 0.99860895 0.7349118 -0.35450637 0.55344844 -0.5649819 -0.9812709 0.26567912 0.73523176 -0.7023969 0.07035386 0.19177666 0.96811336 0.09510842 0.6426669 -0.08267554 -0.56262106 -0.99507934 0.85913 1.2071552 0.13095118 0.54852235 -0.088150695 -0.18772836 -0.62967354 -0.41972604 -1.6389284 0.2357671 0.16196668 0.11405185 1.267511 -1.2818333 0.34736916 -0.22398111 -1.1180843 0.9718196 0.05052198 0.76705754 -1.6961204 1.0842022 0.18953575 -0.075078234 -0.19588234 0.915123 0.4309316 -0.618154 -0.20147306 -0.026859501 -0.23392975 0.20797068 0.17847884 0.21957633 -0.20417793 0.7824726 -0.76901984 0.42739806 -0.22802451 -0.7266967 -0.63887656 0.114395015 -0.45495108 0.009380742 0.5049346 -0.6355861 -0.66239643 1.4341811 -0.04160143 -0.64577657 -0.58606625 -0.34116936 -0.9025095 -0.5996442 -0.35478202 1.3181375 -0.19141823 -0.23759481
3411 1.1652279 0.7502014 0.33710486 -0.6207462 0.63303536 -0.117199235 -0.2887441 1.4315615 -1.1772836 0.26734534 0.79956406 0.2566794 -0.5450334 0.029327381 1.1535925 0.5173608 -0.21227913 0.025976354 0.031386703 -0.20069697 -1.6938249 -0.33452275 -0.40073353 0.14631973 0.123116545 -0.24563444 -0.2901784 0.5871369 0.10567842 0.3102585 -0.87223136 -0.048748318 -0.20042093 -0.62325186 -0.45249864 -0.24817581 0.18625642 0.7164013 1.358241 0.35457823 -0.18871 -0.48036018 1.560353 1.4935478 -0.7575137 -1.014623 -0.81014687 1.1276573 -0.85178006 -1.0394567 -0.4365827 -1.1014861 -0.66208494 -0.038909603 0.7465572 0.63250405 -0.20837949 -1.5101587 -0.9737705 1.1697323 0.5365326 1.115599 0.8710199 -0.32915276 -0.26139927 0.11805558 1.211758 0.5222497 0.26290414 -0.08381045 -0.36223957 1.003736 -0.09051322 -1.7153001 0.55312526 0.2617261 1.0541595 -0.8298426 -0.73945886 0.59317034 -0.64165425 -0.65131456 1.1820371 0.74299407 0.42616567 0.0071768616 -1.8746624 -0.6871559 -0.08924874 -1.2535143 -0.44259897 -0.039739784 -1.8760109 0.41422433 -0.36524743 0.631819 0.90344256 -0.0473817 -0.041590754 0.78092045 -0.19272704 0.4445852 -0.21584444 0.013197548 -1.267635 -0.5045219 0.42212707 -1.2408049 -0.27708733 0.16793908 0.05683329 0.14576557 1.1124934 0.3439767 -0.17598283 0.12065358 -0.6375614 0.21003911 -0.30716252 -0.33915508 0.17964715 0.48136422 1.0450059 -0.053393923 0.70629036 -0.067640625 1.2220066 0.54896414
3402 0.59001213 0.14150874 1.2912245 0.5838249 -0.27815405 0.4974372 -1.0698181 0.030402416 0.07285195 -0.35485882 1.9213947 0.08222213 1.3569422 1.224616 0.35022908 0.3503231 -0.19228572 0.12700696 0.16231807 -0.14653964 0.1041437 -1.6094986 -0.121589705 -0.333646 -0.63078225 0.0151395025 -0.09499632 -0.3765065 0.07769143 -0.37533534 -0.18137698 0.6408928 -0.47262344 0.38088524 1.00521 -0.5150621 0.61932045 -0.3333095 0.11518969 1.2511563 0.46860263 -0.148259 0.43844205 1.0872842 -0.20459941 0.5342303 -0.852894 0.136158 -0.4055228 -0.037122533 -0.603633 0.87285703 0.61094314 -0.3815834 -0.88196975 -0.08432183 0.8521948 -1.5578451 -0.0809815 0.27109239 0.24017912 0.69941056 -0.21248607 -0.69869626 -0.3201928 0.26546425 -0.3296083 -1.1670554 0.39516985 -0.79211587 0.63699496 0.35695183 -2.1595013 0.62048966 0.347214 0.641877 0.36908862 -1.2127107 -0.6766899 0.09257618 0.008921958 -1.2247131 -0.9999822 0.48453727 -0.045651905 0.65874135 -1.5123765 -0.84680146 -0.28341097 0.13969561 -0.65966016 0.72314155 0.92282313 0.24337445 -1.6838257 0.5726921 -0.98782986 0.6029948 -0.54276526 1.0826752 0.16538082 -0.52362263 1.3440137 -0.17270176 0.9980736 0.68065715 -1.4591167 0.0428499 1.054375 -0.065005295 -0.019690813 1.2639427 -0.15514931 0.22822985 2.1862612 -0.0011729811 0.2847996 0.26906085 -0.33048952 -0.923637 -0.020989135 0.0030595122 -0.7863261 -0.4665646 0.39795923 -0.028238647 0.08719061 -0.49421412
3409 1.4031221 -0.5581558 0.8019788 -0.044276327 -0.37486538 0.55089366 0.25268334 -0.53377426 -0.41146863 -0.7978793 0.3595405 1.0032718 0.24720258 -0.48237678 0.31196386 0.88480467 -1.2867825 -0.5297025 0.18852085 -0.095998794 0.059869874 1.1653485 0.20871386 1.1115152 -0.7249545 1.3495134 1.0113785 0.39479688 0.8223749 0.08964394 -1.5594064 -0.25578937 -0.6935027 -0.71654344 0.04046507 -1.6065063 0.1448103 0.027538408 0.7300892 -0.65497935 0.5675648 0.07100012 0.6410904 0.6727188 0.88725185 -0.20537458 -0.94584936 0.5236292 0.6850555 -0.321474 0.81536436 -0.3104114 0.8998516 0.8591677 -0.888137 0.16189128 -0.057256453 0.3660322 0.12261137 0.8606593 -1.0956905 1.1437254 0.1608858 -0.20873 1.0694623 -0.8944142 -0.22611524 -0.62875247 0.44245982 -0.3359956 -0.012010282 0.10171675 -0.811577 -0.8319553 -0.23689693 -1.1678348 0.75048006 0.19625765 -0.83165115 -0.3544805 -0.4149819 -0.06694807 0.44986618 0.08184143 0.64901775 0.9076521 -0.48302522 0.35132766 -0.5204563 0.4366838 -0.2541344 -0.670871 -0.17932366 -0.418744 -0.95783 -0.72697645 1.2186345 -1.0973042 -0.297399 -0.05516828 1.5295458 -0.58650327 -0.029802412 -0.86163384 -1.7069163 1.4852229 -0.9905945 0.5819026 -0.28887883 2.0761878 0.047554575 0.86053336 0.89535075 -0.26742205 0.52061623 -0.37559184 -0.92191076 0.14838602 0.5271862 -0.5438233 -0.72656685 -0.76644605 0.8799735 0.57506835 0.4437267 0.88481915 0.5602533 -0.95803
3413 0.34818697 0.16803773 0.4891534 -0.35629714 -0.6151758 0.41960263 -1.0957016 0.7547337 0.3463178 -0.11718469 -0.81490403 0.51717234 0.69013494 -0.12842569 0.60187626 -1.3148094 0.41729414 -0.53461504 0.37508523 0.6325718 0.24102601 0.68527573 -1.1219786 0.17747997 -0.92168427 1.0737532 1.1825672 0.6667786 0.5028712 -1.4043546 -0.7310325 -1.0604202 -1.3119247 -0.3628487 0.64832467 -0.16427831 -1.0680768 0.16851714 -0.49887225 1.7891895 -0.4355452 0.41979578 -0.22199808 -0.34992382 0.5327727 0.50293684 0.62796026 -0.7515341 0.16019008 -0.41900682 -0.19535905 0.6342029 -0.47014174 0.9467724 0.0857125 0.55603695 0.96133703 -1.3799736 0.09276623 0.34110427 -0.3978389 1.4477032 0.14350623 -0.064847104 -0.8218572 -0.87892926 0.44781658 -0.86140215 0.71123356 -1.0884162 1.1775728 -0.6853426 -1.0414271 -0.39209357 1.0708814 0.19344158 0.7356512 -1.1587282 -0.21030186 1.4053152 -0.325488 0.29522434 -0.1779668 -0.7711981 -1.5096968 -0.25051972 -0.64133155 -0.3745892 -0.5982437 -0.5577468 0.487246 -0.5385234 -0.36858895 0.83532625 -1.2266896 -0.092862196 -1.3035725 0.29736844 -0.7792951 0.8836725 1.3699813 0.48902407 -0.8880444 0.96000165 -1.1467572 1.1964395 -0.479764 -0.47214895 0.9477253 0.5719879 -1.0560675 -0.44371393 0.11908874 -0.14116046 -0.1079425 1.6125602 -0.40468892 0.32393095 -0.40512148 0.04324121 -0.6120478 0.74838156 -0.34316668 -0.19882762 -0.6238215 0.92804563 -0.4201106 0.26739997
3401 0.31976974 0.36907995 -0.31932625 0.12826222 -1.2443107 0.2253891 -0.39790764 0.972938 0.47590792 -0.88594246 0.9155692 0.8030743 0.7954386 0.18804143 0.18291071 -1.7706232 0.8911478 -0.15785281 -0.9251962 -0.46265122 -0.38992855 0.66597205 -0.2087389 -0.7590119 -1.4154824 0.9434226 -0.2870308 0.8073336 0.95049655 -0.7731002 1.0920653 -0.59126365 -1.4393802 -0.25523064 0.38807017 0.005855665 -0.67679906 0.5843519 -0.5066291 -0.34645912 1.3914868 -1.0161489 0.978815 -0.2116354 0.36232054 0.48834273 -1.1341622 -1.0094436 -0.8204084 -1.0064622 1.2593011 -0.338573 1.5836743 0.2000561 -0.122066975 0.4095364 0.16689909 -1.0038525 -0.24568695 -0.09489275 0.86239296 -0.31023002 -0.057978306 -0.42986304 -0.04195495 1.1786208 0.06350183 0.44165558 -0.21099402 -1.0803237 0.3909605 1.3159181 -0.7564096 -1.4102033 -0.47731283 -0.34936354 -0.630795 0.6367682 -0.45989636 -0.16332237 0.18043453 -0.7560597 -0.8168457 -0.56832474 0.5850026 -0.1090451 -1.0579237 0.2122507 -0.42670748 0.5162891 -0.68472743 -0.68782187 0.6810116 -0.33531743 -0.14826782 -0.61333936 -0.2852245 -1.0373397 0.72460914 0.12152691 1.7319776 0.0730448 0.026492286 1.6833926 -0.992649 -0.06975926 -0.16603087 -0.49623474 0.033269964 -0.96971345 0.64770323 0.5093063 0.6294985 -0.74671984 -0.5312203 0.2570901 0.66491044 0.6202555 -0.19876324 0.30303296 -0.4665684 -1.0882412 -0.24723366 -0.90651053 0.6440052 0.43952766 -0.42243657 1.116867
3410 -0.80339104 0.5913914 0.9733883 -0.7129653 -0.6899295 0.7278715 -1.3242084 0.53304744 -0.5481713 -0.985576 1.0326257 -0.4626504 0.8095028 0.91437423 1.6187549 -0.81357497 0.3678921 -0.3994252 0.9778082 0.70897365 -0.078703634 0.46845087 0.0391559 -0.21432291 0.10393911 0.41752535 1.3043545 0.28588358 0.017617708 -0.83240485 -0.17391054 -1.2525916 -1.61669 0.07230073 0.120737344 -0.14865683 -0.4432031 0.24632943 -0.37646154 0.38031188 0.93351966 0.25815 1.0810525 0.59983945 -0.024647862 0.057173863 -0.13889967 -0.71595824 -0.31263912 0.26396477 0.64815956 -0.024449209 -0.23407292 0.81807804 -1.2062738 -0.65861905 -0.3661361 -1.0892794 0.21160479 -0.039315492 0.55490124 0.50284714 1.0824609 0.74241793 0.3475386 0.48904744 -0.10488911 -0.51723385 0.5738599 -0.13119166 1.3046336 -0.71956307 -1.6795466 -0.19430195 0.67974675 0.93714863 -0.4822317 0.40234223 -0.8759766 -0.0119015025 -0.046939213 -0.38155466 0.43045965 0.010698067 0.8025627 -0.49565247 -0.5830033 1.1285359 -1.3749043 0.40419084 0.47601363 0.3157997 -0.50073224 -0.08640737 -0.092878655 0.14851424 -1.4129499 -0.100269616 0.4824271 0.035651702 -0.49582243 -0.71243984 -0.43836787 0.54302603 -1.0275127 -0.59428346 -0.22897778 -0.98233056 0.28998363 -0.23034829 -0.81950533 1.1008949 -0.1831826 -1.3110415 -0.7093823 1.0971739 -0.052872725 0.09228818 0.6685406 0.43786058 -1.4237912 -0.84548086 -0.98356557 0.9312317 1.3403491 0.6422098 0.0063420758 0.40404332
3406 -0.2733781 -0.8730352 1.5426441 0.25353852 -0.0007567704 -0.4926726 -0.28198197 -0.6451712 1.0164071 -0.43884555 0.116507664 -0.084546916 -0.1167139 -0.5226308 -0.14137717 -0.038386695 0.7417697 0.35673484 -0.81385696 -1.0923661 -1.0878412 -0.78958976 1.0544847 -0.68619245 0.31893787 -0.36286432 0.67982 0.7103125 0.6471854 -1.3866264 -0.969325 -1.1091467 -0.7099129 0.5521417 0.8812992 -1.4090829 -1.699244 0.8087038 0.024351722 0.3975063 -0.0846795 -0.44041154 0.059552368 -1.0321198 -1.1938287 0.5133413 -0.54667467 0.583158 -0.43678236 -1.1885953 -0.14562157 -0.34843582 -0.8531455 0.37023056 0.92220694 0.008220091 0.43113327 -0.86085975 -1.0011286 -0.535245 0.4409505 0.00080267835 0.5634758 -1.495223 0.2339793 0.09000877 -0.37634104 0.6440018 -0.9123179 -0.94888407 0.5083333 0.908407 -0.7843004 0.28846067 1.0610251 -0.38234022 -0.34695086 -1.3164703 -1.9587204 -0.18388328 0.28622064 -0.25296807 0.21662696 0.35309348 1.2198788 0.9973462 -0.09406008 0.7293362 0.23977757 -0.41673392 -1.1704806 0.12078383 0.7123927 0.07071283 -0.24186385 -1.2856704 1.5544971 0.55547786 -0.8058144 0.9040983 0.48009086 0.406511 -0.039700337 0.14367034 -0.30669 0.76667833 0.15689644 -0.9765371 0.046057403 -0.8486113 -0.39419922 -0.31275618 1.0549518 -0.2404001 0.20397347 0.7170213 -0.3460798 0.103842415 -0.24942122 1.0908749 -0.8249339 -0.9409902 -0.546675 -0.12972237 0.924353 -0.38030246 -0.1929297 -0.62860936
3408 0.7100387 0.24376515 1.4769894 -0.5784895 0.060476266 1.3538733 -1.0016123 0.28498486 0.72539145 0.25163954 1.1326889 0.19967219 -0.4389171 -0.29035267 0.18346687 -0.42290646 -0.78398246 0.54722565 -0.44468674 -0.6410506 -1.0873971 -0.7311995 0.072604686 -0.79750544 -1.1926337 0.788598 0.5362051 -0.19730622 -0.35731164 -1.7033273 1.1295079 0.35174152 -0.52729785 -0.6843929 0.722936 -0.12128598 0.35892406 1.4325122 0.7484563 0.11027109 -0.19871917 -0.10707736 0.32756466 0.09954843 -0.5923219 0.89941007 -0.35384223 0.4665228 0.7403706 0.40605503 -1.0341095 -0.41801685 -1.1494031 1.5014247 -0.9310077 -0.45809108 -0.45628202 0.33394217 -0.10887794 0.47181255 1.0774026 1.0739979 -0.11459062 -0.02503047 0.65178263 -0.9154912 0.8648005 0.31072414 -1.2540792 -0.30233043 0.8880602 0.5743148 -1.5179511 -0.13913152 0.76593906 -0.71592724 0.55791897 0.49939483 0.55414164 0.7189021 0.20831214 0.3868716 0.13814375 -0.15111664 -0.76576287 1.2898864 -1.707748 -0.78079027 -0.77373344 0.67360574 0.5136484 -0.5193311 -0.98403394 0.6561929 -1.1062672 -0.440057 -1.2422022 -1.1225073 -0.9535484 0.23394127 1.0558293 -0.38972253 -0.20914611 0.46504363 0.92664176 0.2945856 -0.1900672 -0.8404226 -0.07142141 -1.0141791 -0.70115376 1.2817189 -1.0653859 -0.10720606 0.8927323 0.3825252 -0.23720348 0.46923316 0.6614102 -0.57353896 1.1229833 -0.2138842 -0.29272306 0.9174923 -0.5959906 -0.30077448 0.30252984 -0.24413957
3404 -0.61446846 0.3078392 0.92971945 0.21289589 0.16959412 -0.78171605 -0.18594737 -0.8632539 0.46478894 0.9958977 0.8584345 -0.6416886 0.77880967 -1.0123601 0.51304245 -0.19892347 0.54452676 -0.14719054 -0.35931435 -0.4919252 -0.30616006 -0.6186621 0.67465025 0.9493323 -0.29251918 1.215772 -0.7759274 0.19320822 -0.41771594 -0.22493286 -1.0233529 -0.35437766 -1.6068103 -0.027554542 1.0452935 0.10471836 -0.9243874 1.0677152 1.0867478 0.8966942 0.60591704 0.3243433 1.1141155 0.54999536 -0.6131079 0.4458711 -1.5899638 -0.37357187 0.6376205 -0.06769518 0.52257216 -0.5093108 -1.0267397 -0.0033335765 -0.13641153 -0.24521093 1.0623661 0.4384415 1.2575328 0.97249323 -0.7492916 1.5833503 0.0653175 -0.26850644 0.3961941 -1.1715854 -0.2043731 -0.7656629 0.6253921 0.23163457 -0.74359024 0.31947666 -0.49477586 -1.2897933 0.75495595 -0.18407118 0.1276662 0.43615052 -0.67993563 0.738032 -0.8448035 -1.064849 -0.5493984 0.7075711 -0.11083058 -0.52988756 -0.27501902 -0.703605 -1.2571361 -0.07182166 -0.2368465 0.65039366 0.055713706 -0.78995466 -0.28358868 0.46490887 0.4810485 -1.4278803 -0.82498777 -0.18260494 1.098078 -0.2822501 1.0036546 -0.81037265 -0.9913231 0.35213146 -1.2583581 0.44869453 1.4186195 0.7200061 0.71312135 1.2711227 0.38526562 0.3204438 1.1363103 0.8571082 -0.0048190556 -0.10230794 -0.32588825 -0.010130639 0.2776246 0.03252676 -0.15375933 -0.44653162 0.103199095 0.9145381 0.49158487 0.8781769
3416 -0.573198 -0.020154668 -0.20220445 0.106961645 0.022303494 0.7242527 -0.5012526 -0.90606475 -0.6852812 -0.8917004 0.13446195 -0.34338138 0.906169 -1.0641016 -0.9663782 0.42827195 -0.09589323 0.3310038 0.07624554 0.6272448 -0.809728 0.36514986 1.0449853 -0.028292855 -0.91791844 0.20122096 0.642919 -0.36455804 0.85040706 0.18273821 -0.5334332 1.0468749 -0.19925974 -0.6727674 0.19322512 -0.6734354 -1.3804691 1.694975 -0.8184525 0.6337962 1.011947 0.052257106 0.5480286 0.66284 -0.15587263 -0.90057003 -0.091577664 -0.40617087 -0.23108631 -0.28688404 -0.034085162 -0.4348787 -0.4410997 0.8452984 -0.95141673 -0.7669649 0.3871721 -1.0897921 -0.78124964 0.24791043 -1.0742809 1.0580466 0.22605807 -0.63874185 -0.9609193 -0.22036237 -0.67842996 -0.15662646 0.18052325 -0.48239264 0.9203221 0.8953468 -1.4214883 -0.676512 -0.8680382 -0.22556129 1.5626283 -0.54799134 -0.9972281 -0.16562799 -0.08022334 0.71216196 -0.878623 0.84420776 0.7115361 0.13910936 0.0769771 1.0602021 0.30737686 -1.0513564 0.7610192 0.57459897 0.41049564 1.0791317 -1.3289452 -1.0592947 0.3219874 -0.22577906 -0.54146945 0.47845563 1.1118042 1.1824437 -1.0323533 -0.7019278 -0.73601454 0.65466255 0.17541063 0.11298096 0.3235472 -0.43045565 -0.95172334 0.00025259724 -0.7067612 0.6476178 1.097155 0.5908872 -0.8182118 0.7708558 -1.1369507 1.8119003 -0.15920295 0.48469532 -0.78271794 -0.56111616 0.03429363 0.3768834 0.2035155 1.1894647
3430 0.56051433 0.84279054 0.94790417 -0.14652625 -0.7867325 0.14905234 0.082436316 -0.25043452 -0.5508338 0.45878714 -0.41435158 0.3129346 -0.2618413 0.42816812 0.510618 0.8936479 0.34104738 0.86517715 1.0691286 -1.121188 -1.3875642 -0.37628862 -0.68097323 -0.061038774 -0.8303697 0.020307358 0.85473657 0.4553416 0.7401633 -0.9206435 -0.14783807 0.53391296 -0.78725255 0.59499645 0.19752707 0.38134366 0.6189975 0.6783372 0.48971903 0.24870291 0.61918974 -0.4682296 1.5282205 1.6104867 0.063386515 -0.74905336 0.08164102 0.94135076 -0.8570247 -1.017855 -0.611701 -0.3058337 -0.3511267 0.7838692 0.06259707 0.2753268 -0.2049026 0.058616284 0.57445735 0.51500505 0.6403011 2.1058135 -0.91947514 0.43100348 -1.009289 -0.9974651 0.2377667 0.49590445 0.9661309 0.07201813 -0.73337114 1.0917659 -0.60052645 -0.31797522 -0.83321846 0.5228813 1.2899196 0.013493154 0.12984566 0.6379664 -0.13991791 -0.36056525 0.5761901 0.9903874 0.44725224 -0.54382205 -1.5147053 -0.33893716 0.2777075 -0.5607187 -0.6937713 0.5234862 -0.5591703 0.79276645 -1.4499034 0.57261586 -0.20169768 -0.006242515 -0.5909279 0.6495831 0.24856672 0.08061582 0.60004634 0.33837536 -0.12695913 0.21924669 0.018717077 -0.58640546 0.15558949 -0.93419015 -1.793146 0.9673954 0.4433386 0.025638822 -0.90519416 -0.943318 0.14508127 0.6213192 -0.92850983 1.0537659 0.48067912 -0.49897102 0.3780457 0.96791863 1.1547188 0.39709142 0.9182794 -0.5683826
3436 -0.12614591 0.24400836 1.3600855 0.9391154 0.270656 -1.0026072 -1.0394038 1.2460175 1.012161 0.16059503 0.19492637 1.3321589 0.3855059 0.7497974 -0.7087735 -0.63049453 -0.4257578 1.1730497 -0.0802575 -0.7367313 -1.1013604 1.3025434 -0.6264712 -0.9469191 -0.5754212 1.6542605 0.71673983 0.72910726 -0.24440837 -0.35898647 0.008418187 -0.08073022 -1.1005768 0.2737847 -0.61321175 0.60097903 0.76510864 -0.13142122 0.44215542 0.8688454 -0.12405368 -0.47194913 -0.28849986 0.8297668 0.11266074 0.3312727 -0.85648686 0.38756913 -1.2196776 -1.6511931 0.08805895 -0.82149434 0.31625846 0.43304345 -0.22456086 0.03601891 0.7145778 -0.7490025 -0.94668996 0.7649377 -0.89918244 0.9023176 1.1387581 0.07503792 0.32707852 0.07868813 0.06590482 0.012946262 1.1112783 -0.36444342 0.4558444 0.6854642 -1.3535643 -0.74642545 -0.10318417 0.28555718 0.47787505 -0.3548637 -0.9518836 -0.068986714 0.46315116 -0.34416717 -0.3145331 0.7339893 -0.8148617 0.33284613 -0.0947934 0.31709465 0.5746152 -0.6620416 0.58567286 0.6706288 -0.3144801 -0.6756444 0.4008439 0.07846654 -0.20658726 -0.97039616 -0.82555145 0.33342564 0.23718773 -0.03128844 -0.36463994 0.14166309 -0.28852683 0.32153177 -0.24904335 0.5814502 0.8736524 1.3783752 -0.18219645 -0.47268406 0.45210373 -0.9958004 -0.50687754 1.1866834 -0.24437104 0.92231876 1.3172139 0.6486674 -0.42268595 0.47407728 -1.2858928 0.13952634 -1.1267666 1.0158229 0.07066463 0.17226228
3400 0.2857298 0.67730075 0.0017163344 0.11625342 -0.17768551 0.10348771 -0.87586474 -0.43383455 0.08906308 -0.09105429 0.53777033 0.2613989 0.32235068 0.49347696 1.6250877 -0.07252703 -0.75752294 -0.31442067 1.0354425 -0.0948355 -0.566726 0.7334903 0.060969003 -0.29371208 -0.83019197 0.5058558 0.15716057 -0.5835977 0.93706423 0.43458545 -1.192586 -0.6970212 -0.953972 0.59576637 1.1594092 0.48165265 -0.17133486 0.58584404 0.16405527 -0.016873213 1.8358151 0.35061467 1.1177286 -0.34436303 -0.24018568 -0.3633538 -0.08834264 0.51062804 -0.3086242 -1.0912172 -0.9542868 -0.17903392 -0.10568822 0.030304888 -0.44572037 0.63275766 0.87029237 -1.5624597 0.23978181 0.43594715 0.9358856 0.7894286 0.9330753 0.9795425 -0.4513934 0.70982087 0.12904498 0.72197086 0.027962307 -0.5338692 0.43009505 0.04417808 -1.3033926 0.51118577 0.059051663 1.0879278 1.2889756 -0.02949453 -0.53744 0.27158824 -0.22316623 -1.3154919 0.7636147 -0.9104176 -0.98608 -0.61885464 0.63672936 0.9669233 -0.5099909 1.0354027 0.7644769 -0.49496552 0.6424143 0.59995866 -0.12836942 0.4743213 -1.2423427 0.48329645 1.2912257 -0.053850885 -0.4739243 -0.5704675 0.3600495 -0.3621786 -0.4181406 0.8177602 -0.42498815 -0.5407955 0.5366384 1.1145499 0.5534117 1.1358988 -0.63398266 0.12362924 -0.28675008 0.52725995 0.9959534 -0.25991443 -0.33106175 0.7762812 0.40593827 -0.9395381 -0.87637514 0.97619736 0.81284153 0.49658343 0.53816104 0.39983386
3422 0.88096267 0.3038664 1.9414607 -0.7929742 0.47263017 -6.3205785e-05 -0.6455603 0.94491047 0.580532 -0.7237865 1.0665311 -0.5006022 -0.9530123 -0.30563933 0.9761403 -0.5555281 -0.64701277 0.5699965 0.37667242 -0.6616533 -1.444364 0.16608183 -0.22412075 -0.99476624 -1.0177239 0.44068074 1.2962048 0.23067215 0.41758433 -1.1573842 -0.5577452 -0.73518854 -1.4210876 -0.13921884 -0.59158504 -1.264725 -0.9737949 0.87290233 -0.6989716 0.4357305 0.13702026 -0.9988389 0.95147526 -1.0189743 0.50152 -0.72795796 0.44032356 0.18076532 -0.8495427 -0.039341167 -0.49592268 -0.6418099 -1.7291251 1.0342022 0.7473057 0.07719222 0.18969686 -0.15820186 0.07439006 0.5804046 1.8450505 0.38712934 0.8278764 -1.025151 1.4769454 -0.35039324 -0.53803277 -0.6387521 -0.3253493 -0.6410376 -0.10966019 -0.45791504 -0.391392 0.8348099 -0.30634138 0.6435178 0.3656217 -0.6645012 -1.4504862 -0.975259 -1.0021011 0.6994546 1.0144951 -0.5408018 0.8030707 1.089619 -0.13619787 -0.106683 -1.1472545 -0.5537638 0.21420637 0.37415573 -0.19927719 0.20412457 0.60791135 0.55169916 -0.123378746 0.28323704 -1.012813 -0.26352918 -0.7731152 -0.010794515 -0.35730097 0.17224453 0.236604 -0.9256083 0.2930991 -0.016874887 -0.13057142 0.4446395 -0.50480884 -0.28510752 -0.31674168 0.08105253 0.32492927 -0.1418333 0.63784856 0.13906173 0.5320198 -0.55397266 -0.39913636 0.14902568 0.052158926 0.12550512 1.4445906 -0.67547727 -0.08177944 1.3572088
3407 0.69807035 0.6328136 -0.21710847 0.02314475 -0.40091223 0.3212416 -0.8716801 0.44838542 -0.61811274 0.28924885 1.0657485 0.80685174 1.1638936 -0.7736651 1.5925031 -0.48108974 1.1138245 -0.344569 1.003701 -0.620915 -1.2283883 -0.92776525 -0.27694157 -0.7677124 -1.2523835 -0.19085899 0.3310273 0.61358726 -0.73654324 -0.55704737 0.8169893 0.36028007 -0.07532728 0.38422775 1.8987353 0.1995125 0.1438314 0.58779913 0.023463188 0.389739 0.5324047 0.14603396 -0.87996674 -1.0013357 -0.4856368 0.90738994 0.2125493 -0.6816514 -0.6870495 -1.5432754 0.071985826 -1.0844975 -0.18519254 0.23544759 -0.62808263 -1.0219188 0.6076188 0.25434935 -0.45482212 0.4353139 0.22232737 0.2734784 -0.40577328 -0.5478986 -0.36039603 -0.36433846 0.6622181 1.3662988 -0.113278896 0.09801652 0.35330838 -0.64828193 -1.037836 -0.005201309 -0.5154986 -0.14478646 1.1185781 0.7665022 -0.43464398 1.3046502 -0.8193232 -0.34818405 -0.15825322 0.2045973 0.20896196 0.5813096 -1.436033 -0.105499685 1.1569104 0.072979435 0.1123723 -0.36591792 0.16557145 -0.18105309 -0.8809639 0.19774073 1.2196809 -0.33144817 -0.9856118 -0.194602 1.4031183 0.3410627 0.18029691 -0.50604874 -0.23606731 1.0224786 0.047892272 -0.2520093 0.27977306 -0.2785968 0.7731714 0.6648436 0.46981472 1.2104502 0.5817802 0.67589897 0.20002766 0.81991947 0.7667988 0.21519563 -0.10857075 0.3370693 -1.0506644 -1.2775393 1.0389887 0.7127693 0.8296571 -1.2808001
3426 1.1314934 0.59830195 1.114669 -0.023397632 0.1832954 -0.70487845 0.42313612 -0.7574219 1.4382126 0.6203863 0.5828423 -0.14972349 1.0873983 -0.2708659 -0.21535493 -1.3025777 -0.33398947 -0.57050467 1.2792755 -0.8934806 -0.07011821 -0.26327482 -0.013332288 -0.3901439 -1.5315402 0.43180013 0.0657861 -0.7969397 0.9911936 0.7946056 -1.6316038 -0.79902357 -0.9120187 0.025863599 -0.041856032 0.19101113 -0.21899281 1.4386159 0.5795832 0.45462188 -0.06864999 0.13091353 0.5038612 -0.33973908 -0.055813104 0.47154585 -1.5482261 0.6683217 -1.1850729 -0.025962336 0.34592167 1.0008533 0.121517986 0.13946165 -0.68451333 0.3096692 0.02659772 0.5491239 -1.7087727 0.4560797 -0.25704485 0.40185222 1.0057473 -0.24311107 0.36333707 0.4656238 0.19199136 -0.986332 0.24914497 -1.215917 -0.31005985 1.1610403 -0.62269443 -1.0335432 1.0528065 -0.26891363 0.23887438 -0.13192728 -0.18462165 -0.7711704 -1.6204062 -0.18498337 1.0921644 -0.57776916 -1.3726315 -0.04869791 -0.27362317 0.62352985 0.018113758 0.91321933 0.50616455 0.016833281 -0.62156063 0.9293356 -1.2086738 -0.5143803 0.82016104 0.12759589 0.033434894 -0.4692455 1.0233619 0.24917442 -0.101538636 -0.6661373 0.25691304 -0.5983776 -0.44983745 -0.11627318 0.46621615 -0.25137967 0.08748007 0.7045144 -0.2501489 -0.39190266 1.4821614 -0.27459887 -0.037448592 0.043313857 0.004485444 0.521367 -0.15435918 -0.019768609 0.71892166 -0.064718984 1.0069423 -0.64296585 1.0533515 -1.2897695
3425 1.2068256 0.7581684 1.1725588 -0.81979126 0.4183699 -0.30078405 0.17352532 0.24085441 0.066700675 -0.96419287 0.77126783 1.0233653 -0.81172043 0.69209135 -0.29588372 -0.9994237 -0.2819209 -0.9461833 0.9032623 -0.44038185 -1.5884498 0.30075288 -0.42946428 -0.5778619 -0.7174927 0.53620887 -0.09274954 -0.6979097 1.0180248 -0.92950773 0.33587953 0.16083238 -0.30752546 0.1256555 1.0499022 -1.3579754 -0.7635377 0.026314879 1.2133439 -0.26403457 0.52288014 0.93995374 0.19035181 0.5835306 -0.9879968 0.3026754 -0.9952147 0.2884784 0.18629149 0.25495514 -0.78628784 0.42635503 -0.45889115 -0.66457313 0.07884748 -1.0477723 -1.1784272 -0.45445094 -0.79400957 -0.15705802 1.4342425 0.51068485 1.3572667 -1.6206694 0.18077244 -0.5067375 0.27428842 -0.9477615 -0.07905861 0.51723754 -1.1395485 -0.5367432 -1.5260262 -1.0210152 0.9328738 0.55159646 0.42255577 -0.6320342 -1.3386477 0.2972474 -0.13925083 -0.11352872 -0.07435871 0.6970736 0.60285485 -0.120630935 0.2284689 -0.32412463 -0.33503073 0.37205723 -0.27734584 -1.0334364 1.4016191 0.05225383 -0.014083412 0.25010514 0.48405018 -0.26882815 -1.231179 0.37001675 -0.12874165 -0.0038265162 0.108915776 -0.2862729 -0.9111029 -0.10518626 0.9989747 -0.89540744 0.785758 -0.30475703 -0.12203717 0.9023023 1.2336539 -0.2733317 -0.39885247 0.4725645 0.1699538 1.0389819 0.6048229 0.24801788 -0.79029167 -0.43636516 -0.12669154 -0.33986348 1.797057 0.47988367 -0.29304385 -0.6009247
3450 -0.64191717 -0.45695263 0.19648854 -0.6507002 -1.404929 0.5555094 -1.331234 0.87260866 -0.51056325 0.12890995 0.70438296 0.7289854 -0.2928969 -0.15134956 -0.43681946 -0.21426591 0.09174583 -0.6269059 0.710015 0.45865795 0.33503485 0.223074 0.4762066 0.93575746 -0.104184195 -0.38820615 -0.43867856 1.3899109 -0.47610986 -0.8934896 -0.9003285 0.68780214 -1.3456712 -0.77416253 1.4697338 -0.19888629 -1.1188924 0.7510387 -0.09523095 -0.093795665 0.55788773 -0.69607985 1.2594945 0.02442851 -0.5844794 -0.9197004 1.1988063 0.30863723 -0.6148363 -0.39483348 -0.2157267 0.5763488 -0.029998241 0.80202055 0.04621837 -0.4678978 -0.40957242 -0.751228 -0.6491315 -0.57143766 0.09607566 1.1638132 0.28831246 0.32200375 -0.36291018 -0.6711294 -0.5176905 0.042414527 -0.06168258 -0.07969799 -0.09525865 0.9576459 0.24319273 -0.16290113 0.2305833 0.47003633 0.32130808 -0.5806798 -0.72254837 -1.6353683 -0.022047596 -0.07713175 -0.30367887 -1.0220814 0.16337045 -1.2289364 -0.016837105 0.4076747 0.1494464 -0.26237077 -0.018656155 -1.5949543 -0.1584054 -0.14653218 -0.60872924 0.49500382 -0.52871484 0.6928992 -0.90629005 0.34015164 0.12722775 0.9807353 0.19436562 -0.45556483 -0.30483568 1.6123893 -0.9104371 -0.7528796 0.48363236 1.8898573 -0.06454991 -0.1970619 -0.27510786 -1.5440065 0.77585214 1.0584767 0.5378606 0.5546092 0.4268979 0.9757952 -0.92325884 0.64401466 -0.2550016 -1.5278946 0.28607646 0.8017042 -0.31016195 0.036930412
3420 0.81306535 -0.893845 -0.12610978 -0.11501949 -0.85463595 1.2292696 -0.46819347 0.5567424 1.2537011 -0.6726742 1.4044462 0.2808022 0.4239499 0.07636807 0.8042795 -0.8606702 0.11648212 1.1415783 -0.42715248 0.044361528 -1.4608184 -0.12645565 1.0311387 -1.0745609 -0.40976027 1.6783379 0.4864538 0.6944207 -0.14308986 -0.26728436 -0.50789565 -0.23281962 -1.3630197 -0.47486573 -0.670809 0.70620984 -0.5573067 0.11315723 0.027303826 0.34992293 0.07596032 -0.36168092 0.18715157 -0.7083784 0.21869868 0.20572136 -0.88170666 -0.47721347 -1.2881018 -0.41568163 -0.10285315 -0.48357865 0.25733852 0.29616472 0.81126523 0.18211158 -0.5925109 -1.1146896 0.25693262 0.8145223 -0.943382 -0.14160734 -0.71907467 -0.3582944 -0.34541035 0.13671091 1.1230651 -0.15236317 -0.62260306 -1.5559833 1.1247908 0.5333811 -1.0731499 0.6921775 0.7364792 0.170149 -0.817174 -0.83651125 0.27121565 0.68921524 -0.6002005 0.03696645 0.31164646 -0.088970214 -0.46181133 0.004444622 -1.3920289 0.24829456 -0.89032096 -0.36747274 -0.22943239 -0.507728 -0.94921 0.055165824 0.54345703 0.7850133 -0.24063687 -1.6003484 -1.0077941 -0.30217618 0.76944494 0.88171095 0.2211626 0.23394778 0.99445313 0.49141282 -0.14905575 -0.49266386 1.0440419 0.896481 -0.91323996 0.6998663 -1.12709 0.9753306 -0.43090072 1.0006007 0.13596918 -0.4859038 -0.7722647 0.18743573 0.075601645 -0.4361792 -1.4116327 -0.35772046 0.45556563 1.1611582 1.0185655 0.854365
3417 0.7301104 -1.2058324 0.11005316 0.11242439 -0.944449 -0.23019911 -1.3004935 1.1804668 0.7340385 -1.2213371 0.5152311 0.044118907 0.3957101 0.8003781 0.06891148 -0.4552301 -0.72868973 -0.6154397 -0.41698217 -1.0493735 -1.3407357 -0.49342856 0.28575408 1.1423315 -1.0876538 0.56829125 1.0414623 -0.44715607 0.50282663 -0.17513962 -0.6932041 0.6782278 -1.7029995 -1.0443116 0.6517253 -0.81339103 0.6143089 -0.38564977 0.6846636 0.88002247 0.8138282 0.7994235 0.5718812 -0.45129654 -0.64884835 -0.5514747 0.72586715 0.7745738 -1.3591982 -0.88310444 -0.8455951 0.22432381 0.2757757 0.30033112 -0.074709125 -0.097236834 -0.13350087 -0.9600014 0.5431316 -0.49287674 0.042343188 0.28471106 1.2299467 -0.14819877 0.9451172 0.6966026 -0.29010245 -0.43815032 -0.40499306 0.39987078 -0.65914696 0.70559764 0.3951441 -1.6384069 1.4635663 -0.7570184 0.87790513 -0.9277547 0.16982426 -0.012837112 0.37369856 0.26548138 -0.25583053 -0.072431944 -0.79133815 -0.62944293 0.025196336 0.40077633 -1.0399687 -0.2693168 -0.03793441 -0.15141183 -0.11386643 0.23781125 0.84264 -0.13263653 0.078023 0.16414967 -1.3532462 0.6489821 0.40655047 -0.10625244 -0.026730523 0.2280887 -0.21601665 -0.9323463 0.5833326 -1.2799257 -0.766828 -0.051828407 -0.52548856 1.446958 1.2067745 0.010883048 0.0425746 0.811163 0.73097295 0.35856506 -0.04811447 1.0601958 -0.15287289 -0.29388383 -0.094009064 -0.926285 1.2767711 -0.040097963 -0.8846754 -1.1937357
3403 0.942375 -0.7328626 0.7530341 -0.5312564 -0.45865172 -0.76472217 -0.20938419 -0.13110548 0.8953536 0.75630045 0.90441865 -0.57586724 0.22359538 -1.2954409 1.6089906 0.18045238 -0.54903036 -0.23075922 0.39984372 0.55488217 0.422973 -0.3258293 1.0755154 -0.8847074 0.34884927 -0.007451117 1.1131935 1.1102631 1.2330252 -0.71477884 -1.3419231 -0.4932573 -0.3984889 0.58496183 0.80345744 0.14199612 -1.4670453 0.9866691 -0.39704093 0.60050315 1.062155 0.090106696 0.14556648 -0.6096817 -0.8763549 -0.018343631 0.72048604 -0.16816275 -1.2470181 -0.3002567 -0.47781295 -0.024129162 -0.68356127 0.4904213 0.38226303 -0.45425996 -0.7383385 -0.5076914 0.1029583 -0.6561002 -0.5242864 1.5053053 0.04188521 0.38267553 -0.37580135 -0.048256762 -1.2875884 1.0346886 -0.11705551 0.4915776 -0.8799099 0.89777035 -0.2688281 -0.82625914 -0.62819785 0.8484322 -0.34316394 -0.81556165 -0.83906186 -0.9145612 -0.8124508 -0.67620265 -0.05302556 -0.04600237 1.1017104 0.41028076 -0.768676 0.23802648 -0.7765527 0.5539371 -0.3126045 -1.1467606 0.96923554 -0.18563205 0.08731125 0.22564088 -0.49135005 0.43409622 0.25772095 0.8327363 0.96332496 0.16945592 -0.81278384 0.09810643 0.6720901 1.199561 -1.4485067 0.35691205 1.0724058 0.43795064 0.61735815 -0.110212274 -0.043076452 -1.6459653 0.3889768 -0.51947606 -0.3488239 -0.76307636 0.046681188 0.48279655 0.39193308 -1.1713964 0.2609612 0.0033055043 -0.20093109 0.21931359 0.52062917 -0.3508823
3451 1.4230268 -0.023756776 -0.09161786 0.467365 -0.11865867 0.3610541 -0.553059 1.9019923 -1.4721403 0.4021751 0.24007286 0.9707432 -0.08399891 0.12888752 0.9615037 -0.9527095 -0.14790316 -0.06599144 -0.15338731 0.000595141 -1.3425025 0.1535668 0.020472074 -0.85511655 -1.4258223 -0.2790309 -0.5688856 0.055184383 -0.021308819 0.2700354 -1.0435722 -0.059691735 -1.1064787 -0.5622353 0.5399302 -0.31497538 0.03754471 0.4970001 0.23303407 0.40908483 0.80470675 0.5006829 0.4036523 -0.13665845 -0.44042343 0.54543495 -0.85413563 -0.17996053 -0.6793994 -0.6833154 0.84816307 -1.2587187 -1.3435186 -0.18254526 -0.73725575 -0.3283222 0.116031766 -1.2567855 -0.598099 -0.54023534 -0.71909463 -0.22860351 -0.97711843 0.075173326 1.0767474 0.0644651 -0.52362293 0.48483822 -0.23780134 -1.1419537 -0.6446638 -0.44794014 -0.510683 -1.3230304 -0.68902564 -0.08391353 1.1916671 -0.8711595 0.6899819 0.5331571 -1.1961219 0.8354275 1.1092734 -0.2984488 0.054303907 0.5687583 -0.5355387 0.5482908 -0.57963306 -0.67590064 -0.25913578 -0.68801177 -0.20585169 -0.89866084 -0.6737902 -0.7915694 -0.48037675 -0.7778822 -1.0667181 -0.6147284 1.530551 0.7108044 -0.41278538 0.41650537 -1.1567037 -0.10410541 0.7924886 0.43556926 -0.6656602 0.024646418 -0.30392575 -0.29883328 -0.72653025 0.717858 2.0308764 0.8306348 0.2369652 0.24765548 -0.9665064 0.09865834 -0.051906526 0.5371987 -0.1832009 -0.8541329 0.018292677 -0.9612231 -0.9596229 0.14294028
3523 0.4880388 -0.28617975 1.0572299 -0.32606143 0.40204123 0.8069482 -0.9634586 0.25111124 1.5926938 0.5545066 0.55557346 1.3728724 0.18857491 -0.784107 -0.011008246 0.29276088 -0.31627247 0.7815205 0.12436076 -0.84939116 -0.4082977 0.60915434 0.93393475 -1.1345589 -1.1045002 0.014471953 0.9616684 0.044370204 -0.20671989 -0.22662641 0.3491098 0.34582102 -1.4185071 -0.89625734 0.5814233 -0.27332386 -1.077732 0.8499382 -0.5518492 -0.036618035 0.9243985 -0.28286165 -1.0404688 -0.49598455 -0.39940777 -0.07896236 -0.079392865 -0.13357729 -1.8502758 -1.4871286 -0.70096064 -0.7604052 -1.4551634 1.3657509 -0.3330642 0.42576337 0.8860854 0.5404908 -1.2552726 0.7702095 0.8278065 -0.0035894818 0.67590004 -1.6090556 1.417856 -0.7416129 -0.160583 0.25283676 0.6935501 -0.26478145 -1.0300411 0.2462638 -0.2530519 0.9622625 1.2862842 -0.46308374 -0.5266102 -0.25614303 -1.2013966 -0.7587357 0.10791313 -0.34643725 0.75302845 -0.31619278 0.2640016 0.71316814 -0.07795318 -0.25274593 -0.09890014 0.68077284 -0.3363156 0.57170767 0.58011955 -0.3831324 -0.6315827 -0.1540972 -0.28000936 -0.29054448 -1.4307917 0.020093024 -0.3896414 0.5878638 -0.965452 -0.531621 0.4527794 -0.3260059 -0.31390306 0.38188854 0.44639796 -0.7969415 -0.45649207 0.4126419 -1.0116428 -0.5066271 0.22986959 -0.81259316 -0.8895735 1.5431163 1.3857288 -0.016396955 -0.7055386 -0.30351993 0.0054687164 0.21192949 1.2550362 0.519483 0.07553594 0.42855787
3454 0.8816461 -0.42257586 1.7058258 -0.28714976 -0.5854717 1.5325804 0.19960459 0.85909843 -0.0154308 0.6003164 0.44558874 0.9965858 -0.4957813 0.6946651 1.0602103 -0.4605209 0.29036033 0.8832899 -0.2559403 -1.3192334 -0.51504624 -0.81401527 0.1376985 -0.3327083 0.03072639 0.5201756 1.3216109 0.23991257 -0.020478139 -0.0079865 -0.817464 -0.35788575 -0.042052053 -1.1808506 -0.6850873 -0.95693064 -0.3281482 0.40047532 0.6708551 0.99324346 -0.16115534 -0.25019413 0.17356919 0.70362735 -0.7849626 0.67058057 0.14403808 0.76015633 0.16905187 -0.8102682 -0.12035064 0.3332163 -1.0557576 0.34009847 -0.7585086 -0.1798413 0.03377942 1.2950339 0.38528907 -0.07623633 0.89977425 0.2833808 1.1367959 -0.6996186 1.2448381 -1.3586957 -0.54283744 0.3822022 0.49594435 -0.21935064 -1.8424944 0.4675557 -0.81358665 -0.94453627 0.16661969 -1.0228066 0.28548777 -0.6870275 -0.8804007 0.119689845 -0.978713 -0.281098 -0.8549928 -0.48948744 0.466598 -0.12222653 0.086075686 -0.33886003 -0.6624465 -0.15027335 -0.0015583289 0.28327093 1.2590628 -1.4564166 0.08830942 1.0732673 0.43451172 0.3116838 -1.4157331 -0.061259367 0.2237354 -0.36075082 -0.12916732 -0.121363156 -0.2974325 0.5391969 0.0666645 -0.06500003 0.6177829 1.5992681 -0.72403246 0.13783316 0.1502114 -1.2095537 -0.28256965 0.28265154 0.31143996 0.71603686 -0.13442674 0.18461242 -0.8952454 -0.55084723 -0.3711439 -0.093571156 1.7550783 0.81463635 -0.2556246 -0.49914083
3405 -0.2813196 1.0010403 0.62433314 -0.6061967 -0.073853366 1.9673057 0.37763414 0.24103469 -0.759562 0.4426029 -0.208605 -0.15483385 0.91011524 -0.6617533 0.4270593 -1.1678096 -0.47919998 0.7554157 -0.65920895 -0.31213558 -0.59558994 0.21071197 0.4984326 -0.5363421 -1.1096404 -0.1299668 -0.54144037 0.38533384 0.34821373 -0.9680386 0.3530982 -0.09619696 -1.2641076 0.099371314 0.5144625 0.7768286 -0.8083059 0.30588752 0.35922775 -0.46584865 1.018006 -0.03987839 0.7254073 0.7405807 0.021261973 -0.74782276 0.3243314 0.10791085 -0.8005015 -0.11319756 0.49840888 -0.28632465 0.69347143 -0.14293152 0.15719485 1.1162024 0.83383864 -0.62594146 -0.2661775 -0.47595605 1.1545051 1.1075155 0.10528144 -0.17489283 0.32059705 -0.034741737 -1.2551473 1.0558455 -0.41435677 -1.0798013 -0.027367705 0.7867155 -0.98773265 -1.6916883 0.2680267 0.46536538 0.26769784 -0.5021771 -0.2523489 0.8572886 -0.17985617 -0.57607687 0.09650106 -0.31354892 -1.1016157 -1.0379004 0.5410669 1.1997199 -0.76601005 0.21806665 -0.38450888 -0.09989133 0.9462743 -0.03458046 -0.46580368 -0.022755932 -1.2178752 0.7972985 0.13181898 0.61560833 1.0509458 0.24712145 -1.2335169 0.6525492 1.0166831 0.6641772 0.80451125 -0.8195025 0.6262471 -0.6528502 -0.09735141 1.2528652 -0.91046774 -0.70921993 0.8439417 -0.74286544 1.10242 -0.5019507 -0.5006379 0.9826505 0.7394023 -1.1757847 -0.6485112 0.047272567 0.8359612 -0.031028086 0.49482927 -0.39070836
3479 0.43152887 0.18322201 1.5013661 0.5618637 -0.8964919 -0.0005323582 -0.41103485 0.9683071 -0.54724395 0.6581562 1.0554997 1.5821526 -1.0536615 0.96343786 -0.10689124 -0.057916682 0.5186231 0.4081578 -0.3758165 -1.1796504 -0.63098717 0.14472964 0.92378426 -0.16965358 0.628985 0.63302815 0.90403086 1.1630479 0.8028972 -0.2774553 0.20974644 0.53513736 -1.378521 -0.5258536 -0.61859125 -0.4177058 -1.4623774 0.7870523 0.7141141 0.7315047 0.03616462 0.31761917 0.7703572 -0.0543356 -0.63382626 0.6053927 -0.31255868 0.75217617 -0.2254877 -0.7316829 -0.98965335 -0.9259515 -0.6054958 0.28626618 0.31920585 0.55095553 -0.81837493 0.6524411 0.33455256 0.29071972 0.753038 0.21131907 1.1587806 -0.6484355 0.86825836 -0.26046646 -0.39307627 -0.99284035 -0.5820725 -0.81154937 -0.96002656 1.0314502 -0.76685023 0.38607502 0.75891435 -0.61883825 -0.11990007 -0.8325088 -0.87655115 -0.8214632 0.57065487 -0.66938156 -0.4785621 0.014368673 0.72485524 -0.69426745 -0.14979278 0.69609374 -0.50634384 0.47926217 0.23328906 -0.6816328 0.40463367 -1.2595121 -0.5019795 -0.053570587 -0.058974586 -0.5254025 -0.9649545 -0.24473362 -0.9478964 -0.18247576 0.12958479 -0.8922308 -1.1114138 0.5989727 0.66087055 0.9097518 -0.19784495 0.45267317 -0.28516713 1.0079092 0.041911703 -1.2907484 -0.06285746 -0.056925442 -0.06970082 1.0743294 1.1480622 -0.009238941 -1.2393218 1.1114757 -0.37650347 -1.2421825 0.51885605 -0.50594646 0.27452755 -0.3703509
3443 -0.031503778 0.7753026 0.38939193 0.67190224 -0.88408023 -1.0245188 -0.35823008 -0.13573213 0.81736434 -0.6724498 -0.26227593 1.2526382 0.3106127 -0.10815601 -0.46248809 0.090614714 -0.2042495 0.82267237 0.11256108 -0.6139851 -0.122685574 0.5553376 0.92484695 0.4228841 -1.0391357 1.7517236 0.20743443 0.73005825 -0.5524266 0.8300075 -0.49601108 0.5550744 -0.7157626 0.23622027 0.13239183 -1.6649557 0.8619821 0.16909243 0.5183206 0.78732544 0.64143795 -0.21196952 0.47014615 0.6629417 0.571258 1.3196384 -0.36501974 0.98562753 -1.0218555 -1.5580416 -0.6231119 -0.6723942 0.841886 0.053488452 -1.2063632 -0.7238285 0.35115653 -0.69136304 -0.83580035 1.1567158 -1.1047143 1.3141747 0.21481974 -0.47941107 0.4832158 -0.6581344 -1.2153424 0.1333765 1.2974019 -0.25058472 -0.31024933 1.224879 -1.4883721 -0.6426265 0.7157037 0.771133 0.43845174 -0.26967835 -0.6826995 0.61729723 0.0494103 0.5849071 0.61162424 0.9960386 -0.8169467 -0.03275749 -0.54449767 0.87072676 0.8033309 -0.6830936 -0.9505162 -0.5433116 0.030130586 -0.17314027 -0.8814172 0.10487291 -0.115677744 -0.090143606 -0.22266628 0.2779901 -0.19995281 1.0813893 -1.035341 0.42737094 -0.8405129 -0.6294576 0.66180664 0.91173774 0.72200066 0.084921405 -0.10162718 -0.23846066 0.09314318 -0.73522556 0.44548148 0.1344123 -0.48406586 0.33097833 1.241633 -0.049469575 0.092851065 -0.75874764 0.43782318 -0.48233613 -0.3250641 0.42589316 -0.4345381 -1.1600326
3412 1.0493395 -0.74735415 0.3909144 0.34341618 -0.48011902 0.26730537 -1.4828126 0.25057223 -1.3626509 -1.1480312 0.505478 0.70812416 -0.28482077 0.3591455 0.84282774 0.18259639 1.3938758 0.36346498 -0.11724192 -0.46277714 -1.3852763 -0.5556863 1.1187402 0.02480551 -1.2399297 -0.7468774 -0.72259 -0.17947845 0.9237199 -0.44743502 -1.2043372 -0.20668817 -1.045218 -1.3360478 0.050881922 -0.82429886 0.6772967 1.047288 1.4192961 -0.42653608 0.37332562 0.5280369 0.6183471 -0.21387754 -0.39803514 1.2985039 -0.09352395 -0.0684138 0.3175434 -0.89205563 0.92339563 -0.21172494 0.3131076 0.47626892 0.032720912 0.16943213 -0.46859485 0.794191 0.3033604 0.73311037 1.1682822 0.6464033 -0.5021797 0.76425546 0.6415924 -0.2737404 0.6195471 -0.12899965 0.3584681 -0.54290336 0.02496276 1.2756996 -0.47387794 -1.1552006 -0.018192152 -0.74105126 -0.018783167 -0.48916703 1.0009676 -0.7829814 -0.4674638 0.038397912 -0.20251994 -0.96741545 0.19689228 0.6438195 -0.08510376 0.9864472 -0.25967982 1.0608779 0.3745929 0.38158676 -0.3295406 -0.051419627 -0.89077073 0.32868317 1.130943 -0.37413198 -0.2570582 0.68656796 1.1904569 0.76870906 0.3347955 1.091362 -0.5590884 0.06412149 -0.88557506 0.1866232 -0.09628956 -0.62392896 0.13403293 0.030562287 1.0908132 0.55494237 1.5546038 -0.22876257 0.50057566 0.08772669 0.33653325 0.20880833 0.2877911 -0.19519864 0.35826325 -0.6215983 1.3205553 0.6782343 -0.60264593 -1.3756163
3478 0.7485234 -0.23687027 0.58466035 0.6457204 0.7144565 -1.075916 -1.06514 0.98491716 1.2276034 0.1172245 0.5288753 0.25547108 0.925662 0.7632422 -1.1995186 -0.58147955 -0.8169912 0.7319404 0.98078924 -1.3858672 -1.241559 1.2403691 -0.575905 -0.7916094 -0.8876823 1.2314295 1.4566633 0.33277813 -0.14226906 0.7485119 -0.86218166 -0.546194 -1.0900174 -0.23433383 0.1537167 0.90840065 0.8004263 0.37825775 0.8040313 0.9248407 0.019603956 0.14563595 -0.17777525 0.4707608 -0.46083304 0.76482743 -1.0221148 0.4038166 -1.1341827 -0.9815502 -0.48621106 -0.43297064 -0.44913745 0.13178976 0.19040836 0.13059594 0.9064499 -0.056671973 -0.38624412 -0.000526877 -0.7931823 0.82411784 1.1010443 0.1979165 -0.15699857 0.24377681 0.056135654 -0.7241155 0.13796799 -0.72990614 -0.20249738 -0.14196187 -1.2186599 -0.026737483 0.038440697 0.02096713 0.4778744 -0.8724794 -0.54218054 -0.7376619 -1.0486413 0.25786352 -0.1387851 0.5261653 -1.2579945 -0.25790423 0.5473231 0.4462431 0.36725965 0.32358488 1.3762211 0.7645543 -0.38288817 0.12041458 -0.6070242 -0.7800685 -0.17788054 -1.2772152 -0.5332315 0.048551317 -0.059217177 0.1619843 0.67740685 -0.90090495 -0.4460634 0.29811868 -0.09945654 0.1372029 -0.095768034 1.1643412 0.080186635 0.854346 -0.033239376 -0.49527767 0.49413437 1.4092944 -0.06473943 0.6544933 0.7393213 0.9961686 -0.9695611 0.6488408 -0.9134125 0.62214166 -0.18128636 -0.09699674 0.10392957 -0.5815531
3421 0.9747307 -0.93072945 0.5458441 0.1301344 -1.1640189 1.4407474 -0.9754952 0.09450562 -1.203107 0.03320734 0.64724594 -0.023812035 -0.06963256 -0.4842181 0.6211209 -0.69881773 0.16933453 0.54642695 0.21138446 0.23107643 -0.051841285 -0.8605089 0.5315871 -0.48040116 -1.2494323 0.16487831 -0.0829354 -0.7956879 1.6331049 -1.2285264 -0.51204824 -0.58722264 -0.9552921 0.7724609 -0.090267494 -0.15092029 0.36947528 0.98077893 0.24177365 -0.2685185 -0.25565764 0.39236507 1.8325849 -0.66430956 -0.725205 0.830366 -0.03863345 0.6094662 0.44146106 -0.28134137 -0.9386024 -0.16433866 -0.8334791 0.7439248 -0.99147266 0.86727756 0.9181717 -0.97131604 0.03320248 0.72618663 -0.7988811 0.19636473 0.8509006 0.22525404 0.061684202 0.1910597 -0.22621791 -0.11596824 0.26254064 -0.59372544 -0.12867986 0.17277664 -1.1985335 -0.4667846 -0.37435916 -0.6217959 -0.086611144 -1.4572623 0.58245397 -0.03714752 -0.15374707 0.77981204 0.55644727 1.5368665 0.5246885 0.05889892 -0.6167906 1.0797052 0.5574694 -0.37428984 0.28196833 0.65348554 0.5279349 -0.84174436 -1.2876332 -0.90949637 -0.8835656 -1.0055885 -0.531785 0.96053874 1.3887389 0.085649766 1.0130615 -0.41874006 0.52211976 1.0223438 -0.56711006 -0.33999434 -0.070985414 -0.34693003 -1.0397788 -0.24992657 -0.0115314545 0.011169119 0.30079225 0.4992384 0.04662211 0.18809868 -0.86122376 0.3431838 1.2548101 -0.37016773 -1.4044077 0.119257696 0.060653925 -0.35332 0.4127943 -0.5024796
3440 0.26632822 -0.30279174 1.3917229 -0.61905867 0.21589072 0.8087965 -0.94509524 0.52990836 0.42100438 0.8142069 0.0615543 0.925934 0.19994786 -0.87366045 1.3718175 -0.38467684 -0.5081113 -0.10133284 1.0685029 -0.9120817 -0.032685738 -0.2825388 -0.73695564 -0.594703 -0.5102792 0.72156537 0.10919179 0.699605 0.11246197 -0.38453314 0.38545066 -0.2911187 0.20250827 0.38707292 -0.26557937 0.19343995 -0.51928526 1.8004308 0.10901222 0.6870715 0.55727035 0.0011301966 -0.86644423 -0.97185683 -0.05506755 -0.082175486 0.05680888 -0.23664764 -0.3989124 -0.4736864 -0.43831414 -0.93999356 0.5776726 0.47924387 -1.1458632 -0.8593445 0.029170044 0.8374426 -1.2244564 -0.09195341 1.0762426 -0.20056506 -0.052634954 0.80233085 -0.17521767 0.3391238 0.07823352 0.50793403 -0.60510224 -1.7180926 0.81592363 0.5026425 -1.1558443 -1.1535946 -0.8287173 -1.0913947 -0.34795007 0.371679 -0.6642796 1.1683176 -1.1462666 0.4368271 -0.27647713 -1.0790915 -1.0630894 -0.06791617 -1.741843 0.25578296 -0.44503918 0.4473933 -0.43369442 0.30036137 0.45840165 0.109991096 -0.42822587 1.3271165 0.8378741 0.9229999 -1.0318906 -0.7711129 1.4617963 -0.65857434 -0.8253821 -0.26307893 0.5555906 0.08565 -0.36753017 0.31416246 -0.2790657 1.0796686 0.09767874 0.3109426 -0.074100584 -0.7030971 0.5165694 -0.4993997 0.7608803 -0.060482744 0.6153797 0.15552102 -0.22291613 0.36206633 -1.068092 -1.19661 0.618126 0.07855602 1.2994196 -1.1142062
3433 0.5138213 -0.68757296 -0.08828704 0.27650827 -0.5078995 1.2851609 -0.7864195 0.15512551 -0.539642 -0.5046764 0.8294372 0.18621247 0.5407023 -0.79058605 -0.4233656 0.057875544 0.9056686 0.23743097 -0.7556147 0.34597424 -1.4784048 -0.7920987 0.7721343 0.04733536 0.40550283 -0.5198848 0.6180651 0.4996867 0.6335317 -0.52652943 -1.3923893 -0.8462948 -0.0142680295 0.16942239 0.098207414 -0.40322402 -1.0841781 1.2473786 0.7867539 0.5352411 -0.189012 -0.817729 -0.4360374 -0.3904751 -0.9510612 0.8468073 -0.6155376 0.7579383 -0.33556348 -1.2575701 0.35776636 -0.77258706 -1.3994136 0.35940358 0.2699737 -0.6952089 0.14721467 0.09660357 0.08022266 -0.14386371 1.2495346 0.7714263 0.8120694 -0.8411593 0.98540914 -0.15517533 -1.175912 1.065231 0.32876384 -0.22149296 -0.347611 0.92804545 -1.6377727 -0.87567276 0.7829708 0.48377284 -0.6289886 -0.17724618 -0.9039112 -1.0644002 -0.54849374 0.3507818 -0.1530033 0.8486115 1.4021184 -0.1253746 -0.5076499 -0.5028091 0.78443915 -0.33588165 0.50517267 0.49355072 1.181009 -0.04854011 -0.6913 0.384582 0.0042806496 0.39160118 -1.3795477 0.3079412 -0.5449013 -0.6648461 -0.69317526 0.015049546 0.37152153 -0.34039685 -0.30548927 -0.11237356 0.32102492 -0.22312534 0.07106794 -0.44386113 0.7175172 -0.08106477 0.00012259847 0.6085976 -0.31740028 1.2948693 0.32031083 1.1613506 0.0014960987 -0.3617265 -0.56106216 -1.323293 1.0887893 -0.22312112 0.057024624 0.5584124
3509 0.95101404 -0.5862629 1.5330987 0.29926595 0.22699703 -0.6788001 0.21882108 -0.095937744 -0.22363816 0.5560028 1.154196 -0.55390835 1.247654 -0.60386384 -1.0645882 0.0873182 -0.430909 -0.5412909 0.19538084 0.23528175 -0.12878396 0.79346204 0.837926 0.20979102 -1.071362 0.008479164 0.41612214 0.83993036 -0.8093608 -0.29931104 -0.4033737 0.15599373 -0.09834074 0.3547315 0.5389028 -0.68853027 -1.1083841 0.62005645 -0.35829884 -0.67152834 -0.34338513 0.32553014 0.7969213 0.7308142 0.9091773 -0.72553366 -0.6658565 0.48356345 -0.38982365 -0.86366355 -0.27215663 -0.6135409 1.1686738 1.306916 -0.62647974 0.31407866 1.0605845 -0.01507458 0.6812201 0.21348675 -0.085274056 1.0330868 -0.7175756 -1.0017809 0.94443166 -0.83073026 0.14596727 -0.3004505 0.78853345 -0.6206302 0.58598423 0.0824166 -0.4493097 -0.42445216 1.0701365 -0.37728316 -1.1135235 0.7794447 0.4468929 -1.0521287 -1.4014412 -0.17297854 -0.90035796 0.719823 -0.41668355 0.5012469 -1.1940347 0.4801765 -1.3510544 -0.7728352 -0.029252645 0.19278306 -0.09855084 0.4132657 0.0865555 0.9284277 0.44820997 -0.9540615 -1.0046248 0.31809592 0.978916 -0.0985752 0.073243275 0.14364111 -1.3310642 0.703681 -0.48143438 0.07594937 0.62154233 1.320501 1.014648 0.81428844 0.37819242 -0.54535145 1.3652425 0.4418412 0.65088964 0.70034474 -0.011878653 0.26346135 -0.090145305 -0.18147765 -0.6146798 -0.5630069 -0.13757984 1.2733067 0.8987336 0.23987997
3441 0.8786297 -0.78686893 1.4467235 -0.2756762 -0.9247896 0.7410265 -1.8646739 1.1297771 0.41952693 -1.0873287 -0.07109823 -1.019275 -0.15699218 0.21423456 0.94309306 1.1454935 0.79575354 -0.2458519 0.7351621 -0.53298426 -0.73152786 0.20722614 -0.06220206 -0.5114804 -0.4588195 -0.28174046 1.03672 0.1017489 1.511306 0.44930604 -0.14423707 -0.12258884 -0.9983527 -0.46989346 0.6600773 0.32409117 0.2069951 0.63519603 0.079986684 -0.0966673 -0.38621527 0.4613012 0.91865396 -0.47428933 -0.92649925 0.37999085 0.18339616 -0.010403091 0.45623407 -0.10709079 -0.04387093 0.44802445 -0.57316613 -0.14458746 -0.37213638 0.2948427 0.92087185 -1.0415822 -0.15202308 1.1181937 0.004344108 1.1610562 0.24410936 -0.17612417 -0.29934478 -0.039084848 -0.7461217 0.32732153 -0.22726466 -0.45293328 0.28936985 -0.8826062 -1.193875 -0.6916414 0.4816772 0.51732665 0.482839 -0.5777979 -0.36191377 -0.16030304 -0.10578434 -1.0251491 -0.16616488 -0.49756366 -0.63273793 0.49371058 0.45375982 0.38123605 -0.027035428 1.0094892 0.64897346 -0.56168944 -0.6403548 1.4118514 0.13306133 0.19493218 -1.1061723 -0.63727456 -0.55335146 1.0175034 0.7183397 -0.6436771 0.5473989 0.90637946 0.7467561 -0.4545011 -1.1388537 -1.0979527 -0.68417597 0.08332893 -1.2090676 0.62513864 0.38780808 -0.48107842 -0.0160148 -0.8087881 0.92293376 -0.15186131 0.15295824 -0.2002984 -0.50306976 -0.9429947 -0.0009919545 -0.5442723 1.1205132 -0.7960962 0.3549582 -1.2808473
3428 1.2828948 0.4109532 0.56958854 -0.8994218 -0.094013534 0.7063511 -0.5058853 0.81336963 0.45086005 0.6372366 0.40902358 0.53280795 0.50799304 -0.38177398 0.8152372 -0.1983905 0.9044689 -0.9998677 -0.26926434 -0.9734478 -0.33936203 -0.39607957 1.0662541 0.28174776 -1.1707517 1.6707042 0.0653951 0.11879798 0.88483363 0.27242073 -0.027571213 -0.20080128 -1.2174697 0.09486369 -0.4394912 0.22957431 -0.21907508 1.5805793 0.77621835 -0.8455676 1.0398803 -0.6726978 0.630993 -0.5415005 0.84847444 -0.10646761 -1.7649636 0.13255231 -0.5627947 -1.5854552 0.14819539 0.107374616 0.84950894 -0.22163992 -0.8291044 -1.3521237 -0.30212462 0.19648674 -0.21775366 -0.43153167 -0.7383242 1.013328 0.57148015 -0.6333909 0.44135898 0.79754287 -0.6368449 0.030894259 1.1532991 -0.32306623 1.0351629 -0.57065773 -0.39450258 -0.7409898 0.5708449 -0.0077895806 -0.11589368 0.11517057 -0.963963 -0.9403244 0.38842458 -0.9974612 0.455773 -0.45616275 -0.87185436 -0.32877448 -0.9951669 0.8363365 -1.015997 -0.7543674 0.10939875 0.42389098 0.47123483 -0.036271077 0.52676415 0.6339121 0.1630184 -0.5355324 0.14514586 -0.3459791 0.8574229 -0.06710816 0.11340116 0.361746 0.97540605 0.11584335 -0.28678742 -0.5964002 0.52900535 -0.4952871 -1.2492744 -0.02038376 0.103755094 0.29750434 0.52248377 0.11660161 0.8106687 -0.3932229 0.18772796 1.1697289 1.0819861 0.20252861 -0.6208402 0.020725712 0.5873121 -0.09496483 0.52342945 1.1593606
3434 0.79006577 0.07561079 1.174899 0.65238863 -0.41337952 0.2034384 0.36787254 0.764574 -0.22247937 0.8459074 1.2842952 0.9501443 0.77241 0.112470284 -0.3814518 0.7314109 -0.14465173 0.21916258 -0.68841535 -1.022813 -2.2726908 -0.41121766 0.17822538 0.2269067 -0.13563989 0.29885167 0.22703786 0.40488952 -0.7193652 0.2023855 -0.56065446 0.076424174 -0.20847546 -0.40304404 0.26877522 -1.0732713 0.39369842 1.4113185 0.7508515 0.69101703 0.8560846 -0.19554874 1.0095806 -0.9271627 -0.7507614 1.035468 0.4925654 0.18244892 -0.9822415 -0.8920162 -0.26019385 -0.5475907 -1.1556811 0.92931634 -0.3014498 -1.0193158 0.09486919 -1.1045015 -0.44232452 -0.3549341 0.6771102 0.68049896 0.09958983 0.88647825 1.216617 -0.32698494 -0.40807864 0.77638125 -0.9798768 0.096867986 1.3727309 -0.21785046 -0.7016744 -0.37166032 -0.5434905 -0.56818306 0.013058182 0.38481486 -1.2101938 -0.26026073 -0.049160346 0.5959284 0.41876325 -0.3892039 0.263843 0.0045629563 -1.2288108 -0.53635645 0.11888605 0.15540498 -0.013936772 0.64399534 0.6327346 0.73521173 -0.8785743 0.17018315 -0.96353734 0.20793407 -0.3895953 -0.08067896 -0.08008734 0.8722818 0.7555555 1.0308422 -0.42519182 -0.7172305 -0.028055988 -0.49766484 0.025735246 -1.1842885 0.327549 0.94581246 0.49599582 0.31137803 1.506535 1.19574 -0.5583174 -0.028671589 -0.38421354 -1.2754322 -1.067704 -0.013421869 -0.1685053 -0.37713405 0.44070756 -0.65423733 0.073242426 0.66870517
3464 -0.8719803 -0.3300677 0.033274 0.06838475 -0.8328332 0.10326542 -1.2613105 0.07456668 -0.43940988 -0.52506924 -0.2856471 0.8567988 -0.9086195 0.07644736 -0.7375943 -0.22598495 -0.08109874 0.13069765 0.008189723 -0.3721449 0.09426864 -0.02827379 1.3430474 0.13692014 0.47359127 -0.6898375 -0.5354244 0.2827776 -0.2169689 -0.7552286 -0.4347974 0.743058 -1.3805029 -0.99484736 1.0666347 0.21447301 -1.3175758 1.4232601 0.39273548 -0.31013966 0.35842028 -0.28263253 0.3988484 0.28246647 -0.6237716 -0.6582906 0.79473656 -0.5173609 -0.8946908 0.2728379 -0.97155994 -0.38628596 -0.28956002 0.904402 -0.7265753 -0.2486334 -0.19584022 -0.7678574 -1.0762196 -0.19136699 -0.48400322 1.0205061 0.41465476 -0.25005025 -0.58557355 -0.8262588 -0.15883891 0.47731936 -0.38761607 -0.6725474 0.21839473 1.01837 -0.9943662 0.012886903 -0.7031161 0.8588314 0.65509695 -1.1838722 -0.91881895 -1.0217495 0.55883884 0.5106851 -0.08361471 -0.40383732 -0.15834159 -0.33212057 -0.21670568 0.68484193 0.15332939 0.41060352 -0.14425117 -1.0129484 -0.92796683 0.6483702 0.24005292 -0.34350842 -0.092657626 0.6453877 0.18837419 0.9711081 0.48832348 1.3387836 -0.51515114 -1.1860983 -1.4272567 1.0651089 0.021047208 0.34158632 0.16037463 0.3268485 -0.5328312 0.80222934 -0.4932201 -1.2603719 -0.010819365 0.1749835 0.080084786 1.5408775 0.44940564 1.5723569 -0.6024996 0.62073684 -0.4064381 -0.4637177 -0.4231239 0.11796355 0.7855321 1.1160448
3445 -0.16831031 -1.035227 1.3418804 0.28960514 0.8081845 0.8934967 -0.8599809 -0.624002 -0.42324197 0.3453341 -0.09457555 0.902328 1.028476 -0.13100868 0.36551222 0.4288643 0.10030857 0.8902963 1.10176 0.11919107 -0.7106956 -1.0337237 -0.68886435 -0.36905292 -0.24252853 -0.09753279 -0.42375308 -1.0945715 0.027425716 -0.14017768 0.83601004 0.4667836 0.2649476 0.12286574 0.5100053 -0.8230947 0.30552912 0.7276758 -0.11904909 0.49406603 -0.5656664 1.033971 1.094404 0.1473776 -1.4475057 0.23391995 0.36238584 -0.65116966 -0.7457247 -1.5112154 -1.1212777 0.44212633 -0.07776848 0.5647299 -0.24816398 -0.5544321 -0.10820054 -1.4257749 -1.2106481 0.62987596 -0.013110533 0.46791422 1.1665744 -0.64752406 0.07894195 0.03183631 -0.9281906 0.57043314 -0.36071062 -0.13843638 0.8877028 0.63891864 -1.636288 -0.12987027 0.0010026796 0.85669625 0.5377535 -0.15433624 -0.34400818 0.64558333 -0.007449714 0.36017737 0.67433804 -0.47566667 0.06427573 0.4307037 -1.0387623 0.50537306 1.049857 0.24851307 -0.7556405 0.2698551 -0.0762419 0.1463281 -0.8873038 -1.0834953 0.29207313 0.48897597 -0.18441044 1.0204837 -0.36691904 -0.09320286 -0.7994332 -0.51585615 -0.25142694 0.82557267 1.1451974 0.40611184 0.4627471 -0.90177584 -0.77933353 0.7233634 -0.044016268 -0.07393483 1.258638 0.074629165 -0.3328106 1.104828 -0.8697261 1.1633391 -0.3990512 0.29221535 0.16884992 -0.92103 -0.056516383 0.3254081 1.3607932 -0.6195722
3429 0.6203806 -0.16220471 0.723055 0.66761017 -1.011401 -1.2739834 0.00086892204 0.056375902 0.018263478 -0.35574317 0.16089712 1.8389313 -0.37682417 0.48888472 0.93996954 -1.1754436 -0.28928348 0.9668736 -0.69087374 -0.8751324 -0.073722884 -0.05412978 -0.34510514 -0.70825464 -0.7831358 -0.588813 -0.5492404 -0.6113533 -0.134742 -0.69219303 0.4316075 0.47149643 -1.2954534 -0.9172661 0.3758443 -0.7879807 -0.24618506 0.9360133 0.20684816 0.3704903 0.51260096 -0.093105234 0.2156619 0.3907241 -0.21824332 0.338072 -0.7806165 0.4845642 -0.61401707 -1.1549282 -0.09904776 -0.39612764 0.2864561 -0.17413579 -1.0986614 -0.15226041 1.0233736 -0.956395 -0.5321738 -0.32738551 1.3294783 0.46873137 -0.43827012 -1.3160982 -0.62192297 0.57551634 -0.6492122 0.21146603 -0.44923618 0.02646599 -1.1253843 0.9316104 -0.17868014 0.3959363 -0.46071848 0.3281644 1.0485085 -0.645379 -0.99182856 0.4279917 0.5105413 -0.93174535 -0.118605636 0.4721489 0.008779511 0.6872639 0.13005239 0.28747496 -0.04415118 -0.06914237 -0.94208753 0.042912714 1.0273408 0.014018137 -0.6284443 -0.3044105 -0.06403768 -0.34466147 -0.9629742 0.24214642 0.31109604 -0.43534762 1.1417776 -0.12279851 -0.9736353 1.1266309 -0.92421037 -0.67082417 0.20087814 0.039905384 0.25388867 0.9308155 0.43229726 0.20075426 0.97487515 -0.4842911 -0.17173621 -0.121780574 0.81403553 0.4424316 -1.0496262 -0.610683 -0.81694454 -0.24687481 0.64226776 -0.43035176 -0.54357463 -0.028519029
3446 0.90744525 -0.44226533 0.19634798 -0.49470866 -1.2299216 0.39973047 0.058197413 -0.30140358 1.1047633 0.8604707 0.89888144 0.8448323 1.3004354 -0.08691484 0.014498006 -0.5489354 0.25892046 0.1932436 -0.20712665 -0.7312204 -0.42847568 0.46709108 0.37652153 -0.27710643 -0.4857431 0.03799049 0.7356522 0.5221988 -0.19663636 0.8272535 -1.7002287 -0.44862443 0.6008512 0.48366886 -0.023301547 0.28017497 -0.107103996 0.95478475 0.8406869 0.86951566 -0.08212767 -0.18551517 0.65190244 -0.525662 -0.22321956 -0.32053098 -0.41805848 -0.45317745 -1.9617748 -0.74297386 -0.4089008 -0.29659805 -0.5094498 0.5186395 0.16186672 -0.26539025 1.2761058 -0.33033368 -0.11133702 -0.20736848 0.46502408 -0.1855961 0.06678842 0.25568026 -0.16977346 0.72399557 -0.59024525 0.31833002 0.50968724 -0.36803278 1.3018361 -0.15573913 -1.2931684 -0.83068293 0.05249763 -0.418352 -0.40817165 0.44834295 -0.77472717 0.18564075 -1.042278 -0.93650615 -0.29842967 -0.30731398 0.25453058 -0.902648 -0.10514365 0.6493479 -0.6968272 0.39113727 0.37482423 1.504089 0.5503949 -0.5554644 -0.21039125 1.3401111 -0.7730931 0.56554306 -0.5174548 0.86672926 0.82296485 0.25951198 0.1488024 0.76741195 0.49064618 0.047326963 -0.8977676 -0.45693964 0.52364033 1.5038439 0.1777911 1.1406808 -0.27100486 0.28866935 0.680585 1.4485921 0.6449766 0.37111622 -0.8973032 -0.11352933 -0.41049698 -0.5919934 -1.23016 1.106503 0.7463013 0.66094655 0.5553658 -0.17796
3465 1.4510146 0.0981538 0.6317455 0.16363294 0.12979719 0.6494282 -1.0170691 0.6052366 -0.46443513 1.0998902 1.523128 1.1938765 -0.020918958 0.23553252 1.0216658 0.15907823 -0.17406957 1.4438608 0.11319224 -0.43024796 -0.98601484 -0.62594 0.3402028 0.18136047 -1.210588 -0.22641812 0.023685418 0.49227154 -0.44890988 0.54466134 -0.46482983 0.774895 -0.27204922 -0.81518185 0.76370233 0.49629778 -0.60277206 0.9345717 -0.08968127 0.108441055 0.8530933 0.8146613 -1.5735512 -0.869445 0.2599265 0.53197193 0.6674043 0.24056754 -0.89372325 -1.1210693 -1.1191086 -1.3613325 -0.9509586 0.48119345 -0.50716555 -0.45126352 0.096733876 0.48844317 -1.1371888 0.8959656 0.08391279 -0.5301153 -0.41761544 -0.11550683 0.72178596 -0.97597355 0.6370825 0.60122854 0.43598476 -0.915499 -0.31727448 0.57539535 -1.2352874 0.13100518 0.54805547 -0.98773897 -0.21795037 0.63355196 0.092323825 -0.111507766 -0.40633643 -0.1263094 0.8917837 -0.40965918 -0.36782974 -0.14905772 -0.5780157 0.9590332 -0.6465619 -0.28374985 -0.099117644 0.3763061 -0.84059674 -0.4594561 -0.40687785 0.110367775 1.283811 -0.44863608 -0.95335263 0.42455474 1.0976893 0.3827889 -0.1984518 0.502234 -0.25312775 0.4084464 -0.5514876 0.7586001 0.0028380835 -1.2963921 0.16319041 0.32634583 -0.08835295 0.7379002 1.1404092 -0.75345224 -0.30386195 0.69425184 -0.3834304 -0.29521933 -0.9563821 0.33650094 -0.07310587 -1.0446341 0.3006553 0.9414954 0.5267329 -1.2557062
3414 0.849048 -0.4085594 1.1686835 0.32526377 -0.48167697 -0.67401916 -0.10711039 0.55043 0.6724736 0.44400427 1.1004177 0.13794702 0.32879195 -0.12407603 0.9288832 -0.4115868 0.68364817 -0.66939867 0.78572863 -0.47219893 -1.3008046 0.40218684 -0.6540406 -0.49756613 -0.44673237 0.44993702 -0.866491 0.13606893 -0.6451926 -0.6422338 0.80995923 -0.31759793 -0.9919725 0.5118209 0.98956084 0.7047688 -0.72214925 0.7246408 1.1443601 0.3972348 -0.053451877 0.8750881 -0.122834906 -0.6936947 0.029065108 0.37435758 -0.20937015 -0.15251781 0.30216393 -0.87036085 -0.5527151 0.16449928 -0.26671806 0.0040795393 0.55430484 0.5416036 1.146852 -0.50621855 -1.2746004 0.4127769 1.0005398 0.5617255 -0.34433982 -0.26973242 -0.07083987 0.027197434 0.12986913 1.3195108 -0.822667 -0.49007574 -0.15885687 -0.043310102 -0.7298774 -1.1051558 0.63527167 0.16936351 0.9074042 0.95472604 -0.7688767 1.4444727 0.22928053 -0.19289498 -0.12443875 0.2616541 -0.599133 0.6030225 -0.84806216 0.8594838 -0.44149357 -1.1776582 -0.8966109 -0.12473377 -1.0316032 0.9167894 -0.35054207 -0.13115086 0.85814774 -0.72052586 -0.8904153 0.7096559 1.2166926 0.11955648 0.76812303 -0.22596204 -1.035408 0.190195 -0.51419747 -1.3990794 0.48778465 -0.4528405 0.22963333 0.83181256 0.48063958 0.8462974 -0.48368874 0.3988915 -1.1052793 -0.22085084 -0.18359491 -0.5624472 0.44293833 -0.19699837 -1.1269531 -0.071690165 1.0413594 -0.42251855 -0.3529918 -1.19239
3473 -0.31081483 0.8924633 -0.48558035 0.04884891 -0.7411359 -0.24891885 -1.4450442 -0.10289255 -0.044003997 -1.2582499 0.5738936 0.5733863 0.2123068 -0.56651115 1.2605537 -1.0192701 0.39252597 -0.053533044 0.075314626 0.5164129 0.23840474 -0.44762456 0.42777497 -0.0607425 -0.58029264 0.15111244 -0.29552636 -1.1359705 0.99554306 -0.96237165 0.42058164 0.210019 -1.7339482 -0.35172245 0.014732958 -0.77977353 -0.5445677 1.1308522 1.3254513 -0.713057 1.5585186 -0.02221252 0.50738436 -0.20140095 0.010120723 0.047199663 0.23871866 1.0665396 -0.15308693 -1.4425112 0.016985938 -0.36223388 1.3030794 -0.14558475 0.2259759 -0.5287419 -0.5577514 0.26728633 -0.3994408 0.54227215 0.6342738 0.61909235 0.88407415 1.1415843 0.3660499 0.71672386 -0.3726112 0.16068201 0.23812006 0.3843989 0.46301857 0.97150105 -1.5018535 0.026040906 -0.059816714 0.7082851 0.5073806 -0.5658944 -0.32400873 -0.924529 0.2355411 -0.63901085 0.5027953 -0.66753274 0.24663405 0.8965025 -0.56640744 -0.36215726 -0.955517 0.7923455 0.7819857 -0.29808766 0.6390585 -0.36900708 -0.9957467 -1.2382532 -1.0454463 -0.6806523 0.40978438 0.58863235 0.17111725 0.7160517 -0.4444315 0.43677288 -0.27434295 0.06329506 0.5497904 0.43347225 0.14109254 -0.20630518 0.1756316 1.0557125 0.7225651 0.015043532 -0.3941764 0.79164344 0.5529243 -0.04330851 0.5342252 1.1861982 -0.17326081 -0.22914557 0.75429827 -0.8546259 -0.42441416 0.7293122 0.96999294 -1.0092974
3457 0.6271201 1.3026735 0.54870826 -0.99303335 -0.27974486 0.37746754 -0.14237624 -0.3054172 0.2511313 0.1725604 0.4571487 0.44820762 -0.10293304 1.3036767 0.14393036 0.30742514 -0.6572178 0.9027824 -0.20774911 -1.4349186 -0.647309 -0.6013676 -0.6541087 0.42708418 -1.2347552 -0.5568238 -0.47953805 -0.20490217 0.74417734 -0.28528652 -1.4460105 -0.15231548 -0.8971647 0.37323216 0.20168437 0.098518014 0.56983215 0.77326894 0.7267596 -0.67716676 0.6077765 -0.25965118 0.44025782 1.414519 -0.49666184 0.40854543 -0.37216973 0.67392963 -1.489363 -1.0619612 -1.1912491 -0.24591115 -0.13478827 0.64852864 -0.9396749 0.657987 0.50648 -0.08308145 0.6160082 0.91959137 0.43117428 1.5671381 -0.26634017 0.55255514 0.022859264 -1.1872358 0.14770834 0.6762011 0.116659544 0.31584674 -1.2813822 0.47118166 -1.0854251 -0.5837783 0.64283335 -0.05460683 0.42814204 0.47374403 -0.20713526 0.65835226 -1.1759204 -0.108180836 1.144587 0.2281208 -0.36890933 -0.79834145 -0.8038352 0.7160716 0.0065714004 -0.38424587 -0.6833392 0.17358565 0.5004352 0.20972045 -0.19940259 0.17967166 0.50869924 0.46043852 -0.4716311 -0.09413039 0.8416518 0.8970156 -0.39034218 0.67993313 0.752875 0.5066799 -0.48450986 0.41072714 -0.15041694 -0.6836501 -0.60733813 0.59624314 0.55357695 -0.7065937 0.13303941 -0.3254133 0.34486154 -0.70849 -0.8387001 -0.20005126 -0.28415194 -0.94903016 1.3079963 0.5047323 0.47932944 0.40284738 1.2961895 -0.5311175
3447 0.17148972 0.7476438 1.6393728 -0.22648382 -0.01351231 0.62079716 0.67145026 -0.3619886 -0.8644122 -0.352119 -0.20200595 0.6703171 -0.028293049 0.061162118 -0.16548471 0.29683614 0.5632307 0.18315922 -0.18770292 -0.90373385 -0.113584496 1.503559 0.7641384 -0.30868125 -1.0402373 -0.23775828 0.48617405 0.16277373 -0.5758185 -0.8986369 -0.40894976 0.47858536 -0.9703775 -0.19534573 1.108607 -0.90809804 -0.72400004 -0.46298116 0.702302 -0.44165558 0.17904696 1.1592482 1.0705945 0.75947714 0.92976254 -0.7925593 0.43165442 0.37785926 -0.9645197 -0.73128194 0.4143854 -0.18566728 0.13588756 -0.33241212 -0.19540545 -0.53013456 -0.028478164 -0.46580955 -0.500191 0.26334268 1.5370623 0.4555073 0.77958316 -1.2428746 0.65907776 -0.2720454 -1.279413 0.676498 0.71249384 -0.6347481 -1.0241004 0.56596804 0.25817496 -0.6749269 0.4988081 0.5832796 -0.571758 0.15217043 -0.3615343 0.19381137 0.4888147 0.5476952 0.45092466 0.87661356 0.18343161 0.805824 -0.21338038 0.57377833 -1.3487804 -0.3982908 -0.3905502 0.11829217 0.39268187 -0.19595025 -0.03558846 0.4312629 -0.55774057 -0.22232871 -1.0778723 0.7302564 0.20234662 1.1950096 -1.3000937 0.10658869 -0.5927945 -0.5750606 0.4950562 0.024748508 0.49202517 -0.5842667 -0.17780793 1.2729841 0.8028423 -0.3905485 1.1328906 0.52786887 -1.1488894 0.9112183 1.377463 -0.073095575 -0.2561328 -0.69493866 0.23404576 -0.5808133 0.7251188 0.19430602 -0.5124436 -0.36594543
3519 0.030061748 -0.10019375 0.52730197 -0.21272048 0.54711837 -0.78671294 -0.41402566 0.6365629 0.0049072593 -0.23823006 0.8788497 -0.5261814 0.8140022 0.45283145 0.54911786 0.6465968 0.6689889 0.04433473 -0.8633018 -0.83537406 -1.148205 0.7674912 0.3106153 -0.501383 -0.12167108 -0.35971928 -0.20272407 0.43145114 -0.25565803 -0.80193144 -0.2732286 0.23777375 -0.77400047 0.4134389 0.6790883 -0.87452215 -1.0501567 -0.1605927 0.77721 -0.41257045 0.795211 -0.6220435 0.09715226 -0.5217695 -0.16988628 -0.48017332 0.33348003 0.115962595 -0.4600751 -0.9979065 1.228135 0.111396044 0.19963583 -0.7241988 -0.2909363 -0.99945366 -0.3682121 -1.4323492 -0.7255436 0.026316956 -0.3733533 0.34715468 1.4096416 0.3328878 0.53000265 0.11330682 0.47598645 0.29499045 -0.096670546 -0.84669447 -0.47786367 -0.3814685 0.2602046 -0.19826922 0.12435334 0.6070649 -0.44096398 -0.045394167 -0.21754384 -0.69719535 -0.59411544 0.9473274 0.88050735 -0.24666746 1.032557 0.22463976 -1.0106801 0.3428247 -1.345138 0.62495697 0.018904446 0.44507986 -0.71020454 -0.0128215505 -0.47644818 -0.84796983 -0.353697 -0.56860036 -1.2538567 0.7719094 0.8257147 1.0687299 -0.8930374 0.17758913 -1.4338393 1.0147246 -0.02607519 -0.07636613 -0.4947405 0.42450818 -1.0707062 0.24639629 1.0112209 0.15602136 1.1062738 1.1682049 0.92135406 -0.20656797 0.7837119 0.5064013 0.5151132 0.20027027 0.2785572 0.4014001 0.6135857 0.6085755 -0.6671289 0.35386235
3424 0.08644066 -0.7939324 -0.36968073 -0.853717 -0.22793128 -0.54844314 -0.94688237 0.0054993234 0.3332588 0.17416626 0.2941805 0.22773464 0.5327034 0.38452965 -0.9219201 -0.6387979 0.06760815 -0.75468373 0.6793661 0.118117005 -1.4872004 0.37547517 0.08262926 0.33460978 -0.58661205 0.3206239 0.30743137 0.9413706 0.11142397 -0.83958006 -0.32073843 -0.17832497 -1.0886617 0.59761995 0.5698677 -0.59686315 -0.011289948 1.4953579 0.8284076 0.06705061 0.76815766 -0.25786892 -0.025538133 0.23797704 0.55694646 0.0205042 0.5857375 -0.07582456 -0.09677745 -1.6843768 -0.73561394 -0.17176574 0.32815656 0.99704605 0.429794 -0.07175167 -0.57716256 0.08735593 -1.4003626 -0.6327957 -0.21471252 1.1907386 0.73968893 0.4022226 0.48104456 0.18500315 -0.947371 1.0945272 0.17948608 -0.28483376 0.22599965 0.6993742 -0.45724756 -0.9726895 0.38174683 0.6419933 0.917855 -0.23607725 -1.8053482 -0.7636203 0.3056333 -0.365931 -0.50947857 -0.4486832 -0.49886906 -0.0659502 -1.1825916 0.23700315 0.32485467 -1.1304421 -0.006441478 -0.38891742 -0.6442583 1.4311445 0.018935256 -0.567708 0.8077604 0.9062812 -0.46924865 0.71314806 0.9540437 0.9627531 -0.6400959 -0.8113722 -0.048925076 -0.4365735 -0.51283574 -0.5720978 -0.2941412 1.3095468 -0.09158142 -0.113915145 0.25228065 0.25438324 -0.12657003 1.2099494 -0.323423 -0.59384245 0.22994208 1.0525504 1.0956364 0.68825334 -0.46863487 -1.0654075 0.14501925 0.6400509 -0.37374407 0.22886308
3467 0.77786654 -0.7413078 0.15967807 0.6350832 0.4419371 0.4661143 -0.6518882 0.5595655 0.8144722 0.040933255 -0.1180491 0.6865193 0.778319 0.20382401 0.6593047 -0.24753813 -1.336549 -0.11928585 0.27650166 0.39871922 0.37407103 0.8672649 1.103303 -0.25299188 0.5324243 -0.28626752 0.047780637 0.27065605 -0.14117637 -0.74224365 0.7724098 -0.50951695 -1.0365916 0.95415014 -1.1432627 -0.8067172 -0.01100545 1.6236595 0.1006069 0.14876571 1.4171667 1.1421285 -0.102684565 -0.16762699 0.09936211 0.8650426 -0.49537778 -0.19365992 -0.73661685 -1.0838667 -0.52593416 0.76419497 0.0006133846 0.56597674 -0.59123826 0.14807624 1.0626726 0.42725295 -0.16570762 1.3029463 -0.4267916 1.1083728 -0.5999102 -1.1954093 0.7440599 -0.16485187 -0.42946696 -0.58865553 0.19287911 -0.5229396 0.057036072 -0.352703 -0.5417873 -0.84014213 0.8692287 0.5223283 -0.044476032 0.5162625 -0.71509445 -0.797667 -0.50267375 -0.19994381 0.5117785 0.04063775 -0.76193583 0.16205508 -1.0087318 0.22184129 -0.60733896 -0.23859365 -1.1241772 0.030388605 -0.5727449 0.20587727 0.32993025 0.73188674 -0.21242756 -1.2100062 -1.502352 0.3955351 0.17136711 0.63619566 -0.704112 -0.9322907 -0.83639085 1.2316369 -1.0426242 -0.4823109 0.44334808 -0.08894687 0.8162335 0.9180868 -0.1795583 -1.0084561 0.15411907 0.41673774 -1.2129554 -0.35317388 0.4993095 0.7433229 1.2028056 0.48285183 -1.1846945 0.1120963 -0.2706036 0.35648468 0.23735951 1.1292998
3439 1.0868435 0.3126146 0.6439485 0.61072594 -0.85073566 0.10210844 0.18940386 -0.5659958 0.16358061 0.36709887 0.31390345 0.31578022 0.6187919 -0.2431172 1.5944015 -0.56804025 -0.66936886 -0.55287576 -0.91352236 -0.25961664 -0.34904516 -0.058469452 -0.16516542 -0.5274255 -1.4570254 1.3878121 0.83474326 0.39291686 -0.4331505 -0.3917186 -0.06554968 0.5390156 -0.51962173 -0.39435822 1.142199 -1.4642526 -0.42806795 1.7765273 -0.29810253 0.2148797 1.5410731 0.78191304 -0.1479421 -0.5784521 0.028183859 1.0797036 -0.8969202 1.0605369 -0.06852271 -0.18256141 0.112584814 -0.49339974 -0.34979898 0.6824583 -0.1427099 -0.6174732 -0.095014624 -0.7648232 0.41899452 -0.17751832 -0.7822242 0.5711515 0.40011966 0.2171251 -0.9576544 0.4498759 -0.64321 0.5054396 -0.44049037 0.259568 0.19832134 -0.18962961 -1.6825296 0.071698315 0.012336904 -0.598854 0.81310004 0.24725863 -0.28454456 -0.75225693 0.64214826 -0.14930493 -0.65664613 -0.39987975 -0.6496938 0.4984803 -1.1385161 0.40359014 -0.70920724 0.94200104 -0.530496 0.017148655 -0.20633511 0.1761587 0.44025597 0.70508987 -0.6758981 0.56332797 -0.13578582 -0.50263476 1.4430454 0.4767937 -0.95669544 -0.3310359 0.3698833 1.2864236 -0.9090752 -0.07680742 0.71564907 0.028656458 0.13605842 1.3881867 0.47482756 -0.6028222 1.1966068 -0.4452221 0.5880385 -0.1857655 0.7435903 -0.05045023 0.83027124 0.35588753 -0.32708877 -0.8375318 -1.2031083 0.09157794 -0.051591728 -0.33001092
3466 0.4623924 0.22901036 0.34800833 -0.7673041 -0.59094393 0.16542299 -0.56511456 0.045075525 -0.23428619 0.23964103 0.6299144 -0.2307929 -0.06786771 -0.4630329 0.7826655 -0.5706989 0.7314437 -0.8582568 -0.6982739 -0.62268406 -0.53945535 0.2445807 0.8533893 0.4459391 0.24933285 1.0588982 0.29308623 -0.10365559 -0.49513334 0.68275017 -0.52704877 0.107134484 -1.0601048 0.5765981 -0.8742523 -1.3761435 -0.26586294 -0.04010876 -0.26588938 0.79550594 -0.22354504 0.3948767 1.1325513 -0.19218084 -0.03876313 0.35710073 -1.0248604 0.34998834 -1.3284608 -0.92239225 -0.46004513 0.7382184 -1.1211343 0.4943795 -1.5125525 -0.97874033 -0.34974638 -0.39635026 -1.2743264 1.1709086 0.34177494 1.2579386 0.41956323 0.29687086 0.62796235 0.2543427 -1.1772498 -0.8076723 -0.54259187 -0.14120258 0.1647737 1.050619 -1.1908265 -0.2837794 0.908612 0.41629437 -0.27230015 0.5659054 -1.1374153 -0.58200026 -0.40183172 1.356478 1.0643363 0.8391678 -0.16509815 0.3253473 0.08119963 -0.3909395 0.52426016 -0.16021602 -0.5995257 -0.46035573 0.47294864 0.17809173 -0.20520873 -0.09113345 0.6947589 -1.3908167 -0.6848704 -0.65383965 -0.17894788 0.70643556 0.13968511 -0.1357101 -0.35232753 -0.6966405 0.84971166 0.8438513 0.73006874 -0.37128344 -0.5750316 0.989273 0.09899806 -0.71723396 0.78278965 -0.6226304 0.19031246 0.06953707 -0.11277601 -0.09969295 -0.014657518 0.69299763 -0.58936673 -0.107962236 0.8989613 -0.095716685 0.32722145 0.34302405
3437 0.62710613 0.17640048 0.2917367 0.1375215 0.14456919 1.0935097 -0.8557424 1.6052543 -1.2014531 -0.22919054 1.0488663 -0.5091057 0.28310725 0.22160406 0.6238818 -0.22605127 -0.45071876 -0.8688054 -0.8577497 -0.06354388 -0.44906542 0.4174936 -0.1784841 -0.49063283 -1.7326279 -0.14887308 0.31860062 0.50149375 0.12931688 -0.4475769 -0.37126008 -0.252124 -0.97559214 0.4718419 -0.023788823 1.0657104 -0.43345326 0.82944524 0.60613865 0.1436707 0.22386578 0.66563857 1.0160743 -0.46334916 -1.2564728 0.60098064 -0.37679127 -0.3834965 0.21110256 -0.792061 0.4260161 0.1869212 -0.01088171 -0.43354675 -0.0022807484 0.70588154 0.69930226 -1.6848786 0.16732694 0.5605215 -0.81257635 -0.024649695 0.0911574 -0.106288254 0.6452288 0.3693043 0.35847905 -1.030436 -0.49671215 -0.8835451 -0.7122327 0.7948103 -0.67678225 -1.8029319 -0.10713664 0.719765 -0.003972397 -0.6426238 0.46403164 0.88389945 -0.3768873 -1.072822 0.23404986 -1.3674266 -0.4219821 0.31225422 -0.8320604 0.44238883 -1.2842959 -0.4945282 0.13976158 -0.89102256 -0.80937284 0.1789245 0.18704279 -0.70021325 -0.40707937 -0.09681645 -0.62647027 1.1168157 0.08466432 0.2639043 0.38746506 0.52248263 -0.7522497 0.37030584 0.33779573 0.08412572 0.5236845 0.49897128 0.13474815 1.375837 -0.01077701 -0.18112162 0.26254034 -0.49519315 0.15100373 0.27134037 -1.1161414 1.3278898 0.39430314 -0.50986046 0.3472633 -0.6527935 -0.073874764 0.34955946 0.9565679 -0.4090933
