1858 128
3390 0.0636241 -0.075974524 -0.30872098 0.06643927 -0.03495836 -0.038398445 -0.051495545 0.05718433 -0.03814599 -0.052287165 -0.100294426 -0.0018595845 -0.24410373 0.077554144 -0.07061974 -0.11410061 -0.16970493 0.059148915 0.0734952 -0.011591367 -0.1232436 -0.099084355 0.07558411 -0.16248415 -0.03246817 -0.105849974 0.040044338 0.084458284 -0.007642369 -0.068655536 0.13931353 0.063338935 -0.09618427 -0.024302265 0.03818625 -0.24401698 0.016175678 -0.016830198 0.18071386 -0.038163483 0.038874276 0.009685691 -0.102202825 -0.16851313 0.09716475 -0.10889934 -0.16211838 -0.21055163 0.06955774 -0.122615166 -0.15524903 0.010738774 0.011190512 0.00203662 -0.057131525 -0.13593833 0.15266633 0.033296525 0.14626402 -0.04213362 -0.04052352 0.035897564 0.079163894 -0.07543323 -0.13463214 -0.0855478 -0.029112697 0.2035342 -0.098195575 0.12043833 -0.006928749 -0.0733106 0.0352938 -0.1356877 0.026380938 0.2110415 -0.22900581 -0.03588504 -0.19183621 0.22129391 0.040385343 -0.16595158 0.01704596 0.19842242 -0.038319055 -0.1100948 -0.037066985 0.08421257 0.18898717 0.14127491 -0.006984576 -0.07001608 0.04622905 0.119626366 0.02266005 0.044986892 -0.22120863 -0.23345302 0.07718995 0.08318052 0.019611355 -0.16972388 0.18898857 0.1197891 0.018984333 0.20755656 0.09286241 0.024254834 0.0072691594 -0.07247529 -0.1802256 -0.053506706 -0.08014178 0.06504935 0.118184224 0.041683346 0.19999151 0.025471935 0.03249443 0.017875884 -0.042359807 0.08165875 -0.13259076 0.032529835 -0.014011214 0.11469347 0.04201456 -0.04117103
631 -0.067079246 -0.06632491 0.056674056 -0.02856642 -0.021678131 -0.05882892 -0.06256104 -0.06410858 -0.06646312 0.011027142 0.017257191 -0.054014314 -0.14780568 0.06634433 -0.23520072 0.08260381 -0.14786373 0.11127281 -0.087496094 0.09748297 0.1620203 -0.14215882 0.12656751 -0.20194899 -0.21349457 -0.12978631 -0.037773564 -0.005380843 0.13062547 0.036988553 0.079200745 0.10190002 -0.045714814 0.025537841 -0.062218323 -0.20025772 -0.015494651 0.19883205 0.14099284 -0.124934696 -0.18634251 0.13586603 0.108754665 -0.038533762 0.13089094 -0.07438489 -0.14666641 -0.015276255 -0.12179662 0.06168254 -0.022773528 0.15672033 0.07633017 0.021223562 0.15582055 -0.04270215 0.002670181 -0.111217976 0.28424194 0.02857252 0.1711547 -0.29074037 -0.13639493 -0.15370363 -0.07283397 -0.084966466 0.010819347 0.13053063 -0.08314529 0.004774346 -0.03417412 0.09032459 0.0018558509 -0.16320537 0.010030505 -0.0933553 0.011326832 0.13533024 -0.06916052 0.033098552 0.04962761 -0.3033026 -0.0588143 -0.021148529 -0.13203843 -0.05053676 -0.0010507024 0.015652055 0.16680653 -0.1559448 0.13630892 -0.09003057 0.06770931 0.16846868 0.045228306 0.03658591 -0.13433465 -0.027144458 0.07112086 0.23065971 0.060021963 -0.15256268 0.11380421 0.11680868 -0.07736949 -0.010093347 0.14526303 -0.18763159 0.025719726 -0.0091368435 -0.111908875 0.103813246 -0.09362118 -0.019141497 -0.08015547 -0.057715427 0.20746382 0.037559018 -0.15669623 -0.0657741 0.1615427 0.0571117 0.09271042 -0.026853742 -0.09703643 0.25172913 0.046799958 -0.0050194827
3391 -0.08406138 -0.10046914 -0.10549544 0.07365316 -0.0066888575 -0.15365517 -0.05306633 -0.02165126 -0.09343468 0.048552606 -0.06231381 -0.026918398 -0.05675202 0.08447912 -0.1174054 -0.03533168 -0.24948062 0.059561264 -0.110662565 0.019714428 0.08881143 -0.10904455 0.06571246 -0.08745089 -0.00015536357 -0.17217842 0.10333043 -0.04683484 0.18512823 0.13184544 0.008234787 0.08402921 -0.016249126 -0.048602145 -0.09665594 -0.12872264 -0.05619518 0.14570828 0.18359263 0.012428889 -0.14117183 -0.14441755 0.030384846 0.08012734 0.080557965 0.027553808 -0.06267518 0.0711079 -0.025572881 -0.11647789 -0.02551092 -0.0048044384 -0.014100402 0.1999379 0.10177595 -0.045920465 0.27024078 -0.08078056 0.116665624 0.012730882 0.13370895 -0.15032567 0.22144547 -0.039541546 -0.06268526 0.2532893 -0.20646697 0.040295854 0.050876364 -0.060983524 -0.007920673 -0.027102843 -0.017829113 -0.2329536 0.0745202 -0.07895717 -0.04946442 0.22247574 -0.16004032 -0.10168441 -0.015457316 -0.023379222 0.103475235 0.15433218 0.066614136 -0.26872042 -0.16042137 -0.2123194 0.10034647 0.033998575 -0.08535102 0.15823369 0.08131011 -0.008653272 0.07691442 0.19788796 0.028931439 -0.16377309 0.12585309 0.35155103 0.027034333 -0.06902544 0.20412281 0.15912804 -0.05211762 0.16347188 0.41625455 0.011563931 0.10088981 -0.1445339 0.11255548 0.0659047 -0.3123695 -0.0779176 0.0920868 -0.06879327 0.26617205 0.11119087 0.16932674 -0.14728224 0.14528762 0.15113528 0.037175097 -0.36300653 0.043649904 0.00998225 -0.0129850535 0.068322495
3393 0.0055443887 0.083176464 -0.33586207 -0.017392397 -0.09680549 -0.15385048 0.07231005 0.07560989 -0.052260283 -0.055121332 0.03591376 5.6790108e-05 -0.35492596 0.026763523 -0.21050546 -0.09033193 -0.20252183 0.16861834 0.086699255 -0.09536601 -0.30666414 -0.0036433463 0.1228243 -0.11556201 0.25109872 -0.16430812 -6.3186286e-05 -0.011652962 -0.03872079 -0.04761021 0.17924508 0.06959679 -0.12085315 -0.06822807 0.004280313 -0.28646815 -0.120330244 -0.06022535 0.05799799 -0.011713765 -0.04700239 0.059010517 -0.23550543 -0.1336048 0.12078633 -0.0501318 -0.112033546 -0.14693674 -0.025718091 -0.0695762 -0.171335 0.14172879 0.03088925 -0.08027809 0.059647866 0.03292053 0.10236558 -0.054745212 0.15835015 -0.049290586 0.107407376 0.008852344 0.06583511 -0.08363183 -0.119674735 -0.05612303 -0.07283845 0.1864747 -0.17308941 -0.086010166 -0.23863573 -0.1082803 0.13812305 -0.07211377 -0.0114110615 0.04112564 -0.25429422 0.00024326671 -0.3235178 0.2505562 0.27319598 -0.20204192 0.019745147 0.17771637 0.057744313 -0.044296954 -0.06593171 0.053926907 0.17799442 0.19818218 -0.079822354 0.005557172 0.13587968 0.18595664 0.1999857 0.045753665 -0.27439994 -0.22943902 0.36350873 0.06544791 -0.011576365 -0.08824381 0.23543257 -0.09227826 0.11141248 0.021320622 0.08822242 0.12364518 0.07956363 -0.020794354 -0.25064346 -0.06077766 0.059687044 -0.0033345504 0.22932428 -0.037701905 0.0404619 0.05527877 -0.099138744 0.018098652 0.071231775 0.19021182 -0.03971025 -0.110208504 -0.10532985 -0.008227282 0.021558046 -0.14065968
3394 -0.10281089 -0.33993566 -0.120505646 0.13071007 -0.034194734 -0.03318388 -0.10204314 -0.039802372 -0.106906675 0.09156889 -0.049223587 -0.14403868 -0.05226437 0.018129284 -0.020090804 0.10492699 -0.062210195 0.04075236 0.07118985 -0.015128925 0.050001994 -0.036595415 -0.11876328 -0.27963895 -0.21884617 -0.027120065 0.061160993 -0.03578487 -0.004158791 -0.056828216 0.19086537 0.03166885 -0.08894407 0.030301053 0.19642599 -0.23161481 0.0031731436 -0.07246631 0.12235259 -0.02987098 -0.062357325 0.13025236 -0.17960098 0.10863406 0.117768675 -0.01432273 -0.050435428 -0.13819541 -0.1658006 -0.031859502 -0.0032643145 -0.0342255 0.1433242 0.014897891 0.12391544 -0.04252825 0.23273368 -0.13936631 -0.07263893 -0.0013198826 0.29262954 0.10104283 0.038869668 -0.075913794 -0.09464718 0.08406671 -0.20002669 0.051564485 -0.10798826 -0.17697312 -0.1959323 0.03721378 0.22648388 -0.11254131 -0.08292034 -0.018622236 0.08983544 0.023541652 -0.22168513 0.09650039 0.015410815 0.0841153 -0.08688072 0.16063826 -0.028038263 0.060971648 0.19711138 0.025888257 0.27433512 0.040288873 0.052003954 0.22076742 0.2001417 0.008299204 -0.030841453 0.15140672 -0.13983245 -0.06503302 -0.006524 0.10558757 0.06023157 -0.05990445 0.15280412 0.16301772 -0.09518723 0.15116449 0.18528445 -0.050749242 0.18637444 -0.0838938 -0.026605686 -0.09108714 -0.17181969 -0.0022425302 0.04541285 -0.066765435 0.18997535 0.19828324 -0.31617165 -0.062479842 -0.11004333 -0.00324049 0.066703044 -0.11655315 -0.19045794 -0.021874487 -0.00474456 0.03644452
3392 -0.018468367 -0.17281592 -0.08940754 0.13389426 -0.14554185 -0.10401388 0.11495639 0.04756619 -0.15904891 0.21341108 -0.094301656 0.05211507 0.025822269 0.02421375 -0.13842443 0.14852858 -0.23616107 0.11940644 0.18601722 0.06491282 -0.0384377 -0.28359437 0.07923305 -0.14365834 0.08583077 -0.11351486 -0.06620233 -0.024708275 0.12003733 0.09334835 -0.0034522205 -0.006981654 -0.06873974 0.09092656 0.03326856 -0.03148791 -0.017357226 0.2622209 0.22288573 0.11658265 -0.1034647 -0.019513488 0.0051044947 -0.04003319 0.19513598 0.16620448 -0.011598459 0.08289013 -0.18339871 -0.13371241 -0.008264227 -0.13969468 -0.13599606 0.12019353 0.043288887 0.021828193 0.08437625 -0.09583116 0.2414536 -0.31682247 0.17454945 0.026703293 -0.049524687 0.11012138 -0.11925184 0.041872118 -0.172834 -0.044705547 -0.014159066 -0.043408804 0.075649 -0.15801115 -0.05996374 -0.028639093 0.10174556 0.20747462 -0.26889527 0.06792698 -0.14388646 -0.10905535 0.007795177 -0.1578681 0.08343398 0.33081478 0.029230492 -0.2140563 0.00688582 -0.14930183 0.28504297 0.12263598 0.05189266 0.12748353 0.05815601 -0.039678764 0.026157826 0.00089636876 -0.20235762 -0.039121877 0.13193922 0.2056264 0.0089126015 -0.072017804 0.11837133 0.21481267 -0.15495975 0.08146834 0.44207752 -0.11976068 0.06911346 -0.10383257 0.17681068 0.17593247 -0.053071797 -0.026948381 -0.015931197 -0.10608163 0.44575864 -0.08808369 0.17075032 -0.12511289 0.05969197 0.22080275 -0.020502813 -0.30212107 0.17179671 0.09670597 -0.043149512 0.06558299
1582 -0.16104138 -0.06602295 -0.32587418 0.19961563 -0.16147485 -0.06536736 0.06382577 -0.07398357 -0.2017092 -0.11898536 0.035886645 -0.113143 -0.20832482 0.20803148 0.03346617 -0.05396127 -0.3214645 -0.020418474 0.13010527 0.043279897 0.089718215 -0.1318932 0.09249646 -0.057515617 -0.17575987 0.043025322 -0.14853089 0.042466518 -0.1243408 0.047174264 0.07763647 0.0511269 0.049127918 -0.092209645 -0.018241702 -0.26715097 0.060901605 0.09742932 0.09118404 -0.113411464 -0.17957221 -0.11095978 -0.11142241 -0.13852695 -0.071719356 0.03543544 -0.08845759 0.0034100306 -0.16874236 0.15084057 -0.0357151 0.041018132 0.1578951 0.23289807 -0.051045135 0.14241186 0.14104278 0.012340621 0.27976516 0.032181364 0.041912343 0.091458715 0.12064421 0.2050617 -0.25380036 -0.022602193 -0.31277132 -0.013772963 -0.28774777 -0.008224467 -0.21591853 -0.07543217 0.2048411 -0.2999016 -0.12053096 0.0072987434 -0.05204936 0.03967605 -0.020716242 0.14186126 0.11499128 -0.27170393 -0.06815423 -0.10626006 -0.015502051 -0.07700712 -0.08455329 -0.07020819 -0.027337492 0.08709555 -0.053389113 0.1660901 0.17446418 0.20462944 0.14122573 0.18387245 0.10095817 0.036253218 -0.18346335 0.031985022 -0.057381038 -0.069030814 -0.038192015 -0.12989062 -0.07807362 0.14386733 0.2370746 -0.27234557 -0.00035812912 0.08193122 0.1105148 0.12800533 -0.15674421 -0.057803478 -0.07940017 -0.1269548 0.31237602 0.13243188 0.16063766 -0.1046795 -0.15282996 0.06856787 -0.011973103 -0.16443516 -0.124667905 -0.013107504 0.1257839 -0.14020193
3395 0.00405158 -0.08099017 -0.054505028 0.3163678 -0.049445566 -0.092668645 -0.124515004 0.12279064 0.029910522 -0.1328911 0.007723879 -0.073020265 -0.030097615 0.005958629 -0.14353916 -0.12231583 -0.48772436 -0.0031611512 0.0152213015 -0.07449232 -0.05065283 -0.009603379 0.026779998 -0.25508663 -0.040423807 -0.014130101 -0.07972864 0.0344071 -0.122405924 0.25046793 -0.08880527 0.21834381 0.030294733 -0.1939323 -0.02679038 -0.2778689 0.022396713 0.07647401 0.13432561 -0.061264563 0.28100482 0.0036220755 0.042496547 -0.19099571 0.051241733 0.22138812 -0.0009835622 0.17792055 -0.0744661 -0.0060744504 -0.10548275 -0.10408934 0.0077075697 -0.014993036 0.19513199 0.057889808 0.28107193 -0.08158565 -0.03294103 -0.21175371 0.24389823 0.30929825 -0.15874803 0.068113096 -0.075732194 -0.055360533 -0.12263825 -0.0916597 0.11388382 0.17124672 0.107211545 0.18100137 0.012612437 0.013576077 -0.007794992 0.21197975 -0.2173461 0.22517778 -0.103094816 0.07534363 0.23349628 -0.5152029 0.06029801 0.1760903 0.024923276 -0.15913312 -0.0625401 -0.068278626 0.26102433 -0.0323613 0.1966046 -0.031223588 0.11277165 0.2520436 0.08073307 0.262564 -0.2004715 0.32135034 0.15114929 0.17739102 0.09406691 -0.14360417 0.07162618 0.15762158 -0.03600531 0.19329394 0.22890435 0.03119 -0.03766899 0.19567145 0.24049303 -0.12684664 -0.100642174 0.08075117 0.25009477 -0.018446527 -0.0010045045 0.18998484 0.09759314 -0.23601763 0.018197125 0.23563686 -0.025486648 -0.17809707 0.05590244 -0.025162844 -0.0077725705 -0.08948257
3396 0.09175838 -0.2640918 -0.024176367 0.06032266 0.10391444 -0.1526693 -0.37018028 -0.00883295 0.024715122 0.010040928 -0.24598143 -0.17705399 -0.34514636 0.03314717 0.08746624 0.018185446 -0.006363618 0.17980063 0.064740166 -0.01644758 -0.05782904 0.07018921 0.30585608 -0.11811778 0.016421225 -0.15371034 0.16381547 -0.21513116 0.17853345 -0.064278945 -0.12596 0.2279003 0.08725083 -0.1294161 0.26196834 -0.22689824 -0.03245652 0.058440115 0.15478547 0.2077325 -0.19893043 0.17595507 -0.015464743 0.09160871 0.13033772 -0.19270176 -0.09706267 0.21743985 -0.16909029 0.25841033 -0.099396884 0.20395996 0.113617614 0.112387925 -0.121654816 -0.15855534 0.23711552 0.08465866 0.26622993 -0.0014530269 -0.007226192 0.16795053 -0.20946173 -0.09280268 0.17159589 -0.032880243 -0.0011510662 0.106329806 -0.011581945 -0.13031285 -0.23217152 -0.058061525 -0.055790156 -0.20818883 -0.029049847 0.008800866 -0.070113815 -0.014623953 0.021614794 0.1705532 0.17232418 0.116313115 0.061772007 0.1686745 -0.14907154 -0.17398764 0.2895311 -0.120089285 0.19723518 0.22841087 -0.020743309 0.15113169 0.27838326 0.1628289 0.092942216 0.06468622 -0.16235135 0.13080789 0.03958964 -0.023223715 -0.013813551 0.003347334 0.078556284 0.08726701 -0.13313423 0.14169931 0.066818625 -0.22482403 -0.10605183 -0.10009284 -0.119365916 -0.051382508 -0.17133708 -0.09711847 0.35309273 0.06752346 0.14750598 0.063426234 -0.3289638 -0.33594638 -0.22417861 0.25186777 0.05582033 -0.018258538 0.074266516 0.205816 0.006700217 0.08780475
3398 -0.012290982 0.006389161 -0.08914184 -0.042855088 0.023241747 -0.3123727 0.23438798 0.009378842 -0.14585896 -0.0824707 0.035130475 -0.024056874 -0.104686104 0.05770517 -0.029872857 -0.00578981 -0.36063027 0.007001443 -0.10927046 -0.01830386 0.076707244 0.3890998 0.054010488 -0.035152838 -0.21899319 -0.21746744 -0.00766739 -0.13291714 -0.0013287901 0.113396466 -0.050926197 0.20081717 -0.15319294 -0.14627376 -0.067906566 -0.203586 0.06455618 0.12292688 -0.1642377 -0.04855042 0.21864615 0.18496346 0.19390993 -0.00041786145 0.04620165 0.25019413 -0.24425104 -0.062728256 -0.2780885 0.110785924 -0.20033099 0.09643163 -0.029145705 -0.150589 -0.107825756 -0.06040111 -0.0774596 0.12916161 0.2948062 -0.11254191 0.29571784 -0.13903716 0.088378154 -0.079406455 -0.030579714 -0.07712258 -0.026279384 0.08422688 -0.005527828 -0.12854314 -0.0034839185 -0.19749062 0.04083685 -0.14247711 0.0937373 -0.19289707 -0.17974788 0.10123946 -0.1861064 0.34786847 -0.04311098 -0.12597694 -0.050227307 0.086291686 -0.15256496 -0.022555405 0.00082224427 0.1380622 0.07133281 0.20091227 0.28824487 -0.19799742 0.057539016 0.08120119 0.28053913 0.0833366 -0.066828154 0.06149193 0.16611572 0.12036438 0.082488894 -0.15208745 0.0061688176 0.37992457 0.013359784 0.4763625 0.22433501 -0.17439704 -0.003320796 0.05599826 -0.104166724 -0.12223301 -0.047076266 0.02543585 0.16392605 -0.023636334 0.13851187 -0.19324562 0.3784207 -0.06077601 -0.15697901 0.033171296 -0.012524801 0.035985097 -0.06815219 0.0617018 0.31076193 0.018257972
3397 -0.05385396 -0.08496091 -0.22679177 0.057031933 -0.23145203 -0.15847409 -0.002210292 0.030655518 0.10625913 -0.04471113 0.032916475 0.055625837 -0.15965214 0.24100555 -0.10694932 -0.10617171 -0.29681328 0.05516903 -0.07008255 -0.006978348 0.0159935 -0.112440154 -0.10834735 -0.07165729 -0.1620455 -0.17596246 0.048795346 -0.15170659 -0.03974379 0.060911626 -0.19453335 0.038529664 -0.29463172 0.336715 0.067852065 0.08043091 0.10043144 -0.0529689 0.28877595 0.22370389 -0.0752494 -0.048679154 0.13420658 -0.038389497 0.0033625623 0.017077442 0.014476458 -0.17078987 -0.00042492044 -0.1862316 -0.02497283 0.08116739 0.06723006 0.017982282 -0.2666809 0.039269194 0.018220063 -0.074802466 0.19335453 -0.14457078 0.20540234 0.29922935 0.052704044 -0.026489079 -0.14023198 0.09838325 -0.04911323 -0.049546093 -0.0706523 -0.05073007 0.19767433 0.17356789 0.17530331 -0.21063337 0.09319854 -0.01770229 -0.056017183 -0.1429954 -0.10084479 -0.14236672 0.08324871 -0.038481906 0.056540817 0.14008996 -0.09085515 -0.11193696 0.1006723 -0.017194645 0.25847605 0.08050128 0.23680866 0.007608926 0.2057292 0.21819615 -0.07240235 -0.011538826 -0.3287317 -0.24832542 0.086253434 0.110002145 0.053813223 -0.17269781 -0.06970476 0.307306 -0.34238002 -0.01167116 0.3716911 -0.19526727 0.017518966 0.032148365 -0.102440715 0.16430128 0.03436744 -0.0936659 0.25725284 -0.106317244 0.055347107 0.15465835 -0.14742394 -0.305905 0.012617249 0.402823 0.19268705 0.006139177 0.029714901 -0.09921552 0.37653783 -0.1322678
1433 -0.11815905 -0.016876226 -0.2854377 0.08451712 -0.10204875 -0.28547704 -0.014639453 -0.14922906 -0.04136662 0.061853852 -0.17072523 -0.21648206 -0.21197839 0.1742374 -0.07900347 -0.12605205 -0.29667372 -0.016068455 -0.03477316 -0.064738564 0.10525321 0.030418918 -0.025830884 -0.14093581 0.0671751 -0.035112556 0.12031272 -0.17487814 -0.1192275 0.01254968 0.09007521 0.21116848 0.20156105 0.17255323 -0.20611222 -0.118140176 0.14124966 0.026962914 0.22465017 -0.26799768 -0.13619408 0.039379057 0.19287828 -0.16412504 -0.13104866 0.073200256 -0.038503584 -0.032025665 -0.25678766 -0.037286524 -0.14047687 -0.03951175 0.053061694 0.08703791 -0.046447076 0.057474714 0.19980703 -0.07170814 0.20822468 -0.095386714 0.14143868 -0.006354597 0.04276492 0.0071771555 -0.05680354 -0.104464754 -0.13770825 0.122981906 -0.15544073 0.10166667 -0.16339715 -0.04096433 0.003354496 -0.13647975 -0.0068456694 0.1369107 0.07752677 -0.03538679 -0.2597782 -0.009946168 -0.016734974 -0.07826152 0.12715109 0.01856392 -0.1968836 -0.18112394 -0.013939851 -0.109860875 0.1753932 0.11303265 0.1750089 0.22556485 0.11200926 -0.02055067 -0.009203154 0.110754475 0.034009308 0.122097194 0.010271466 0.07015597 -0.050077762 -0.14871284 0.02521225 0.18323904 -0.021117529 -0.13969351 0.08845292 -0.043358155 -0.05324981 0.09502188 -0.14865923 -0.029672135 -0.16592252 -0.09870684 0.1553722 0.0825111 0.03998883 0.15231436 -0.0037984445 -0.11776684 0.064283915 0.31066468 0.073982194 -0.3406894 -0.11535968 -0.014428813 0.06587619 0.11204061
3399 -0.20056586 0.04874357 -0.19793716 0.16329241 -0.13954176 -0.034820594 -0.20900063 -0.07313903 -0.30081406 -0.057767645 0.012583285 -0.15764387 -0.09475128 0.0011456172 -0.1480902 0.030887272 -0.4058442 0.26454324 0.021252984 -0.036474332 -0.37842125 -0.2185501 -0.036019634 -0.19024839 0.1784637 -0.10168701 0.022325275 -0.17604002 0.022544928 0.18675552 0.18983176 0.19643767 -0.052073494 0.038645405 -0.29471686 -0.18654758 0.26320815 0.034374237 0.17087904 0.16486257 -0.01322475 0.08049067 -0.09223329 0.03461247 0.00441148 -0.12963499 0.016846534 0.047391478 -0.10314841 0.016201008 -0.30663395 0.020260522 0.13865533 -0.06308809 0.3858282 -0.00015901125 -0.07767479 -0.18365727 0.25950086 -0.28670058 0.13347001 0.028081823 0.03563003 -0.2574381 0.0064253868 0.09737786 -0.25214207 -0.015887525 0.1825281 0.11262638 -0.2551414 -0.00021783132 0.21852104 -0.041131966 0.007954211 0.20138732 0.012959403 -0.059791107 -0.06589605 0.23960097 0.19825669 -0.25937358 -0.109461986 0.17697166 -0.07925856 -0.02719463 0.07975716 0.23361751 0.29294845 -0.07285283 0.052388947 0.07161508 -0.017825745 0.12937099 -0.1371422 0.12435412 -0.030360512 -0.15007257 -0.10361564 0.12081191 0.08843967 -0.15552597 0.20735739 0.17503937 -0.089976825 0.03422757 0.11302552 0.008384986 0.20673545 -0.073743284 -0.081051074 -0.047545124 0.053565722 -0.032339588 0.13146959 0.18494222 -0.10814011 -0.12746625 -0.028008869 -0.19276702 0.15968159 0.09813361 -0.15665182 -0.12882122 -0.1375999 -0.12607506 0.013072923 0.013900362
3402 0.0686065 -0.11300702 -0.059876584 -0.118554026 -0.0014321182 -0.264658 0.0068162302 -0.04549631 -0.06728578 0.036849394 0.19001968 -0.31949982 -0.03211897 -0.0034922415 0.055949867 -0.18209958 -0.09471398 -0.07277795 -0.08682125 0.046257764 0.08573369 0.060954276 0.052683547 -0.19568005 -0.2429019 0.06260622 0.027662212 -0.06699297 0.07463667 0.20220257 0.08500853 0.041440904 -0.014619661 -0.07475984 0.16755058 -0.17059226 0.026248602 -0.08057132 0.020977683 -0.08226335 -0.20468733 0.25956467 -0.17922169 0.15591785 0.13817473 -0.16601358 -0.18638332 -0.27893707 0.14825319 0.026464412 -0.1133673 -0.044602733 -0.10488798 0.049599692 0.21148306 -0.13273126 -0.1129175 -0.13446845 0.29855207 0.051990185 0.10030517 0.184753 0.16825117 -0.13975771 -0.093123466 0.0752508 0.096387036 0.022989415 -0.04307937 -0.23122787 -0.32035938 -0.4227255 0.22191115 0.05950463 -0.031912316 0.39797992 0.05624236 0.010607499 -0.0024233358 0.12785001 0.027297717 -0.25830826 0.018399145 0.3174318 0.029538097 -0.007384335 0.12858972 -0.19937725 0.2833268 0.110052526 0.019159025 0.068727106 -0.056560677 0.1979759 0.15392342 -0.11868687 -0.094058886 0.29245597 0.009412022 0.0765908 0.09062546 -0.25855276 -0.050723013 0.13855654 -0.055237442 0.18093668 0.048013806 0.0060776956 0.17370193 -0.0948421 -0.16315168 0.020409873 -0.47017372 -0.30888852 0.070292376 -0.20408584 0.07281891 0.11957506 -0.2395673 -0.12153753 -0.13576315 0.1970872 -0.0007539318 -0.026602332 -0.09009038 -0.03652081 0.18617016 -0.07702947
3401 0.108235344 -0.17301372 -0.11662928 -0.012455128 0.0038124744 0.06362105 -0.0327241 0.3417378 -0.054060426 0.39653242 -0.045483954 -0.27215868 -0.41196725 -0.06934022 -0.043080755 -0.08376697 -0.018273203 0.01696523 -0.110678986 -0.13113254 -0.0040163063 0.08969284 0.07009398 -0.14066386 -0.08928335 -0.1404347 0.13374175 -0.051548384 0.04843624 -0.0057821255 0.09161277 0.26321253 -0.19189268 -0.094278105 -0.10787857 -0.516862 0.19104451 0.2691095 -0.029902188 -0.007988641 0.07034519 -0.12446888 0.0044001443 0.052237626 0.0006073641 -0.21256353 -0.053004254 -0.014032984 -0.07071295 -0.22963755 -0.020294527 -0.15178569 0.15067333 -0.13325217 -0.18948708 -0.07751636 0.1737035 -0.053100232 0.24119346 0.064646386 0.3227051 0.2298063 -0.065253444 -0.21834284 -0.051459957 -0.029991273 0.08179969 -0.0028139646 -0.007986454 -0.17865793 0.04349533 0.18232656 0.22276728 -0.1325088 -0.19277798 0.10031169 -0.10205241 -0.012146819 0.07028032 0.31409806 0.03572961 -0.12729399 0.24497981 -0.034027606 0.1513082 -0.07449712 0.23860264 -0.2503859 -0.04632794 0.16391441 0.056355096 -0.013819252 -0.091218896 0.10255226 0.26216426 0.22809285 0.06877461 0.10736213 -0.06407867 0.05480067 0.08661947 -0.07178867 0.18198107 0.079613276 -0.14689949 0.12862402 0.1522006 0.009353918 0.04897821 -0.0029847927 0.0048939986 -0.09812128 -0.2707661 -0.058274634 -0.076571964 0.013414895 0.07461982 -0.09553016 0.09836866 -0.15679376 -0.13689913 0.08673767 0.21410802 -0.21984848 -0.29300654 0.060634937 0.30129212 -0.17868155
3400 -0.010051878 -0.14897902 -0.043978956 -0.046436504 0.021160573 -0.10565673 0.14632758 0.16734512 -0.14978091 -0.093918264 0.059719197 -0.071257174 -0.3188168 -0.12535651 0.106885836 0.050868224 -0.011001016 0.019737493 0.13798594 -0.06266998 0.14832431 0.021032095 -0.09883659 -0.19427414 -0.17161071 -0.037206016 -0.013082767 0.124275245 0.12612472 -0.044147976 0.09085763 0.053207636 0.029751219 0.017785443 -0.03498819 -0.40914616 0.08651776 -0.014072242 0.12732412 -0.063079074 0.0992319 0.16947849 -0.31580338 0.25887528 -0.25015146 -0.08918157 -0.13682176 -0.19370419 -0.046042312 0.032985345 -0.044809286 -0.2225544 0.20274101 -0.011580435 0.18310092 -0.008716191 -0.06375355 0.029632214 0.11725723 0.0055112382 0.012746213 0.047904663 -0.11081261 -0.08076492 0.040059507 -0.055796616 -0.029767193 0.20928276 0.038315605 -0.08215206 -0.05630837 -0.045096032 0.12010034 -0.0870103 -0.23886609 0.030100992 0.06526545 -0.14466962 -0.21925901 0.21429503 -0.0077136266 -0.30878767 0.023413543 0.0069862395 -0.27290854 -0.115250774 0.087468505 -0.1784138 0.20682792 0.02571984 0.08604815 -0.07425598 0.12654747 0.1480779 0.065188535 0.020555558 0.07090492 -0.0122749265 -0.060182013 0.1803145 0.16201223 -0.16461341 -0.057192285 0.08064978 -0.2512553 0.25192514 0.16807868 -0.11750237 0.17582983 -0.1419595 -0.12808004 -0.10335303 -0.04348991 -0.11502382 0.013676422 -0.074626945 0.061591163 0.0090394905 -0.17518008 -0.14971691 -0.02629395 0.097812414 -0.070625454 -0.05931623 0.11210386 0.1263181 0.030028716 0.23556323
1570 -0.083114065 -0.15860917 -0.20161244 0.31706488 -0.18314256 -0.108089894 -0.009457282 -0.1264693 0.17225325 0.0927096 -0.18178852 0.033268478 -0.08040131 -0.02719722 -0.19239724 -0.20320806 -0.23904663 -0.11511453 -0.004461618 0.042011544 0.08185321 0.042200614 0.24608094 -0.01153986 -0.1734135 -0.13669766 -0.23021507 -0.026334984 0.21189791 0.20755301 0.16480358 0.051429775 -0.017338216 0.094617896 -0.14952026 -0.13721277 -0.00150343 -0.015974978 0.2763671 -0.13585885 -0.14535579 0.2814607 0.12008987 0.024073672 0.034270845 0.025522318 0.10491563 0.011501712 0.019329006 0.1623561 -0.11416618 -0.18101987 0.24752566 0.022493403 -0.13184416 0.04125969 -0.02188127 -0.049245503 0.12967212 -0.13183789 0.22788687 -0.19916093 -0.002175434 0.0050837146 0.020756587 0.025081493 -0.23923284 0.0027524475 -0.016524797 -0.05371369 0.033210166 -0.10778288 -0.008488946 0.034466553 0.13969721 0.1679155 0.012917834 0.12252474 -0.25129437 0.18958353 0.014697984 -0.053962525 0.23760562 -0.058468133 0.15165696 0.030179238 0.08301221 -0.12188358 0.09156838 0.3281782 -0.06355183 0.1002547 0.053260323 0.1960033 -0.011052656 0.18263061 0.01051236 -0.28478256 -0.039324205 -0.022895807 -0.014932372 -0.2624243 0.0487509 -0.085401304 -0.058827717 0.09362649 0.19360259 -0.107012376 -0.0595738 -0.05897072 -0.12417237 -0.22581841 0.057186585 -0.17530954 -0.004717662 0.06263082 0.3032239 0.17207325 -0.035191156 -0.4029664 0.1238659 0.30657718 -0.124581195 -0.1377268 0.0022016326 0.17038575 0.13264537 0.090468585
3404 -0.020968668 0.0860645 0.07652629 0.10571178 -0.0029040086 -0.12942511 0.11317696 -0.21471834 0.07630725 -0.13217175 0.18851648 -0.10435958 -0.08481669 0.0973398 -0.20278987 0.17533776 -0.117284514 -0.013620808 0.08163412 0.011495262 0.024427338 0.17265132 0.017659955 -0.08708781 -0.024665669 -0.054336064 -0.19847883 0.072191425 0.044744447 -0.18675254 0.31622666 0.28320816 -0.15317397 -0.060148228 -0.029130349 -0.3342454 0.02280596 0.02894838 0.052083347 0.08218356 -0.07193548 0.049379934 0.005587051 0.30500072 0.122097835 -0.1475913 0.11361972 -0.0322305 -0.17588547 0.13906386 -0.313575 0.036685552 0.043834038 0.08971377 0.3008614 -0.100810446 0.08741406 -0.098899394 0.20263253 0.07240372 -0.014244009 0.17387001 -0.0030016142 -0.10541987 -0.057074837 -0.29704428 0.15266362 -0.1428432 -0.048143853 0.06721795 -0.093205616 0.004345991 0.07098499 -0.42726696 0.27828485 -0.04253616 -0.08558837 -0.30455175 -0.24163748 0.2661449 0.115388185 -0.23428124 0.239489 0.20628303 0.13504054 0.19923994 0.13465458 0.0036511063 0.31384966 0.002934988 0.08740081 -0.009668336 0.18012223 0.21598543 0.15983945 -0.14644976 -0.09881947 -0.15514068 -0.014222367 0.32599673 0.044493463 0.04170122 0.30305025 0.005313411 -0.17391959 -0.03296045 0.0588035 0.07778758 0.19495814 -0.054676324 -0.08919668 0.029583137 -0.21681266 -0.04939577 -0.08593241 0.47660476 0.20106487 0.11385922 0.04310544 -0.06431215 0.14394929 0.10694677 0.055383015 -0.08227891 0.011764405 -0.10709835 0.12128587 -0.021980872
3403 -0.11557309 -0.063583195 -0.18930955 -0.1520236 0.11029824 -0.422205 0.08708288 0.17236179 -0.10446649 0.010127019 -0.1454932 -0.02246109 0.09560362 0.111565456 0.15521704 0.16381395 -0.19344275 -0.10019811 0.066464774 -0.017472055 0.044565026 0.09299774 0.010462601 0.051760525 -0.03776862 -0.29915515 0.057954855 -0.16664864 0.32760864 -0.073254034 -0.04531278 0.22218977 0.021556335 -0.10458919 -0.08007672 -0.302796 -0.051669132 0.20468868 -0.039951745 -0.14596361 0.067001976 0.28538653 0.13753073 0.14826664 0.1914086 -0.2197277 -0.11464525 0.06514822 -0.22814761 0.15552375 -0.124875456 0.09234924 -0.010268035 -0.11896636 7.439825e-05 0.085555755 -0.03697332 -0.1328836 0.1302447 0.080328755 0.093890816 0.018287107 0.12816125 -0.07588602 -0.20716634 0.103923924 0.09096658 0.113296025 -0.078318216 -0.28796682 0.009455312 -0.27913868 0.0552103 -0.14448127 -0.033998664 0.07322779 -0.17088516 -0.13323963 -0.10094645 0.26254332 0.04904438 -0.16960621 0.018664844 0.16805896 -0.08892824 -0.06951359 -0.12890717 0.1775156 0.110329024 0.16097012 0.14952673 0.16269852 0.12438973 0.31994727 0.19636084 0.021748902 -0.06736288 -0.04773514 -0.06146403 0.19404908 0.0662237 -0.1652628 0.20530276 0.22489864 -0.08067915 0.09047291 0.08275858 -0.105689645 0.043295786 0.18553324 -0.078589775 -0.160433 0.09347997 0.02819909 0.06397929 0.12916373 0.2557655 -0.10159482 0.11358275 -0.07849051 -0.0577354 0.0507319 0.33136138 0.09097837 0.03905379 0.034066994 0.02979054 0.11847198
3405 -0.0877844 -0.16308029 -0.1346062 0.0614247 0.048203666 -0.0690241 -0.2144361 0.22799158 -0.15449287 0.024268353 0.046102047 -0.22317204 -0.3751271 -0.011754528 0.024132729 -0.07607398 -0.07330488 0.03844043 -0.20915778 -0.13637298 0.084943615 0.08413916 0.036758807 0.006589089 -0.10592996 -0.041811205 0.3383061 0.103026845 0.11852088 0.06486526 0.086850405 0.19274904 -0.09102333 0.103506945 -0.11446361 -0.06265889 0.0024384756 0.12611711 0.30106673 -0.4099332 -0.12591864 -0.021965621 -0.26631135 0.10714467 0.01895328 0.07822899 -0.09334116 -0.08718026 -0.26934817 -0.15029514 -0.060625102 -0.20556056 0.14361127 -0.012596205 0.020311154 -0.18276724 0.010284475 0.010735798 0.17896497 0.03425471 0.25036493 0.15932424 -0.1946017 -0.10775616 -0.18021354 0.04030452 0.070399 0.034726605 -0.14878246 -0.17123075 -0.079549074 0.060140315 0.3145935 0.07778592 -0.10648947 0.10548464 0.1546197 -0.023961654 -0.17570218 0.12261101 -0.018756257 -0.052096896 0.19662169 -0.019136174 -0.059168853 -0.15783627 0.058557395 -0.16571566 0.30298734 0.15784466 0.04997081 -0.24058743 0.16081424 0.005547271 0.2228755 0.13897002 0.061244734 -0.013003146 -0.029305324 0.3681919 0.09096582 0.17294241 0.03483977 0.28818867 -0.0630096 0.16980691 0.21193552 0.04388748 0.2280259 -0.1644317 0.08018318 0.049160324 -0.17478849 -0.04812275 -0.22240828 0.094323 -0.11556902 0.09270684 0.011674703 -0.37757796 -0.12970048 0.10581442 -0.15075217 0.042690966 0.0011104645 -0.022463808 -0.217628 0.010339374
3410 0.09088441 -0.19615775 -0.073026195 0.03901025 -0.027166976 -0.14724879 0.30458415 -0.11117386 0.057405055 -0.22900954 0.05227497 -0.12550764 0.006481983 -0.023062067 -0.03734784 0.029603118 -0.22304536 -0.16331062 0.17974254 -0.12555465 -0.08285471 0.057383753 -0.031160874 0.059931 -0.006968216 0.028249875 -0.04793629 0.11067372 0.15942855 -0.031527463 -0.019185612 -0.07334077 0.11633568 -0.10450014 0.06393852 -0.36139515 0.17975898 0.07717483 -0.16322549 -0.03234988 -0.036093824 -0.18014051 -0.07522658 0.10424344 -0.017439978 0.01826948 -0.120363206 -0.032091472 -0.025172878 0.08797749 -0.26051214 -0.028980067 0.15002936 0.13460693 0.16316785 -0.21472329 0.11654224 -0.057930183 0.05667825 -0.07893842 0.07747902 -0.08625506 -0.027113605 -0.19148444 -0.059559144 0.24924095 -0.28537333 0.24867675 -0.059288677 -0.08229164 -0.16084485 0.17684609 -0.0212491 -0.4327004 -0.21991329 0.050205637 -0.066780545 -0.32897994 -0.23243387 0.17484413 -0.09778621 -0.2169382 0.07645115 -0.08346611 -0.14333965 -0.19364257 0.18296601 0.06096469 -0.030841103 0.15478097 0.14910573 -0.1667613 0.18905751 0.16068456 -0.06681944 0.05533414 -0.001838635 -0.057493173 0.044562224 0.2572164 0.22619066 -0.099502854 0.15554982 0.23973614 -0.3584404 -0.12765403 0.1119962 -0.16765091 0.0881523 -0.31109935 -0.03755229 -0.21216725 -0.25331813 0.13318546 -0.021267194 -0.2076946 0.28076163 -0.1916854 0.046684407 -0.23761843 -0.012131537 0.24678634 0.08381436 -0.03183282 -0.023101322 0.12510036 0.027625645 0.042647123
3408 -0.09023429 0.007197055 0.046430476 0.20834027 -0.109596826 -0.30227065 -0.22756882 -0.25814185 -0.1662191 -0.081527784 0.11626525 -0.20871851 -0.21378283 0.19542596 -0.004249499 0.006133307 -0.16999908 0.21273358 0.24995719 0.14514092 0.20389341 -0.32816845 0.19628686 -0.33094087 -0.3164166 -0.15463816 -0.026101628 0.05981142 -0.17729807 0.098767936 0.011352567 0.20666324 -0.057778638 0.012718039 -0.2274197 -0.31360096 -0.03853753 -0.22529358 0.17075329 -0.044366598 0.13177927 -0.13046093 -0.15153131 0.029279165 0.02633753 -0.042184975 -0.23644273 0.0104662 -0.15635018 0.10539588 0.07488744 -0.05455428 0.29861388 0.005803124 -0.09662094 0.12137065 0.005053827 -0.13847211 0.04478164 -0.14563264 -0.066314735 0.010587569 0.1927764 -0.3959714 0.08706167 0.23435153 0.065672435 0.076634176 0.22455798 -0.14358167 0.09950778 0.009910714 -0.010185044 0.14805536 0.088190794 0.0077138864 0.0026057884 0.0562843 -0.34623498 0.2259163 0.11147209 0.02125121 -0.0381875 0.14983086 -0.10068867 0.04898408 0.11150748 -0.04701455 0.07564803 0.10530553 0.021228943 0.051689267 0.10241095 0.16211589 0.29336786 0.12261104 0.054034647 0.05313443 -0.092433915 0.08620323 -0.05030883 0.16329895 0.34043714 0.10626965 -0.058358494 0.16299367 0.44143867 0.2790966 0.15772708 -0.20166512 -0.17964077 -0.012999227 0.12055284 -0.0019752006 0.13881294 -0.058712382 0.26185817 0.20769164 -0.2346242 -0.0056770206 0.062817685 0.27041376 0.02219386 -0.03943173 0.2155153 -0.1945018 0.24149905 -0.08774446
3409 -0.13384561 -0.12813649 -0.09018366 0.103884965 -0.18967845 -0.13875294 -0.08374764 0.13565615 0.011036061 0.022468897 -0.050429087 0.1077852 0.11700877 0.00043943827 -0.09888719 -0.015489917 -0.016350485 0.03899284 -0.14571379 0.06774904 -0.22543493 0.15428807 -0.10220732 -0.118139245 0.24192646 -0.12578897 -0.23222825 0.016268626 0.11114267 -0.11206543 0.44693244 0.22534534 0.04651134 0.045725863 -0.26316267 -0.45419472 -0.1725335 0.065510675 0.02246344 -0.038018376 -0.06546964 0.035812486 -0.11076518 0.17864414 0.027495855 -0.27323458 -0.02137026 -0.088334925 -0.27955022 -0.12779593 -0.06882721 0.14509451 0.11949344 0.24825849 0.16576295 -0.15840688 0.2221396 0.038527235 0.12855655 0.25472358 0.2922203 0.021527423 0.11581875 0.11199622 -0.12301097 0.0358648 -0.0674837 0.11900712 0.00701509 0.026196292 -0.11867503 -0.107250236 0.08316531 -0.29997367 0.115845665 -0.12618129 -0.090343505 0.050575275 -0.15344557 0.18238626 0.3215964 -0.025780443 -0.23682082 0.21957979 -0.13387258 0.16477609 0.00095265126 0.23185115 0.22424483 0.25538737 0.24285606 -0.0075022653 0.30841887 0.0067932806 0.0287003 -0.1853112 -0.26177877 0.11030419 0.081994854 0.11408092 0.22509778 -0.21240017 -0.06235031 0.056239158 0.17437688 0.3608537 0.15861489 -0.20117469 0.29121035 0.1175932 -0.17676196 0.22837427 0.07015354 0.19037338 -0.0758543 0.037578672 0.13547055 0.04417115 0.0557729 -0.032283828 0.054504376 0.35681802 0.112414494 -0.07604406 -0.016392877 -0.08513811 -0.0016694888 -0.007881168
3407 0.09611111 -0.29361114 -0.1724589 -0.06379314 -0.14653145 -0.109083146 -0.14932637 -0.24272454 -0.083575234 0.11218981 0.2661369 -0.27726087 -0.13166489 0.1699097 0.042102378 0.051317144 -0.2048268 0.06443432 -0.28055605 -0.2652043 -0.18451929 -0.095106624 0.08927006 0.034597225 -0.11618978 0.000984254 -0.09132359 0.06140783 -0.010809686 0.013291833 -0.08694958 0.12507099 0.062615454 0.048607826 -0.19191188 -0.057313703 0.041048735 -0.035623055 -0.03805989 0.2336925 0.023774022 -0.09390458 0.013456354 -0.07938381 0.42661533 -0.17121837 -0.042162556 -0.025071511 -0.006301649 -0.077542074 -0.15282005 0.06557626 -0.0068870294 0.02204057 -0.19430327 0.0046176887 -0.031919647 -0.13648298 0.050487626 0.045940243 0.051713526 -0.048409894 -0.0142613 -0.07942507 -0.023881469 0.009170719 -0.16950548 -0.10899953 -0.047552247 -0.23044448 -0.025706759 0.06695847 0.16123627 -0.076161884 0.20596367 -0.10040319 -0.08984519 -0.111989975 -0.35005325 0.21985753 -0.08406559 0.013129244 0.18361244 0.24033998 -0.078342915 -0.006504587 0.04925291 0.27256763 0.155779 0.07113932 0.09329722 0.051877573 0.19158107 0.10484838 0.09983891 -0.010060264 0.11427844 -0.024884012 -0.019592596 0.29883394 0.03835916 -0.45696533 0.15611579 0.33708102 0.08325633 0.17171797 0.50014573 0.0010822981 -0.021960797 0.16720091 0.14961329 -0.011407391 -0.37930042 0.03473616 0.050935972 -0.030936519 0.024045454 0.18635929 -0.12607408 -0.12276812 -0.17660712 0.12302663 0.0777578 -0.28446817 0.019966481 -0.107075505 0.1818562 0.1308191
615 -0.13308059 -0.29345095 -0.1579489 -0.12837724 -0.095063396 -0.12168729 0.057103287 -0.07356518 -0.11295583 0.156702 0.0236675 -0.09736064 -0.00543475 0.15449658 -0.05681568 0.107674815 -0.26495874 0.11020999 -0.16092016 -0.044566732 -0.114310294 -0.14488712 0.10462252 -0.1256203 -0.18906355 0.123280354 -0.03285263 0.08414505 0.13432096 0.091500804 -0.07579193 0.03872344 -0.16051412 -0.14908297 -0.033651415 -0.2472668 -0.016583208 -0.0162447 0.026933106 -0.18942888 -0.109304525 -0.12877078 0.13716663 0.15569423 -0.14948063 -0.22161052 -0.049142614 -0.025531797 -0.2386569 0.05954195 0.24345478 -0.032091834 0.16553226 0.18041188 0.046847727 -0.14812003 0.15291032 -0.03455218 0.18192813 -0.1369078 0.16455652 -0.108063705 -0.089162044 0.13172117 0.07725963 0.13837692 0.11453377 0.19215544 -0.21785447 -0.07208455 -0.05643185 -0.21258616 0.15402205 -0.127429 0.010853137 0.21649307 -0.09228998 0.05469768 -0.08364717 0.09254755 -0.032783367 -0.0494563 0.105404906 0.019530796 -0.08732809 -0.15956318 0.057610355 -0.06433615 0.24581909 -0.17031261 0.22637653 -0.18106852 -0.058649823 0.24329922 0.043470334 -0.111236505 -0.05894913 -0.039794244 0.17550537 0.3097776 0.22769837 0.040268026 0.24915951 0.18023326 -0.025199903 0.20287375 -0.11616175 -0.11366445 0.09741646 0.018614048 -0.029675933 -0.02745192 -0.15839085 -0.22589432 0.029128194 0.07503286 0.16657235 -0.014015676 -0.15379708 0.05515876 -0.0034227152 0.1954404 -0.013055192 0.078860216 -0.12717725 0.028594548 -0.052858274 0.006768328
3411 -0.16884546 -0.2613738 0.12077526 0.057805836 -0.064651765 -0.17892244 -0.115109935 0.30053228 0.14444895 -0.10471287 -0.36944005 -0.11467079 -0.18160897 0.14168821 -0.359062 -0.14177905 -0.12770548 0.25312465 0.22222537 -0.1788579 0.25946668 0.033978514 0.16860184 -0.1705652 -0.0018149922 -0.016762769 0.07236856 0.32036915 -0.14284812 0.24785078 0.1670385 0.16326447 -0.27153835 -0.21073832 0.043061756 -0.09521597 0.03338457 0.08214085 0.16562498 0.07873899 -0.23464964 -0.10935652 0.06948158 0.23361105 0.24902028 0.07369991 -0.04856172 -0.18836966 0.06220201 0.006734649 0.21706054 -0.1526053 0.04762707 -0.07444837 -0.05313085 -0.0855207 0.13621223 0.008600737 0.18671584 -0.37659377 0.026479114 -0.111862496 0.3290148 -0.036646936 0.015991777 0.033166222 -0.06074412 0.19411685 -0.018379647 -0.06898271 -0.034585793 -0.07960114 0.059141807 -0.15566047 -0.18317519 0.1599592 -0.25379363 -0.041153133 -0.2256647 0.0070566433 0.00022014823 0.1013949 -0.06713012 -0.03599897 -0.104440466 0.0019632706 0.06179103 0.08215377 0.14530863 0.14544615 0.1853071 0.16922772 0.08707596 0.41003457 0.038617946 0.06515013 -0.30072105 0.09446115 -0.14248197 -0.030947948 0.061642334 -0.14396715 0.0013273829 0.0596908 0.14613259 0.25795826 0.28114754 -0.1804697 0.15793121 -0.030304339 0.045022424 -0.07746214 -0.3556176 0.018189495 -0.3336994 0.36848444 0.18593845 0.16348845 -0.0792533 -0.13519596 -0.017018706 0.010462072 -0.41468433 -0.2564703 0.14269567 0.04110637 -0.016795699 -0.0074179373
3406 0.004661354 -0.20372827 -0.073550545 0.32646176 -0.0986174 0.03214446 0.02878484 0.058925293 0.17003866 -0.036342893 0.044731773 -0.27355728 -0.055226844 0.13486566 -0.15555258 -0.058543704 -0.35828468 -0.050002284 -0.2803841 0.04568554 0.07466087 -0.033562977 0.21664572 0.01363366 0.0015108838 -0.14297833 0.03410877 -0.094278045 0.122826084 -0.08885429 -0.096258126 0.06743325 0.06036013 0.26624918 0.11580668 -0.21578874 0.15269311 0.15860316 0.237997 0.09706095 0.106824696 0.06531557 -0.13346823 -0.10825507 0.15896825 0.034242835 -0.19960469 0.13578583 0.03009169 -0.118307136 -0.14665848 0.30408207 0.015759904 -0.047533676 0.08132971 0.015531407 0.09759872 -0.31869462 0.2092357 -0.18165931 -0.08138116 0.16122876 0.15654635 -0.044316046 -0.14135398 -0.00867459 -0.21450771 0.29258084 0.04701883 -0.3116117 -0.09464875 -0.14486484 -0.008359769 -0.031237917 -0.033292033 0.023478119 -0.041957375 -0.08047537 -0.38719895 0.16616784 0.16425672 0.2980569 0.25000843 0.2528551 -0.10751389 -0.020299954 -0.19445428 -0.07037505 0.12980258 -0.10639491 0.0014272897 0.06191578 0.018302456 0.3939989 0.12185418 0.08563494 0.042335894 0.1548045 0.028052881 0.24345924 0.03181408 -0.124179356 0.17056262 0.22900872 -0.033022773 -0.004620402 0.19731425 -0.22920737 -0.4210778 0.10979855 0.03455662 -0.060776543 -0.11425861 0.015389374 0.14377037 0.0048167882 0.18737088 0.15711094 -0.046104718 -0.12734926 0.019018019 0.0017482553 -0.19545454 -0.160187 0.01581846 -0.33460084 0.17616165 -0.07175011
235 -0.114005186 0.077853955 -0.22385529 0.022882067 -0.037248738 -0.22770081 -0.01296526 -0.06657413 -0.2475348 0.09558833 0.046614517 0.0035467844 0.016578551 0.09027214 0.07176693 -0.02062615 -0.25024733 -0.11607335 0.19557053 -0.0052620415 -0.07297873 0.26248506 0.14446318 -0.06757373 -0.19281955 -0.32119322 0.026887529 0.14987935 0.070438966 -0.24184857 0.07193062 0.009169817 0.06572186 -0.077460565 0.0869582 -0.14574967 0.2205627 -0.013981414 0.22752307 -0.15873222 0.05499047 0.083069876 -0.20325649 0.23121789 0.110116325 -0.0206454 0.21053335 -0.018807407 -0.064606674 0.02360337 -0.03792456 0.073998764 0.1548045 0.121183895 0.024802014 0.05411113 0.073450394 -0.22845674 -0.059020936 -0.009029782 0.15062118 -0.1439065 -0.08044282 -0.099544555 0.17759512 -0.1561941 0.08493446 0.1464172 0.025890836 -0.025419867 -0.10282047 -0.04303642 0.05693716 0.070621684 -0.21564049 0.17412189 -0.3319684 -0.011802563 -0.21207075 0.0581027 0.32442233 0.10380819 0.060414057 -0.0707465 -0.12567836 -0.17740856 0.098907106 -0.13214336 -0.06514118 -0.19681552 0.11660155 0.18941598 0.07385812 0.0694491 -0.06209162 -0.035606913 -0.15602593 -0.23656295 -0.020812662 0.31631592 -0.0017666268 -0.13595222 0.2594684 0.10047343 -0.10743175 0.41606694 0.041608643 -0.15834942 0.15629558 -0.05873286 -0.07616432 0.07549594 -0.19623575 0.08165582 0.03086318 -0.11657312 0.102344304 -0.030834004 -0.02604791 -0.3041854 -0.13695395 0.07398407 0.24069488 -0.045467235 -0.016180653 0.049843784 0.13615112 -0.0011935679
3413 0.32404226 0.009200387 -0.40135103 0.11345246 0.07536941 -0.13625103 -0.0510637 0.10550726 -0.30673608 -0.09389531 0.19317709 -0.36289102 -0.103145085 0.07250928 -0.067596026 0.041008208 -0.33612517 -0.06895405 -0.0584727 0.16878138 0.042122915 0.05770016 0.0678123 -0.22163865 -0.43450588 -0.33059347 0.016957974 0.012536169 0.11480852 -0.20736483 -0.01677663 0.036721326 0.04257387 -0.12995562 -0.18527673 -0.17659628 -0.030690938 0.042403672 0.45012313 0.01786829 0.09494933 0.04320018 0.15339008 -0.023806987 -0.0062497384 -0.14819251 0.23531976 0.24151981 -0.027320746 -0.2059578 -0.1458865 -0.02311633 0.2552802 0.055201277 0.15950395 -0.055964164 -0.25477824 0.049867693 0.20111687 0.19332251 -0.07860138 0.15914519 0.024557019 0.08433364 0.15046875 -0.006396309 -0.20456015 0.11597132 -0.10273247 -0.13496132 -0.18505381 -0.14431688 0.10661173 -0.11675814 0.00739354 0.12015153 0.19266236 -0.19897804 -0.22078992 0.049480397 0.23223712 -0.0372325 0.0027571667 0.13878469 -0.2768425 -0.08504373 0.13254434 0.092062935 0.30642366 0.09774493 0.095530696 -0.4468687 0.03425913 0.028990287 0.1745086 -0.096476376 0.09981954 -0.124875 0.10791581 -0.042114716 0.24992666 -0.067554526 0.1151356 0.24883947 0.29265204 -0.05904039 -0.057362966 -0.2558094 0.18571524 -0.18469907 -0.015646582 -0.13273701 -0.31050763 -0.16706045 -0.12786119 0.23307511 0.19712982 0.19544952 0.044927593 -0.23621805 -0.11067665 -0.047510456 -0.09100182 -0.1428603 0.12705736 0.11727434 0.07159806 -0.04882674
3412 0.041763104 -0.051070303 0.024255214 -0.07323702 -0.3419737 0.024598971 -0.11440147 -0.14837353 0.1287606 0.21852298 -0.12774055 -0.003265574 -0.13588965 0.123073794 0.037285578 0.18734407 -0.11368741 -0.123735316 -0.14743713 0.195176 0.12927668 -0.23719756 -0.088998914 -0.31089497 0.04245451 -0.28617644 0.18687403 0.067795135 0.14516924 0.11282439 0.02351057 -0.11798252 0.2621114 -0.026994951 -0.053475622 -0.09971355 0.09785858 0.17418775 0.029590717 0.0031006003 -0.096536316 0.24194275 0.14735468 -0.1436207 -0.15832138 -0.34805754 0.11608112 0.18470396 0.116040684 -0.117001034 -0.00022759307 -0.06506343 0.13355353 -0.04820501 0.052378293 -0.3306034 5.214167e-05 0.1252295 0.05960911 0.1415494 0.10915078 -0.022557424 -0.023616856 -0.09822607 0.00042750812 0.060307544 0.026447508 -0.046205003 -0.06247489 0.020281637 -0.18570714 0.06975435 -0.023009913 -0.068973094 -0.03652103 0.052731343 0.039510358 0.07782476 -0.2892594 0.20603962 0.26212665 -0.36809352 -0.12782821 0.037677273 -0.0072041857 0.34758276 0.12184134 -0.026378354 0.22020021 0.10821684 -0.026101852 0.21026643 0.19852911 0.046932366 0.00042573723 0.08386197 -0.026801027 -0.036114562 0.035610195 0.29445148 0.056673814 -0.21851525 0.325226 0.33526438 -0.1312616 0.33334062 0.35288113 0.10791642 -0.088513486 0.16974208 -0.22760943 0.027901279 -0.11937988 -0.0807348 0.1074151 -0.18652214 0.12512712 -0.0019152217 -0.22881219 -0.082943745 -0.11319395 0.33269525 0.15938991 -0.17929225 -0.15241887 -0.14054573 -0.0063993675 0.061605982
3418 -0.016954904 -0.02657187 0.033807486 -0.021358464 -0.088361904 -0.22934116 0.110572554 0.053786077 -0.077287875 0.14781548 -0.047227796 0.10564896 -0.0896225 -0.111557424 -0.14856532 0.0754101 -0.20199868 0.003534181 -0.34962252 0.056204442 0.049497955 0.1409359 0.08920968 -0.068207785 -0.30354244 0.11347459 0.06747174 -0.055821773 0.33682886 0.012074186 -0.21169917 0.09857217 0.24683608 -0.25613874 -0.14996128 -0.27084157 0.15251526 0.20465484 0.11792512 -0.13856938 -0.17163941 0.14043853 -0.067215934 0.22611038 -0.021191364 -0.012672006 -0.06881353 0.35904467 -0.046721224 0.021477463 -0.020561812 -0.030431647 0.14467843 0.19390878 0.34411123 -0.094900794 -0.02399739 -0.05443715 0.14221577 -0.1173406 0.13736576 -0.25522962 0.24361461 0.034691483 -0.09067624 -0.12020286 -0.20849063 -0.049416564 -0.058389872 -0.15839167 0.025044125 -0.0007680557 0.27156833 -0.25855175 0.045321982 -0.019066742 0.07482408 -0.030783236 -0.29668304 0.16007626 -0.08095708 -0.124532156 0.23647875 -0.10073131 -0.11213753 -0.018427083 0.09252125 -0.24377786 0.024823328 0.10785869 0.029282618 0.02113278 0.049944825 0.1418601 0.18831171 -0.11504008 0.07853625 0.16818254 -0.14940327 0.10035572 0.17884013 -0.041089308 0.034702353 0.3117849 -0.005347162 0.17780665 0.30202904 -0.22636941 0.2858831 -0.20824319 -0.037733924 0.09493008 -0.37527433 -0.10482063 0.061752193 -0.084193304 0.27223167 0.07374572 -0.05637533 -0.46133184 -0.007036775 0.21020964 0.27353674 -0.21405555 -0.06055595 -0.18747103 0.08060459 -0.0659151
3414 0.174769 -0.035004802 0.18096097 -0.05257607 -0.1402292 -0.09625899 0.050284162 -0.18608062 -0.2046642 0.16319497 0.13632262 -0.13706599 -0.17703925 0.024464728 -0.4202462 0.18203385 -0.19024146 0.090976775 0.17968611 0.021592405 0.07917659 0.15577948 0.22126696 -0.124813974 -0.09167192 0.0029710964 -0.19514307 0.067333795 -0.05580148 -0.058668368 0.18934557 0.33802477 -0.23883851 0.099305026 -0.089740366 -0.17701957 0.27603236 0.095248 0.124511205 -0.03928668 -0.19184972 -0.0028396905 0.14610167 -0.14288804 0.09061867 0.148165 0.10945195 0.17909004 -0.15283601 -0.059904937 0.031377032 -0.04932681 0.15028076 0.09326629 -0.15853342 0.006920022 -0.18736525 -0.08399632 0.12651245 -0.29397514 0.13189785 0.25301206 0.16249807 0.14502642 -0.1429176 0.13831456 0.00052626466 0.21595262 0.12646425 0.008430442 0.22770628 0.123075545 0.14071953 -0.030842414 0.20625874 0.49289095 -0.17791553 0.07750873 -0.22526938 -0.030934753 0.12170035 0.14390555 -0.043094393 0.07938845 -0.2250664 0.18010214 0.03797455 0.14098339 0.23056039 -0.012318205 0.15304734 -0.027450975 0.19510895 0.15015115 0.17198464 -0.008648419 -0.111959144 -0.09972852 -0.017481685 0.12686877 0.111079335 -0.3182482 0.045861214 0.12727746 -0.055013657 0.047343675 0.3465314 -0.19675127 -0.0012252596 -0.12278156 0.18734764 0.24700785 -0.15136267 -0.11031145 -0.11118408 -0.25033635 0.21720669 0.13930067 -0.057714477 0.059948634 -0.14913367 -0.052686594 0.14758939 -0.0938373 -0.1680131 0.21718809 -0.06795232 0.22451498
3416 0.07575852 -0.15561827 -0.21647368 0.18160044 -0.079462275 -0.08906274 -0.05011936 -0.087252095 -0.04170217 -0.08455164 0.12993015 -0.13091458 -0.20141493 -0.09681339 -0.16593462 0.019254677 -0.4943142 0.1807982 -0.25839543 -0.23237921 0.12718998 0.10190144 0.10108725 0.064861305 -0.18044294 -0.060655434 0.34107327 -0.18535008 -0.3340586 0.26531437 0.3105587 0.016588164 0.17402299 -0.004178048 -0.007879484 -0.13234659 0.11022346 -0.050241504 0.1975637 -0.15334556 0.024009073 0.0007359304 0.0057678046 0.091525756 -0.017083963 -0.10536411 -0.15414433 -0.026794365 -0.3079797 -0.18683772 -0.3682154 0.11154486 0.11234973 -0.0075607165 0.0021460522 0.027454928 -0.057710208 0.1325688 0.14374352 -0.22237246 0.2575901 -0.047212448 0.032376356 0.08556489 0.18395838 -0.06822524 -0.27752298 0.02371008 0.00049218675 0.04521325 0.015882216 0.10065854 0.21419531 -0.1657815 0.082992636 -0.056813657 0.07054982 0.15852402 -0.17044275 0.3939463 0.17266612 0.2548094 -0.032758888 0.12858544 -0.058582556 -0.08778795 -0.15830877 -0.012853821 -0.041740403 0.13078085 -0.12392351 -0.30705047 0.18651013 0.0872456 -0.023140442 0.036965046 -0.042095132 0.06696754 0.28063297 0.111687705 -0.015715595 0.18231542 0.1366134 0.3896704 0.015075158 0.5301477 0.20992966 -0.040350974 -0.29055172 -0.1348222 0.15213901 -0.011213936 -0.19678023 -0.0079426775 -0.07555179 -0.1292602 0.28277364 -0.017790169 0.020984372 -0.3514522 0.06965632 -0.10380211 -0.029288093 0.018579185 -0.11259812 -0.13371883 0.052850325 0.04879154
3417 -0.20871596 -0.08646095 -0.1442569 0.030123567 -0.034936145 -0.017619494 0.11311562 -0.14982927 -0.012575922 0.027540352 -0.10205224 0.24893959 -0.33714527 0.12394204 -0.062431037 -0.18640324 -0.14367267 -0.17943336 0.106417745 -0.00047792942 -0.18251017 -0.04711679 -0.21312737 -0.01898545 0.064406134 -0.14744946 -0.009863631 0.1772903 -0.09705904 0.13778207 0.022486158 0.10376094 -0.13189532 0.047471166 0.082102634 -0.16395973 0.19850212 -0.1409502 0.065591544 -0.0011939576 -0.09633068 -0.018151512 -0.09029967 0.13410334 -0.015250396 0.15438981 -0.15482533 0.23350123 -0.11331075 -0.057686992 0.15405886 0.08219515 0.14493467 -0.26547828 -0.03570871 -0.043859795 0.05043593 -0.06047964 0.0008951388 -0.059523635 0.22531092 -0.09721015 0.021737283 -0.06649806 0.005687218 0.33027503 -0.12749259 -0.026902966 0.07038891 0.2228321 -0.25160915 -0.15070634 0.18894677 0.043508537 -0.012734584 0.12476601 -0.00090129353 -0.060156308 -0.52829945 0.114927575 0.25983056 -0.31558123 -0.17575952 0.21830332 -0.35317385 0.043039344 0.10491917 -0.12894803 -0.048464555 -0.189867 -0.054572158 -0.26322472 0.036418315 0.079796836 0.13645251 0.05822159 0.078782514 -0.18992965 -0.1936528 0.0278067 -0.12442896 -0.12805058 0.07928985 0.2583924 0.0067922673 0.22150803 0.22879405 -0.43085587 -0.2004815 0.08205346 0.12136397 0.049304068 -0.31395748 0.10935851 0.15391521 0.092942305 0.38835233 0.0041278745 0.09505636 -0.41352186 -0.25187778 0.07102832 0.22257413 0.114155404 -0.16039087 -0.08192381 0.18478605 -0.042758282
1166 -0.10188534 0.01704982 -0.27557826 0.13988648 -0.23631038 -0.21587506 -0.12022846 -0.2013495 -0.17196067 -0.10013297 -0.1277487 -0.13021335 -0.23223063 0.12940432 -0.116539165 -0.05774833 0.013689312 0.09683464 -0.18572564 -0.26218745 -0.057336215 0.18526906 -0.059575416 -0.044673517 -0.088768035 -0.1590386 -0.0025527144 0.12202646 -0.14421692 0.032423135 0.030051013 0.0787765 0.042699136 0.031481154 0.007184408 -0.17221601 0.010665749 0.21965304 0.17213632 -0.006812567 -0.01093305 -0.07711263 -0.0153294895 -0.15893267 0.0087650195 0.29508725 -0.078897476 -0.06681288 0.17329966 -0.18520473 0.07011386 0.058194883 0.14305343 0.1720485 0.119479455 -0.1490775 0.10571505 -0.3445339 -0.0034647777 -0.08551064 0.118452266 -0.016586233 -0.11292136 -0.040740922 -0.11086962 -0.08357529 -0.037538145 -0.03349316 0.037246756 -0.23762247 0.02821753 -0.09451775 -0.089061126 -0.094570875 -0.12926069 0.110856235 -0.12115002 0.061735354 -0.2993049 0.18545805 0.15096089 0.057154816 -0.22483225 0.047238044 -0.10293251 -0.08066231 -0.02816711 -0.05705172 0.045631755 0.2059062 -0.007379449 0.23370457 -0.022970743 0.083161876 -0.022831103 -0.108465575 0.07061185 0.04124797 0.13480406 0.23257142 0.082597226 0.07374654 0.09240156 0.3644826 -0.08292597 0.2529897 0.14270093 -0.13887441 -0.07584 -0.19565727 -0.010412658 0.20542713 -0.20781666 -0.1422844 0.040402744 0.22100702 0.27196175 0.16704133 0.051890895 -0.1706407 0.015399102 0.031607073 0.4395747 -0.03572276 0.0007548988 0.07323843 0.35335377 -0.0767475
3415 0.03548543 -0.16551 0.008405047 -0.09604848 -0.09714315 -0.19167835 -0.041806374 0.16255412 -0.018980749 -0.03653406 -0.23017257 -0.24488445 -0.005104806 0.11289229 -0.20318553 0.04614027 -0.1422475 -0.038468577 -0.2589426 -0.06762574 0.05288152 0.17910278 -0.12565497 -0.25197843 0.13131833 -0.013880145 -0.1495987 -0.04478054 -0.08648091 0.19461787 0.07930468 0.18646675 0.13710466 -0.004047466 -0.009929788 -0.52284676 -0.0041574435 -0.1643278 -0.15550262 -0.07922005 -0.13660425 0.10065848 0.09089355 0.02286495 0.039895996 -0.0019243996 -0.1002244 0.060179014 -0.027517447 0.08738593 0.054479152 -0.06763859 0.07184042 -0.04493965 0.15276872 0.060001858 -0.12410251 -0.11776148 -0.036608886 0.07152394 0.2922146 -0.069813475 -0.08035782 -0.15043962 0.029456582 0.033154532 -0.20643109 0.23988529 -0.16221382 -0.15410022 0.09744339 0.18919106 0.34667188 -0.17407422 -0.10105324 0.21514718 -0.0064162174 0.012847693 -0.23826939 -0.011206424 0.26056886 -0.06931769 -0.04295496 -0.11764903 0.0542277 -0.05258342 0.13294825 -0.3376297 0.2099935 0.12529291 0.05990757 0.03459165 0.020669311 0.08851259 -0.043699402 0.18233928 -0.008997334 -0.11508051 -0.009875797 -0.0029084308 0.053310357 -0.3059442 0.02031714 0.20121546 -0.024051214 0.176281 0.17342566 -0.09687585 0.17749844 -0.24417694 -0.2037635 -0.057242166 -0.29846883 -0.0153909745 0.05326162 -0.22245279 0.3067081 0.09725552 -0.10138659 0.06355086 -0.21554108 -0.28328535 -0.24878052 0.05265 -0.09277426 -0.06861752 -0.07161678 0.029938117
3421 0.04294702 -0.062255118 -0.07363135 0.19725204 -0.20682146 -0.119286925 -0.022521695 -0.11943809 0.063402005 0.27132535 -0.13058881 0.040582225 0.13965046 0.09179668 -0.033988103 0.097607136 0.031839423 0.0025867585 -0.21465674 -0.14096132 0.29086787 -0.025372835 0.25445357 -0.37345898 -0.37244934 0.07827011 0.11393771 -0.19911006 -0.016662594 0.012745317 0.030759795 0.066361524 -0.09770537 0.11442507 0.08334628 -0.3693763 -0.111814074 0.14948647 0.04676581 -0.15415241 -0.13471508 -0.23546831 0.0929185 0.023318904 -0.033264153 -0.03633584 -0.023481768 0.20381296 -0.26185134 -0.1737997 -0.34785244 -0.03376373 -0.104565874 0.15196945 0.20281386 0.087419085 -0.08632899 -0.25492638 0.29021943 -0.27630746 -0.019082516 0.15356651 0.16528144 0.00052780047 0.4048974 -0.29774684 0.086680196 0.17725483 0.14076085 -0.11142457 -0.050449662 -0.24345544 0.1332605 0.08234918 -0.14218962 0.087092385 0.04768537 -0.034971807 -0.069296755 0.36766303 0.19770814 0.04788483 0.13426079 0.46792138 -0.057993572 -0.20376423 0.111055985 -0.17501731 0.22501753 0.1259386 -0.04471557 -0.062308226 0.2550933 0.22986116 0.28672138 0.040917024 -0.09842711 -0.08432288 -0.008087133 0.2602323 -0.06106847 -0.09780906 -0.17525427 0.02844901 0.08273555 0.15314704 0.27315736 -0.26797852 -0.058103938 -0.059843604 0.06682329 -0.12235789 0.03174417 -0.07386434 0.03888936 0.033566803 0.19902723 0.20199683 0.15293668 -0.36106533 0.06914862 0.11682069 -0.069172464 0.08656687 -0.2271789 -0.110617295 0.028371219 0.18741852
3419 0.089839734 -0.052480135 -0.24500048 0.24906784 -0.50836295 0.08209466 0.02459879 0.029624607 -0.075667046 0.009857023 -0.046951268 -0.25307825 0.060523514 0.24982004 -0.20265749 -0.0073449663 -0.18704605 -0.047059268 0.22910815 0.16641493 -0.010115701 -0.29869407 0.054959074 -0.29002184 -0.07987394 -0.1818088 -0.19354431 0.08361886 -0.07727548 -0.108210385 0.0062427334 0.26922593 -0.14682558 -0.16584271 0.076536044 -0.48544207 0.16298032 0.20369223 0.1365372 0.20590578 -0.1768056 0.23488292 -0.11716786 -0.052626897 0.23897366 -0.047797028 -0.36952302 0.13753232 -0.105558395 0.1150693 -0.15607876 -0.032825444 0.22331043 -0.049264383 0.014509307 -0.11121369 -0.10177566 -0.17308661 0.23223007 -0.32201037 -0.28296772 -0.045113247 0.24354458 0.037595164 0.123227224 -0.023432752 -0.095962934 0.014314246 0.011558799 -0.19684647 0.1593673 -0.028088404 -0.060481954 -0.20685372 0.06377296 0.29441544 0.03429115 -0.04335696 -0.0088877 0.08950294 0.1620567 -0.097058445 0.23636554 -0.009551174 -0.21683162 -0.16328676 0.16953897 0.10885369 0.044041187 0.09848292 0.37453908 0.10237695 -0.08606287 -0.10420246 -0.0858293 0.053720098 0.006284015 -0.111577556 0.013993943 0.20107695 -0.262659 0.010106864 0.17981695 0.32566574 0.088823944 -0.021479508 0.26536152 0.23249123 0.12893881 -0.23930179 -0.022846105 0.17764397 0.12396196 0.1590517 0.20332575 -0.054909337 0.13343896 0.13283387 -0.14344388 0.04356068 0.17271313 0.21031731 0.09486576 -0.13441464 0.22630431 -0.3670468 0.047271386 -0.02888997
3424 0.029812781 -0.14878818 -0.2267342 -0.02313007 0.015987564 0.062396064 0.11482628 -0.053446945 0.096068665 -0.06564229 0.05050226 -0.07956843 -0.24279054 -0.02583455 -0.035321236 0.10491795 -0.42736334 -0.009284398 -0.20207402 0.04921457 -0.1599835 -0.20815839 -0.009560479 -0.29923218 -0.16173992 -0.027239922 0.30181625 0.123797946 0.024733862 0.10697291 0.36250454 0.29335558 0.09110966 0.07493237 0.1716245 -0.050268278 -0.08274106 -0.07388849 0.2420452 -0.09978061 0.13765474 0.08151366 -0.04630497 0.14756219 0.15321998 0.014517875 -0.033328984 0.13887426 -0.19742431 0.12892175 0.09407954 -0.17463608 -0.06605111 -0.08834616 -0.0995498 0.23924853 0.004154758 -0.18240653 0.21233633 -0.112953514 0.15457363 0.07099962 0.14442548 0.19312571 -0.18606254 -0.035909705 -0.19621423 -0.0047818245 0.043200325 0.030642033 0.054025646 -0.0941044 -0.24068303 -0.31280288 0.08112008 0.2307279 -0.023512298 -0.074158095 -0.18444403 0.035905838 -0.08563047 -0.11601935 -0.10147673 0.13119435 -0.027571127 -0.109166466 0.095361434 -0.12840511 0.13565579 -0.023029275 -0.060940277 -0.116910905 0.32311887 0.15124716 0.06853103 0.17520438 -0.0063086767 0.11615127 0.07117194 -0.0355627 0.029423933 -0.29510996 0.21059316 0.18163912 0.16267328 0.31662118 0.1666413 -0.3654836 -0.07496463 0.15274812 0.2696069 0.34062883 0.057731178 -0.15102986 -0.037468635 -0.1598584 0.21902944 -0.1307038 0.18580817 -0.026775984 0.046092093 0.27671206 0.5254188 0.14199768 0.044623695 0.069206856 0.029214941 0.15098317
3427 -0.0007006814 0.023682171 0.0403984 -0.060593106 -0.073424384 -0.20636539 0.12707637 0.07208994 -0.10560164 0.16827519 -0.037012465 0.113741785 -0.14989251 -0.11492403 -0.121070795 0.08595874 -0.20878957 -0.005551522 -0.31717262 0.06923002 0.047807336 0.14861463 0.10864188 -0.08303676 -0.28603828 0.08176301 0.043156885 -0.07903779 0.2698679 0.0008683572 -0.169695 0.107977994 0.25036475 -0.25955445 -0.16239205 -0.28036472 0.10311461 0.16571736 0.20137848 -0.207539 -0.13383889 0.08364076 -0.054273434 0.2361989 -0.016608344 -0.018918915 -0.11323495 0.37302297 -0.083098665 0.024801617 -0.030295284 -0.02819221 0.1401709 0.16529897 0.37140235 -0.06992628 -0.049955267 -0.02648774 0.16632365 -0.17676203 0.13932514 -0.29403892 0.24596488 0.04167941 -0.13749962 -0.1118276 -0.22396503 -0.08390631 -0.028983975 -0.15808551 0.066822544 0.022581344 0.2464262 -0.25873914 0.015493603 -0.058600772 0.13908574 -0.035197947 -0.28978157 0.1623398 -0.03543992 -0.075245604 0.20899567 -0.10881221 -0.17246032 -0.09158647 0.09140596 -0.27362373 -0.018855056 0.09889378 0.009296475 0.02967917 0.09039698 0.14076705 0.17309585 -0.14381829 0.10436748 0.1735645 -0.17132197 0.12822025 0.1448729 -0.08048492 0.067487895 0.35455638 -0.06940899 0.22012952 0.27983963 -0.2485923 0.21516258 -0.21367848 0.01833194 0.14702663 -0.335707 -0.13887006 0.091832936 -0.080131516 0.25694087 0.11954846 -0.08815328 -0.48496002 -0.0021904614 0.19098048 0.30788267 -0.18884593 -0.07401025 -0.19242318 0.07882332 -0.04550759
3423 0.064166 -0.05439799 -0.16371182 -0.0736534 -0.27014452 -0.32183152 0.013309184 -0.054126926 -0.039616525 -0.071639456 0.14518741 -0.117298305 0.021040238 0.12145543 0.08317879 -0.04262404 -0.08863522 0.25043914 -0.09947337 0.20595646 0.10832575 -0.11392116 0.034016665 -0.060688034 -0.015661454 -0.2630035 0.106983386 0.178744 -0.05822593 0.030114694 -0.12690246 0.27379885 -0.2582802 -0.11247338 0.020303654 -0.12149938 0.011786825 0.16092819 -0.01288716 -0.1490186 -0.10231031 -0.13174513 -0.20393182 -0.03577627 0.1389194 -0.090360075 0.033923328 -0.26644698 0.03946361 0.02460895 0.1541227 0.122266196 0.030675266 -0.13263129 0.079278834 -0.11801435 0.28012556 0.11390662 0.24550831 0.034593076 0.3105485 0.026603743 -0.06655734 0.27327043 0.027615594 0.04959821 -0.12131089 0.040161703 0.03637975 -0.060925677 -0.103876874 -0.03425001 0.10538004 -0.12969162 -0.13482761 0.023315962 0.15848273 -0.11063147 -0.22149006 0.2702173 -0.014407488 -0.08396811 0.28500438 -0.15592797 0.168165 -0.08777879 0.17195822 -0.027954753 0.21550629 0.065070376 0.014777448 -0.020442799 0.13117415 0.3148352 0.015877277 0.12738104 -0.2749827 -0.017275285 -0.10842296 -0.03718134 -0.32641828 0.07735598 0.2959586 0.11580429 -0.22888808 0.11043201 0.22113048 -0.1020626 0.08735684 -0.03345216 -0.12077729 -0.036869787 -0.028134128 -0.26389882 0.13077247 -0.110037394 0.030642385 0.05221045 0.101311885 -0.121633485 -0.20329615 -0.028886316 0.23646922 -0.27007046 -0.04661222 -0.016828494 0.046619214 0.37710094
3429 -0.16307572 -0.22245549 -0.18446583 -0.22342576 -0.034266327 -0.06424694 -0.13306884 -0.061709 0.07786061 0.0506722 0.33547577 -0.37287033 -0.17079942 0.17284831 0.028466376 -0.07514865 -0.1326695 0.114492856 -0.15131085 0.18037748 0.058132183 -0.003249827 0.2330044 -0.11619828 0.04811681 -0.07379871 -0.048467174 0.10936949 0.18767184 -0.017456576 -0.16926096 0.17653021 -0.05470286 -0.05119178 0.08871529 -0.327691 -0.19257775 0.16339433 0.072569296 -0.025831724 0.015784184 0.35396153 -0.12867863 0.12918095 0.11114258 0.042394657 -0.06667692 -0.12998337 -0.056509446 -0.09183099 0.13151886 0.23266664 0.19719248 -0.029822923 -0.046981134 0.049064387 0.10699354 -0.39997748 0.16622739 -0.17253654 0.18905424 0.22385675 -0.058543764 0.047526613 -0.117746145 -0.16198297 0.11061309 0.1223553 0.024190491 0.041548505 -0.28092977 -0.088196486 0.08580837 -0.25566787 -0.054219376 -0.3181599 -0.006966468 -0.009909586 -0.06515121 0.110091515 -0.019332414 -0.20475248 0.023159288 0.042211093 0.047313824 -0.11565375 0.026945706 -0.13724183 0.369927 0.37361738 0.06142459 0.22862597 -0.039333116 0.19845079 0.16541344 -0.05933843 -0.24249464 -0.0031852154 -0.25584105 -0.16801144 -0.17954274 -0.08291895 0.09484795 0.14854144 0.0076513574 0.087483205 0.22919047 -0.14560118 0.023132844 -0.030161869 -0.20060255 -0.10511728 -0.17287105 0.0066915313 0.13422677 -0.11494038 0.21227708 -0.17553928 -0.08896263 -0.06238599 0.037657868 -0.004706113 -0.0043004295 0.03547869 -0.027223859 0.01854856 -0.07447302 0.1512981
3422 -0.055526793 0.11939998 -0.08446698 -0.06886773 -0.08338101 -0.11678651 0.0002386132 0.26449606 -0.03291668 -0.13423148 -0.064911544 0.027410768 -0.17192134 0.3017865 -0.29809123 -0.05473901 -0.313598 0.17576464 -0.24981295 -0.24294442 0.059776545 -0.31082395 0.06412804 -0.1891064 0.114616536 -0.29231453 -0.07135617 -0.06672723 0.12031563 0.11142442 -0.010123961 0.20714842 0.052942142 0.041642144 0.20593835 -0.09804992 0.11659882 -0.053357128 -0.09972365 -0.0010570872 -0.24976055 0.21651295 -0.1634402 -0.012817015 0.15217125 0.02116133 0.035720367 0.044312812 -0.22414161 -0.39396968 0.14713968 0.07215151 -0.01180231 0.0008207446 -0.1501522 -0.13670066 0.4361188 0.0682411 0.20925115 -0.14163889 0.23279217 0.37323126 0.010909042 0.2290449 -0.07888831 -0.08996718 -0.1502775 0.18430668 0.030676702 0.0058590076 0.12245943 0.05669896 0.1675084 -0.14876598 -0.092686884 0.14210191 -0.048480272 0.19750528 -0.2632449 -0.024510214 0.37473908 -0.16731314 0.20337772 -0.3136671 -0.20980443 -0.19883816 -0.16471463 -0.2100648 -0.06355884 0.16170038 -0.1882482 0.07085348 -0.041430335 0.3642941 0.36989632 0.1904277 -0.12176159 -0.2902914 0.11937433 0.11767395 -0.07327252 -0.07041217 0.22226623 0.07086755 0.07526525 -0.1244991 0.110696375 0.09925646 -0.009491279 -0.17727816 -0.002946608 -0.25960213 -0.072012916 -0.08576264 -0.01847833 -0.16426915 0.06555101 0.053183325 -0.14984445 -0.18093228 0.11330199 0.24356163 0.1501981 0.100444905 0.32781917 -0.04960842 0.32676646 -0.05538357
3431 0.20781985 -0.23862544 -0.025690712 -0.015181948 -0.25167882 0.06532415 -0.09594845 -0.25251502 -0.13351735 0.18415317 -0.011407119 -0.00084027194 -0.15837406 0.2017203 0.14337341 0.21937571 -0.19187818 -0.108295806 0.14496624 0.3001734 -0.025446262 -0.23241375 0.045185413 -0.030465255 -0.22339307 -0.13880208 0.14142837 0.040649146 -0.13972883 0.08362582 -0.10556525 0.16879052 -0.25716484 0.26800945 0.021161892 -0.15963589 0.15002126 0.26987323 0.31749946 -0.008225644 0.1276597 0.025906768 -0.13987206 -0.088133484 0.18133417 -0.09236651 -0.115211494 -0.1260603 0.008216244 0.062028307 0.0016144617 -0.1853063 0.09273606 0.1832846 -0.0834408 -0.19860077 0.13644704 0.08395261 0.07881817 -0.105355434 -0.14634137 0.08499484 0.23118332 -0.14120385 -0.1011419 0.014026044 -0.30041233 -0.0047430107 -0.16206564 0.16288976 0.20877424 0.17871946 -0.08166102 -0.039074037 0.18096437 0.25314137 -0.16326891 -0.014248152 -0.103465825 0.15910064 0.09067251 0.016525304 0.33188406 0.23326235 -0.18690431 -0.11157747 -0.012826132 0.14429586 0.08745295 0.20830421 0.1477491 0.1730362 -0.25097537 -0.014501174 0.03484089 0.058374453 -0.18895549 -0.19421646 -0.013973453 0.10921528 0.0900692 -0.43373826 -0.022981767 0.63694113 0.009282734 0.17075542 0.20392065 -0.04432671 0.20347895 -0.14841677 -0.27731198 0.2557212 -0.22174303 -0.089686446 0.029553048 -0.08446434 0.40507832 -0.14824477 -0.050587744 0.028388929 0.040953916 0.03481998 -0.09634684 -0.12597875 0.13848624 0.10833914 0.17723174 -0.088578016
3420 -0.07514803 0.18396421 -0.05748714 -0.026559826 -0.4613703 -0.15305375 0.06367355 0.056155726 -0.27185893 -0.21490102 0.2337944 0.0389841 -0.45546108 -0.033348158 -0.2672511 -0.057208642 -0.2580966 -0.40249258 -0.021953346 0.22110792 0.016217696 -0.021360677 0.07613502 -0.12963529 -0.08025717 -0.09897909 -0.22133829 0.05365528 0.01824318 0.08556821 0.1661888 0.060538728 -0.07916373 -0.110545225 -0.13524452 -0.46499088 0.1397023 -0.078578725 0.013178242 0.13842122 0.21705268 -0.07588912 -0.027394276 0.012670147 0.17510024 -0.33645928 -0.11034937 0.13536006 -0.27086207 -0.22086562 -0.099230096 -0.33399972 0.015170184 -0.20926063 -0.044044223 0.10845519 0.09992178 0.04042337 0.128537 -0.16441998 -0.22475825 0.03623531 0.10004988 -0.051854204 0.03565794 0.00362214 0.019273538 0.016018191 0.085958794 0.03711578 -0.09123005 0.0148870265 -0.1021448 -0.026643943 0.16125248 -0.0020457248 -0.25825587 0.110282734 -0.2229626 -0.15345553 -0.0056512835 0.2859642 -0.02441036 0.226035 -0.28255507 -0.15317066 0.30764243 -0.16128528 0.16670267 0.36826172 0.050764613 -0.16856079 0.013429086 0.27547553 0.06418305 -0.10247688 -0.19529073 -0.103085846 0.042423308 0.13931763 0.16114359 0.00014228345 0.03563611 0.26802576 -0.20233612 -0.117290266 0.2992411 -0.29009396 0.23294242 0.20672789 0.05928094 0.029541485 -0.09946597 -0.20048138 0.053803477 0.24725278 0.07954594 -0.27850902 -0.3777674 -0.1558473 -0.23220427 0.2020498 0.22164002 -0.043763876 -0.03680539 0.060546968 0.3205791 0.073904306
3426 -0.12368173 0.1903269 -0.16007613 0.36878926 -0.06694438 -0.22324635 0.0032467148 -0.17161478 -0.1306956 -0.23441023 -0.094692215 -0.049082167 -0.09507037 0.20857011 -0.19786495 -0.20884012 -0.45336384 0.11966028 0.17852579 0.05985422 -0.06231513 -0.1384182 -0.009194567 -0.08933184 0.01021183 -0.03149353 0.28641677 -0.1525207 0.057989415 -0.06559955 -0.27368122 0.36081615 -0.1690673 -0.45173407 -0.14256586 -0.15901521 -0.23765622 0.25954095 0.04078367 -0.1496395 0.0032901221 0.23404029 -0.1882109 0.07459283 0.08600728 -0.0141619025 -0.04456141 0.12281532 -0.21330032 -0.2056714 -0.13517533 -0.19582757 0.17038128 0.04867927 0.008688619 -0.039336517 -0.13118373 -0.5091891 0.32887188 -0.09591718 0.053652897 0.14632192 -0.296028 0.15782012 0.10165162 0.03228907 -0.18250538 0.008728514 -0.044443224 -0.24207644 -0.059879415 0.003953929 -0.09814739 -0.026606444 0.09944917 0.12754136 0.011136614 -0.21838658 -0.38824025 0.26582512 -0.07195767 -0.05136569 0.29133776 0.2339379 -0.15560004 0.2388603 0.25241125 -0.029221568 -0.07818259 -0.075917974 -0.047895066 -0.016229182 0.08426103 0.047250275 0.00026187766 0.017140528 -0.24729872 -0.349187 -0.08888977 0.08506601 0.42626143 -0.044187892 0.032378774 0.08853072 -0.113402516 0.2979769 0.15661888 0.03670726 -0.0096811345 0.0060077305 0.069890395 0.047189992 -0.22692174 -0.11236103 0.068785906 0.067171656 -0.15476693 -0.23876998 -0.035719614 0.04132394 0.14984274 0.18070377 -0.114178956 -0.3224006 -0.11479472 0.36894086 -0.09129911 -0.13272446
140 -0.06299429 -0.21398342 -0.07312909 -0.13615401 0.009174332 -0.3547478 -0.1416412 -0.034550514 -0.10425057 -0.00061084365 0.05435925 -0.12836124 -0.11124831 0.08420103 -0.20899138 -0.034784142 -0.19412693 0.07718857 -0.132392 0.00084263325 0.009674415 -0.059255358 -0.03615335 -0.36199638 0.027681928 -0.0014660684 0.053899486 0.2603649 0.09146039 -0.06288803 0.011389435 0.19413097 0.21194674 0.07472343 0.04235279 0.14228009 0.09189297 0.29040244 -0.08555539 -0.06916027 0.08697048 0.09725924 -0.067901686 -0.0071920888 0.0019867274 -0.10038171 -0.124682285 0.065365754 -0.13126118 0.0069337147 -0.056707397 0.069666564 -0.0525739 0.0076277903 -0.06644332 0.0006166985 -0.017231427 -0.28931987 0.102638796 0.107280806 -0.053004894 -0.19358061 -0.0120918285 0.016984982 0.09882663 -0.13115187 0.033151973 -0.04651578 -0.0005311074 0.026585354 -0.13540609 0.22534573 -0.07601191 -0.061973285 -0.088985614 0.1181437 -0.0034157152 0.010391338 -0.20566158 0.093989186 0.20060791 -0.14435801 0.061986003 -0.032058083 -0.26850212 -0.17183714 0.027493056 -0.07496906 0.11501408 -0.036778364 0.07927684 -0.049821857 -0.10198489 0.36993495 0.07738357 -0.006200661 -0.22598325 -0.07179057 -0.00190015 0.25048187 -0.03337215 -0.032384343 0.04440521 0.10040196 -0.18465912 0.27034155 0.07712792 -0.138843 0.17824484 -0.13833213 -0.054349873 0.052073352 -0.12298503 0.04815329 0.023946287 0.089792706 0.34775734 0.12804647 -0.054297496 -0.011391395 -0.012961432 0.18719395 0.102606945 -0.03469969 -0.10496243 -0.0123232175 0.11485525 -0.053724073
3425 -0.16499221 -0.08065324 0.08451979 0.0035515367 -0.07741117 -0.02384255 0.076726265 0.113801315 -0.11683972 0.037470825 -0.28379223 -0.23547752 -0.22154757 0.40014863 -0.2956848 0.0013144943 -0.24700493 -0.2539449 0.0050929426 -0.1527106 0.12103524 0.035547793 -0.12899393 -0.15261298 0.22978988 -0.058473915 0.14418319 0.020599091 0.048377477 0.09720632 0.078665 -0.00028626574 -0.021905584 -0.19562432 -0.2223086 -0.036902655 0.32509324 -0.019315626 0.31254327 0.10326801 -0.22535858 0.17806631 -0.19026609 -0.0680714 0.036323346 0.09344918 0.23249912 -0.08032015 0.058290914 -0.18707852 0.12403742 0.06348188 0.14811996 0.035680067 0.25722253 -0.009355372 0.21372622 -0.39495942 -0.02859108 -0.11132719 0.0892352 0.19479117 0.016335119 0.20139322 -0.13932358 0.179703 -0.108847745 0.04882791 -0.042121377 0.21032606 0.09412448 -0.27137938 -0.18537971 -0.11986066 0.13926624 -0.0014340952 -0.099705555 0.099080004 -0.23328993 0.08569298 -0.11165291 -0.2515483 0.056733076 0.04319047 0.058857273 -0.011985008 0.29936865 0.112960644 0.09714348 0.1740752 0.17371172 0.00081477506 0.03216619 0.018973837 0.44463083 -0.13052946 -0.34202173 0.077628 0.048408125 0.16557346 -0.058267854 -0.4413771 0.29768175 0.22278395 0.107217886 0.16173829 0.19756962 0.023776125 0.19056237 0.16373865 0.13506444 -0.31366187 0.050468717 0.16637276 0.20332572 -0.30441245 0.26887104 0.36500484 -0.12359216 -0.25989783 -0.14730425 -0.059532437 -0.05185045 0.15870017 -0.223836 0.3187967 0.1458771 -0.073297046
1660 -0.009209633 -0.034183644 -0.055523522 0.05075669 -0.28790963 -0.07978203 -0.12205428 0.032568235 -0.12562163 0.0107931 0.11635246 -0.39294595 -0.13574527 0.022447588 -0.23152575 0.14180149 -0.23974434 0.1266847 -0.22104558 0.24877632 -0.24268676 -0.13050838 0.3083763 -0.2609369 -0.012610593 -0.053062305 0.17558798 -0.098006904 0.034241647 -0.07542286 0.1494263 0.17242938 0.15508077 0.0780077 0.038014285 -0.30206078 0.039217815 0.052837923 0.14067206 -0.12910967 -0.074505866 -0.072596155 0.18530773 0.17865214 0.012848093 0.33758965 -0.08010939 0.09482971 0.013839339 -0.01318271 0.16190681 0.24983478 0.032433715 0.13367184 -0.0031238832 -0.15416588 -0.07061429 0.0082271 -0.07676075 0.030483454 -0.024240356 0.0003661425 0.059313092 0.06600974 -0.34546188 0.049731478 -0.16888857 0.08674857 -0.014299895 -0.07515148 0.0054593435 -0.22196198 0.10184789 -0.13627662 -0.122797556 -0.15308195 0.05145561 0.012102136 -0.24635717 0.07231335 0.083271585 0.0172002 0.25061738 -0.04811942 -0.1859294 -0.08454129 -0.0015481021 -0.2511025 0.19491546 0.21509781 0.12228208 -0.018776882 -0.0016266678 0.09351486 -0.0038997207 0.007243862 -0.043858584 -0.019433763 0.04080312 0.13640298 0.029503897 -0.16683058 -0.04087027 0.060866743 -0.094310746 0.2179998 0.15614896 0.16732876 -0.15959032 -0.12113952 -0.053243358 -0.07197998 -0.05429966 0.07607616 -0.034797415 0.29899165 0.24361956 0.033492826 -0.007938064 -0.4996323 -0.080714665 0.24264918 0.028085535 -0.32988772 -0.06524547 0.19004251 0.009347129 -0.009028798
3430 -0.09150517 -0.39615613 -0.0054614833 0.034133952 -0.21141532 -0.18640855 0.07935298 0.037992712 -0.046680525 -0.09888758 -0.31211802 -0.01771052 -0.017062495 0.17997056 -0.13529311 0.007248164 -0.06302635 0.16777901 0.07862029 0.26835755 -0.005166951 0.21192737 -0.13583681 -0.43096668 0.10920037 0.06614767 0.32861498 0.24574612 0.24966192 0.09574484 0.0645591 0.16946928 0.15229088 -0.3536861 0.26973122 -0.33413044 0.047044776 -0.14994651 0.12431621 -0.029320428 -0.07544888 -0.14003384 0.16195625 0.18442896 0.14132617 -0.14780524 -0.2739558 -0.08157566 -0.053973578 -0.22634569 0.11363856 -0.067861356 0.14890064 0.011362112 -0.20020077 0.11569627 0.054820273 0.10039648 0.0990769 -0.1715976 0.26023835 -0.14516959 0.060552225 -0.0027912233 0.12461049 -0.0555392 0.09053113 0.20552416 -0.1264728 -0.009116163 -0.079181656 -0.0978078 0.13177393 -0.3855251 0.20431334 0.2204307 0.30399793 -0.096984595 -0.13844588 0.14779028 -0.0005031539 -0.0048784018 -0.33322766 0.14665465 0.10609801 -0.21434356 -0.1363858 0.010576683 0.008486215 0.2694676 -0.123370335 -0.07405892 0.1435118 0.28132966 0.06642307 0.111327365 -0.043603506 -0.19538614 0.16730411 0.1317422 0.081233166 -0.0836416 0.0035922753 0.16474795 0.133482 0.36543223 0.04754092 -0.067464285 0.4328249 0.2767388 -0.029175015 -0.10131359 -0.33563372 -0.06202175 -0.23386058 0.12772289 0.10703331 0.08663406 -0.055177066 0.03257434 -0.07487156 0.1315409 -0.1779368 -0.2381676 0.290657 -0.05857826 0.07174388 -0.14159715
3433 0.09087574 -0.13288704 -0.30954498 0.006554889 -0.30825585 -0.00804162 -0.26605132 0.070930056 -0.39336732 0.3559105 -0.19321454 0.024820704 -0.316555 0.17188792 -0.185263 -0.1252862 -0.1704483 0.05767944 -0.18047777 0.07925886 0.22005756 -0.19921632 0.26155916 -0.061735895 -0.059270617 0.009394139 0.0015528533 -0.26138625 0.122707844 0.13767523 -0.06521352 0.54402727 -0.0959011 -0.025697166 -0.0760137 -0.26738745 -0.07500539 -0.005348249 0.023449412 -0.11884512 -0.16624305 0.07760676 -0.10433973 -0.11164926 0.13971412 -0.03529979 0.07489012 -0.11249224 -0.15258908 -0.023103895 0.065047234 0.15662372 0.20100287 0.06059926 0.221199 0.27763656 -0.07067654 -0.0144121 -0.10340851 -0.07512455 0.071822375 -0.037157036 0.27298918 -0.07129752 0.022884168 0.078178205 -0.06439642 -0.23326962 0.18216471 0.2347892 -0.24046429 -0.025627332 -0.18209952 0.008665775 0.123167686 0.17960611 0.057622228 -0.10466966 -0.24413425 -0.034888946 0.18112308 0.19969407 0.23202936 0.13633522 0.047707666 0.048357643 0.0074862037 -0.11731105 0.18244332 -0.038040504 -0.09580156 0.03659657 0.34655547 0.035474375 -0.10192032 -0.07160498 0.0947892 -0.10172139 0.06868316 0.24965057 0.35607207 -0.060145523 0.13212265 0.34944463 -0.14127801 0.1963863 0.36854428 -0.13068755 0.0387818 -0.22061531 0.13143858 -0.1530593 -0.12172763 -0.023930935 -0.11789317 -0.15943193 0.2216244 0.06931106 0.28145552 0.020678118 0.17842494 0.11069756 0.1604405 0.011841207 0.07130683 -0.19017346 0.19519871 0.05845284
3428 -0.050161786 -0.12786326 0.052203536 -0.1905965 -0.06924582 -0.16712044 0.02387764 -0.07300792 -0.07848622 -0.11517831 -0.077701375 0.17701077 -0.38143167 0.23595563 -0.096316084 0.024431422 0.07868791 0.060631648 -0.14010462 -0.119576514 -0.32067156 0.18931949 -0.16857001 0.13349672 -0.09924588 0.048995223 -0.10049155 0.112310946 0.18521409 0.014158964 0.16494906 0.36235687 -0.19643554 -0.02733161 0.06997081 -0.13858618 0.19219068 -0.05266099 0.07365082 -0.24674213 0.18470693 0.12595217 -0.08010551 0.053775176 0.12293295 0.2579063 -0.13672507 0.23472194 -0.051573962 -0.03851412 -0.13008188 -0.10400706 0.17647065 0.272351 -0.2692579 -0.34241858 -0.035785045 -0.32810307 0.19952358 0.032307804 0.36978546 0.07563612 0.12547354 -0.16400656 0.029254595 -0.115793474 -0.30332434 -0.10276538 -0.13346682 0.036419198 0.030305238 -0.106556386 0.2222317 0.06537664 -0.033914376 0.113411225 -0.08475082 -0.09152121 -0.08657018 0.28921786 -0.007138205 -0.039398823 -0.054528218 -0.071637884 -0.20747903 -0.18315725 0.22570203 0.04777695 0.13329099 -0.10887262 0.100582995 0.14611124 0.3863705 0.2872302 -0.1787786 0.23586434 -0.1358458 -0.0076843053 -0.16671899 0.2570272 0.064371526 0.076066956 0.49906504 -0.013130971 -0.184275 0.17303339 0.21957573 0.025770847 0.23490065 0.14275783 0.1468809 0.051309433 0.03647347 0.18263814 0.0655706 -0.026412463 0.16851853 -0.24157336 -0.13426794 -0.25620225 -0.07469131 -0.111664 0.091930196 -0.26662326 0.13683648 0.06920497 0.035930462 0.13033551
3435 -0.12831335 0.12977129 0.091836564 0.010390478 -0.25180006 -0.44938162 0.14006144 -0.11154203 -0.066454224 -0.27633324 -0.2506631 0.07178954 0.12502332 0.13927403 -0.08835049 0.02188863 -0.007954904 0.08613368 -0.0056693135 0.2579332 0.042609062 0.094272345 -0.001820399 -0.036931656 0.05312014 -0.07412718 0.080413364 -0.03297125 -0.026405077 0.059409026 0.18307324 0.07853788 0.20214479 -0.06574136 -0.03851671 -0.33983353 0.041159168 0.20433648 0.16738784 -0.0037800674 -0.07798929 0.24414387 0.06301832 0.21085508 0.18927346 -0.26410848 0.054658458 -0.0699263 -0.19072843 0.030655826 -0.23084146 -0.065149784 -0.032993026 0.16632953 -0.020211276 0.031902328 0.23699735 -0.27668896 0.23640242 0.105953656 0.18453391 0.12225963 -0.022661963 -0.04793623 -0.041194305 0.09198059 -0.16068956 0.23992065 0.079230964 0.053128272 0.0897546 -0.071103625 0.057599436 0.16839033 -0.38654038 -0.017511459 -0.06522515 -0.06744023 0.06984213 0.23802394 0.22556598 -0.14379673 0.0015074228 0.17881125 -0.16148601 -0.005782921 0.08641985 -0.067641705 0.2301668 -0.13534783 -0.06243737 -0.22059202 0.2875356 -0.008136726 -0.20110777 0.056761883 -0.075945474 -0.005797008 0.0035124414 0.34884548 -0.016147092 -0.06300322 0.15543032 0.0073644496 0.16724531 0.3443639 0.18120576 -0.12774743 0.20084877 -0.23267372 -0.17562546 0.1618618 0.08482288 0.074989654 -0.022794874 -0.079606116 0.4079993 -0.14301324 -0.42107052 -0.10106272 -0.034302194 0.0928456 0.07160378 -0.040354427 -0.06636053 -0.17199424 -0.08351805 0.025954247
3438 -0.0924681 -0.28535086 -0.26462406 0.065984294 0.025769575 -0.13739003 -0.29630595 0.16469066 -0.11670971 -0.039326902 -0.35622025 0.042829026 -0.14949885 0.13663827 -0.1766061 -0.3372738 0.03255765 0.21041925 -0.16630405 0.31895366 0.008874264 -0.04534545 0.14007364 -0.049506955 -0.06358951 0.08771048 0.24248329 0.14515108 0.10224455 -0.25772604 0.12680249 -0.072849266 0.0070190746 -0.15126126 0.17039463 -0.40247518 0.01893339 -0.20020483 0.25551054 -0.1469917 0.005132054 0.020737944 0.19603702 -0.0038743294 -0.06459335 -0.115955986 0.06867531 -0.10634676 0.24740663 -0.21354106 -0.14930266 -0.25222483 0.16205388 0.10702661 -0.19636649 -0.026202666 0.08563467 0.13319457 0.32471627 -0.025058253 -0.042520687 -0.32635683 -0.0027268147 -0.12982519 -0.3005302 -0.047056943 0.1367826 0.362253 -0.035754535 0.27069208 -0.10057922 0.1696435 0.071001805 -0.21478035 0.14254352 0.29254386 -0.18508317 -0.09665172 -0.112464115 0.11419718 -0.1849709 -0.14207438 -0.087699085 0.20778318 -0.20482114 -0.27313507 0.21232444 -0.005482237 0.38965452 0.044415005 -0.11873088 0.03423493 -0.09724219 0.08527789 -0.07739776 -0.08771201 -0.058562115 -0.010388427 0.008827615 0.1548888 -0.14958215 -0.25321084 0.025332445 -0.034258116 0.18556583 0.49678162 0.22393231 -0.13958894 0.024988502 -0.19866504 0.30786765 -0.25776356 -0.25332186 -0.060032357 0.054635067 0.2650356 0.17531335 0.18273291 0.17585374 0.02574243 -0.10324027 -0.030627873 -0.157539 -0.054035977 0.31275922 0.0038038078 -0.0399199 0.066076785
3441 0.16039462 0.08834549 -0.037603237 -0.23079188 -0.11455199 -0.0107923625 -0.25227568 0.09251634 -0.15159509 0.05191735 0.12186605 -0.1603339 0.09193092 -0.04685951 0.0555293 -0.067012124 0.19228137 0.22348295 -0.18598086 0.25570852 -0.018281985 -0.002180297 0.06102005 0.1055237 -0.22090586 0.07416227 -0.0574471 -0.13935687 0.16810672 -0.10578566 0.024232727 0.3619858 0.10186842 -0.08964655 0.14337061 -0.14287849 0.32521573 0.23536098 0.122573115 -0.039349273 -0.3409304 -0.0069091213 -0.1406798 -0.038305353 0.047896788 -0.14654578 -0.12418479 0.1321766 0.018227765 -0.04305594 0.02618424 -0.19802555 0.069490746 0.43145132 -0.065369844 -0.1543464 0.024759993 -0.18171686 0.068646125 0.15776111 0.20679064 -0.056991454 0.11878549 -0.06997276 -0.11359356 0.26189354 0.047266804 -0.05288791 -0.21679175 -0.09375922 -0.019389331 -0.20964491 -0.11381353 -0.31187987 -0.22452159 0.340837 -0.017899876 -0.21750759 -0.35344705 0.20008704 0.258127 -0.056003865 -0.22064558 -0.14400762 -0.0459938 0.13514231 0.1589013 0.26917136 0.21661063 -0.035857543 -0.013445395 -0.30926657 0.30558094 0.08313055 0.0015134413 0.111705236 -0.10691333 -0.058803283 0.278905 -0.11887406 -0.03613533 -0.30970845 -2.86148e-05 0.1135022 -0.0133317495 0.0026144122 0.35678953 -0.24184585 0.35007736 -0.043540634 0.04184671 -0.35803896 -0.22022922 -0.09331578 0.22277673 -0.032214325 0.33930025 0.09664798 0.03858038 -0.29545143 0.086577296 0.21883322 0.13335833 0.260147 -0.09440337 0.069391154 0.16647974 0.08486194
3439 -0.027734203 -0.012686494 -0.19682574 0.07780319 -0.31421718 -0.20848313 -0.20110376 -0.08058383 -0.11494877 -0.0054253438 0.047720484 -0.01844148 -0.120935805 0.15030386 -0.09616304 0.15388031 0.043805186 -0.08319475 0.16065094 -0.16847743 -0.2691177 -0.035921957 -0.058687642 -0.25438416 0.117839456 -0.3198457 -0.09348685 -0.24648373 0.03539289 0.042282134 0.2890634 0.32664573 -0.025026297 -0.06107994 -0.2382292 -0.3041221 -0.00061947916 0.048655685 -0.06978098 0.27977437 0.13539526 -0.04707635 0.07855619 0.24214981 0.12660818 -0.042629354 -0.19735359 0.23635076 -0.08151758 -0.051207982 -0.16132697 -0.006339006 0.1994527 0.098965555 0.14731707 0.29587153 -0.19177274 -0.27812612 0.2198181 -0.089092605 0.228485 0.26058134 -0.08270835 -0.10604415 0.22672462 -0.24663948 -0.03160842 0.11520675 -0.116405055 -0.037759647 -0.21649845 -0.08070374 0.21552606 0.053927694 -0.097079344 0.2585432 0.037327 0.06522382 -0.25491795 0.26339725 -0.15766138 -0.31929034 0.1225383 0.07779192 -0.12382507 0.17263897 0.039899424 -0.20830365 0.021986557 -0.007938178 0.06262146 -0.042922556 -0.18725547 0.092331946 -0.22812146 -0.14085223 0.056076407 -0.030334499 -0.24708003 0.2947407 -0.16737054 -0.014384192 0.093372166 0.20311227 -0.25063515 0.28660744 0.3926501 0.10092871 0.21249406 -0.2707534 -0.26670596 -0.13899902 0.08424696 0.029847816 -0.025455797 -0.023363529 0.25565735 0.010565209 0.043813117 0.07716582 0.009460912 0.008659593 -0.008847937 -0.0015798851 0.02807784 -0.27030367 0.10628832 -0.020602796
133 0.0318933 -0.10495766 0.05716655 -0.12190907 -0.23408207 -0.16089036 0.008907992 -0.04756608 -0.10786898 0.017704379 -0.17087184 -0.12187987 -0.07385395 0.1542169 0.11181038 0.06686306 -0.2113125 0.02396624 -0.20648259 -0.20501824 0.11657403 0.05026307 0.19306566 -0.060655836 -0.010879611 -0.09515197 0.101776585 -0.06742159 0.04956053 -0.24747601 0.11494318 -0.124928966 0.22626394 -0.0962553 -0.1266007 -0.27409446 0.09776922 -0.08437268 0.19760163 0.011827628 0.09392322 -0.048159294 -0.11372597 0.112653196 -0.082969725 0.22491598 -0.031455684 -0.16123116 -0.1923518 0.09213834 0.18962272 -0.017095825 0.16766164 0.028627327 0.046934757 0.063715406 0.0423944 -0.20804402 0.36327666 -0.08526301 0.08866988 0.04741982 -0.23582865 -0.03436174 0.10042664 0.027789816 -0.16573907 0.075720325 -0.25185418 -0.04737154 -0.1303045 0.03510218 -0.06366822 -0.12588415 -0.0043500233 0.22120188 -0.15433753 0.13540323 -0.25294805 0.16532631 0.15589881 -0.031117408 0.016391752 0.06301861 -0.089504175 -0.22846709 0.13406333 -0.043401465 0.29525852 0.036572345 0.05199558 -0.16091268 0.13945638 0.0712327 -0.000594769 0.093181066 -0.13709754 0.0057508443 -0.1908204 0.15721446 0.20134753 -0.05696951 0.15744317 0.004670655 -0.12117769 -0.047200467 0.12809798 0.021626728 0.2756616 0.008531116 -0.1532277 0.13028209 -0.20738484 -0.057233058 0.07076794 0.09841821 0.20301054 -0.17064485 0.022315742 -0.03417587 0.13336179 0.009073172 0.26488173 -0.0046063815 -0.018609233 -0.26536533 -0.048616394 -0.021207143
183 -0.058312684 -0.33294043 -0.034121968 0.042722706 -0.19236639 -0.2676682 0.01765938 -0.16428828 -0.37499326 0.09752263 0.15045632 -0.0050813374 -0.16216628 -0.19158876 -0.08140769 -0.045400284 -0.03669469 0.07330902 0.10698379 -0.07864067 -0.00044776234 0.054239396 -0.1163399 -0.24887271 -0.043988474 -0.051835313 0.065249376 -0.06445216 0.059669446 -0.07023317 -0.071714036 0.12221203 0.2131896 0.13217106 0.03067381 -0.25837567 -0.06911883 0.13272604 0.23935543 -0.027750207 -0.1193005 0.28037813 0.12470408 0.10694162 0.057163995 0.037641097 -0.12990227 -0.15435582 0.06117788 -0.00044998457 0.17795567 -0.07422517 0.23539585 0.19455838 -0.060243156 0.074702695 -0.013496633 -0.04972641 0.22986579 -0.22702649 -0.07049451 0.036813807 0.07687549 0.031899262 -0.04311148 0.05369107 -0.12283942 0.14001063 -0.12652159 -0.08998333 -0.03162485 0.009560777 0.2018589 -0.1411197 -0.1146219 -0.2739467 -0.056695655 0.20327237 -0.07614357 0.11200178 0.1998347 -0.17250541 0.3611757 0.0011045651 0.010325844 -0.008763298 0.22089987 0.011291511 0.20100762 -0.038911283 0.035994284 -0.06660792 -0.06776008 0.40929538 0.030604824 0.0024847153 0.03522198 -0.058664646 -0.10767352 0.023492683 0.1076847 -0.046523787 0.1570881 0.1588593 -0.07199665 0.22417872 0.13478714 -0.17241372 0.05468634 0.005561965 -0.09010384 -0.051112365 -0.08112661 0.24779926 -0.09998124 0.0025735183 0.033516046 0.14214641 0.18023854 -0.19614203 -0.009395703 0.12794742 0.1331963 0.12100398 0.064684376 0.06058259 0.237939 -0.0052247634
3437 -0.17202368 -0.048108056 0.17903218 -0.08452999 -0.009706254 -0.015252345 -0.1372858 0.12574342 -0.0079318015 -0.049454745 0.22586787 -0.26975778 -0.3498926 0.067464195 -0.036770172 -0.13062924 -0.2851463 0.07266062 0.13779415 -0.5237933 0.034051597 0.024539141 -0.10609863 0.040594753 -0.30490637 0.038951598 0.11501749 0.042765927 -0.07956321 0.13306642 0.0174313 -0.26615074 0.14835346 -0.08739372 0.025671925 -0.29563937 0.00838127 0.030555325 0.32733196 -0.14349917 -0.07018338 -0.10042208 -0.008156784 0.27497128 0.09353268 -0.067462236 -0.088431716 -0.21136622 0.11111642 0.008939082 0.1716989 -0.26541802 0.007644667 -0.20372732 -0.123495035 -0.14025123 0.08232705 -0.07942929 0.31776816 0.20898992 -0.11171405 -0.027258275 -0.011256152 -0.16437346 -0.07238185 0.13947223 -0.22492059 0.26259315 0.027047537 -0.11279017 0.17982078 0.17516524 0.03797552 -0.13457873 0.016913267 -0.02559922 0.15017785 -0.10251877 -0.3791711 0.2321397 -0.015816392 -0.19266963 0.13519123 0.149839 -0.03792681 -0.335753 0.08339787 -0.016153937 0.110978976 -0.18244551 0.23935507 0.31965172 0.0652132 0.04350059 0.11125731 -0.12911084 -0.20623732 0.13205947 0.0050669285 0.097677715 0.04158357 -0.35329542 -0.048835456 -0.018412014 -0.18564485 0.2940295 0.35019562 -0.22083074 -0.16545771 -0.21098042 -0.075509235 -0.13243 0.030085377 -0.2470011 -0.028983982 0.28351954 0.25647017 0.025431056 -0.10346698 -0.19498868 -0.038572073 0.14945607 -0.16617656 -0.060636327 -0.03293029 -0.30390114 -0.09008638 0.3057111
96 0.10915185 -0.13462418 -0.24181981 0.21694064 -0.24307229 -0.055230487 -0.09399018 -0.17851382 -0.18090676 0.33234245 -0.25634453 0.07406783 0.09351169 -0.11833244 -0.009078411 0.22286096 -0.4003572 0.025754493 0.022110201 0.10077593 0.10947154 0.29631215 0.18448961 0.172363 0.0742938 0.05985749 -0.103716835 0.1542788 0.11124146 0.27210695 0.061321057 0.23294197 -0.17682642 -0.1531233 -0.0502807 -0.19736506 -0.067684256 -0.0633228 0.21783786 0.09186485 -0.2571418 -0.06408078 -0.13112946 -0.030224549 0.002550519 0.02965933 -0.0012277785 -0.13070804 -0.3024201 -0.029456608 -0.059575308 -0.11776964 0.20816739 0.10055217 -0.039810974 -0.016764982 0.10391696 -0.093877025 0.282382 -0.028062904 0.05447854 0.10283417 0.32037196 0.18061471 -0.35595366 -0.0038101287 -0.15994056 -0.119293295 -0.143371 0.04196845 0.22202832 -0.03442572 -0.18215592 0.0022675623 -0.007913949 0.027317353 -0.035943486 -0.026380211 -0.37562189 0.11598043 -0.05728078 -0.33334816 0.04828187 -0.045938198 -0.13028431 -0.17392215 -0.054615345 -0.13182244 0.22614062 0.109842144 -0.064761795 0.0015796487 -0.15831856 0.08323607 0.20114177 0.039599318 -0.044120893 -0.11810424 0.111402236 0.1098806 -0.029641122 -0.117404565 0.06220167 0.00033177112 -0.08710567 0.20260529 0.17488848 -0.13286263 -0.15912339 -0.013471743 0.103431806 -0.34917027 -0.051205292 -0.0273281 0.2280079 -0.02903799 0.26590675 0.27719957 -0.26325953 -0.19239269 -0.0012968096 0.20486148 0.11870675 -0.1954726 -0.17088696 0.06247753 0.04009975 -0.10801127
1365 0.052871827 -0.22363348 -0.121734865 0.03530725 -0.2544429 -0.14103444 0.057625458 0.05991754 0.022789959 -0.12133983 -0.046621636 -0.14513731 -0.34634277 0.14866583 -0.13086198 -0.0022933593 -0.048948232 0.038967524 -0.025343034 -0.05053816 0.017493406 0.01945817 -0.081228845 -0.12789449 -0.009576296 -0.13627735 0.118843056 -0.114412405 -0.08703276 -0.33827922 0.010524216 0.2816226 0.12465399 -0.046623465 -0.17898037 -0.017412705 -0.18026437 -0.22930947 0.2764896 -0.026588928 0.2591736 0.29223925 0.17622057 -0.18887374 0.007879511 0.12666348 0.10319292 -0.0425165 -0.17572694 0.092147976 -0.16157968 -0.05570975 -0.088459834 0.13775459 0.04436284 -0.13741325 0.29042447 -0.16052997 0.10284541 -0.3157013 0.16890883 -0.20655166 0.10893964 0.088096395 0.22359625 0.0925155 -0.157679 0.2104017 -0.038692463 -0.067358285 0.08619575 0.051315326 0.02098452 -0.06557882 0.14562368 0.06883768 0.033343665 -0.26983187 -0.22536826 0.36119515 0.07017739 0.03916961 0.0891649 0.04253345 0.044649504 0.052921608 0.16097361 -0.1968642 0.21660529 0.07738115 0.11329515 0.0012176114 -0.05922064 0.14002532 0.081123576 0.033888604 -0.12572926 0.056312144 -0.049836297 0.12870553 0.07767398 -0.1394982 -0.07057598 0.08191868 -0.03055429 -0.15958232 0.10641098 0.16936778 0.052336816 -0.05889732 -0.043889143 0.06035431 -0.18646823 -0.26287258 -0.004093989 0.1138725 0.38545462 0.09140848 0.09781221 -0.21961033 -0.11868198 0.38559037 0.10620953 -0.12324343 -0.03470574 -0.018301958 0.014886313 0.043092657
3432 -0.22252491 -0.06351354 -0.11498868 0.12160565 0.045580883 -0.2909128 -0.16969678 -0.08361915 0.16889317 0.031520087 0.10253302 -0.053320367 -0.042060643 0.340277 -0.06998008 -0.1723104 -0.26289332 -0.19505925 -0.0633583 0.18136857 0.004249106 0.070469856 -0.008968291 -0.15581937 -0.041404564 0.026939237 -0.07506451 0.1032995 0.250676 0.06454915 -0.07234448 -0.05612556 -0.013201947 -0.09483278 0.19786811 -0.021608448 0.076860785 -0.0044598994 0.29960048 -0.24817789 -0.23313826 -0.055699844 -0.07928905 0.10094128 -0.009092204 0.18622398 -0.20199747 -0.18855374 -0.05477673 0.088066 0.11452546 0.019138794 -0.085421 0.03029873 0.0037446036 0.123374 0.24006732 0.20976847 0.15127134 -0.012371914 0.10334328 -0.12853138 -0.10205573 -0.089517765 0.08321028 -0.08774647 -0.04679678 -0.029501485 -0.01811352 -0.065755695 0.12105735 -0.08463415 0.11659926 -0.4561721 0.19638105 -0.03253669 0.06342155 -0.0814747 -0.47011256 0.41743156 0.14862327 -0.10218702 0.35426244 0.114952624 -0.061964165 0.11412686 0.033583242 0.16254222 0.43847495 -0.10805891 -0.19675907 -0.061422065 0.28216076 -0.07915972 -0.1787905 -0.035457734 -0.027474193 0.34993798 0.029617192 0.5185336 0.124434575 0.05596435 0.16395457 0.222752 -0.09232396 0.030823154 0.18278895 -0.13085867 0.22886282 0.0015017766 -0.039347857 -0.010955133 -0.050136592 -0.14461704 -0.19419889 0.21272111 0.095373094 0.082165934 -0.09891583 -0.28078026 -0.18720318 -0.08855814 0.09229784 -0.07023493 -0.16039813 -0.23591928 -0.05071369 0.0011741152
3436 0.035702318 -0.0074429302 0.00604995 0.14009008 0.05249009 -0.32481974 -0.09781547 -0.17541623 -0.07160645 -0.22353132 -0.07236028 -0.20944424 -0.21267407 -0.29554707 -0.12875594 -0.04735259 -0.41056398 0.015997158 -0.15835463 -0.20713663 -0.23129459 -0.10440125 0.29929835 0.35475454 -0.13335218 -0.10458543 -0.15350047 0.26468703 -0.016022345 0.10571035 0.45427224 0.34348232 -0.2035072 -0.10623327 0.05439656 -0.14687802 -0.17050086 0.12290118 0.15798499 0.16080381 -0.08008331 0.053516004 0.13594757 -0.060919695 -0.14568475 -0.10247351 0.023813406 -0.20775312 -0.06449188 -0.28503 0.0021124415 0.15594803 0.30656457 0.09235006 0.18701366 0.02357189 0.25822318 -0.18310252 0.23804574 0.042286254 -0.24211341 -0.15961818 0.1622316 -0.039830413 0.102046646 -0.06568018 -0.08240828 0.29373667 -0.13045967 -0.014496941 -0.035902135 0.13718495 0.078738935 -0.12097315 0.10976288 0.11271026 -0.01019694 0.06508466 -0.17466715 0.4171259 0.1697865 -0.03389773 0.17076719 0.08542595 -0.030400014 -0.07233928 -0.07711649 -0.14729047 0.11767725 0.15134408 0.12796834 0.30328307 0.19658412 0.1367811 0.014280676 0.3046887 -0.2652677 -0.049932685 0.20556761 0.046397306 0.061454542 -0.41729945 0.27182975 0.06790585 -0.14606741 -0.2637547 -0.10667038 -0.02682814 0.24671754 -0.0043146764 0.3175127 0.20961955 0.049537983 0.03567422 0.054290053 0.08302397 0.0034035891 0.13335188 0.09125286 -0.27040172 -0.049162447 0.19163941 0.08702148 0.069899485 -0.20716813 -0.3843462 0.12822236 0.10365979
3442 -0.1299221 -0.017932903 0.15796176 0.06789196 -0.17921023 0.06385287 -0.24300995 0.22828811 -0.010109366 -0.0022576873 0.054083254 -0.17216158 -0.1251467 0.098177135 0.026480582 0.12373565 -0.026149575 0.08142891 -0.218072 -0.223476 0.13163006 -0.09955792 -0.1258074 -0.012475539 -0.13260086 -0.16613376 0.04744816 0.15521893 0.08481756 0.10981744 0.24508443 0.23951441 0.017360667 -0.11744891 -0.041400854 -0.36519817 0.088830166 0.0112696225 0.28250188 -0.059855673 0.004176384 0.24866065 0.022188386 0.09667715 -0.3107881 -0.1783139 0.10824354 0.04334529 -0.016321078 -0.04468305 0.1673249 -0.2039256 0.06807116 0.06324667 0.3387348 -0.10495322 0.06907056 -0.036166977 0.16817637 0.0037701426 0.072216295 -0.20617409 -0.104114965 -0.12424206 0.04194618 -0.04213605 -0.061958525 -0.08841662 -0.08555851 -0.2620876 -0.2916092 0.059296142 0.19480078 -0.18639773 -0.015834643 0.028369552 -0.0029868006 -0.056251712 -0.1985962 0.094690844 0.10386583 -0.2891736 0.16312775 0.025189709 -0.09468204 -0.12882654 -0.048082937 -0.100942306 0.060551155 -0.100111715 0.11229351 -0.30155325 0.18148494 0.13169089 -0.10376687 -0.18227229 0.017530423 -0.13151298 0.105180115 0.12312889 -0.0662751 0.060294155 0.09127266 0.15898377 -0.014871256 0.18034083 0.25399348 -0.12663487 0.15036473 0.025758842 -0.12002487 -0.011713576 -0.18458773 0.060611706 -0.04587953 -0.09736769 0.22595993 0.21468617 -0.21514635 -0.1055517 -0.10557103 0.045993272 -0.21901058 -0.052495502 0.02943769 0.18471324 -0.114462964 0.24637529
3444 0.20173086 -0.05005827 0.061283983 0.14814031 -0.12525123 -0.12848054 0.23535617 0.108184524 -0.094887115 -0.063093744 -0.14506577 -0.10847773 -0.10520756 0.12742785 0.007858509 0.009275754 -0.17962255 -0.0708258 -0.08373054 0.033512477 0.07058686 0.11889309 -0.068536215 -0.13493209 -0.012831385 -0.07950136 -0.18493961 -0.008582407 0.25172997 0.09498138 -0.056876313 0.108997524 0.06354626 -0.09646776 -0.022829086 -0.30060557 0.2835158 0.29133582 -0.19841082 -0.1521966 0.045718666 0.15145819 -0.22055137 0.15495248 0.12542869 -0.0037197846 0.05897482 -0.2569979 -0.0008182439 0.061944798 0.09699192 -0.07812962 0.19125512 0.054301556 0.10589197 -0.14832883 0.1911151 -0.22122489 0.029093137 -0.072210826 0.19553101 -0.09994691 -0.017013475 -0.37093538 -0.18316591 0.002798315 -0.17383666 0.4551814 -0.06047245 -0.04757437 -0.0976268 0.090452164 0.07819783 -0.13410707 -0.26671788 0.20214024 0.13015558 -0.15745863 -0.34562317 0.08208192 -0.07177841 -0.25674984 0.17039503 -0.044996228 -0.1614508 -0.36225483 0.16332574 0.021818243 0.1361389 -0.032307245 -0.09200285 -0.2237175 0.16158412 0.16359672 0.04750125 -0.1447247 0.06038799 0.069602944 -0.10038345 0.26630864 0.20972276 -0.12344342 -0.06335972 0.14635962 -0.23649268 -0.081624195 0.09787618 -0.043017086 0.06639777 -0.32599503 -0.1395355 0.07277889 0.13256551 0.07644576 -0.121273436 -0.3537823 0.22074343 -0.16314077 0.13156566 -0.2493298 0.06418488 0.10007142 -0.12491045 -0.022092687 -0.20254366 0.06924683 -0.0025319834 0.1529288
3434 -0.19998953 -0.094420455 -0.044198643 0.24723834 -0.19641048 -0.033990856 0.04094505 0.0023877725 0.24002308 0.07514803 -0.12327494 -0.23253076 -0.05322857 0.14316587 -0.17836984 -0.03285604 -0.13035826 -0.04515091 -0.28328782 0.07357671 0.28212237 -0.1653809 0.0024497476 -0.07087789 -0.058482412 -0.16344732 0.116495 -0.14929873 -0.02355508 -0.10917344 0.11491209 -0.045032315 0.02568724 0.29744864 -0.06618811 -0.2069852 0.18649526 0.13009714 -0.038792692 0.007951594 -0.27188545 0.08073177 -0.07253551 -0.14770268 -0.10526231 -0.034709416 -0.09215677 0.1756791 -0.04006321 -0.07862056 -0.23125385 -0.047846526 0.040843025 -0.06685223 0.14988044 -0.03385261 0.11619008 -0.1085573 0.027571267 -0.063350335 -0.002918473 -0.14019777 0.22261038 0.0645474 -0.01489397 0.043366075 -0.38665423 0.29506606 0.04343684 -0.16162756 0.06205797 -0.20868813 -0.10869219 -0.07231282 0.12808466 0.15532874 -0.21262985 -0.22944608 -0.29959103 0.28153464 0.39086714 0.114613086 0.3242743 0.04724311 -0.0343666 0.27552626 -0.13161819 -0.18580306 0.29074377 -0.037494462 -0.010938678 0.024901621 0.17990693 0.28689075 0.17712496 0.24158181 -0.09777062 -0.083255574 0.12619373 0.23422083 0.2755228 -0.14250447 0.02731831 0.0864181 -0.27503756 0.40696698 -0.0054979427 -0.09012131 -0.3086567 0.2431545 -0.0010339174 -0.19819108 -0.34650466 0.026767164 0.19510867 -0.012925909 0.02789601 0.1966789 -0.13166623 0.057042316 -0.13768795 -0.076200426 -0.16698492 -0.22187234 -0.040370334 -0.36844012 0.35175574 0.097638056
