34 128
34 0.14524311 0.013493767 -0.007939725 -0.14480306 -0.006367521 -0.050227858 -0.08059117 -0.06262796 0.0020193637 -0.047253035 -0.029040681 -0.0039435155 -0.14688668 0.11256922 0.11743526 -0.059820212 -0.014439517 0.18179572 -0.0832254 0.08655318 0.14748232 0.04483796 0.0015302394 -0.014916433 0.06986801 0.007824834 -0.0041527944 -0.01752935 0.052545268 -0.062028177 -0.17331436 0.12842597 0.14181407 0.23294674 -0.014040789 0.09893196 0.024102535 -0.06659565 -0.08785038 0.106405385 -0.108906776 0.13598168 -0.11524947 -0.093318716 0.22363125 -0.09803497 -0.042876262 -0.004908453 -0.02270101 -0.04535342 0.16805573 0.20014673 0.023104988 -0.04906135 -0.06514428 0.124649055 -0.19516821 0.070284314 -0.07178403 0.09437111 -0.19048677 -0.09033489 -0.13143589 0.02070789 0.03779781 0.065326974 0.15378419 0.0021465437 0.060982164 0.20764722 -0.082456276 0.16890872 -0.03936782 -0.076374054 -0.011133706 -0.067690775 -0.13056529 0.07286994 -0.115147434 0.039110564 0.062578164 -0.10931203 -0.05512697 0.040121116 -0.11714049 0.05240128 0.06459382 0.038113028 -0.03399385 -0.005817747 0.09698774 -0.04888602 -0.12301863 -0.00759448 0.013633902 -0.046867162 0.09824659 -0.2200129 -0.032184523 -0.03792316 0.06264942 -0.12064345 -0.06892961 -0.043604158 -0.0724662 -0.20997639 0.2539971 -0.021986399 0.06745145 0.19249465 -0.013800416 0.06351618 0.070393644 0.23254709 0.26093748 0.02578808 -0.059297547 0.032432504 -0.09698841 -0.05281573 -0.03127674 -0.008329606 -0.11993952 -0.24102083 0.20132577 0.099420264 0.004441084 0.14239636
1 0.18966286 -0.061652146 -0.066095844 -0.13239321 -0.0012421805 -0.11425056 -0.024872867 -0.11357588 -0.009998032 -0.02516071 -0.035486538 0.08115511 -0.14436187 0.13417938 0.11939777 -0.15973556 -0.11763164 0.2474 0.0043977993 0.009576328 0.21764101 0.015092013 0.104235046 -0.06983879 -0.0045541227 0.032507055 0.050458524 0.027190067 0.078330345 -0.08176457 -0.23355728 -0.006610646 0.13577309 0.2430907 -0.028360788 0.010317178 0.020201256 -0.17276993 -0.0032742892 0.10591248 -0.14924575 0.18681082 -0.14357184 -0.042551685 0.22960606 -0.023256037 -0.13847047 0.017874926 -0.013998797 -0.14890403 0.083963625 0.18257114 -0.006694111 -0.04643225 -0.0006931288 0.18057962 -0.17187093 0.10592202 -0.118977144 0.084346265 -0.22283827 -0.032647032 -0.04374567 -0.026779665 0.030088544 0.07125024 0.18526478 0.046199176 0.018228862 0.21403883 -0.0692918 0.14790154 -0.002900449 0.08393408 -0.03705404 -0.085600786 -0.17685348 0.03828393 -0.13709505 0.06727323 0.041215 -0.17080918 0.0060518254 0.010636321 -0.1121547 -0.0025597648 0.1275633 0.021335885 0.0066060754 -0.06185931 0.16255666 0.01189151 -0.077619046 -0.069088325 0.10492966 0.044612955 0.05885199 -0.13557364 0.016323391 0.026833188 0.00840563 -0.09369722 -0.061673198 -0.15435958 -0.033395503 -0.11780805 0.16059822 0.0915507 0.06732201 0.12769647 0.048083615 -0.019555734 0.08046961 0.09669041 0.1715071 -0.035665914 0.010272048 0.028293679 -0.041535486 -0.07328352 -0.13497949 0.020858213 -0.18804729 -0.18454261 0.112203635 0.06857862 0.023169836 0.16849552
33 0.15031105 0.0024622357 -0.011129444 -0.13839915 -0.00418933 -0.05456543 -0.072781414 -0.06906218 0.006452043 -0.045640744 -0.029633028 -0.0010279578 -0.1414515 0.11233664 0.11387684 -0.07352239 -0.031663008 0.18867831 -0.07398418 0.078085996 0.1565694 0.036962528 0.010283536 -0.024629552 0.0606835 0.0068189334 0.008345162 -0.013731865 0.051203903 -0.057678763 -0.17089723 0.1067648 0.1412462 0.22741342 -0.010970491 0.082135536 0.0126367165 -0.078316614 -0.07748349 0.10365396 -0.112940796 0.14372227 -0.11222075 -0.08979057 0.21472853 -0.084525265 -0.054880694 -0.0027436693 -0.030021949 -0.063646086 0.15991947 0.19020192 0.024684379 -0.04402786 -0.062028617 0.13412906 -0.19292066 0.06904816 -0.07694607 0.08837957 -0.1920409 -0.07948004 -0.117866226 0.013197348 0.038145684 0.062489092 0.15608323 0.0063514058 0.057917085 0.20530744 -0.08459263 0.1606534 -0.04214719 -0.056812875 -0.017433682 -0.07480889 -0.12991005 0.07013683 -0.11564425 0.0358333 0.046157774 -0.117250964 -0.051830124 0.03296525 -0.11890606 0.048511382 0.06304452 0.033140462 -0.025553524 -0.007917647 0.09780372 -0.041602056 -0.11981006 -0.015650086 0.024756324 -0.040480934 0.09353632 -0.21632151 -0.02126484 -0.022521298 0.05926499 -0.111030616 -0.06054405 -0.062438946 -0.07707049 -0.19734702 0.24977851 -0.009274164 0.06764583 0.18602027 0.00488199 0.058797646 0.06972749 0.21957536 0.25983185 0.02475964 -0.057871558 0.034735247 -0.089635186 -0.057459846 -0.047487035 -0.0032566888 -0.1298287 -0.23963174 0.18866035 0.09728369 0.0072960006 0.14313623
3 0.16958712 -0.04004952 -0.04600363 -0.12775388 -0.00358955 -0.086332016 -0.041080263 -0.089175716 -0.0023215062 -0.032918025 -0.035937354 0.05105229 -0.13521211 0.11923326 0.11023524 -0.122410215 -0.079168305 0.21214758 -0.023010692 0.031951625 0.18585676 0.021751005 0.066217005 -0.043328192 0.012942165 0.026268505 0.02745142 0.009544397 0.06988364 -0.066023745 -0.20025954 0.034378827 0.13567777 0.23454885 -0.022351168 0.034513403 0.026346793 -0.12679215 -0.02734653 0.1020705 -0.13477008 0.16507569 -0.12618144 -0.056695145 0.215973 -0.045661084 -0.100634724 0.004986917 -0.010912567 -0.112012714 0.10658673 0.17699368 -0.004383945 -0.045582462 -0.01852831 0.14845417 -0.16812056 0.09408329 -0.102492295 0.08822502 -0.20044878 -0.047875486 -0.07385323 -0.017240789 0.038926147 0.06641155 0.1684124 0.033880763 0.0319499 0.20605353 -0.07523862 0.15123644 -0.010071947 0.032924987 -0.026162423 -0.073525704 -0.15640104 0.044951703 -0.13340595 0.054007668 0.045207728 -0.14360622 -0.01274019 0.020621933 -0.1066526 0.012259516 0.10391458 0.025017593 -0.007832567 -0.042670745 0.13207002 -0.00422095 -0.08370964 -0.043227818 0.077459015 0.018240608 0.0684818 -0.15653646 -0.0028954262 0.00022419912 0.02119446 -0.098954566 -0.05802938 -0.1090079 -0.040217966 -0.14164379 0.1755791 0.0553805 0.06429201 0.14025146 0.027608193 0.0059262402 0.069506526 0.13094428 0.18596102 -0.021540444 -0.010084311 0.029019205 -0.054896858 -0.06543396 -0.09352865 0.0121946065 -0.1610913 -0.19521955 0.13574715 0.06773057 0.013116498 0.14516738
2 0.18789639 -0.04204247 -0.04723387 -0.14104909 -0.0028297435 -0.093971536 -0.049000584 -0.08870924 0.00051200134 -0.041825376 -0.043075573 0.061704457 -0.15078919 0.13135503 0.12432125 -0.12990038 -0.083049975 0.22260964 -0.02267769 0.040182002 0.19544405 0.028177232 0.06729168 -0.044218533 0.012656722 0.025426587 0.029838061 0.013533284 0.06992429 -0.07241603 -0.21910812 0.04285609 0.14407776 0.25060394 -0.019507447 0.040882453 0.031053172 -0.13711381 -0.029502345 0.11194014 -0.14073321 0.17281005 -0.13757333 -0.060835894 0.2299644 -0.0522305 -0.10471475 0.01125209 -0.0060880277 -0.11129142 0.10898126 0.19139336 -0.010991567 -0.046480853 -0.026773311 0.15290816 -0.17414081 0.09993789 -0.10691896 0.09257838 -0.21369946 -0.053789053 -0.07996209 -0.021693677 0.03498281 0.065860696 0.18135656 0.028822573 0.035265695 0.22247873 -0.07421666 0.15894577 -0.012697919 0.03963835 -0.02345191 -0.08256866 -0.16790041 0.053225156 -0.14356314 0.06128552 0.054849967 -0.15038882 -0.011211549 0.020255564 -0.10868955 0.017755868 0.114774495 0.031266265 -0.0077912617 -0.050859403 0.14304335 -0.0018796669 -0.09066139 -0.04723511 0.07636049 0.022462983 0.07125714 -0.16739985 -0.005294585 -0.0036043304 0.018362228 -0.10689521 -0.06678097 -0.11906108 -0.038677618 -0.15586711 0.19206038 0.06435113 0.06972473 0.15472244 0.022365788 0.0014370002 0.07952958 0.14379947 0.1961761 -0.021207428 -0.0030839634 0.03264403 -0.06452685 -0.07298389 -0.095736645 0.015479963 -0.17820609 -0.21020527 0.14795439 0.07688346 0.01408697 0.16182849
4 0.17864689 -0.047612887 -0.04937533 -0.13440362 -0.007062106 -0.09454688 -0.038583823 -0.09211028 -0.001676936 -0.03780587 -0.03528766 0.06418863 -0.13764653 0.11748712 0.11221064 -0.13424678 -0.09366397 0.2193799 -0.010400449 0.027325932 0.18904999 0.0194833 0.07936873 -0.04764345 0.0021626877 0.03232576 0.029143011 0.013526999 0.07086635 -0.07269921 -0.20961569 0.026780108 0.1362954 0.23704457 -0.020437725 0.023085326 0.027927106 -0.13802451 -0.013714648 0.107009634 -0.13428117 0.1611437 -0.12955762 -0.050658163 0.21282937 -0.041201014 -0.11263426 0.012746455 -0.004916415 -0.11930442 0.09670445 0.17422305 -0.01158969 -0.046013407 -0.015544521 0.14854021 -0.16602363 0.092331864 -0.10586841 0.083383396 -0.19717658 -0.04189207 -0.06399733 -0.02346003 0.037149187 0.057251666 0.1698575 0.037334457 0.025655769 0.2026471 -0.06949714 0.14585027 -0.0073375446 0.050213814 -0.02939843 -0.07933186 -0.16156326 0.043608513 -0.13456628 0.053144153 0.04554358 -0.14941601 -0.0042521 0.017622026 -0.10049523 0.01079185 0.11246926 0.02379783 -0.005594423 -0.050548397 0.14092034 0.0034888329 -0.07427234 -0.050955616 0.08466181 0.027443323 0.06522107 -0.14154902 0.004110925 0.005752829 0.016174307 -0.09697572 -0.06496444 -0.11811049 -0.028348133 -0.1306855 0.16201879 0.07079671 0.062269058 0.13803291 0.029861359 -0.002214063 0.070603654 0.11889315 0.17411673 -0.02282994 0.00292286 0.022577282 -0.056444187 -0.067847855 -0.101106964 0.011374925 -0.1672775 -0.18881458 0.12870878 0.062859945 0.011988872 0.15029319
32 0.12944409 0.011681995 -0.0030196984 -0.13115464 -0.003909923 -0.04735447 -0.07443761 -0.06644352 0.00459869 -0.041212436 -0.022276107 -0.010281896 -0.13685589 0.10249702 0.11081426 -0.053042766 -0.012089155 0.17474203 -0.08330978 0.08685435 0.13510107 0.036762517 0.0029363972 -0.01698254 0.06479927 0.0064344215 -0.0006628973 -0.02023628 0.04054469 -0.055618174 -0.16089715 0.117791794 0.136461 0.21494211 -0.0031182822 0.09328846 0.015416965 -0.070219256 -0.08755332 0.09425882 -0.09668697 0.13507532 -0.09742422 -0.0923047 0.21196562 -0.095670715 -0.033232473 0.0009136791 -0.031725865 -0.048797343 0.1661982 0.18591686 0.028158797 -0.04970209 -0.07090708 0.13145867 -0.18914564 0.066860475 -0.075699255 0.091126256 -0.18365197 -0.08721992 -0.12633854 0.016391257 0.032248843 0.07176501 0.14949022 -0.0062871785 0.06387485 0.19740945 -0.08381796 0.15703171 -0.044523872 -0.07436003 -0.010716966 -0.07039443 -0.120615944 0.06713458 -0.113880925 0.03300053 0.0541331 -0.11202296 -0.054855905 0.03220553 -0.11916974 0.04604254 0.046303783 0.03896872 -0.026825894 -0.005865412 0.091098994 -0.051504433 -0.1257924 -0.015283016 0.011161502 -0.046199426 0.09380193 -0.22262286 -0.025254484 -0.029453466 0.06142882 -0.11042899 -0.06255737 -0.054368436 -0.07834891 -0.21153402 0.26123568 -0.02510293 0.073305294 0.18089615 -0.010796556 0.0637332 0.0716847 0.23422313 0.26516724 0.033632416 -0.061726052 0.042870756 -0.09621296 -0.05250709 -0.03565167 -0.0015282506 -0.12357859 -0.23116757 0.19934827 0.0978013 0.009859285 0.14517918
24 0.15155178 0.005884034 -0.00654651 -0.14313756 -0.009829963 -0.052769594 -0.07750748 -0.071079925 0.009357834 -0.042631596 -0.02816516 0.0031945268 -0.14460102 0.11833431 0.12173718 -0.07266085 -0.02913516 0.20261605 -0.07776629 0.08452081 0.15793484 0.034971077 0.008589951 -0.026501276 0.06789427 0.008391002 0.0077453866 -0.0152619025 0.04657005 -0.061229236 -0.18822797 0.11269128 0.14523454 0.23543125 -0.008600989 0.09346406 0.018980613 -0.08587821 -0.07709499 0.09920873 -0.10809546 0.14625876 -0.11151511 -0.09774966 0.22076654 -0.09389299 -0.0462748 0.00010869857 -0.033288628 -0.05711152 0.16552366 0.19328022 0.026719464 -0.047657333 -0.06528118 0.1450791 -0.19491899 0.07858059 -0.08264004 0.098611884 -0.20067786 -0.08468535 -0.12113148 0.013305384 0.034724608 0.071722664 0.1668229 -0.0016679034 0.0609667 0.20507741 -0.08578874 0.16535549 -0.04759595 -0.058383368 -0.013031505 -0.07817183 -0.13796039 0.06671847 -0.122189336 0.039831594 0.0493269 -0.12165794 -0.055910427 0.030040896 -0.12153367 0.046312746 0.061638307 0.037046224 -0.025829026 -0.011274088 0.102159016 -0.049529083 -0.12664686 -0.017988041 0.02070833 -0.045138024 0.08992364 -0.22750342 -0.023849836 -0.023114387 0.06089257 -0.11852333 -0.060029674 -0.06548789 -0.07953359 -0.2108117 0.26549348 -0.01372911 0.074874446 0.19140884 -0.004662806 0.06218815 0.07726937 0.23117906 0.27342752 0.029247234 -0.061292555 0.03780912 -0.094964944 -0.057523012 -0.049485777 0.0011156056 -0.13358296 -0.23824114 0.20005758 0.099818476 0.010085011 0.15521823
14 0.17119154 -0.035350483 -0.042943522 -0.13461526 -0.004007742 -0.09021664 -0.042809945 -0.09074308 -0.004086843 -0.03160928 -0.033755556 0.058511414 -0.14252932 0.124703735 0.1171906 -0.12619606 -0.08220324 0.2243745 -0.023081949 0.032011528 0.1900552 0.023708977 0.07170177 -0.051920254 0.015513043 0.025363782 0.03096884 0.008285371 0.07041269 -0.071282335 -0.2090827 0.03931673 0.13932262 0.24738616 -0.02409494 0.038214937 0.028742867 -0.13543196 -0.028953524 0.106324956 -0.13497025 0.17288043 -0.13241225 -0.06327656 0.23191735 -0.049872857 -0.103516266 0.006985745 -0.014184728 -0.11501525 0.10803035 0.18296066 -0.004528665 -0.04946384 -0.025654322 0.16158955 -0.18314661 0.09848152 -0.10134209 0.0912249 -0.21553122 -0.052688893 -0.07313571 -0.015062754 0.03476935 0.069491856 0.17691955 0.027728857 0.029719653 0.21890756 -0.07683792 0.15461157 -0.016969811 0.029498668 -0.027572563 -0.08242527 -0.16096802 0.048316754 -0.13564497 0.057530634 0.050412517 -0.14839654 -0.009868513 0.017304031 -0.1106386 0.017837329 0.110131815 0.025223665 -0.0061398805 -0.046617284 0.13911672 -0.008716584 -0.091133505 -0.047393735 0.08013202 0.01632759 0.06814876 -0.16261843 -0.0035814035 0.0033772294 0.024387 -0.104068525 -0.06440549 -0.11612561 -0.04018729 -0.15284005 0.19445321 0.06126928 0.068573885 0.15330403 0.029045826 0.0035350495 0.07668509 0.14621069 0.20333529 -0.01379538 -0.0104581695 0.033001326 -0.063767426 -0.06921385 -0.10016335 0.009976379 -0.168529 -0.20589057 0.1417139 0.07873134 0.015490552 0.15698451
9 0.14929439 -0.015853982 -0.024458215 -0.12978077 -0.007222987 -0.06864207 -0.05579562 -0.07538866 -0.0017009246 -0.035869163 -0.028301809 0.021636263 -0.13177334 0.113643005 0.11000925 -0.09015003 -0.05098584 0.19128588 -0.050049435 0.05408612 0.16429716 0.033552572 0.035619218 -0.03961191 0.04111067 0.014104837 0.017290214 -0.005552693 0.054417636 -0.05970732 -0.17860597 0.07461606 0.13733685 0.22657883 -0.018905899 0.056956653 0.019342225 -0.10299185 -0.055767186 0.10056529 -0.119576424 0.1539615 -0.11926446 -0.07445873 0.21409938 -0.06706429 -0.07253965 0.000893752 -0.019470511 -0.08075753 0.13355826 0.17998002 0.015399885 -0.043474603 -0.0403755 0.14422862 -0.18194993 0.07829722 -0.08611847 0.08995595 -0.19162399 -0.061091356 -0.09473506 0.005728724 0.034462783 0.06281508 0.15825984 0.018988166 0.0433618 0.20630229 -0.08296486 0.1585664 -0.024784165 -0.017792303 -0.020215921 -0.07383224 -0.14650288 0.061477374 -0.12469862 0.047400452 0.049158912 -0.13087629 -0.028449975 0.020990685 -0.1142875 0.029819956 0.08272218 0.028279206 -0.017569898 -0.027706536 0.11632243 -0.022528037 -0.10461218 -0.029846635 0.046538886 -0.010212258 0.07895119 -0.18741238 -0.011236831 -0.005507827 0.038391232 -0.1050117 -0.06574874 -0.08790815 -0.05862133 -0.17098366 0.22252496 0.017148575 0.06951963 0.17031695 0.015132949 0.033606738 0.071073696 0.18262911 0.22886631 0.0025422894 -0.037274238 0.035285614 -0.08055139 -0.061378304 -0.071613885 0.0037178649 -0.14453584 -0.21683486 0.16524251 0.08993704 0.011431645 0.15141892
28 0.15373051 0.009602578 -0.0074089007 -0.14289565 -0.006100928 -0.052981157 -0.0716045 -0.07229191 0.005593183 -0.046498727 -0.03280644 -0.0029160064 -0.14965849 0.11256164 0.122631 -0.07072379 -0.026054567 0.19611827 -0.074660525 0.08152316 0.15598439 0.037036225 0.010912096 -0.016955039 0.064248554 0.008178581 0.0012328728 -0.014973515 0.053198826 -0.06528712 -0.1834265 0.11072607 0.1422478 0.23627709 -0.0050721364 0.08925883 0.015281936 -0.078984946 -0.08170306 0.10484228 -0.108537495 0.14493825 -0.10633914 -0.095120825 0.22775893 -0.097568735 -0.044320777 -0.0016577217 -0.02733632 -0.055956908 0.16273166 0.19681722 0.020367755 -0.04861151 -0.06626158 0.14176086 -0.19644883 0.0743689 -0.07704663 0.097579636 -0.19681166 -0.08880855 -0.12803535 0.011101761 0.03575382 0.07005698 0.16254593 0.0003839826 0.05508805 0.20974277 -0.08247201 0.16066538 -0.04683482 -0.06362737 -0.012924283 -0.07759882 -0.1292069 0.06694372 -0.11574986 0.03306002 0.050528027 -0.121674664 -0.05574799 0.031997062 -0.122496285 0.050455414 0.061574813 0.039685197 -0.029064605 -0.01309852 0.09866242 -0.049381416 -0.11849768 -0.014851682 0.023639774 -0.041628532 0.09088943 -0.2262413 -0.02329337 -0.026820287 0.06456127 -0.11710253 -0.060951456 -0.05662866 -0.07587755 -0.20774874 0.2505867 -0.010033589 0.07361786 0.18554997 -0.008531886 0.05683788 0.07268976 0.2277719 0.2647788 0.023852043 -0.056413986 0.03616983 -0.09382342 -0.061168823 -0.04346436 -0.0024034793 -0.13410835 -0.23992051 0.2019039 0.0952056 0.005938222 0.14456595
30 0.14210956 0.01692598 -0.00739102 -0.14764643 -0.0072151334 -0.046720747 -0.08310089 -0.06301922 0.002861942 -0.050017495 -0.03253243 -0.012852925 -0.14630628 0.11253384 0.11543644 -0.056305096 -0.019833064 0.18750145 -0.09046441 0.08846829 0.15049782 0.040141083 0.0029033362 -0.019985432 0.07472014 0.0034781813 0.001049869 -0.018952353 0.05457543 -0.060093243 -0.16685285 0.1325613 0.15054719 0.23496401 -0.008671227 0.10315208 0.022864882 -0.067371376 -0.08718793 0.1048338 -0.11357704 0.14072795 -0.11408292 -0.0974548 0.22872178 -0.10341701 -0.034343425 -0.0041102716 -0.02387287 -0.04391842 0.17829908 0.20375301 0.02198638 -0.048650473 -0.072349414 0.13233924 -0.20302749 0.0716227 -0.076516785 0.09447178 -0.19549862 -0.09109057 -0.13668133 0.01721556 0.035127442 0.062417615 0.16009095 -0.0044606286 0.063708425 0.20785521 -0.090288125 0.16626583 -0.048120733 -0.08232908 -0.013317445 -0.073572904 -0.1304336 0.07132447 -0.11586651 0.038771402 0.062647216 -0.11415526 -0.06198714 0.03302478 -0.12133279 0.057782624 0.056255084 0.04084259 -0.02792162 -0.0006138606 0.09617017 -0.046848174 -0.13161102 -0.009710507 0.010258066 -0.04728274 0.10254076 -0.23263368 -0.03316954 -0.035242345 0.06118437 -0.11959299 -0.068832144 -0.04504391 -0.07620612 -0.21861587 0.26826957 -0.021562418 0.07252223 0.19518937 -0.010723049 0.068458274 0.070681795 0.24207357 0.272859 0.03514596 -0.06293542 0.03496903 -0.10514225 -0.059108935 -0.031910025 -0.004830746 -0.12988693 -0.25309658 0.2075279 0.10322074 0.009896237 0.14490241
8 0.16589382 -0.02859807 -0.03438462 -0.13997392 -0.010079432 -0.07586133 -0.048113033 -0.08133461 0.00064429495 -0.04236114 -0.040539168 0.04638542 -0.14535633 0.12300078 0.11796968 -0.11414478 -0.06890826 0.21207312 -0.0315216 0.049274 0.18179625 0.029476985 0.055321157 -0.04087176 0.022804275 0.019714987 0.018782852 0.004198317 0.06906192 -0.06842662 -0.20287956 0.06033933 0.14108911 0.24560276 -0.020726938 0.048253212 0.028228834 -0.119691394 -0.035414886 0.107821375 -0.13076709 0.15736361 -0.12889323 -0.072984226 0.2274934 -0.06403666 -0.08778581 0.0013929467 -0.013251368 -0.09710383 0.12218363 0.18905097 -0.0023765245 -0.05264027 -0.03188208 0.14877586 -0.18209332 0.09400152 -0.0991356 0.09201742 -0.20508519 -0.0620466 -0.08690143 -0.0077956617 0.040453803 0.061941884 0.17389001 0.020237138 0.03491604 0.21499895 -0.07319138 0.15843895 -0.015407396 0.010669479 -0.024618376 -0.07743671 -0.15669955 0.050571863 -0.13195524 0.05466656 0.052702736 -0.14180945 -0.021646334 0.024349537 -0.1156512 0.022220729 0.09652157 0.03216041 -0.009566494 -0.036219794 0.13190849 -0.01105456 -0.09143841 -0.039176397 0.06672906 0.0052775317 0.07597088 -0.17783643 -0.0120888315 -0.0096909925 0.033116993 -0.10692733 -0.06566635 -0.09822451 -0.04446916 -0.1641778 0.19740535 0.042005174 0.06740611 0.15361474 0.020334937 0.013369639 0.07552399 0.16061515 0.20575081 -0.005907377 -0.018298147 0.028090613 -0.06878807 -0.065036856 -0.08301206 0.0033650012 -0.15652773 -0.2072593 0.15671422 0.076768376 0.012352076 0.15218297
7 0.19999826 -0.089832895 -0.08360946 -0.12437883 0.0032901026 -0.13027759 -0.014929267 -0.12641059 -0.010682424 -0.018842977 -0.03341844 0.109656826 -0.1473631 0.1367003 0.122126535 -0.19466738 -0.14819291 0.2674878 0.019595318 -0.02415972 0.2379355 0.010673901 0.13555557 -0.091426425 -0.023711767 0.03953989 0.06807061 0.03980455 0.08152147 -0.08943321 -0.2483505 -0.044800337 0.13087812 0.24872404 -0.03202445 -0.020148924 0.017162288 -0.20958638 0.026809616 0.10851687 -0.1640503 0.19907922 -0.15613124 -0.037917342 0.23908268 0.00046684558 -0.17332076 0.022857586 -0.016150529 -0.1837652 0.05951673 0.17697008 -0.011041775 -0.037603434 0.02315316 0.19744173 -0.17050028 0.119603515 -0.13070011 0.08601089 -0.23743565 -0.015633127 -0.01683097 -0.035656918 0.0289054 0.07794662 0.18760264 0.053576604 0.0066322386 0.21564342 -0.07454051 0.13960616 0.011069858 0.12422252 -0.045375545 -0.07931638 -0.18829452 0.031059116 -0.14336133 0.074544296 0.028883228 -0.18511267 0.029213013 -0.0027511856 -0.109897286 -0.017945329 0.1385803 0.019566646 0.022474486 -0.07744939 0.1785818 0.034092594 -0.06461346 -0.09397414 0.1364167 0.07363097 0.04742108 -0.11287991 0.023879135 0.05024633 -0.008274784 -0.08130121 -0.059033405 -0.19197313 -0.024913913 -0.086433776 0.12999314 0.122366145 0.069154434 0.110444754 0.07455049 -0.037017707 0.08491116 0.06216424 0.14503476 -0.05106648 0.029060615 0.026396038 -0.024183122 -0.076026 -0.16610491 0.022434698 -0.20082438 -0.16136108 0.08288846 0.063555315 0.031926684 0.17148656
6 0.19144803 -0.10049766 -0.08717206 -0.11185179 -0.0010343345 -0.13559464 -0.0025749677 -0.1367945 -0.009229105 -0.003851125 -0.034092482 0.12253201 -0.13518918 0.13358936 0.10791163 -0.2056167 -0.16485453 0.2673915 0.03701598 -0.041641396 0.23954238 0.0021255906 0.14811307 -0.100647904 -0.037865188 0.041909862 0.07427376 0.048987847 0.080230154 -0.08609755 -0.25173718 -0.07445265 0.11858393 0.22537223 -0.035818502 -0.038677685 0.016878136 -0.2149841 0.038803205 0.09958888 -0.15996705 0.19780678 -0.1494163 -0.026792781 0.22071584 0.021768231 -0.18246263 0.030508729 -0.017229652 -0.18910074 0.03362116 0.15539417 -0.009121873 -0.034658078 0.036275275 0.19996671 -0.1556513 0.1198821 -0.13197301 0.07345309 -0.22433816 -0.006495585 0.004132165 -0.044159364 0.022904737 0.07021227 0.1827114 0.061042838 -0.0038213476 0.20258494 -0.06585165 0.12950401 0.021267196 0.14771505 -0.052307274 -0.07917796 -0.18068795 0.023610463 -0.13203356 0.07356067 0.015675917 -0.18594752 0.037812598 -0.006657988 -0.092553794 -0.028853271 0.1457914 0.009102728 0.028708708 -0.0862869 0.18389016 0.041030943 -0.048671246 -0.09559796 0.14667222 0.081482716 0.030159276 -0.08630908 0.033496454 0.059531365 -0.018179277 -0.07510739 -0.04867184 -0.20320094 -0.009890041 -0.06392228 0.10859015 0.14008595 0.072213866 0.09149693 0.079069294 -0.050900165 0.07578601 0.031350095 0.11531171 -0.067393206 0.0451959 0.026627073 -0.01390536 -0.077875525 -0.17555305 0.030770993 -0.20550482 -0.13583434 0.055267785 0.051857874 0.035870176 0.15714937
25 0.15424272 0.00810627 -0.009192069 -0.13647676 -0.0053631663 -0.06024243 -0.07110653 -0.07457858 0.0013832226 -0.045793574 -0.030362828 0.00013102018 -0.14760405 0.113214806 0.12332232 -0.077076755 -0.02856012 0.198815 -0.07139732 0.083841816 0.1594749 0.039682265 0.016216295 -0.01824482 0.06299727 0.0047591855 0.0073967646 -0.009335366 0.0489117 -0.06550311 -0.18348481 0.10197053 0.14335246 0.2294202 -0.01355529 0.08862615 0.014981929 -0.08182859 -0.076442994 0.0960456 -0.114525385 0.14296003 -0.11162781 -0.091658935 0.22064118 -0.08534883 -0.04917556 0.0018425218 -0.020382889 -0.055149887 0.15608642 0.19434826 0.015994081 -0.047413923 -0.06561603 0.13556537 -0.19137016 0.07139526 -0.081703454 0.09449505 -0.19602194 -0.0787025 -0.11472354 0.004806658 0.03676001 0.062343415 0.16562779 0.00020921722 0.053034086 0.20172668 -0.08062173 0.16176309 -0.04369945 -0.055846725 -0.008140242 -0.07874184 -0.13623151 0.069682784 -0.11598693 0.035989385 0.049961865 -0.12051301 -0.053646 0.029615775 -0.11981831 0.046296265 0.06650266 0.035695244 -0.020490903 -0.0177516 0.10023986 -0.042262744 -0.118729755 -0.017751677 0.025447587 -0.040335573 0.08871322 -0.21796323 -0.022647941 -0.024996066 0.06178279 -0.11287712 -0.058120422 -0.063215956 -0.076061055 -0.20072013 0.25478935 -0.005856003 0.07088026 0.18215501 -0.003991999 0.05338698 0.07667054 0.21672629 0.2637206 0.027856024 -0.049000327 0.036785714 -0.09342174 -0.064255446 -0.044058915 0.006631665 -0.13910462 -0.2322719 0.19912998 0.09417573 0.012274491 0.15060861
26 0.15870382 -0.0036507957 -0.019155556 -0.13971587 -0.009238653 -0.06547569 -0.07225945 -0.08517274 0.008442534 -0.041408956 -0.026925597 0.014402721 -0.14711268 0.11786614 0.121726505 -0.087429255 -0.038543347 0.21090654 -0.06390393 0.07275042 0.17011413 0.033947807 0.022940077 -0.033121556 0.055451714 0.00785665 0.013886437 -0.012510073 0.049557623 -0.063554496 -0.19486366 0.09212062 0.1426701 0.23263074 -0.011108924 0.07714769 0.015070706 -0.092515916 -0.064308636 0.100216925 -0.115956336 0.15507011 -0.113110065 -0.09037133 0.22960438 -0.08343746 -0.060359642 0.00693953 -0.024955058 -0.071752526 0.15668201 0.19633576 0.02448207 -0.04797204 -0.058697805 0.15280968 -0.19610308 0.07905556 -0.08686972 0.09875734 -0.2020596 -0.081781484 -0.10930838 0.009760182 0.035952967 0.06984742 0.17198741 0.0026935348 0.05432138 0.20580721 -0.08844055 0.15973109 -0.040851794 -0.044392828 -0.013704127 -0.079060785 -0.1387156 0.06714727 -0.12006643 0.044799685 0.04770711 -0.12820545 -0.04889969 0.023735726 -0.12306366 0.038550176 0.06774286 0.030132852 -0.02101075 -0.022391137 0.10979473 -0.038923133 -0.11487448 -0.021510681 0.039394274 -0.029909272 0.08548293 -0.21635425 -0.021701794 -0.013214667 0.05711524 -0.110186554 -0.056483194 -0.07668726 -0.077006795 -0.19369337 0.25270647 0.0020397473 0.078166224 0.18352784 0.0032547042 0.049993366 0.07486546 0.21333657 0.2564486 0.020807454 -0.049636617 0.038744688 -0.09004592 -0.06572242 -0.06213606 0.0056299022 -0.14150415 -0.23719083 0.19200602 0.09248539 0.010400252 0.15597448
29 0.1514743 0.0042348756 -0.0134791285 -0.13688755 -0.008185456 -0.059156418 -0.067713395 -0.070324935 0.0045462064 -0.04616 -0.034345955 0.006131376 -0.14388956 0.10844171 0.11364832 -0.078829505 -0.034428313 0.19104 -0.06244413 0.07853291 0.15283154 0.037040498 0.015709963 -0.022050256 0.050784837 0.014502095 0.005538869 -0.01185119 0.051246434 -0.0613024 -0.17605263 0.09796815 0.13644418 0.23264311 -0.016011093 0.08218913 0.023199158 -0.08484219 -0.066556945 0.103347406 -0.110511474 0.14448607 -0.10885835 -0.084950946 0.21609083 -0.087202616 -0.053672325 0.0020988458 -0.025062833 -0.059239913 0.15342566 0.19053236 0.011627079 -0.049403537 -0.06019546 0.13616666 -0.18564215 0.080233924 -0.08571828 0.095201045 -0.19499803 -0.080452405 -0.11093089 0.006489986 0.040285535 0.06478768 0.165725 0.00559589 0.04875355 0.20951939 -0.08300641 0.15972754 -0.035970826 -0.041064415 -0.012412913 -0.07396975 -0.13928361 0.06432571 -0.11945553 0.04187447 0.050948877 -0.12318792 -0.044480514 0.0323644 -0.115654804 0.04118754 0.068830356 0.03853451 -0.02267318 -0.019212147 0.101273894 -0.039153147 -0.116807036 -0.019301517 0.027532779 -0.030525442 0.091708295 -0.21130306 -0.01933933 -0.023299037 0.053044673 -0.10958265 -0.062039632 -0.0616779 -0.07016634 -0.19648753 0.239203 0.001452938 0.072863184 0.1788074 -0.0021098347 0.042186793 0.06967467 0.20889236 0.24941537 0.016687652 -0.04895767 0.030139165 -0.08264939 -0.06043143 -0.050464727 0.0035129767 -0.13218634 -0.23053716 0.18646373 0.08653146 0.01041768 0.1490712
20 0.18369861 -0.036290776 -0.04551881 -0.14124879 -0.007549954 -0.09591584 -0.042318143 -0.10208601 0.0010497714 -0.03746239 -0.036573935 0.05728186 -0.15152854 0.1313001 0.12882105 -0.1352843 -0.08927947 0.24188471 -0.02780326 0.038302876 0.20468204 0.022848954 0.074790746 -0.05123921 0.024326043 0.023595056 0.03675429 0.010443395 0.07410656 -0.07620006 -0.22293864 0.040922806 0.14813353 0.24894962 -0.017454585 0.037434716 0.02315706 -0.14273244 -0.026219994 0.109679945 -0.14522816 0.1752668 -0.13385795 -0.070667826 0.24325608 -0.050518353 -0.11077974 0.013296944 -0.018676717 -0.12397661 0.11547696 0.19479878 0.008394165 -0.04746193 -0.029558802 0.17566822 -0.19046028 0.09757172 -0.1117698 0.09091907 -0.22093117 -0.05360698 -0.07644526 -0.016547106 0.030541062 0.06721591 0.18263349 0.02918768 0.03319237 0.21873334 -0.07552042 0.15235505 -0.01807732 0.024295649 -0.025884409 -0.084696956 -0.16339205 0.04996565 -0.13109857 0.051033936 0.040599745 -0.15706874 -0.019500837 0.013078394 -0.120401345 0.018614179 0.10858681 0.028721672 -0.003890243 -0.04407497 0.14070977 -0.004072179 -0.08955393 -0.053523596 0.07927801 0.013722505 0.07073503 -0.16888353 -0.0047787833 0.0061080814 0.029596945 -0.10188529 -0.05909419 -0.121365435 -0.05106337 -0.15313433 0.19855076 0.052085783 0.0731688 0.15546729 0.029778669 0.013108343 0.08199728 0.14893416 0.211555 -0.012528544 -0.012057503 0.032317296 -0.06317048 -0.07106088 -0.10437474 0.010185154 -0.17092004 -0.21136639 0.15120178 0.077061996 0.020043949 0.1627158
31 0.15368763 -0.02123474 -0.024764813 -0.12717189 -0.0029699756 -0.06909377 -0.05294529 -0.08208357 -0.0014582963 -0.03750558 -0.030097296 0.028736709 -0.13498978 0.11354722 0.11326507 -0.09548021 -0.061807506 0.20124003 -0.05093473 0.0523887 0.17449449 0.026265409 0.041385096 -0.041513316 0.037022054 0.016032705 0.019582566 -0.0042269537 0.059048582 -0.062027298 -0.18900017 0.067868106 0.13723558 0.23252288 -0.018239377 0.055312097 0.020520845 -0.10858882 -0.046961807 0.104193725 -0.12566099 0.15696448 -0.12196398 -0.073338486 0.22467814 -0.06477054 -0.08244063 0.006530574 -0.024928289 -0.08548113 0.13162301 0.18613268 0.01598927 -0.046092313 -0.042157672 0.1503929 -0.18457286 0.08758916 -0.093129665 0.08551651 -0.19748123 -0.067828566 -0.09284964 -0.00015723759 0.0344325 0.06542153 0.16402192 0.02090351 0.043188132 0.20684132 -0.07905399 0.1548736 -0.02770717 -0.006285749 -0.0224864 -0.07248072 -0.14748098 0.059175137 -0.12681589 0.0461269 0.04478567 -0.13157082 -0.030420143 0.024638895 -0.11204043 0.024972491 0.08657147 0.031097556 -0.0150354635 -0.028750038 0.12325731 -0.023949623 -0.10594554 -0.038243927 0.051808547 -0.0105251055 0.08048861 -0.18687604 -0.012638035 -0.009611507 0.038217183 -0.1030995 -0.063821554 -0.095420405 -0.058175437 -0.17196128 0.21166672 0.024115339 0.071377255 0.16283603 0.014443599 0.028684434 0.0700986 0.1726305 0.22298823 0.00073711644 -0.031596385 0.03592539 -0.07679802 -0.059728336 -0.076512 0.0030668518 -0.15057726 -0.2163811 0.16282967 0.08285847 0.011172352 0.15179035
5 0.20493811 -0.10046202 -0.09285694 -0.12116651 0.005682536 -0.1416817 -0.0003810143 -0.13902827 -0.012118491 -0.0052945213 -0.030944483 0.12744409 -0.13887665 0.14011681 0.118367046 -0.21194546 -0.16794366 0.27652156 0.03786233 -0.044003442 0.24635169 0.0011629268 0.15938728 -0.09992384 -0.039817378 0.040352665 0.07643677 0.05073655 0.08824744 -0.09082481 -0.2635595 -0.078716256 0.1264726 0.24197395 -0.032157257 -0.043743934 0.017597312 -0.22574157 0.043928 0.1023281 -0.1637756 0.20864017 -0.15560657 -0.022578806 0.23323727 0.019593637 -0.18313976 0.031052206 -0.01444341 -0.20068093 0.037519183 0.16628462 -0.017374272 -0.03524133 0.033648077 0.20275974 -0.15997986 0.12469259 -0.14244546 0.0809426 -0.23376122 -0.0064858994 0.0007462978 -0.04680418 0.023980979 0.078223124 0.18965253 0.062055945 -0.0015365289 0.21460012 -0.071144275 0.13446546 0.021487407 0.15426 -0.05176615 -0.08400389 -0.19475639 0.021536212 -0.14934501 0.07954204 0.02364286 -0.19444408 0.043602765 -0.010665362 -0.10354508 -0.031623796 0.15485457 0.012134234 0.035579443 -0.08696101 0.18930364 0.040406458 -0.05330865 -0.10139914 0.14847524 0.09123823 0.034418028 -0.09086393 0.03794393 0.0568136 -0.020133734 -0.08120265 -0.059862442 -0.2084831 -0.010611172 -0.068558946 0.1136856 0.14862114 0.07449188 0.09592231 0.07833963 -0.053863984 0.0846546 0.031498365 0.12369315 -0.066168524 0.04677817 0.026036987 -0.016467601 -0.080971524 -0.1863751 0.033753756 -0.21597792 -0.1422173 0.05834884 0.056213673 0.036203355 0.17235167
11 0.20268475 -0.09173212 -0.08653345 -0.12684122 -0.00081174873 -0.13660614 -0.0058263196 -0.13279599 -0.007824878 -0.0146405455 -0.037300006 0.11509756 -0.1415426 0.14058554 0.119687915 -0.20052002 -0.1590461 0.26396167 0.031251572 -0.029618528 0.2435448 0.0054174564 0.14620657 -0.09362671 -0.032638583 0.041174944 0.06848324 0.03975923 0.083243415 -0.087842815 -0.2563691 -0.05862026 0.12809984 0.24274436 -0.02924856 -0.031152587 0.020773657 -0.21313284 0.035104275 0.10825795 -0.16609713 0.20496337 -0.14984465 -0.027651919 0.2341491 0.0077334233 -0.17809723 0.024346357 -0.011165323 -0.18921687 0.049317267 0.17195122 -0.016638663 -0.03671086 0.0278324 0.1956944 -0.16772781 0.12677488 -0.13249475 0.08472606 -0.23493135 -0.017441006 -0.01061715 -0.04578765 0.023061281 0.07648381 0.19059077 0.057337087 0.0019494848 0.21934342 -0.067352615 0.13704374 0.013647 0.1376453 -0.047982343 -0.081805654 -0.19086768 0.026404133 -0.14667012 0.07359141 0.024556238 -0.19308037 0.029527823 -0.0027570177 -0.10470273 -0.02781356 0.14788352 0.018410208 0.026703563 -0.08586714 0.19011544 0.036665365 -0.05613193 -0.09843215 0.14339057 0.07889324 0.03978912 -0.10296893 0.02979347 0.0511597 -0.016711859 -0.08424992 -0.06033898 -0.19827649 -0.01911298 -0.083877906 0.12631565 0.13555379 0.07549084 0.10788401 0.07550475 -0.04021133 0.0834801 0.05080771 0.13509892 -0.057951875 0.038191956 0.025679892 -0.026123248 -0.08096907 -0.17078932 0.024818217 -0.21304299 -0.16007946 0.07764475 0.056963485 0.028296193 0.16624387
23 0.16059557 -0.017192386 -0.028421152 -0.13770227 -0.0092813 -0.072346 -0.052811325 -0.087310515 0.0015328503 -0.03252925 -0.031984318 0.03414046 -0.1454473 0.11704795 0.11392182 -0.10562716 -0.059831873 0.20783108 -0.050518263 0.053859957 0.17389761 0.032049157 0.048543405 -0.039927784 0.03949544 0.014358987 0.02066932 0.0033658936 0.059244897 -0.06978272 -0.19786315 0.07076152 0.13808905 0.24005964 -0.0135017475 0.05645335 0.021325598 -0.11647925 -0.04690741 0.10851015 -0.12497318 0.15796666 -0.12715523 -0.07445888 0.22773191 -0.06252189 -0.079521805 0.0041837003 -0.027210716 -0.09369658 0.13709244 0.18674925 0.012101581 -0.050253548 -0.034691308 0.15180185 -0.1907069 0.084390655 -0.09246497 0.087609954 -0.21024579 -0.065981045 -0.09185871 0.0036439763 0.0362084 0.0696466 0.17353016 0.02353627 0.042600714 0.20947213 -0.07842103 0.15947196 -0.026356313 -0.010553422 -0.023159085 -0.07825064 -0.1471272 0.05366241 -0.13188766 0.053842753 0.04701742 -0.1398799 -0.029606199 0.025307933 -0.12021522 0.02837968 0.087861106 0.027529305 -0.013443557 -0.025665827 0.12118816 -0.023856279 -0.10713497 -0.035456885 0.05763288 -0.010631553 0.08277491 -0.1922663 -0.010144494 -0.0072582182 0.036454994 -0.10854547 -0.06456047 -0.093762435 -0.06073802 -0.17499873 0.21764524 0.02419866 0.07100695 0.16989452 0.015032235 0.029612334 0.07152305 0.17994261 0.22588612 -0.0009453204 -0.03533998 0.03057383 -0.07464083 -0.05954456 -0.084713936 0.005371207 -0.15305492 -0.2205656 0.16748825 0.08672746 0.014333794 0.1513992
15 0.14642568 -0.0016807674 -0.014430556 -0.13305768 -0.003353248 -0.056636278 -0.0687578 -0.07069418 -0.00020855658 -0.039229255 -0.026076345 0.006669483 -0.13710633 0.11117211 0.10944314 -0.074670285 -0.035358597 0.18818194 -0.06833891 0.072413 0.15140119 0.038334996 0.014907619 -0.022992691 0.05564226 0.010323254 0.012519417 -0.01194758 0.051088866 -0.062886395 -0.17323807 0.09347294 0.1374358 0.22704543 -0.012070515 0.08287029 0.018773401 -0.089312375 -0.07244222 0.10130793 -0.115362555 0.14350405 -0.11085444 -0.08877376 0.21898405 -0.082986355 -0.053676676 -0.0033414667 -0.0259483 -0.061474577 0.15046702 0.19346957 0.023308124 -0.047532264 -0.054283477 0.13856575 -0.18983318 0.073895924 -0.08157409 0.08918368 -0.19417427 -0.078482635 -0.112084076 0.012986112 0.03620316 0.07078401 0.1593262 0.005950236 0.056440856 0.20617011 -0.08049949 0.16268699 -0.03625025 -0.045568623 -0.012172175 -0.07384891 -0.13838615 0.066248775 -0.121050164 0.044950202 0.05312732 -0.12584364 -0.043703962 0.027258992 -0.117342696 0.042984206 0.07153154 0.030951781 -0.02078764 -0.014754771 0.105095126 -0.04168532 -0.11338697 -0.022829492 0.031453725 -0.03452075 0.085460536 -0.20515974 -0.018547984 -0.022250379 0.052176 -0.113339975 -0.06326832 -0.06999623 -0.068247035 -0.1939009 0.2393962 -0.0026521885 0.07427161 0.17659524 -0.0010237895 0.051489115 0.07097087 0.20668639 0.24998316 0.015959466 -0.05174914 0.035946336 -0.084375136 -0.058830764 -0.05269579 0.0041947016 -0.13557133 -0.22755617 0.18810959 0.09509939 0.010721231 0.14979231
13 0.16975887 -0.034561142 -0.042801693 -0.13302882 -0.0026951346 -0.08396571 -0.04760809 -0.09014806 -0.004700279 -0.036356542 -0.037726372 0.049210016 -0.14273705 0.117167406 0.11234659 -0.119084954 -0.075094625 0.21436773 -0.028126236 0.038661234 0.18573736 0.029835535 0.066029705 -0.043034222 0.019993184 0.025962053 0.027900923 0.0050826087 0.070990846 -0.067636065 -0.2041945 0.044427343 0.13935736 0.24031799 -0.021320539 0.040793087 0.02567286 -0.13202605 -0.030343775 0.10555068 -0.13293345 0.16146965 -0.13048506 -0.06305177 0.22543427 -0.05059533 -0.092802644 0.0039714365 -0.010982448 -0.10596961 0.109616905 0.18305697 -0.0016709063 -0.044231623 -0.026508555 0.15881413 -0.1818852 0.09170932 -0.101413496 0.09096638 -0.20872453 -0.05892102 -0.077801466 -0.01632122 0.036473706 0.06382795 0.1674978 0.022204803 0.035666175 0.21040766 -0.06980525 0.15252407 -0.015229502 0.021303724 -0.023270262 -0.07851972 -0.15827216 0.052949186 -0.13031559 0.05330703 0.048708905 -0.14329867 -0.016417393 0.020367935 -0.114499114 0.017174982 0.101756275 0.03323745 -0.009053213 -0.040009934 0.13662344 -0.006532906 -0.08924059 -0.04880083 0.06992518 0.013116685 0.06802775 -0.16375695 -0.0011461022 -0.0018954249 0.02688236 -0.104132466 -0.06574794 -0.1106742 -0.04038778 -0.1528462 0.18730235 0.04717944 0.06367226 0.14665505 0.025654482 0.014157889 0.07346937 0.14328508 0.19769692 -0.010135088 -0.013820746 0.029725388 -0.059785645 -0.066699006 -0.08989854 0.009440394 -0.16026151 -0.20075004 0.14639196 0.073180474 0.01632058 0.15116133
19 0.15212412 -0.009799002 -0.019923054 -0.13454036 -0.0048911874 -0.06772755 -0.060672395 -0.080535874 0.0009774594 -0.040079422 -0.030318022 0.022676349 -0.13692942 0.113111846 0.11083945 -0.08769293 -0.049130637 0.19958985 -0.059132133 0.05810831 0.16725294 0.035946425 0.033617146 -0.03596216 0.042487796 0.0115199275 0.017566886 -0.0033599676 0.055717904 -0.066529095 -0.18712547 0.082053 0.13737513 0.2351413 -0.015955856 0.066070825 0.020643974 -0.1013048 -0.05725547 0.10161236 -0.120572835 0.15561385 -0.117954634 -0.08347259 0.22175972 -0.073121086 -0.07430337 0.0017162294 -0.023839712 -0.07753122 0.14307463 0.19238052 0.017098669 -0.04342727 -0.04906309 0.14454973 -0.1885016 0.08457981 -0.08471327 0.09008935 -0.2005204 -0.07023046 -0.10084731 0.008855251 0.036174767 0.06924313 0.16802754 0.012238255 0.04611367 0.21137843 -0.08457075 0.16160299 -0.028876543 -0.025580263 -0.021076696 -0.07245638 -0.14071836 0.0606461 -0.12058722 0.048447765 0.046200156 -0.13235834 -0.034707103 0.025933675 -0.11238885 0.030666731 0.078811094 0.03434301 -0.015597463 -0.022804366 0.11778128 -0.02661475 -0.11333857 -0.028050873 0.041667834 -0.017968906 0.08727639 -0.19943346 -0.018397236 -0.012504521 0.04676975 -0.10880558 -0.06514652 -0.08380093 -0.066018246 -0.18206862 0.2306951 0.012573833 0.06909819 0.17344187 0.011144929 0.041593038 0.07526285 0.19141707 0.23771319 0.008234492 -0.038341593 0.033750333 -0.07883596 -0.062291376 -0.066978075 0.007307566 -0.14283597 -0.22306469 0.17318346 0.092836164 0.01049917 0.14730987
21 0.14432168 0.001936855 -0.010835607 -0.13626489 -0.0053258156 -0.050277613 -0.07049313 -0.06728219 0.0073952936 -0.0440639 -0.030665308 0.00014806824 -0.14066808 0.1133514 0.111334294 -0.0686152 -0.027951723 0.19052984 -0.0758223 0.07723916 0.15561093 0.038103566 0.014589967 -0.022991095 0.058116928 0.0044075726 0.0075003174 -0.015316811 0.04849441 -0.057555363 -0.17471468 0.11002256 0.13803312 0.23083988 -0.010699819 0.085995115 0.017060772 -0.080731295 -0.074053876 0.10166165 -0.11435195 0.14683537 -0.116198264 -0.09372662 0.2269809 -0.08507504 -0.049649496 -0.0018940116 -0.027365625 -0.06364001 0.15994239 0.19816102 0.02345342 -0.051984638 -0.057604533 0.13941917 -0.19118097 0.07831192 -0.077087164 0.09276092 -0.19841932 -0.079436734 -0.12000085 0.015910253 0.03484351 0.072848536 0.159647 0.008024758 0.05271016 0.20702836 -0.08935423 0.1661968 -0.034617376 -0.055543754 -0.013034727 -0.076621935 -0.1357956 0.06759484 -0.11702741 0.04235666 0.053438716 -0.1256473 -0.05105047 0.035931397 -0.121953346 0.04109248 0.062417064 0.037661202 -0.024004191 -0.008743989 0.108347416 -0.040483754 -0.118948884 -0.02211099 0.027894503 -0.034195606 0.09384277 -0.21634476 -0.025577515 -0.021775218 0.053757574 -0.11745578 -0.06810637 -0.06756406 -0.07719121 -0.20327325 0.25068066 -0.008229156 0.07172101 0.18087988 -0.003964044 0.059384145 0.072455265 0.2240489 0.2577354 0.023772242 -0.05408262 0.039899986 -0.08960692 -0.055294037 -0.051625703 -0.00082389626 -0.13548537 -0.2385604 0.18820299 0.09957427 0.006313964 0.15089574
18 0.17176878 -0.03670489 -0.044379503 -0.12599094 -0.006986064 -0.092519134 -0.04023948 -0.086713366 -0.0064519146 -0.033485305 -0.03512483 0.06111949 -0.14046296 0.11982209 0.10938834 -0.1241878 -0.08755981 0.21697748 -0.017452274 0.026127698 0.18774901 0.025800498 0.07091585 -0.044169914 0.010065794 0.021661108 0.03268755 0.014543937 0.066412516 -0.069304675 -0.2076455 0.026069162 0.14014545 0.23971038 -0.021371454 0.033519763 0.028103271 -0.13763177 -0.022636082 0.10221902 -0.13425602 0.16979015 -0.13260496 -0.05937096 0.22578381 -0.043361083 -0.10294311 0.010869284 -0.006207545 -0.117803365 0.10464396 0.18240133 -0.006227981 -0.048393443 -0.02018266 0.15739824 -0.17089494 0.092981696 -0.10441096 0.08351879 -0.20757534 -0.04605588 -0.06922884 -0.020270014 0.034182563 0.06432275 0.17270288 0.034254372 0.030640617 0.20717232 -0.07082295 0.14832912 -0.0064263577 0.040732864 -0.024675475 -0.07578015 -0.1576286 0.04953468 -0.13361381 0.057986993 0.048113093 -0.14467728 -0.0065045767 0.012700017 -0.106474645 0.012184119 0.11213185 0.025017953 0.0006756524 -0.05005655 0.14117473 -0.0021892306 -0.08544829 -0.053667624 0.07800388 0.022662682 0.065998174 -0.15480724 0.002085812 0.009027223 0.019516243 -0.09491488 -0.0584148 -0.11705743 -0.0356046 -0.14145526 0.17293309 0.06190637 0.06681691 0.14063066 0.030193547 -0.0012016424 0.07670948 0.123768255 0.18694744 -0.022430407 -0.00058171316 0.02415433 -0.05759812 -0.065192595 -0.09799699 0.009592536 -0.16670865 -0.19076525 0.13551913 0.07050403 0.020585487 0.15153626
22 0.18875788 -0.056244675 -0.06418167 -0.13364375 -0.0012929005 -0.11046373 -0.030093031 -0.10342438 -0.009725147 -0.025298178 -0.038855843 0.078962624 -0.14162268 0.13118011 0.11433572 -0.15673704 -0.11229943 0.23881336 -0.0044057295 0.009643366 0.21376862 0.020091292 0.10170235 -0.06079681 -0.004359406 0.033652723 0.044597417 0.02306593 0.08086813 -0.07922747 -0.2310051 0.0007586417 0.13459663 0.24433209 -0.027413098 0.013016938 0.021652048 -0.16700236 -0.004127197 0.105535634 -0.15117185 0.18202986 -0.13764818 -0.04766263 0.2319192 -0.028845357 -0.13151765 0.013212793 -0.009096439 -0.14580166 0.08628416 0.17703503 -0.00912101 -0.04278381 -0.004823079 0.17396842 -0.17347543 0.10095531 -0.11999759 0.08881261 -0.21918102 -0.0409526 -0.052861925 -0.02485102 0.03694735 0.068256736 0.18135592 0.04556917 0.016148468 0.21672405 -0.06714759 0.148833 0.0020293056 0.069221854 -0.03555995 -0.08370364 -0.1733885 0.039484445 -0.13933477 0.06524029 0.04039462 -0.16286406 0.0073035453 0.0065677515 -0.10777545 0.0035881477 0.12827231 0.02596922 0.007001671 -0.057974596 0.15983714 0.0143954735 -0.07541519 -0.06523027 0.10234195 0.04552449 0.055715468 -0.13132101 0.007697228 0.022572856 0.0071538584 -0.09362521 -0.05805583 -0.1400676 -0.023269728 -0.12262197 0.15555322 0.084259056 0.07004179 0.12338888 0.04318789 -0.018443162 0.08087328 0.09488579 0.16336386 -0.0364201 0.016538905 0.023645837 -0.04484819 -0.06718325 -0.12022761 0.019473456 -0.18119667 -0.18192242 0.11527797 0.060548957 0.02142771 0.15903033
27 0.1400976 -0.0049022622 -0.015281739 -0.1336194 -0.006669963 -0.057025634 -0.06045749 -0.07260263 0.0029127891 -0.037422772 -0.028876288 0.011262378 -0.1318827 0.1115252 0.109341554 -0.08448942 -0.04536987 0.19736312 -0.059560657 0.058982305 0.15886714 0.030139139 0.024711974 -0.03557433 0.05230976 0.008482031 0.014969182 -0.0043628947 0.056419764 -0.06546087 -0.18229124 0.09108854 0.13488771 0.2318525 -0.009651005 0.06985021 0.018609384 -0.09323822 -0.06389587 0.10448052 -0.11697396 0.14809749 -0.12153137 -0.08688276 0.22185008 -0.079026125 -0.06335175 -0.001088036 -0.027932754 -0.07357089 0.14718533 0.19043912 0.020931385 -0.0475911 -0.04687622 0.14713515 -0.18682101 0.08331751 -0.0832801 0.08673309 -0.20252754 -0.0733333 -0.10580749 0.0077651953 0.0322549 0.07226464 0.15800723 0.013385095 0.047261693 0.20258331 -0.08039096 0.15861799 -0.028530559 -0.037136342 -0.0167061 -0.073519126 -0.1386979 0.06523692 -0.1215752 0.0432951 0.05214745 -0.12675875 -0.036233734 0.029587215 -0.116157025 0.03959822 0.073762126 0.028305216 -0.015941203 -0.022731584 0.11091033 -0.032300234 -0.11063507 -0.030167514 0.037869368 -0.026807241 0.08359997 -0.2025477 -0.01711072 -0.014355445 0.047826108 -0.106986254 -0.062828295 -0.081823714 -0.069791056 -0.18215019 0.23415467 0.005585931 0.072430775 0.17419124 0.0072256215 0.04309516 0.07442168 0.20403476 0.24164718 0.014380404 -0.041600138 0.039707005 -0.08618093 -0.06347183 -0.06354697 0.0066341916 -0.14125651 -0.22348642 0.179686 0.09031766 0.009913976 0.14810273
17 0.20400564 -0.09366081 -0.08981781 -0.12029967 0.005139066 -0.14174026 -0.0031802172 -0.14181635 -0.007383014 -0.010476462 -0.03091713 0.122450046 -0.14236838 0.14412652 0.11812972 -0.209326 -0.16253933 0.2792037 0.033574447 -0.033407018 0.24916771 0.005904594 0.15217195 -0.10331635 -0.034366485 0.038723562 0.07400749 0.040459517 0.08277044 -0.09078944 -0.26389283 -0.06938126 0.13199307 0.24732856 -0.030687656 -0.036847483 0.014443815 -0.2242512 0.037117403 0.1012677 -0.17281441 0.21333459 -0.1595515 -0.03383319 0.24086633 0.01330988 -0.18494779 0.031540435 -0.013890128 -0.19967933 0.05033573 0.16977012 -0.0048162593 -0.0408281 0.02425588 0.21309331 -0.17046444 0.13126916 -0.14229472 0.0821924 -0.24573952 -0.012326534 -0.010362647 -0.046377774 0.024077222 0.08184214 0.1929258 0.06545247 0.006265976 0.21675044 -0.0740707 0.13351548 0.01824346 0.14511904 -0.048923556 -0.08754509 -0.1920656 0.026457768 -0.1471316 0.076865256 0.018251093 -0.19158663 0.03741066 -0.00553794 -0.104453065 -0.03258337 0.1439625 0.009793237 0.030121759 -0.088275336 0.19056536 0.03780298 -0.052455895 -0.1017002 0.14528857 0.08184395 0.042401265 -0.10591894 0.032959983 0.055135213 -0.01597115 -0.07805942 -0.054349862 -0.20674127 -0.023091296 -0.07798016 0.12609193 0.13592854 0.07278258 0.0972634 0.08119184 -0.039420333 0.088923775 0.051604282 0.13310853 -0.06500107 0.0385945 0.03106341 -0.014746731 -0.08408988 -0.18050607 0.032004666 -0.21453255 -0.15653795 0.07126522 0.058126293 0.034821115 0.17383441
16 0.14878926 0.0022310917 -0.017846234 -0.13397019 -0.0065870937 -0.054584026 -0.06508983 -0.07165579 0.0012983676 -0.038711105 -0.0287548 0.011702273 -0.14446972 0.11345802 0.11070698 -0.08254852 -0.038775258 0.19187713 -0.065151535 0.069465145 0.156135 0.034124106 0.020497857 -0.024203587 0.05427048 0.010071671 0.007456296 -0.009025612 0.056497596 -0.05811297 -0.18148589 0.093622714 0.14029291 0.22977926 -0.008894439 0.07710914 0.015836895 -0.08811642 -0.0704141 0.10471638 -0.11215689 0.15018755 -0.11236688 -0.090713955 0.21978985 -0.0824497 -0.057800505 -0.0010485383 -0.02298091 -0.06550687 0.15492955 0.18944441 0.020972084 -0.047074795 -0.052437685 0.13839093 -0.18862152 0.0795122 -0.079901814 0.087694086 -0.19763184 -0.07427827 -0.10857586 0.009225301 0.03229852 0.070200466 0.16147566 0.010228649 0.050144505 0.20512311 -0.08541825 0.16331375 -0.035948094 -0.045771003 -0.020726182 -0.07562088 -0.13497606 0.062135395 -0.121138796 0.04723376 0.04777874 -0.12149814 -0.04700467 0.031671762 -0.120006025 0.043771334 0.067136884 0.0330586 -0.02558402 -0.013351748 0.106049344 -0.03532886 -0.117881864 -0.022175457 0.032012537 -0.03192085 0.0927079 -0.2115542 -0.022064367 -0.016059186 0.053684335 -0.10994433 -0.060967088 -0.071888246 -0.0719319 -0.19363244 0.23748927 0.0017489338 0.07493646 0.17945515 0.005125846 0.046250954 0.07333004 0.21306069 0.2534892 0.018173127 -0.049359277 0.03714097 -0.082064904 -0.05722298 -0.056048907 0.003436457 -0.13318202 -0.23456587 0.18845326 0.09241368 0.012813863 0.14476041
10 0.14909129 0.001083605 -0.012952809 -0.13827395 -0.008163136 -0.053956464 -0.069483675 -0.07374687 0.002951163 -0.039685596 -0.027637858 0.0070785373 -0.13673991 0.11382912 0.11491751 -0.07804801 -0.033670984 0.1944522 -0.06585254 0.07127538 0.15341777 0.03295495 0.023019295 -0.024233278 0.056193426 0.012218993 0.0115983505 -0.0123007875 0.05832546 -0.05765831 -0.18071975 0.099029586 0.13900456 0.22878316 -0.008475344 0.080472246 0.021601787 -0.08750424 -0.07058537 0.10368933 -0.110991366 0.1449809 -0.11073763 -0.08343241 0.21861733 -0.08659467 -0.052935902 -0.0003434469 -0.024978267 -0.067321196 0.1561059 0.18716842 0.01763585 -0.05308667 -0.054331187 0.1394238 -0.18627752 0.07586497 -0.08188388 0.09268517 -0.19800934 -0.075313084 -0.11087008 0.009776937 0.03458207 0.069681115 0.16222589 0.009247104 0.049558748 0.20847963 -0.07938302 0.15836716 -0.035351895 -0.045673132 -0.017312415 -0.07516776 -0.1349427 0.061375897 -0.11987978 0.042054217 0.05286188 -0.1232879 -0.047671802 0.030365389 -0.12009496 0.041648004 0.06813446 0.030768657 -0.019768061 -0.012835665 0.10982801 -0.03470441 -0.11371768 -0.021910049 0.03639322 -0.03015351 0.089200005 -0.20416577 -0.024494762 -0.024460716 0.054761663 -0.11078454 -0.06566793 -0.06752943 -0.0685046 -0.1978724 0.2344583 -0.0018813078 0.07067627 0.1796444 -0.0015536641 0.04951851 0.0708971 0.21152142 0.24536279 0.011495424 -0.05143424 0.037584256 -0.083724566 -0.057378672 -0.057635035 0.004068343 -0.13520485 -0.22709177 0.18503676 0.093777195 0.007865721 0.14617543
12 0.17476761 -0.03878317 -0.04483467 -0.13080408 -0.0032046682 -0.0963064 -0.042578697 -0.09795708 -0.0026502984 -0.032399632 -0.03848936 0.05812528 -0.14772698 0.12732217 0.12303103 -0.13841435 -0.09406938 0.23213774 -0.020900559 0.028440615 0.19675285 0.026219735 0.08014476 -0.051456407 0.01489183 0.022703553 0.03188681 0.017573738 0.07394968 -0.07561868 -0.21625137 0.025476431 0.1442147 0.24323536 -0.022163251 0.032367226 0.018105473 -0.14786194 -0.025023364 0.10175362 -0.13822459 0.17654294 -0.13171445 -0.059193563 0.23675276 -0.04605136 -0.112458505 0.010293733 -0.016958825 -0.120262496 0.106722966 0.18238291 0.003967259 -0.04179665 -0.021768503 0.17276372 -0.18336369 0.102660924 -0.11070853 0.09284602 -0.2210421 -0.054450195 -0.07220029 -0.017155927 0.03402882 0.0691775 0.17718951 0.033884503 0.031895407 0.21834365 -0.080338635 0.15957598 -0.013965667 0.03581213 -0.029517256 -0.08252467 -0.16943456 0.0462503 -0.13834086 0.059284747 0.043304574 -0.15873559 -0.015771603 0.017925175 -0.11957812 0.0113395965 0.10785128 0.028502993 0.0026056273 -0.0515625 0.14789885 -0.002899601 -0.093151264 -0.059456296 0.08063102 0.0155606475 0.066905506 -0.16915259 0.0035161404 0.012963673 0.025429433 -0.10111144 -0.06216792 -0.13031535 -0.04280702 -0.15306266 0.19056349 0.055836234 0.074433304 0.15106662 0.03197052 0.009701289 0.08421101 0.14641175 0.20301633 -0.019957827 -0.013416965 0.02924275 -0.05925027 -0.07139204 -0.11109745 0.017441133 -0.1768922 -0.2008258 0.1406388 0.077560924 0.022205163 0.16074014
