163 128
5 0.022197692 0.03769666 0.030041806 0.018983088 -0.025779245 0.075458795 -0.059750102 0.046007402 0.019864574 -0.041052267 0.02683542 0.03900544 -0.0063776984 0.0854043 -0.036179863 -0.07308543 0.05907149 0.05489397 -0.028447377 -0.09269997 0.028532526 -0.027829057 -0.10635058 -0.067686036 -0.009476913 -0.021716181 -0.03079303 -0.06252693 -0.020516528 -0.023624232 -0.000105870495 -0.0051875026 -0.047696594 0.01895448 -0.0060566687 -0.17448288 -0.07998374 0.07758369 -0.046207238 -0.083438955 0.0054106857 0.18430568 -0.10734895 -0.051767994 -0.071913585 -0.028635778 0.0055870693 -0.046836503 0.00032656195 -0.096371666 0.064199984 -0.10847564 0.036058895 0.014467283 0.0066532814 0.13558471 -0.042270493 -0.09476284 0.064423986 -0.036749255 0.052597154 0.059896104 0.049595427 0.004478593 -0.05877793 -0.037729282 -0.024799466 0.14480229 0.112001486 -0.10310539 -0.06337472 -0.091402 -0.028855957 0.05326192 0.015955817 -0.1640468 -0.03934043 -0.008081826 -6.3366766e-05 0.007853943 0.038319446 0.017291225 -0.03255213 0.15671867 -0.0738976 -0.055545844 -0.11488269 0.06943397 -0.096592575 0.010175427 0.009026834 0.06666556 0.16365647 0.0071186395 0.021134749 -0.002100757 -0.111099005 0.37688628 -0.27543923 -0.123823285 -0.011720844 0.03800564 0.097993605 -0.0051511563 0.040870998 0.17361279 -0.10094367 0.183227 -0.031851154 0.009294445 -0.06778594 -0.078428894 0.009873057 0.009312429 0.11353757 -0.10203367 0.092746675 0.12517592 -0.07353658 -0.1607296 0.064257 0.008621048 -0.05331239 -0.03671789 -0.11756867 -0.18035659 -0.002586404 -0.056521486
2 0.1162588 0.06365535 -0.031662844 0.019429768 -0.03311798 -0.12062595 0.014714229 0.026203325 0.045235023 -0.044254955 0.033053335 0.03186224 -0.05406294 0.0291869 0.0040811966 0.045276962 -0.046453577 -0.054922514 -0.08742305 -0.05827411 -0.012394414 -0.043260682 -0.019414272 0.014212524 -0.097076096 -0.10321148 -0.027179595 -0.088770926 0.03246158 -0.009357685 -0.0060139103 -0.052873943 0.025064642 0.03990904 -0.11267827 -0.21930327 -0.098185 0.12076604 -0.011916211 -0.088700175 -0.11440231 0.16066982 -0.04571518 0.086306565 0.0064935302 -0.16504356 0.042356566 -0.040196948 -0.04458949 -0.02969649 -0.000102927566 -0.17374027 0.024050124 -0.049077787 -0.045012068 0.10946493 0.01772276 0.0018005639 -0.019046864 -0.017292462 0.03383533 0.053707946 0.052205414 -0.07660798 -0.006485331 -0.039974887 0.03216994 0.12595062 0.09472948 -0.1151332 -0.049395133 -0.09330701 -0.07211454 -0.07454998 0.00063604326 -0.001229651 -0.036441866 0.0039993706 -0.080145404 0.08663197 0.021916702 -0.09054959 -0.015119304 0.16886769 -0.079615645 -0.06057057 0.005479087 0.024420675 -0.024866741 -0.019826768 0.05420243 0.06487519 0.097777344 -0.043538477 0.020054463 -0.028401814 -0.19703302 0.31438047 -0.31402135 -0.16551335 0.010615387 0.11742075 0.2197236 -0.010549678 0.048875574 0.19694935 -0.07141376 0.077540725 0.014528872 0.03291715 -0.098462455 -0.010208364 0.04353634 0.010720458 0.053588677 -0.09716541 0.043147378 0.08105816 -0.05774689 -0.14116126 0.07910726 -0.09718548 -0.1403996 -0.053146873 -0.085645884 -0.33223268 -0.05865509 0.02802681
3 0.06465728 -0.050196145 0.10788095 -8.5894724e-05 -0.053540926 -0.011831225 -0.003145208 0.05525237 -0.025812512 -0.039783094 0.061794527 0.012445333 -0.055865582 -0.06674024 0.028623778 -0.025362704 0.013089033 0.047192026 -0.07677852 -0.029911466 0.0016993699 0.040574033 -0.07000105 0.026656445 -0.08854237 0.019399235 0.053123973 0.010612097 0.07279879 0.0040856176 0.042511918 -0.031194102 -0.017491063 0.1387526 -0.032128338 -0.13481851 -0.06388493 0.13404155 -0.037374165 -0.11470252 -0.10364723 0.097588 -0.058509424 -0.06499277 -0.032166235 -0.012606387 0.08250656 -0.007451389 -0.004901996 -0.076589614 -0.037065268 -0.100261346 -0.03309822 -0.06082967 -0.0035099764 0.101482004 -0.0894821 -0.10682416 0.084825024 0.043395486 0.07026879 0.057864875 -0.031440526 0.023983266 -0.04510468 -0.16405384 -0.05954911 0.15439144 0.1873655 -0.069709085 -0.024844712 -0.030140178 0.035412468 -0.0033411717 0.0011672318 -0.13427815 -0.0006971077 -0.010554587 -0.08859579 0.017971613 0.10297921 0.062259827 0.005534136 0.14552237 -0.04653094 -0.113792606 -0.13917045 -0.0127284005 0.058951218 0.031856745 0.008819473 0.14098217 0.1968551 0.034695458 0.027007561 -0.09298469 -0.18784334 0.2946084 -0.35016823 -0.24564335 0.05042195 0.07754969 0.08705477 0.029906673 -0.009112051 0.13386926 -0.11756938 0.10399365 0.09671072 0.015825178 -0.03817979 -0.11025312 0.052267373 0.06543666 0.06379626 -0.011852124 0.034159202 0.071493216 -0.072646715 -0.090518035 0.0707079 -0.008930245 -0.08450089 -0.077269256 -0.092466384 -0.21550933 -0.0659778 0.0153851025
11 0.017207028 0.018639551 -0.0067992834 0.029957104 0.026979955 0.10932776 0.014926503 0.036135893 -0.024826434 -0.02649913 0.012540138 -0.046338044 0.01733022 0.094944306 -0.025950255 -0.1381098 -0.030561192 -0.0020647848 -0.06191998 -0.18863952 -0.049696036 -0.026428713 -0.07831202 -0.08946245 -0.02210375 -0.030302938 0.049676824 -0.05528225 -0.015553954 0.035267297 -0.009703509 0.04236166 -0.023251656 0.057867512 -0.08264255 -0.1881597 -0.10134496 0.04110857 0.11384346 -0.06949158 -0.10272412 0.18866807 -0.030091967 0.029272314 -0.084967054 -0.010770587 0.04997226 0.03739245 0.017216284 -0.019103786 0.14433518 -0.08328754 0.009193748 0.054933522 -0.019242404 0.04591293 -0.021352384 -0.11725889 0.08659106 -0.027442513 -0.09612639 0.018252697 0.13967144 0.05286874 -0.07944291 0.0077936896 0.079325594 0.10779089 0.16661432 -0.030713605 0.14188425 -0.06036005 -0.02215348 -0.040859427 0.08463276 -0.14029424 -0.0038595945 -0.06730711 0.008733136 0.019404411 0.06906217 -0.02551212 -0.031244008 0.24275416 -0.045724828 -0.06852563 -0.14921078 -0.05441451 -0.051254686 0.062750444 0.048165776 0.1575739 0.12793536 -0.069208786 0.033429455 0.058916975 -0.025266334 0.22512956 -0.26304397 -0.10388812 0.06412188 0.04291646 0.15279508 0.10688587 -0.004413622 0.17013098 -0.14193614 0.13239075 -0.011292284 0.011514575 -0.15075418 -0.013062533 0.087846965 0.08712206 0.14070834 -0.18226726 0.0072031664 0.23127286 -0.05270132 -0.14011905 -0.00028016735 -0.016030174 -0.03403163 -0.037942242 -0.21137595 -0.16976504 0.012647895 -0.016017905
1 0.07229713 0.04542123 0.085506156 0.04418663 0.006762446 0.04112284 0.06540542 0.023719858 -0.060119744 -0.046338487 -0.07447846 0.15933132 -0.1303443 0.070061944 -0.17541824 0.09754572 -0.1947898 -0.081107095 -0.11835929 0.023203548 -0.074248 0.030338654 0.11546177 0.056165252 0.033478424 -0.24289925 -0.025138222 0.03209221 -0.07342207 -0.045017734 -0.11478881 0.020824486 -0.081214786 0.022237403 -0.014777455 -0.18385546 -0.16753468 0.12825939 -0.04440029 0.052208126 -0.094615035 0.15923111 -0.17837355 0.020996755 0.020354442 -0.06938026 0.111186825 0.08703075 -0.05284472 -0.14076956 0.042397305 -0.12615824 0.15192476 0.08476661 0.043786556 0.03223092 -0.108466536 -0.09402863 0.14309376 -0.16897628 0.08655524 0.07670318 0.05134253 0.17573458 0.10196018 -0.16500488 -0.15339898 0.030013554 0.12617663 -0.00554381 0.15395375 -0.044157226 -0.0065387706 0.06058663 -0.013001842 -0.10302065 0.0049059694 0.05231676 -0.05426158 0.08489024 -0.11863571 0.094611 -0.07921397 0.28767738 -0.06801811 -0.07533296 0.032732032 0.18105839 -0.0897476 0.11040769 0.034160104 -0.06819945 0.2211828 -0.017341271 0.050443638 -0.024972016 -0.1819787 0.31984478 -0.43725985 -0.074046955 -0.027661037 0.01162007 0.06798027 0.1427027 -0.07559532 0.052278444 -0.091115974 -0.102206856 0.16127901 -0.051329914 -0.22723106 -0.18948774 0.20961647 0.034326073 0.086098135 -0.16009296 0.2494863 0.01986423 -0.11654693 -0.021795228 0.09581761 -0.022876892 -0.032964624 0.08016507 -0.08619262 -0.13563241 0.10113451 0.0464864
14 -0.020335449 0.008679763 0.0701489 0.01328419 0.055852856 0.031699147 0.019384373 0.042245653 0.07864471 0.06927188 0.07613763 -0.041711997 0.0671861 0.1569029 0.003836819 -0.075022206 -0.11174517 0.0035055268 -0.010733371 -0.08086807 0.011684539 -0.0049060956 -0.08840742 -0.053714395 0.0014980786 0.0357919 -0.054556206 -0.110790394 0.02511582 0.10606643 -0.09694423 0.019063953 0.029405631 -0.012774603 -0.100597456 -0.23128042 -0.064770535 0.06496339 0.039820846 -0.16363941 -0.042483103 0.16802558 -0.102248296 -0.10866434 -0.017729674 -0.015928509 0.05948492 -0.022655278 0.03740133 0.038373847 -0.025661128 -0.14179398 0.044904064 0.020900277 0.00527479 0.027392346 -0.06668355 -0.105849884 -0.030587925 -0.03131909 -0.016397864 0.06976767 0.08796828 0.09499636 -0.09764539 -0.04937954 0.0063570132 0.09057636 0.14757559 -0.029962309 0.07195569 -0.13528259 0.0029293196 -0.048525028 0.04142323 -0.109012425 0.029934864 0.014877718 -0.010880825 0.020276966 0.07572065 0.03545363 -0.13003682 0.22393583 -0.09484465 -0.11240374 -0.0759415 0.020718604 -0.004493895 0.0718008 0.14598234 0.22446063 0.08539885 -0.056084316 0.042214118 0.04256823 -0.09086137 0.26941165 -0.30098316 -0.18413669 0.040309485 0.13250855 0.04423487 0.11755278 -0.059525467 0.12604943 -0.101334326 0.078241535 0.03256086 0.0164242 -0.013627011 0.015331638 0.056252185 0.07753344 0.11782517 -0.08175086 0.15466122 0.09227776 -0.069187656 -0.05923064 0.090071574 -0.021584284 -0.037735917 -0.031029578 -0.09853996 -0.16002664 0.030870266 0.14875631
26 -0.06634923 0.041340657 0.11073724 0.02128316 -0.040679846 0.07516277 -0.08696854 0.115030564 0.0276382 -0.0013614456 -0.007061786 0.017329875 0.021935781 0.103808545 -0.055045422 -0.019769657 -0.082221255 0.041174047 0.020672731 -0.110973254 -0.08682667 0.07942794 -0.04201054 -0.073723726 0.008898122 0.0041028173 0.10609177 -0.12148696 -0.046882197 0.0382604 -0.008611269 -0.0005665949 0.008595527 0.03984861 -0.08489931 -0.16945146 0.016118092 0.118599 0.0013252035 -0.13278739 -0.058959223 0.09760169 -0.12900357 0.011320893 -0.01568602 0.08803044 0.09466799 0.035424773 -0.048183616 -0.03204105 0.054611553 -0.21785276 -0.07067699 -0.017112799 0.012690456 0.016490143 -0.015528633 -0.05321239 -0.11072344 -0.0782241 -0.08094038 0.07603156 0.18433559 0.08873783 0.019279042 -0.08646856 0.034102775 0.12129303 0.13822223 -0.027151253 0.071781285 -0.07256945 -0.0066353334 -0.044520006 0.02208516 -0.057307977 -0.0009748657 -0.07128966 -0.011945332 -0.116774 -0.0040934193 0.038980577 -0.036613442 0.09931511 -0.0075080856 -0.17465827 -0.075652786 0.00011448563 -0.006413491 -0.02411558 -0.053332645 0.15394664 0.23046806 -0.10367337 -0.047720686 -0.055458263 -0.20201065 0.31900725 -0.29103908 -0.11101791 0.0069664796 0.100223325 0.071075715 0.07097474 0.016087316 0.1477622 -0.06275387 0.19186991 -0.07811045 -0.04157278 -0.077562615 -0.14962234 0.018275853 0.013612302 0.12463736 -0.09351697 0.08236294 0.12906 -0.05402647 -0.033092547 0.057452418 -0.10614348 -0.08275605 0.01205893 -0.16843249 -0.16667731 -0.044054218 0.01083515
9 -0.03093336 0.009685946 0.004217939 -0.01331621 -0.04824165 0.14198315 -0.042551424 0.025685655 0.015602993 -0.08123277 -0.05302918 -0.036074426 0.07294887 -0.009944129 -0.044043705 0.012034306 -0.06497002 0.0048074382 -0.050622318 -0.092323065 -0.076268464 0.040544 0.0077383965 -0.03462085 -0.04135363 -0.09808186 0.0831829 -0.040484894 -0.016523857 0.01909427 -0.076252885 0.10812941 -0.08687649 0.057569716 -0.055007942 -0.24395734 -0.102237165 0.04152452 0.033859067 -0.06612188 -0.13739693 0.105810836 -0.075489536 0.045374844 0.04015773 -0.09562315 0.03136512 0.02548811 -0.0063385577 -0.10476835 -0.020612577 -0.21233241 -0.07432986 0.019242011 0.0075180107 0.04590582 0.01266736 -0.07063599 0.083788484 0.027456006 0.14476554 0.11221524 0.04408208 -0.054513354 -0.09935476 -0.14331205 0.08802191 0.054178014 0.11145578 -0.11995837 -0.005769086 -0.13914527 -0.043378633 0.053213187 -0.030972773 -0.07330545 -0.017125826 0.00096705195 -0.08385237 0.023473356 0.13044609 -0.07810044 -0.032054495 0.22246787 -0.16695522 -0.13195956 -0.09866061 0.043177675 -0.03998713 -0.016174741 0.011606528 0.09603452 0.16071746 -0.030747175 0.048614956 -0.047369704 -0.02376248 0.27730292 -0.22454098 -0.15987071 0.12623516 0.17067327 0.0038628469 0.07167324 0.10443027 0.11537965 -0.014097343 0.14240721 0.031506676 -0.064852834 -0.021532597 -0.06457136 0.12541085 0.08883084 0.14059544 -0.053534824 0.13631843 0.069345415 -0.08358254 -0.122851215 0.021226829 -0.063332 -0.16155423 -0.052243233 -0.0653189 -0.1994863 0.0065147206 -0.070605665
23 -0.07865929 0.06321919 -0.005941921 0.024914341 0.013366266 0.037863187 0.0036224741 -0.038728278 0.01744382 0.05015444 -0.007579541 -0.07376117 -0.019421466 0.14733508 -0.10182342 -0.09026383 -0.036268026 0.032166842 0.019714892 -0.03126675 0.064743415 0.040573914 -0.01908847 -0.06255882 -0.08115078 0.0017088951 0.1001247 -0.042659268 -0.0703175 0.015988907 -0.046099108 -0.09840824 0.026817594 0.15518028 -0.1325055 -0.21963356 -0.042160243 0.10294404 0.0015597488 -0.1454727 -0.05984228 0.13308541 -0.051492203 -0.049601417 -0.09730731 -0.06213147 0.045838527 0.0020139166 -0.044388283 -0.008481513 0.009828785 -0.14450698 -0.004197808 0.019274652 0.005925179 -0.007994374 0.007866546 -0.01934028 -0.05440786 0.0804389 0.008570103 -0.008874779 -0.01040552 0.022824777 -0.029255996 -0.11152713 0.030651268 0.14670646 0.20473607 -0.070462994 -0.005643188 -0.05096415 0.006698831 -0.038486794 -0.056770395 -0.1278517 -0.0018885375 0.03654473 0.02105421 0.02291085 0.019695573 0.037901066 -0.043278728 0.12889522 -0.05551794 -0.08606107 -0.12906845 0.10546304 -0.035988927 0.019810548 0.0061372025 0.086591646 0.09743162 -0.13916077 0.003951847 -0.055426754 -0.11213627 0.30995664 -0.26715276 -0.18718705 0.017464133 0.13224147 -0.032224897 -0.021356424 -0.051594306 0.16383164 -0.1031985 0.047522288 0.07906066 -0.060852267 -0.13340841 -0.05797545 0.023129206 0.10073367 0.1654882 -0.16643788 0.08991991 0.14014955 -0.020127686 -0.1439702 0.038138025 -0.059571344 -0.071795784 -0.09585477 -0.09047863 -0.1878862 -0.042972494 -0.048862837
15 0.09576805 0.06682631 0.044699423 0.0804795 0.026864273 0.06585964 0.016555302 -0.10569137 -0.017509894 -0.0013638699 0.05431951 0.024570473 0.04369316 -0.0013183552 -0.05098383 -0.10475062 -0.0539632 -0.09464207 -0.07929419 -0.07728959 -0.071288966 0.047654994 -0.05942773 -0.08063514 -0.054000106 -0.042932667 0.15436825 -0.07708472 0.036737006 0.0330769 -0.13483137 0.12957136 -0.027748102 0.03397103 0.030373232 -0.19455697 -0.0743076 0.11590335 -0.0628825 -0.06642938 -0.09185801 0.119763024 -0.08855428 -0.03549068 -0.14745307 0.010741055 0.048250593 -0.06323264 -0.08547297 -0.011462803 -0.010305099 -0.11826293 -0.0064565465 -0.003517721 0.03209243 -0.011098784 -0.023173263 -0.0013821576 -0.055422146 0.050450586 -0.000533166 0.11884889 0.14407177 0.04817899 -0.010701305 -0.08773795 -0.01143377 0.107176416 0.16917817 -0.02875345 0.038799144 -0.10412922 0.09175824 -0.056065075 0.035035066 -0.030544141 -0.011934969 -0.041871022 0.12801255 0.0071505606 0.044679143 -0.02592266 -0.052581023 0.14905363 -0.10212718 -0.11403751 -0.035240166 0.059537165 -0.07327571 0.06859295 0.10174963 0.052699316 0.12827477 -0.06271696 0.007274106 0.02921117 -0.11887638 0.18364602 -0.38080892 -0.20364147 0.08204497 0.07087877 0.08401761 -0.0035786694 -0.0787912 0.097283475 -0.11517864 0.15299368 0.007145762 0.0039645303 -0.17404498 -0.020511778 0.0217718 0.09342442 0.13180633 -0.17809536 0.12471352 0.12640025 -0.13828757 -0.12135885 0.009020223 -0.0546561 -0.16139287 -0.019452147 0.0030289744 -0.18052219 0.0061954455 0.04846325
6 -0.046405286 0.026733868 0.08500762 0.060038116 -0.025615778 -0.0041312305 -0.096954085 0.052187707 -0.021190723 -0.08051426 0.049731307 0.10164273 0.0041800207 -0.024269942 0.0034791587 -0.09400915 0.04969195 -0.013236709 0.013066678 -0.08120253 -0.053810213 -0.039290972 -0.121187374 0.018111745 -0.006893599 -0.07200422 0.02011131 -0.031946294 0.054983273 -2.8587056e-07 0.0051684882 -0.07210869 -0.03222174 0.07622856 -0.12483807 -0.21013282 -0.06848048 0.10233902 0.008340417 -0.16140175 -0.13574311 0.32034886 -0.11184878 0.080867276 -0.11730019 0.023714911 0.071494244 0.06272525 -0.005627435 -0.036256127 0.092301294 -0.11132145 -0.026955076 0.0046429546 -0.06344425 0.07695281 -0.056292545 -0.065268464 0.042909596 0.029556796 0.010969256 0.044950873 0.010333457 -0.0053642183 0.0041269255 -0.16869365 0.0036052107 0.10218488 0.16302972 9.877248e-05 0.060219593 -0.15622064 -0.05938429 0.09428556 0.022777509 -0.053877827 0.06342504 -0.06024379 -0.11595716 -0.0044650524 0.008260369 0.0008906299 0.048861105 0.21608351 0.023633339 -0.033041447 -0.10527094 0.0055500837 0.03060446 -0.013927013 0.014082876 0.14430949 0.17246343 -0.16345637 0.023749143 0.042776167 -0.047886048 0.4012379 -0.28861356 0.013733122 -0.019211272 -0.009913169 0.12191683 0.11284039 -0.025182541 0.18703288 -0.1001903 0.031425424 0.06960771 0.00544726 -0.19182745 0.007265576 0.11115373 -0.024604024 0.06686095 -0.09364328 -0.013789716 0.08042281 -0.08213406 -0.05563122 0.12459601 -0.0037477417 -0.07781237 -0.09080946 0.0067458777 -0.059318118 -0.051804945 0.065028295
10 0.0030036417 0.009122646 0.010915324 0.012550817 0.016627219 0.0482203 -0.0687093 -0.029281843 -0.006808055 -0.062675394 0.018000767 -0.009718765 0.019124996 0.048123516 0.0025930589 -0.17103042 0.034619916 -0.013973351 -0.12319461 -0.043528844 -0.04810689 -0.119888626 -0.05181941 -0.0022034296 -0.013133283 -0.08459182 0.03072926 -0.03946345 0.023598496 -0.06619921 -0.19538416 -0.013837897 -0.0039153458 0.15936019 -0.052985243 -0.20474464 -0.040337943 0.05519446 -0.06976217 -0.17136449 -0.20966773 0.08692155 -0.14812356 0.05262606 -0.098379105 0.021621112 0.12497154 -0.052590117 0.03776277 -0.042253826 0.024955235 -0.14991339 -0.09563858 -0.12245553 -0.043824963 -0.023443872 0.07068267 -0.076661974 -0.026159992 0.0082565285 0.0017814554 0.049688704 0.03014873 0.0030366364 -0.0047043194 -0.123125434 -0.04129215 0.1904624 0.21966767 -0.056010377 0.08540227 -0.13527124 0.05516821 -0.014865904 -0.037540916 -0.08410448 -0.0060314946 0.031297196 -0.050062798 -0.07742964 -0.009603623 -0.05344206 -0.118598014 0.15704986 -0.06966709 -0.10645106 -0.14849174 0.0006226759 -0.10848846 0.02100497 0.049638655 0.06576994 0.1952802 -0.06507038 0.07780313 0.021342145 -0.19481565 0.18329892 -0.23257463 -0.18280567 -0.013069364 0.15269817 0.1052908 0.13828805 0.0056433706 0.0016275266 -0.17642628 0.016149698 0.060508497 -0.014507421 -0.110796615 -0.12024965 -0.008879095 0.043317847 0.0695551 -0.058055542 0.10243757 0.1677545 -0.13607696 -0.16035305 -0.025209494 -0.03005733 -0.13947469 0.14202414 -0.06915438 -0.1695593 0.010540635 0.06791706
20 -0.037602566 -0.014339547 0.034449905 -0.031403374 0.0027191017 0.07339116 0.02333643 -0.034660134 0.066907264 0.031215608 0.07571439 -0.07873227 -0.042984936 -0.04624689 -0.092604496 -0.029531695 0.07798643 0.011153738 -0.03547302 -0.03790629 -0.06349248 0.039584335 0.05473639 -0.025028829 -0.12188615 0.0123691065 0.079456195 -0.073373735 -0.043988448 -0.021603558 0.04253107 0.034552623 0.03284437 0.012540621 -0.03360067 -0.17645948 -0.09306933 0.08687911 0.12815568 -0.09798211 -0.09046411 0.19042382 -0.055867314 -0.05699044 -0.096560344 -0.0009125389 0.095846094 0.025793279 -0.10236669 0.07155534 0.0073891976 -0.057266656 -0.010176273 -0.08496132 -0.0065529374 -0.01695835 -0.012798522 0.0011500954 0.07682794 -0.006673296 0.13947153 0.007065508 0.049025457 0.10388164 -0.037063636 -0.011830272 -0.036294233 0.19726536 0.17992795 -0.05531309 0.0050655073 -0.07356353 0.005707043 -0.054723747 -0.0062782452 -0.035614274 -0.04821184 -0.05899856 0.09735535 0.09942635 0.020040546 -0.10054627 -0.03129299 0.2567646 -0.05175606 -0.09643944 -0.037485935 0.13244869 0.0067307865 0.017740205 0.0015459607 0.1725005 0.19431314 -0.16646236 0.032116815 0.024959268 -0.06900864 0.3265593 -0.385999 -0.13935584 0.052002344 0.09507841 -0.02028696 -0.0039573475 -0.009682884 0.12571152 -0.11543182 0.07877749 0.0040116287 -0.07903245 -0.09198548 -0.056018803 0.0774322 0.039594878 0.08105413 -0.13562225 0.078276634 0.06661604 -0.082202494 -0.19806144 0.072103254 0.02602371 -0.014546409 0.033936393 -0.076403104 -0.14010416 0.07027377 -0.019406198
21 0.02289842 0.050864335 0.053709317 -0.018640164 0.049737554 0.092475034 -0.008885681 -0.11195786 0.09877321 -0.025137316 -0.0059236363 -0.15809992 -0.07634807 0.0089768 -0.073176004 -0.05001502 -0.08139814 -0.041799176 0.0047131833 -0.082984224 -0.0807441 0.035116125 -0.03844661 -0.16732585 -0.0030238247 -0.059693616 0.09263458 -0.06430094 0.0068424614 0.10336457 0.008027772 -0.029815042 -0.038665913 0.07066507 -0.012276838 -0.16733009 -0.0913076 0.19591184 -0.12801939 -0.12367417 -0.09375733 0.07244029 -0.058857784 -0.023646606 -0.071486965 -0.028587412 -0.03561873 -0.015707398 -0.07126525 -0.05292483 -0.0048083104 -0.10634853 -0.035337962 0.020521924 -0.06996256 0.017922355 -0.11162869 -0.033664104 0.046138946 -0.034739293 -0.021700341 0.11189362 0.1516924 0.012625395 -0.07694554 -0.102328986 0.0035949934 0.039705172 0.10368617 0.011880517 0.12264168 -0.1012954 -0.014051541 0.03778686 -0.059033584 -0.14902334 0.016342161 -0.050178893 0.07356181 0.10208128 -0.005730604 -0.026248692 -0.033334162 0.1819233 -0.10970058 -0.09842857 -0.12753649 0.05646015 0.030750616 0.024674512 0.013329331 0.22244297 0.070123956 -0.03616996 -0.021698596 0.039592583 -0.14711437 0.3000167 -0.26543272 -0.11690167 0.07079933 0.11260957 0.19286208 0.15894665 -0.028012626 0.17961277 -0.110070005 0.11248595 -0.014645886 7.389502e-05 -0.10772548 -0.12852907 0.09075809 -0.029492233 0.1451975 -0.09733023 0.066065885 0.16627665 -0.038981497 -0.12807819 -0.03224682 0.02063708 -0.08627603 -0.006884352 -0.13666739 -0.1103753 -0.06565975 -0.06718512
8 -0.09198343 0.035728958 -0.028163042 0.049310796 0.034461945 0.097807564 0.064552404 -0.0066599874 0.12330855 0.05081649 0.09399194 0.09823297 0.007947082 -0.006330763 0.013597323 -0.17714718 0.034807596 -0.036115948 -0.09064249 -0.057079006 -0.106793806 0.054927014 -0.114687145 -0.0023931635 -0.091113605 0.016545461 0.072780594 -0.06459347 -0.04206672 -0.04684754 -0.08995627 -0.15637447 -0.045803785 0.13445432 -0.013526166 -0.1379276 -0.15180936 -0.05181819 -0.11223043 -0.03770346 0.07466092 0.17689188 -0.12690409 -0.11159874 0.007469881 -0.06282131 0.022330778 0.07415572 -0.07229818 -0.10698526 0.0122189345 -0.142597 0.04179174 -0.052820683 0.028929671 0.0969555 0.0026066552 -0.07464756 -0.006945579 0.04809117 0.078104645 0.108690545 0.034678433 0.020557677 -0.076225065 -0.14690591 -0.088171385 0.13459933 0.124049515 -0.105860725 0.058854423 -0.07293638 0.061474618 -0.09894907 0.039434224 -0.016726365 -0.01914819 0.011176678 -0.11752507 0.043424655 -0.07006321 -0.06138918 -0.13921121 0.17580287 -0.15356068 -0.16044302 -0.09175331 0.043472614 0.04349936 0.005730448 0.09093079 0.07206121 0.17298236 -0.134178 -0.058336817 -0.03289643 -0.14511749 0.35283613 -0.2862558 -0.074994 0.12183 0.07768872 -0.025103245 0.06432066 0.04837306 0.16536589 -0.13731842 0.07337162 0.06681707 -0.0042794165 -0.044515863 -0.09969803 0.09109213 0.029730007 0.078678995 -0.1642017 0.035599463 0.02700926 0.03548775 -0.13511673 0.10890097 0.001146955 -0.14860782 0.026214086 -0.12374658 -0.095218934 0.06636582 0.077449664
34 -0.050235122 -0.013448062 -0.0533464 0.059341755 0.06873381 0.028777733 -0.054208156 -0.008094908 -0.013192837 -0.07215134 0.056082644 -0.065753214 0.0052241385 0.044659268 0.039757863 -0.094067685 0.020618027 -0.029185224 -0.059881445 -0.06251733 -0.07648851 -0.017339425 -0.111648664 0.03454312 -0.09244069 -0.05072163 0.083382964 -0.04367749 0.051436987 0.049412243 0.017317237 0.0074891476 0.013970449 0.07858995 -0.003706347 -0.15942435 0.041247092 0.047534414 -0.037004046 -0.18987305 -0.015485953 0.13077506 -0.10684455 0.06265792 -0.015540377 -0.01230127 0.11264027 0.013493402 -0.03835595 -0.076303184 -0.036144126 -0.12164149 -0.08649728 -0.09891624 0.04297811 0.069518894 0.10958046 -0.15915272 -0.00039555077 -0.04282509 -0.05206892 0.044032652 0.1402356 0.053796433 -0.11367078 -0.15271942 -0.03771196 0.15407978 0.14499317 -0.07728728 0.137505 -0.1877874 -0.022924514 -0.16306715 0.054757297 -0.0878625 -0.018733542 0.035986576 0.03370506 0.10606768 0.045528658 0.034812275 0.032585785 0.15457247 -0.00537794 -0.08556825 -0.032844573 0.18106529 0.060228586 -0.038976464 0.044825584 0.058826033 0.093324825 -0.061806805 0.06748243 -0.055302538 -0.16041103 0.34573835 -0.28997377 -0.11990383 0.044352125 0.15472782 0.18403111 0.124351956 -0.09752532 0.14957026 -0.061677214 0.12517211 -0.01252435 0.005425297 -0.07169728 -0.0719679 0.11364241 -0.123552166 0.16268383 -0.13177711 -0.013857499 0.041350063 -0.114910774 -0.17848516 0.05983297 -0.05145411 -0.012780149 -0.09015872 -0.06131748 -0.050100364 0.020031407 0.027314583
7 0.048558492 -0.00054970116 -0.033509426 -0.032441627 0.058930647 0.039348923 -0.115210876 -0.026676457 0.03656013 -0.0059805987 -0.09723115 0.013794807 -0.035647567 -0.05437304 0.06120371 -0.0844636 -0.009424404 -0.061995126 0.037193812 -0.0026232486 -0.08081809 0.006376631 -0.026738146 -0.0073605003 0.025736528 -0.076492056 0.019539878 0.05224411 -0.07281842 -0.011185564 -0.061447926 -0.022838894 0.01814597 0.064969 -0.033261698 -0.060891803 -0.08632821 0.04753943 -0.004894676 -0.14174788 -0.08156735 0.22329383 -0.21452373 0.05509466 -0.05913757 -0.18552394 0.10867937 -0.008143696 -0.10556818 -0.06250949 0.025678182 -0.1993304 -0.020484285 -0.017516641 -0.03704126 0.019428194 -0.08133395 -0.003310197 0.108577445 0.027855834 0.047112927 0.047991134 -0.017878551 0.13017753 -0.04768097 -0.0115804495 -0.12020131 0.19336902 0.19659029 -0.10800927 0.062579654 -0.04672808 0.056422725 -0.00629189 0.0042880275 -0.15556365 -0.10479677 0.101148136 0.0611665 0.040927283 0.090298034 0.036593303 -0.0694102 0.15520588 -0.047788754 0.044257358 -0.121228956 -0.10745756 -0.06017299 0.0025182117 -0.053141423 0.13322727 0.18219414 -0.046050295 0.012305786 -0.08128327 -0.14609648 0.2694693 -0.31923392 -0.11111352 0.08484045 0.058131702 0.09939999 0.086078495 -0.038091697 0.16149794 -0.040073164 0.15687904 0.05989698 0.04939838 0.08646508 0.002629259 0.07822289 0.01892698 0.17530443 -0.17872976 0.07908691 0.053393427 -0.052296873 -0.13720706 0.07382992 -0.12176227 -0.07094925 -0.0623143 -0.06785537 -0.11541148 -0.00034646102 -0.019726936
16 -0.01764326 0.028315011 -0.016517589 -0.046009798 0.09718387 0.035762813 0.04926943 -0.068793386 -0.022692103 0.0053695254 -0.10603103 -0.046286244 0.050119404 -0.11670217 -0.07375119 -0.14447808 -0.01637388 0.053631615 -0.04915676 -0.095424354 -0.057429656 0.07383199 -0.03907878 -0.08452748 0.08131763 0.013550117 0.025348788 -0.024314908 0.025891183 -0.034008697 -0.078453586 0.015461083 0.014703636 0.06244541 0.043944754 -0.2379729 -0.048418004 0.0645325 0.069725685 -0.21729994 -0.16618378 0.093605526 -0.102325544 0.06658678 -0.088996254 0.02517194 0.022976361 0.09959378 0.019224053 0.05943394 0.048255283 -0.10498863 -0.03833276 -0.07002479 -0.01832049 0.09091053 0.009648032 -0.08802497 0.02228426 0.031102562 0.034848206 0.056259163 0.15673465 0.10397793 0.03629217 -0.1101254 0.024430646 0.10348718 0.16775957 0.010383722 0.016518015 -0.2232938 -0.08470135 0.048778977 -0.011757778 -0.1366196 -0.03295999 0.053929046 0.07819297 0.043947395 0.057169944 0.03413074 -0.070266016 0.20287168 -0.10829223 -0.10221936 -0.065666065 0.06967169 -0.090040535 0.0042324625 -0.015317101 0.17555718 0.16985048 -0.009084695 0.07993241 -0.018509109 -0.0709708 0.27344066 -0.28235054 -0.016558794 0.026579203 0.18625115 0.04868708 0.11141901 0.014208117 0.23131578 -0.092153296 0.122780845 -0.011968721 0.011324888 -0.19349897 -0.066391885 0.0053005386 0.021349194 0.18141618 -0.07271708 -0.011400675 0.08273522 0.05592737 -0.21095413 0.043938152 -0.09676447 -0.018119095 -0.05615942 -0.10074148 -0.117166206 0.03884226 -0.02161912
13 -0.045717444 0.024309883 0.009374591 0.07069746 -0.013005639 0.14608838 -0.055434667 0.07939976 0.073703915 0.03317493 0.017159468 -0.058575317 -0.03700703 0.054837722 0.015635375 -0.03877602 -0.082601085 0.11206504 0.03176757 -0.109800644 0.023708569 0.027575376 -0.11680267 0.009130045 -0.05380847 -0.021452272 0.038212456 -0.05234731 0.11037257 0.081171915 -0.026267152 0.03661292 -0.04873289 -0.083542556 -0.0555755 -0.2020811 -0.06400054 0.14238916 0.0071803075 -0.17060353 -0.06220874 0.1781761 -0.06517444 -0.004856234 -0.09424859 0.01416208 0.08689454 0.013644322 0.036844682 -0.02607462 -0.049880568 -0.04540056 0.021802742 -0.110232934 0.041840635 0.0060124323 0.07121939 -0.16489875 -0.026848368 -0.04511032 0.048530888 0.01722236 0.11051146 0.032362927 -0.05741549 -0.13817962 0.011386061 0.14479269 0.12862389 -0.024182951 0.023758508 -0.061155573 -0.0012479475 0.00580476 0.03287701 -0.04095797 -0.109245986 -0.02373419 -0.04125328 0.10154595 -0.023164898 -0.038671285 -0.013910544 0.17904717 -0.044800278 -0.1326853 -0.18149921 0.06114699 -0.041537404 0.1209873 0.14376897 0.07115031 0.23741588 -0.020192375 0.09791216 -0.07930513 -0.080213234 0.23520876 -0.35904697 -0.123408675 0.0775796 -0.012727151 0.11817686 -0.0057236785 -0.055646326 0.15175931 -0.10978421 0.118276455 0.056404904 -0.04821229 -0.16890922 -0.13007885 0.04833376 0.009561416 0.108299784 -0.08185886 0.14139277 0.12723441 -0.21211399 -0.18204115 0.045387954 -0.020163301 0.035828937 -0.0005401648 0.027410986 -0.10860162 -0.09256317 0.10175056
35 0.06866669 0.098881684 -0.012298435 0.022685487 -0.07542358 0.05843019 0.0005912674 0.023151133 -0.085175015 -0.054798216 0.018871753 -0.023388492 0.041042548 -0.07013038 -0.02355815 -0.017072633 0.03304851 -0.018425433 -0.09290582 -0.00034078144 -0.018088508 -0.016895184 -0.03749867 -0.075204276 -0.07136356 -0.07175292 0.016760163 -0.13019206 -0.08610152 0.07296428 -0.11003515 -0.10326648 0.094661996 0.11356456 0.024532972 -0.14486955 -0.07753383 0.019168619 -0.09962079 -0.11696434 -0.080292165 0.24890049 -0.095335744 -0.0034406825 -0.052701384 -0.0074117417 0.12368198 0.07972555 -0.031487305 -0.06990614 0.011256147 -0.21763986 -0.006765868 0.03798404 -0.084871545 0.072232805 -0.05057753 -0.10612907 0.022329696 0.042369157 0.019100992 0.1761873 0.038997877 0.07689282 -0.08615877 -0.14143679 0.052391645 0.09725777 0.18204686 -0.15690316 0.051060997 -0.026232095 -0.007580808 0.039390877 0.0304005 -0.14382648 0.006366918 -0.00064316625 0.043901123 0.091738194 0.094149925 0.0625594 0.013340338 0.2775962 -0.11827423 0.002576726 -0.06612463 -0.000106642154 0.0075425124 -0.021572255 0.042913325 0.21136089 0.13563356 -0.014111572 0.022865502 0.089267045 -0.037753604 0.19017391 -0.22190888 -0.16657999 0.020005757 0.080386825 0.094804935 -0.028627861 0.035379514 0.077137254 0.004375949 0.1114108 0.0813669 0.03656528 0.017064363 -0.08943889 0.13076855 0.10269051 0.17211826 -0.044678736 0.116656475 0.17361636 -0.099026084 -0.1425567 -0.04395449 -0.028054945 -0.07288712 -0.026381297 0.05681227 -0.21798109 -0.04813844 0.014143142
12 0.038719326 -0.010526708 -0.02553501 0.07918446 0.027337061 0.0042760978 0.0056369742 0.00894083 -0.005032875 -0.06569685 -0.044099122 -0.050555337 -0.070091754 0.00083210255 -0.04332519 -0.05505447 -0.066552915 -0.06028838 -0.05382035 -0.0001708904 0.0038752225 -0.0121557955 -0.016373092 0.032605216 0.019697942 -0.007293986 0.020334564 -0.06869102 0.025541028 0.07911711 0.02379713 0.060611855 0.12190927 0.013718976 0.042321984 -0.18240316 -0.1493096 -0.0074134525 0.023311255 -0.20253648 0.004711956 0.13111407 -0.14230645 -0.06522943 -0.026128262 -0.072378315 0.12420916 0.046339482 0.057767447 0.0005629692 -0.053277005 -0.18040009 -0.04714451 -0.018108774 0.06477492 0.03582854 0.009982432 -0.112596095 0.080705374 -0.09036576 0.0009961969 0.0044022533 0.11078968 0.055046473 -0.038516633 -0.06876797 -0.012690769 0.06656445 0.10008042 -0.11509135 -0.058316533 -0.0517482 -0.055018414 -0.060511928 0.041073684 -0.14518607 -0.021000233 -0.0014545475 -0.019430635 0.016082218 0.023485316 -0.04478655 -0.1180339 0.14891978 -0.08371274 -0.057400282 0.025562452 0.023779491 0.039449222 0.107080445 0.096862525 0.09165727 0.11768337 -0.014189284 0.15955535 -0.003655559 -0.10870005 0.33087924 -0.31644484 -0.15435064 0.023460725 0.07463897 0.09734655 0.11207136 0.048393335 0.12736885 -0.11782304 0.06494765 0.10905567 0.053166583 0.0044582915 -0.08728063 0.13745338 0.09217158 0.16651517 -0.11433344 -0.026591405 0.11537511 -0.15063226 -0.12023108 0.13641804 -0.002415049 -0.13444194 -0.06195276 -0.13566141 -0.20746255 -0.03802358 -0.0893354
40 -0.028492587 0.03795437 0.121099114 0.03233734 0.007578605 0.06305359 -0.049998704 5.4905954e-06 0.015985666 0.02251783 0.014278527 -0.016818833 0.05889699 0.08837879 -0.0952063 -0.025834106 0.033255316 -0.02215533 -0.022594573 -0.08498088 -0.08993641 0.0061090803 -0.030935956 -0.043042824 -0.11574313 0.062081426 0.12924762 -0.039330963 -0.006072659 0.024331385 -0.008918871 0.029236998 -0.106416516 0.035337873 -0.09007764 -0.18912832 -0.02320496 0.064997315 -0.027261546 -0.13445678 -0.23007953 0.1896213 -0.15403256 0.09284192 -0.04120841 0.12491889 0.059965514 -0.011614419 -0.040055193 -0.101160675 0.041359134 -0.103213035 -0.118633576 0.048060045 -0.006330274 -0.002409714 -0.030424142 -0.03596543 0.016181465 0.007599508 -0.037468303 0.09295681 -0.07193474 0.049812086 -0.04276383 0.07003503 -0.047184024 0.06854936 0.16952161 -0.1702826 0.12564567 -0.15994461 -0.09654569 -0.027978044 -0.023047969 -0.16967036 0.04940663 0.00034253922 0.0037179696 0.03046237 0.09198864 -0.026776677 -0.053875517 0.20916559 0.0027588008 -0.08672141 0.024888398 0.11109481 -0.0365467 0.07628436 0.12249884 0.10342537 0.1894876 0.07147116 0.064461336 -0.051089596 -0.19649224 0.1783487 -0.34491396 -0.11391753 -0.010710408 0.10210297 0.048743274 0.08003547 -0.09097585 0.113810614 -0.058294684 0.16502681 0.016580103 0.02844462 -0.030774584 -0.0017672045 -0.0022622922 0.050438866 0.11275003 -0.04138299 0.026757559 0.18589218 -0.09506392 -0.16707999 0.09913575 -0.053547546 -0.12634061 -0.102157526 -0.0021136885 -0.17303835 0.048258435 -0.030174887
25 -0.025234846 0.19375348 0.07981228 -0.021294914 0.05174844 0.07831339 -0.06502016 -0.17012404 -0.0019908538 0.050004154 -0.018306648 -0.007454913 0.03886691 0.028377432 -0.06675196 -0.069103606 -0.009711405 -0.025621431 -0.053328328 -0.010926137 -0.064387746 -0.05297162 0.02621066 -0.06367272 -0.07118123 0.030090494 0.04394171 -0.07803318 0.030055242 -0.105039254 0.12046134 -0.020750334 0.010863515 0.06514794 -0.061079428 -0.2190245 -0.08883841 0.099065736 -0.028405676 -0.1883845 -0.054364204 0.11120521 -0.042871077 -0.051297 -0.110327356 -0.14890604 0.1306841 -0.0147210015 -0.017793 -0.11591784 0.08060123 -0.15996283 -0.08371334 -0.07925874 -0.07110438 -0.06300015 -0.108161025 -0.041829716 -0.024717733 -0.110977136 0.03142627 0.07774398 0.14220414 0.11374844 0.026567765 -0.0709192 -0.08644827 0.17036511 0.1377287 -0.0071444972 0.06706512 -0.017849168 0.0044407197 -0.008131302 -0.07625192 -0.1039397 -0.037925895 0.023172166 0.051127706 -0.04289779 -0.0019279714 0.027841114 -0.053712893 0.1472512 -0.084198445 -0.050327685 -0.035501182 -0.03135562 0.008615959 0.03044333 0.029143697 0.1738734 0.19259511 -0.08602183 -0.0015397776 -0.01791624 -0.10094349 0.2868976 -0.2510209 0.0369447 0.10034346 0.054751746 0.21967492 0.04289979 0.13590704 0.08123469 -0.040735506 0.09589887 -0.013233436 -0.032244924 -0.018190365 -0.1841154 0.012566619 0.03436365 0.101375304 -0.114036344 0.037690654 0.13241504 -0.057423607 -0.13671695 0.10932547 -0.101466626 -0.25245622 0.028093388 -0.09605564 -0.19631365 -0.02833419 0.0536332
18 -0.008724624 0.06603944 0.020220289 -0.0056732954 0.045729764 0.03139047 -0.08768703 0.14208043 0.028617028 -0.01601607 0.080704466 0.017305078 0.023692567 -0.010025544 -0.08806115 -0.024744187 -0.060892876 0.027218984 -0.07646448 -0.05211709 -0.0811992 -0.022975212 0.003012552 -0.018637095 -0.0537002 0.046810944 0.027189258 0.05405011 0.0062235775 0.070522405 -0.13972005 -0.0128217405 0.013470482 0.08115605 -0.03058021 -0.14000873 -0.032521747 0.19337857 -0.10618858 -0.049824063 0.006342054 0.18858105 -0.20018663 0.022766333 0.006863135 -0.048407253 -0.05357708 -0.04123993 -0.040247455 -0.047038347 -0.021548392 -0.1718142 0.0024941445 -0.06481247 0.032218765 0.0140289515 0.08011179 -0.06400301 0.012079476 -0.02457797 0.059756927 0.06754012 -0.017178444 0.016097883 -0.08339824 -0.017979974 -0.17120734 0.1952835 0.12148762 -0.12119694 -0.04353612 -0.1721835 0.04562041 -0.00044927018 -0.07251482 -0.10724594 0.018473087 -0.06695217 0.055191666 0.13964652 0.11971737 0.0604444 -0.083811454 0.062375426 -0.123279005 -0.03482128 -0.10282259 0.044515904 -0.010521291 -0.0427951 0.023839762 0.14590608 0.26890782 -0.080848925 -0.047274563 -0.010006746 -0.082321465 0.28846368 -0.22372259 -0.17255786 -0.060771827 0.13955812 0.19097294 0.13130985 -0.04813876 0.07865017 -0.065868855 0.08215742 0.07222356 0.020347094 -0.0277129 -0.19308628 0.21202932 -0.054788545 0.03202839 -0.16545188 0.13690127 0.043928444 -0.011200096 -0.20893592 0.07604442 0.02193432 -0.047066573 0.018908905 -0.013132716 -0.15480708 -0.06557731 0.14541866
46 -0.083223194 0.13396749 -0.040634867 0.09017886 -0.02015892 0.17988978 -0.06400544 -0.008252421 -0.035752714 0.083198234 0.18814553 -0.11741846 0.14723484 0.005800135 0.014376838 -0.08156513 -0.010258053 0.037517 -0.0071738553 0.047097802 -0.09357064 0.0046691815 -0.089452796 -0.04297004 0.049059294 0.02942232 0.078752935 -0.08656571 -0.015229805 0.007233695 -0.07887524 0.0581723 0.05645419 0.029064134 -0.0115041975 -0.18910304 -0.017946409 0.07168016 0.01651859 -0.17073373 -0.040821623 0.22332299 -0.13915554 -0.027091758 -0.071334295 -0.035677824 0.11724107 -0.03126795 -0.0054241586 -0.03453215 -0.057298057 -0.0705711 -0.13072555 0.048749655 0.05092149 0.020540996 -0.0031223462 -0.011664879 -0.03470776 -0.07992374 -0.015341073 -0.003835206 0.028388048 -0.0146613 -0.046862453 -0.029224975 -0.024685273 0.061134707 0.18113555 -0.09084977 0.09557444 -0.18118517 -0.103260085 0.032125186 -0.016089067 -0.0895523 -0.07589824 0.017659187 0.056465454 -0.023054304 0.055923 -0.042272694 -0.0071994383 0.18631369 -0.05503343 -0.02408046 -0.05457608 0.060654532 -0.008293596 0.026506482 0.067846246 0.10367629 0.11693188 -0.097881764 0.06696199 -0.067277215 -0.18411165 0.29576746 -0.2235043 -0.060370184 0.026256198 0.11057893 0.04965371 0.15687019 -0.046078023 0.13867317 -0.11360602 0.17822808 -0.01683667 0.010751051 -0.10259929 -0.16847841 0.097603165 -0.06438859 0.1849273 -0.04597329 0.032808658 0.08266215 -0.15386663 -0.06479385 0.07139054 -0.033042714 -0.23158723 0.0318841 -0.102229536 -0.19279592 0.051353708 0.00024574855
53 -0.1103137 0.12369671 0.035924383 0.14448465 0.06125905 0.13445407 0.01561362 -0.033403628 -0.05839223 0.081468575 0.053870354 -0.02713807 0.17149821 0.015428859 -0.07034372 -0.05005902 -0.005120716 -0.06498093 0.058200054 -0.00035244896 -0.07212025 0.008573604 0.0032224827 -0.14499162 -0.00062220014 -0.066641726 -0.02787859 -0.05033154 0.13286538 -0.06943157 -0.032301307 0.08068998 -0.04706784 0.093825474 -0.062223405 -0.23319982 -0.037558958 0.09019931 -0.07177452 -0.16585876 -0.07625481 0.18248114 -0.12346377 -0.039148375 -0.1278898 0.00730866 0.14378722 0.14586145 0.068750046 0.018751023 0.08550318 -0.06520864 -0.057567295 0.07475226 0.009593768 0.003546291 0.03245374 -0.08369864 -0.04984777 0.011579843 0.037298996 0.018535119 0.048290666 -0.0075643635 -0.014583511 -0.04240459 0.02537995 0.17652933 0.12555234 -0.043074667 0.020461665 -0.13333562 -0.019995676 -0.05445543 -0.06234625 -0.0477103 -0.03456633 0.018718481 0.08084916 -0.08966394 -0.13026302 -0.027779007 -0.022969965 0.25608012 -0.0365648 -0.115122184 -0.084916286 -0.0050899736 -0.03636124 0.07617804 -0.05643549 0.101797126 0.21670543 -0.048443142 0.0211712 0.028680284 -0.15895893 0.21820532 -0.25856507 -0.12311921 0.0837198 0.09959753 0.032508187 0.046172753 -0.038227458 0.20366284 -0.0013199089 0.040311635 0.09406599 0.08166135 -0.05711595 -0.124460615 0.087665625 0.1182687 0.22183885 -0.13137537 0.07474414 0.105341755 0.04426742 -0.17410369 -0.007343598 0.08624607 -0.06351544 -0.10611984 -0.043104548 -0.2449439 0.025235353 -0.045884687
55 -0.042230785 0.054518744 0.07599178 0.07990958 -0.0888113 0.1888342 -0.022047542 -0.054246046 -0.022210125 0.039723396 0.014221626 -0.110798694 0.02867609 0.00069830054 -0.052750945 -0.069423415 -0.026007913 -0.020673972 -0.0026364336 -0.06789918 -0.07523835 -0.0649848 -0.033191822 -0.16465105 -0.119695336 -0.061000034 0.11985188 -0.09057248 0.0799962 0.16867049 -0.0005623751 0.10975274 -0.09047169 0.14114544 -0.058727764 -0.17895298 -0.029533193 -0.0054114815 0.07868477 -0.14849155 -0.007662314 0.14080621 -0.15575366 -0.06213515 -0.12176903 -0.079041876 0.10694471 -0.072723456 -0.045290735 -0.0081992615 0.018563362 -0.092289805 0.103856884 0.043191236 0.011876235 0.116530806 -0.050550126 -0.021920271 -0.0025950957 -0.08698609 0.0017983273 0.010377196 0.1375924 0.11352082 -0.05169032 0.033018824 0.026344331 0.12898575 0.27912438 -0.06336124 0.08516508 -0.07356127 -0.089443386 -0.07661023 0.06674789 0.051931515 0.021765586 -0.025143165 0.04839438 -0.037045028 0.100119635 -0.050795894 0.0056697913 0.14442384 -0.08107949 -0.05276957 -0.19543386 -0.016670587 -0.050609533 -0.0068840636 0.1134441 0.11801566 0.1924618 -0.15357421 0.031894606 -0.038474724 -0.11474922 0.2569993 -0.2934408 -0.20601784 0.1109709 0.18154606 0.06854486 0.079045326 0.03836308 0.1592652 -0.05398182 0.04970694 -0.01422535 0.040541913 -0.08179608 0.019851724 -0.019172031 -0.07610083 0.06774274 -0.2058344 0.035026472 0.11139148 -0.020358352 -0.15192904 0.04442224 -0.045286823 0.016114304 -0.13373424 -0.047725134 -0.16934013 0.049550332 0.06054184
28 -0.025705913 0.07339305 -0.00812127 0.02245871 0.01482508 -0.050064575 -0.20599991 0.06819477 0.09596359 0.013524882 0.10697641 -0.071691535 -0.07502612 0.06497616 -0.13710427 -0.011085835 -0.038023297 0.03711431 0.06516055 -0.03362257 -0.065900415 0.014263643 -0.04057231 -0.04446981 -0.10696265 -0.100652486 -0.08231091 -0.013098231 0.015773004 -0.0004771592 -0.056341637 0.0074038664 6.0985825e-05 0.10083211 0.011241944 -0.26014397 -0.123917095 -0.03227706 -0.0151319485 -0.14106673 -0.056946248 0.23627783 -0.049506288 0.09437905 -0.02934875 -0.05820447 0.046062823 -0.04676616 -0.06508063 -0.0041983128 -0.047766745 -0.23105739 -0.06969939 -0.04971887 -0.06966029 0.1169758 0.0012975394 -0.07377055 -0.14582089 -0.016381437 -0.0848948 0.014146013 0.12080112 -0.046676245 -0.009860655 0.004483958 -0.093556456 0.08275239 0.1230024 0.019123688 0.08069057 -0.078483984 -0.02547213 -0.05455733 0.054809544 -0.080171265 -0.017685993 0.05919837 0.026976775 -0.015129988 0.15591618 0.047395907 -0.059303842 0.19918664 -0.18477476 0.06795034 -0.025418252 0.015700962 0.029412916 -0.018114315 -0.0672691 0.1821692 0.15303487 -0.092124216 0.04811267 0.09670113 -0.035808917 0.32811245 -0.30163294 -0.22037481 0.05920934 0.10286641 -0.0039993855 0.013000423 0.021832768 0.08614142 -0.047989212 0.034616657 0.07420112 -0.04886091 -0.012144047 -0.08883288 0.15391532 -0.034309383 0.067708604 -0.09013311 0.19712988 0.16064543 -0.048424967 -0.05787019 0.027348366 -0.16809943 -0.15060976 -0.017482106 -0.011653808 -0.15204328 0.104138054 -0.09870441
43 -0.022054287 0.109265976 0.0349355 0.03335651 -0.020505872 0.086791314 -0.12931429 0.0038780198 -0.107814 0.029359777 0.055253267 -0.1449673 -0.032729924 0.029385824 0.05364411 -0.053128894 -0.05167269 -0.019945862 0.023667598 -0.019173462 -0.049016945 0.0118846 -0.15936075 -0.007893744 -0.056551486 -0.047991727 0.028745325 -0.07357546 -0.06236893 0.03967156 0.0095378505 -0.0042007356 0.054318216 0.11276204 -0.040766574 -0.15341075 0.028119799 0.042549204 -0.10886708 -0.035539415 -0.15091364 0.14865763 -0.009421121 -0.06198032 -0.09918841 -0.04496045 0.031805426 -0.03600783 0.004982469 -0.03302675 0.11322264 -0.31723022 -0.043720145 0.017025473 0.014824492 0.08606742 0.044327363 -0.16810194 -0.03214515 0.03973041 0.053011607 0.05068783 0.030744191 0.07344674 0.037120845 -0.0401582 0.06759801 0.09656541 0.08126896 -0.07465667 0.09570583 -0.031477533 0.05163474 -0.07643019 0.06863182 -0.10147164 -0.03480486 0.13766104 -0.007762959 0.07247891 -0.074164286 -0.046395216 -0.10020982 0.15792805 -0.0713616 -0.1589526 -0.09055834 0.016784588 -0.113175 0.07968934 0.06716221 0.15836224 0.20586124 -0.044129428 -0.04645337 -0.01130339 -0.1478133 0.19945048 -0.26319417 -0.21706383 0.08302424 0.16976754 0.072241925 0.019496456 -0.08746893 0.18356806 -0.073737904 0.21628785 -0.012877675 0.013952125 -0.10186558 -0.05613069 0.14055084 -0.029507115 0.10387088 -0.04829953 0.1292358 0.084627375 0.010667256 -0.09534631 0.07036279 -0.05153978 -0.021713207 -0.1468278 -0.07416783 -0.25261828 0.046758123 0.013603548
17 -0.039460015 -0.022629818 0.0011583306 0.024186555 0.111424915 0.011057387 -0.09042569 0.010516831 0.056313723 0.027083252 -0.08802087 0.045282718 -0.12601279 0.016986256 -0.019564701 0.009297102 -0.052859206 0.028739344 -0.034932297 -0.056958012 0.008696404 0.0629465 -0.09604742 -0.009409511 -0.06529698 0.02375245 -0.07625416 -0.0744051 -0.009369579 -0.11578449 0.03508623 -0.09127295 -0.07347499 0.0029715607 -0.0030482071 -0.16102345 -0.07555683 0.06458481 0.0057479553 -0.048214443 -0.063562766 0.23481046 -0.14194849 0.04562397 0.0011415853 -0.046147086 0.13766322 0.029887643 -0.024761682 -0.11261313 0.028611476 -0.20688242 0.009095917 0.012361362 -0.008290036 -0.093527034 0.0021548055 -0.072262205 -0.08576267 0.029275544 0.09365917 -0.012351785 -0.039893962 0.046198986 -0.06947135 -0.10541085 -0.112751745 0.1654099 0.13134211 -0.0030308526 0.048941657 -0.13394746 -0.013302354 0.077538945 0.055756718 -0.111411445 0.027746921 0.055012345 -0.11092494 -0.010760921 -0.048840556 -0.07059047 -0.13897946 0.04388747 -0.06979658 -0.110890865 -0.099333726 -0.014033084 0.024250029 0.1851242 0.031397354 0.12648842 0.21056846 -0.11306186 -0.04597568 -0.00338271 -0.00066972605 0.37320814 -0.28047034 -0.14195019 0.073971726 0.098625325 0.06452137 0.025562156 0.14531285 0.23721325 -0.061288927 0.1228757 0.016932536 0.04170487 0.017626215 -0.10982576 0.14914666 -0.076710746 0.047067646 -0.13973439 0.05823446 0.04488938 0.012081813 -0.14059836 0.16093284 0.0062321 -0.09627491 -0.008247306 -0.04945444 -0.24085882 -0.13671379 -0.13277878
24 0.07542541 0.025213752 -0.0100813955 0.018480219 0.0009639416 -0.00019344037 0.024683818 -0.12321932 0.078441694 0.0054044714 -0.056553926 -0.0759702 0.13602415 0.011077506 -0.1054636 -0.09367776 -0.10598627 -0.07235835 -0.0911326 -0.08233425 -0.1479744 0.0730793 -0.1333688 -0.005683707 0.06786173 -0.0396846 0.09541213 -0.08358612 0.05022857 0.009188996 0.0292649 0.023350123 -0.0028826445 0.03747755 0.04416992 -0.16550592 -0.06679999 -0.01974778 -0.0954812 -0.10952493 0.0045070904 0.10390428 -0.0458401 -0.07130783 -0.053219143 0.0027480267 0.0961197 0.04639703 -0.09281412 -0.062593155 -0.043536726 -0.08239102 -0.0042740484 -0.024386564 -0.00019499629 0.04966427 0.03749926 -0.05535137 -0.0029261976 0.05110106 -0.05338868 0.028333526 0.061468903 0.046509493 -0.007982672 -0.10463921 -0.14917347 0.1562749 0.13711306 -0.14705685 -0.01635817 -0.08455118 0.022427768 0.0021988777 0.111627005 -0.11017659 -0.065881975 0.025678113 -0.03999779 0.008348034 0.03247458 0.06044453 -0.09662045 0.18316703 -0.14543682 -0.052207284 -0.076358974 0.050310124 -0.002755871 0.09280156 0.2840888 0.09937346 0.20981184 -0.16323368 -0.020510893 0.09175502 -0.073617145 0.33592507 -0.27762577 -0.07487787 0.008491356 0.05482337 0.11946237 0.036154747 0.061150603 0.10735881 -0.10231804 0.08134316 0.05591412 0.075913265 -0.16047733 -0.11085875 -0.05090554 0.10242028 0.110124245 -0.12120238 0.036763057 0.15786533 -0.06004696 -0.026349854 0.068691954 -0.02476239 -0.096595116 -0.034703888 -0.03014492 -0.26212946 -0.0730792 0.05151524
19 -0.10604985 -0.062979035 0.03400764 -0.036616117 -0.05248032 0.030766863 -0.09944925 0.00097071653 -0.07228297 -0.016997341 0.0636922 0.022665588 0.04482077 0.13091055 0.04626778 0.124937534 -0.046905126 -0.01929005 -0.16847166 -0.025420394 0.006063045 0.024539087 -0.17981802 0.03989548 -0.006615199 -0.11836324 -0.042021498 -0.063842386 0.0038865227 -0.09089489 0.07444869 0.0013181224 -0.025853643 -0.038709074 0.0032763374 -0.16099508 0.018679023 -0.04058104 -0.057846226 -0.13753355 -0.12137612 0.07565651 -0.23824847 -0.024794819 -0.15491785 0.024025839 0.055737987 0.086174965 -0.07818211 -0.058312397 0.05045172 -0.14348923 -0.0023150383 -0.15430258 -0.04560155 -9.205225e-05 -0.005543735 -0.025044855 0.06068579 0.071991846 -0.0013052364 0.06086741 0.0008127918 0.11541075 -0.13645624 -0.10881567 -0.11946982 0.2551623 0.12562534 0.024921466 0.0033652424 -0.014496516 -0.016784107 0.024223652 -0.026144251 -0.100396045 0.13006707 -0.052352153 -0.025597464 0.08775192 0.07837683 -0.04736468 -0.10683303 0.17893165 -0.031224068 -0.06856311 -0.02905567 0.035103567 0.051335704 0.07085824 0.17358916 0.07180439 0.108383544 -0.10808956 -0.049728412 -0.0060938513 -0.11335414 0.38674292 -0.2113702 -0.11681576 0.12774621 0.15023544 0.1964759 0.16391519 0.021908438 0.15475486 -0.07598119 0.049754865 0.104945846 -0.03135927 -0.14298128 -0.10024635 0.106700666 0.0066825543 0.1411968 -0.08852344 0.026255827 0.13953061 0.031976677 -0.0839033 0.013422039 -0.047124445 -0.09109712 -0.0016475256 -0.09190843 -0.1986218 0.02636955 -0.03852348
69 -0.05596286 0.11336217 -0.087519936 0.026033245 -0.120800465 0.0025834234 -0.09064776 -0.008630835 0.031345822 -0.009207906 0.045703948 -0.13765575 0.032003473 -0.09822641 -0.11396604 -0.0046553398 0.035475727 -0.0823677 -0.055431325 -0.07994692 -0.05354577 0.01053152 -0.034986056 -0.09274874 -0.07297843 0.06406464 0.0486588 -0.13973847 0.050797965 -0.039387655 -0.0028149653 -0.10501411 -0.007078488 0.09511384 -0.08650594 -0.15690301 -0.17403755 -0.029345594 -0.10299282 -0.15458308 -0.115818344 0.0825875 -0.0639622 0.0787329 -0.17276666 0.013827158 0.057919506 0.0389081 -0.0423912 -0.06809566 -0.069851264 -0.12059037 -0.016484603 0.0032158368 0.09533074 0.017299037 -0.042091973 -0.12866452 0.038699523 -0.040088575 0.07358047 0.11596529 0.12988447 0.11293589 0.00019340456 0.01955804 -0.07713993 0.13901769 0.17550795 -0.020886686 0.17996722 -0.038178355 -0.0025336188 0.109211355 -0.072915554 -0.03125662 -0.029030427 -0.0074155875 -0.099995576 0.040617134 -0.06076537 0.037132 -0.030057468 0.22211619 -0.16241255 -0.11185533 -0.10252376 0.06382285 -0.079814814 -0.050143573 0.008768674 0.17479266 0.23155548 -0.029683465 0.05899879 -0.051026255 -0.11384895 0.169446 -0.31599396 -0.17529713 0.09888522 0.065697365 0.098513864 0.0026140504 0.08678799 0.15742746 -0.02726433 0.17000106 0.10726839 0.034824315 -0.070871584 -0.08791521 0.20726575 0.031182827 0.22483024 -0.015532796 0.012306864 -0.011807005 -0.010085743 -0.05111215 0.099842094 0.07395021 -0.12345054 -0.110766985 0.031355638 -0.1366035 -0.01741028 0.018223442
4 0.06712868 -0.05867216 -0.063847944 -0.033969436 0.16610675 0.14569202 -0.0138166165 0.058658574 0.08706341 -0.0145817185 -0.05541851 0.09183356 -0.01594199 0.044834465 -0.09375174 0.052924916 -0.037695773 0.11718616 -0.016211716 0.09323037 -0.10797322 -0.042001653 -0.114719436 -0.027836528 0.021538407 -0.14789931 0.059782553 -0.08652808 0.039138827 0.15931484 -0.09276368 0.004654015 -0.051054623 0.11327144 -0.10878036 -0.26480526 -0.16478413 0.0792268 -0.032520954 -0.095022045 -0.19523469 0.27644324 -0.03700574 -0.23998027 0.03666082 -0.05014033 0.080129154 0.025871849 -0.20144625 0.023511888 0.03884945 -0.24242099 -0.10937136 0.031977665 -0.0819667 0.0706132 -0.21709286 -0.20517628 0.061083075 -0.048199948 -0.021761328 -0.1199569 0.08704108 0.14627084 -0.008926156 -0.23856826 -0.08389373 0.054591373 0.10423919 -0.1734019 0.039855473 -0.030661875 0.035077725 0.049095564 -0.083046295 0.016031712 0.14847067 -0.07592705 -0.032160394 0.25046355 0.1915652 -0.058159515 -0.1318668 0.073413834 -0.14111757 -0.059722677 0.017388754 -0.05945386 -0.027939223 0.01579402 -0.002272136 -0.009425646 0.16715685 -0.20603308 0.051647004 -0.08718679 -0.13386178 0.23814547 -0.27497727 -0.061150044 0.089306794 0.03454605 0.10976996 0.20186119 -0.020683315 0.023143062 -0.036384717 0.10305281 0.15569946 -0.018274331 -0.20419689 -0.060301956 0.24665657 0.05242189 0.119296774 -0.112736896 0.07391438 0.12768239 -0.08548805 -0.27292177 0.1888549 0.08553559 -0.03771616 0.118566506 0.0764415 -0.021369642 0.0432117 0.07044139
39 -0.0038829392 0.044280354 -0.14232802 -0.0075416276 -0.030769732 0.14569244 -0.13710646 0.0069820858 0.05935541 -0.09930319 0.058980256 -0.008863209 0.02418702 0.06852816 0.00770439 -0.08023388 -0.07540507 -0.04099385 -0.0009387882 -0.048480436 -0.06399515 -0.0071757794 -0.03939338 0.019080102 0.06610222 -0.13863558 0.13466963 -0.034493737 0.030245239 0.040351678 -0.010105654 -0.040821593 -0.14570679 0.1303401 -0.099905655 -0.1851583 -0.0023851574 -0.050282683 -0.100240454 -0.1803499 -0.028816141 0.20019683 -0.05703101 -0.025699563 -0.12814476 -0.058641165 0.052368373 -0.02568024 0.032622628 -0.18699558 -0.03151737 -0.12629981 0.1081286 0.06681482 -0.00810866 -0.08883148 -0.007934194 -0.06287254 -0.016824892 -0.023163425 0.079466306 -0.054872893 0.1345826 0.08961145 0.005195843 -0.012917443 -0.037660625 0.070279494 0.18343258 -0.035945162 -0.0067983144 -0.13202095 -0.040363047 -0.031362176 0.113347195 -0.12991641 -0.032338228 -0.0014265148 0.0071837204 -0.013809232 0.14044409 0.13851394 -0.060512174 0.16107467 -0.113018386 -0.079328194 -0.1712818 0.100791216 -0.04249308 0.072122246 0.0036228367 0.1289984 0.10083015 -0.027513713 0.039539117 0.055507556 -0.17208186 0.36069274 -0.18690242 -0.12118072 0.14286627 0.07633535 0.18175377 0.025120512 -0.01866975 0.17144671 -0.15446272 0.22266696 0.068760134 -0.005634586 0.031192373 -0.06498858 0.080068216 -0.044370998 0.1500786 -0.03267516 0.15611066 0.17487875 -0.06341133 -0.11348679 0.0951025 0.012563337 -0.071012825 -0.02614596 -0.075263776 -0.031098723 0.07982899 0.06885144
27 -0.027200732 0.11349902 -0.01800414 -0.016132759 -0.002464566 -0.049773272 -0.035146866 0.087179005 0.13101892 -0.061240382 0.08244422 0.050540082 0.034807973 -0.025518086 -0.049531158 -0.06302812 -0.16194835 -0.05933074 -0.07361605 -0.0575498 0.053470656 -0.08807933 -0.0693279 0.080004945 0.07581255 -0.018443272 0.14377175 0.10590851 -0.035177387 -0.019984007 -0.053905234 0.08875539 0.031487472 0.12011802 -0.032588173 -0.17185295 -0.026604244 0.106567696 -0.058057252 -0.11849124 -0.17259619 0.14678405 -0.060500197 0.027773082 0.12753561 0.02711967 0.08683517 -0.041142076 -0.07376975 0.07283919 0.07331489 -0.22546476 -0.15104672 -0.008600855 0.09951806 0.10579823 -0.015219672 0.00022123552 0.07748652 0.10410876 -0.024005227 0.116357364 -0.001026305 0.046109367 0.10497609 -0.08678705 -0.1039647 0.23115924 0.07912935 -0.12368468 0.028193591 -0.06908764 -0.02605315 0.06403346 0.1243829 0.006529842 -0.08948888 -0.050973676 -0.038262907 0.04316309 -0.04603558 0.07435361 -0.053255036 0.24036552 -0.032313496 0.0025064435 -0.110902965 0.06133751 -0.03305715 0.041173544 0.09875352 0.020252341 0.15751134 -0.03672351 -0.07200534 0.06387173 -0.027268916 0.35843548 -0.2834582 -0.05931006 -0.0644268 0.1018909 0.20488392 0.059949424 -0.023560693 0.04330861 0.04347711 0.09845161 0.019151181 0.019469004 -0.017912993 -0.10459015 0.15105861 -0.072677165 0.30628118 -0.17592748 0.042050757 0.118063845 -0.12727982 -0.10027298 0.08041158 -0.046446737 -0.051683985 0.07541098 -0.13973504 -0.25895473 -0.036731098 0.14730972
80 -0.10087668 0.21144556 0.045028888 0.020696452 -0.021557733 0.2266087 0.015768163 -0.05650388 -0.17241022 0.037298363 -0.113501266 -0.030784978 0.0011996208 0.019236822 -0.10337282 -0.113539524 -0.055376567 0.12025666 -0.05361077 -0.08041675 -0.09168419 -0.04197632 -0.11521442 0.03747364 -0.020111632 -0.069334075 0.052759506 -0.072606176 0.020271325 0.091544695 -0.041644488 0.042862833 -0.06889364 -0.0013304012 -0.012101709 -0.094443105 0.0060244063 0.11814543 0.011326949 -0.101989456 -0.04112224 0.18008856 0.027900176 0.03903546 -0.15511045 -0.017889712 0.12407863 0.06985302 0.04853245 5.0653853e-05 0.0039521903 -0.1948316 0.053474847 0.0019097618 -0.053435482 0.113965325 0.081589565 -0.08015472 0.037552085 -0.0804 0.07183317 0.04091104 0.179102 0.061893165 -0.034846578 0.04802173 0.085223556 0.15244886 0.10798534 -0.04681171 -0.05850033 -0.13193111 -0.046075936 0.028185165 0.017984087 0.029966492 0.030691816 -0.062821746 0.03253668 -0.114103496 0.07031884 -0.05043307 -0.019703098 0.22793946 -0.14804289 -0.14171444 -0.10214675 0.092738576 -0.11171497 0.0076504233 -0.023963006 0.14212377 0.20505704 -0.009346256 0.01217534 -0.09055376 -0.14467545 0.34629253 -0.32700434 -0.14054492 0.03272972 0.10100208 0.0165456 0.14071454 -0.14312649 0.14760683 -0.023827491 0.014956063 0.052735176 -0.03660858 -0.055165324 -0.22197354 -0.06546792 0.08494545 0.10871599 -0.044337574 0.055916153 0.0838849 -0.0466702 -0.099103965 0.043937057 0.078366 -0.06372497 -0.1739176 -0.053853758 -0.20563042 -0.026529776 0.049965534
66 -0.0091403555 0.017060962 -0.049667824 0.006413484 0.028801927 0.057514086 -0.0037923567 0.088640444 0.0139908865 -0.08846562 -0.06439855 -0.030345883 -0.11548962 0.18088831 -0.17718197 -0.047731612 0.025496121 -0.034397516 -0.07055294 0.010664777 -0.0764886 0.034043513 -0.07758213 -0.14554685 -0.009400627 0.007980045 0.13270904 -0.08485306 0.054283164 0.071389705 -0.056475442 0.100087106 0.010157341 0.06761961 -0.081266895 -0.115042105 -0.09723516 0.0064584785 -0.09053683 -0.1935528 -0.15693557 0.121787004 -0.029006764 0.005564088 -0.02144498 0.019909568 -0.041763723 0.080999546 -0.009794632 -0.15232371 -0.0067645214 -0.07106117 -0.032703128 0.08775013 0.03798222 0.1257716 0.032493837 -0.035389554 0.056401886 0.0790516 0.07356211 0.08123585 0.19697115 -0.11102295 -0.08464317 -0.19346114 -0.039512996 0.16489476 0.066418864 -0.08662666 0.044558104 0.013136768 -0.082053535 -0.033934865 -0.06938699 -0.12867825 0.109098464 0.14054705 0.018071922 -0.07300595 0.044378586 0.029714597 -0.045799974 0.08402548 -0.24056706 0.028441282 -0.027332643 0.1035101 0.06414023 -0.016587593 0.06609436 0.21719441 0.21645932 -0.06388658 0.14565122 0.0066340053 -0.09264522 0.27509457 -0.3169617 -0.11843318 0.011826739 0.13750528 0.068033785 0.086760215 -0.018149458 0.1698539 -0.0033558316 0.112107895 0.0033873557 0.017293656 -0.0036467144 -0.14837544 0.12977663 0.011550382 0.19659942 0.037267182 0.04407976 0.14874093 -0.025701286 -0.16004845 -0.06244449 -0.015795402 -0.1110736 -0.13239862 -0.019621296 -0.21755733 -0.1450232 -0.006973733
72 -0.035000436 0.04266382 -0.014969217 -0.0058288258 -0.0022063628 0.10807578 0.026004044 -0.08205311 -0.06882548 0.028177302 0.030767648 -0.048996445 0.032428488 0.085954934 -0.0050156154 -0.0528589 0.042494394 0.034850504 -0.041924167 -0.08233644 -0.11473372 -0.093528904 -0.018059606 -0.061219066 -0.09078189 0.09745396 0.015465263 -0.12830661 0.033767585 0.09333936 -0.105231166 0.010771539 -0.052137926 0.04471029 -0.09007593 -0.2595825 -0.12047303 0.043576512 0.028043527 -0.1785946 -0.056969337 0.31931633 -0.07633064 0.008695354 -0.004042844 0.046448067 0.0794598 0.06535866 -0.07456675 -0.082310334 0.036919635 -0.035101358 -0.014382864 0.091245964 0.0075395997 -0.012647917 -0.063437626 0.052834477 0.061402757 0.07710809 -0.035534382 0.031859018 0.09090795 0.013842881 -0.13912205 -0.025310168 0.039924316 0.0026470544 0.115031496 -0.13062517 0.027094636 0.075396456 -0.02228792 -0.046441168 0.0047244714 -0.09486815 -0.031951286 -0.0113714645 0.030529752 -0.039249998 0.025029566 -0.025546046 -0.06611268 0.271151 -0.02519775 -0.12411846 -0.19703296 0.030696053 0.060719036 0.018874757 0.04240897 0.07624358 0.06396859 -0.061537217 0.042601675 -0.00080005924 -0.07977498 0.24712801 -0.38613865 -0.24133898 0.028043749 0.07958719 0.19385813 0.16247936 0.04783589 0.11071338 -0.13299316 0.17732161 -0.056630712 -0.16912821 -0.048989482 -0.06557687 0.022696663 -0.0014139875 0.19294149 -0.04929092 0.14635296 0.062130224 0.029306812 -0.023457948 -0.052143376 -0.11181799 -0.10036318 -0.14215252 -0.0879614 -0.15308742 0.0352708 0.0011195882
22 0.07376875 -0.0014231943 0.14831084 -0.080539316 -0.11415397 0.12464958 -0.06744218 -0.027008343 -0.09917561 0.055978835 0.036637925 -0.026393503 -0.014615959 -0.035816517 -0.13204236 -0.034346078 -0.1285377 0.012640677 -0.10870005 -0.24487902 -0.009681245 -0.0065256716 -0.05828584 0.019254122 -0.114682175 -0.08897335 -0.16222437 0.031008085 0.038576856 -0.037385233 -0.03669138 -0.04602604 -0.028662512 0.13021693 0.024900464 -0.2365366 -0.07532626 0.06969473 0.049787823 -0.10456405 -0.020000104 0.17035843 -0.20537601 0.0071761794 -0.07228116 -0.07652243 0.12902838 -0.015932087 0.03718107 -0.035668004 -0.008167997 -0.108703874 -0.09223595 0.051832296 -0.011790669 -0.02522508 0.03849253 -0.0684267 0.016168077 0.06977091 0.035393596 0.08076939 -0.07962056 0.14533186 0.035177335 -0.052935563 -0.093591385 0.10145146 0.09582429 0.026450234 -0.08649799 -0.109248735 -0.05701229 0.010172967 -0.053057484 -0.05180722 0.066456534 0.037493788 -0.053589676 0.0766629 -0.0045202225 -0.03189549 -0.15870264 0.11975347 -0.051221643 -0.05686773 -0.09625904 -0.0077075036 -0.07924218 -0.035463605 -0.02172145 0.05069436 0.059931807 -0.115356654 -0.05040211 -0.14796698 -0.19344485 0.32824397 -0.3400879 -0.1530753 0.07554737 -0.017332427 0.16904147 0.16437401 -0.04412842 0.106001124 -0.072079115 0.21376468 -0.110675916 0.028126515 -0.13405682 -0.012999194 0.059877757 0.07584385 0.20889324 -0.032647632 0.048143964 0.054316763 -0.06763728 -0.080199525 0.17804568 -0.109445274 -0.01612454 -0.15402924 0.056699235 -0.20350413 -0.037660807 0.001649715
32 -0.0069051925 -0.08156494 0.111678354 0.078287035 -0.20854762 -0.036084045 -0.07398423 -0.039387044 0.11073342 -0.014671703 -0.04489208 0.03337107 -0.032606192 0.09291802 -0.07853245 -0.07546453 -0.15071627 0.045541614 -0.13298306 -0.06260656 0.09055355 -0.06654764 -0.041833825 -0.061637077 -0.23748673 -0.12262121 0.06640503 0.0040697875 -0.095532425 -0.15221408 0.014644615 0.020722115 0.0044953497 0.061606143 -0.05091871 -0.10042505 -0.04049234 0.03184202 -0.055868138 -0.09564667 -0.1411953 0.19829388 -0.09689925 -0.09349348 -0.23526569 -0.10553377 -0.03784101 0.040997326 -0.060041245 -0.0321298 -0.07902709 -0.20777582 -0.077384815 -0.09595978 -0.07829863 -0.05041789 0.019958613 -0.046631142 0.01392593 0.031620063 -0.046952218 -0.044177208 -0.005279756 0.006554747 0.0028934802 -0.017650679 -0.064272575 0.13665017 0.043137867 0.019456843 -0.00018329034 -0.10530517 -0.008454668 0.036972877 -0.033995222 -0.14572912 -0.078443386 -0.045179673 -0.132944 -0.03911427 0.06334401 -0.042601373 -0.055687256 0.14194731 -0.0046038455 -0.019152986 -0.20558552 0.057212263 -0.067553505 0.016226863 0.10255591 0.06429729 0.12897356 -0.1863587 0.04001294 0.14690955 -0.06171276 0.3119082 -0.346446 -0.05060074 -0.062787734 0.046533115 0.23886308 0.044053353 0.06482766 0.14895009 -0.07262968 0.09939644 0.07389615 0.02657859 -0.1220246 -0.091536015 0.07662904 -0.001106452 0.13836235 -0.1580306 -0.007298056 0.13481984 0.008094828 -0.1274607 0.15041602 -0.004395388 -0.051536053 -0.030200662 0.014069964 -0.1699648 -0.053051487 0.073781684
64 -0.08448357 -0.053565014 0.04489626 0.008290631 0.048688386 -0.000710036 -0.048180375 0.1832085 0.03550414 0.027331267 0.054461434 -0.18125336 0.0602174 0.034022715 0.0017660358 -0.02180788 -0.004715782 -0.08269017 0.023575133 -0.047963593 0.016503956 0.0551808 -0.054717664 -0.14214233 -0.0070336405 -0.045101814 0.03097921 -0.051729426 -0.025562145 0.05406463 -0.07680469 -0.034181904 0.06208388 -0.032445267 0.04786986 -0.2037919 -0.07739179 0.07781428 -0.015942458 -0.09045254 -0.0015461133 0.18479487 -0.11550065 0.072759025 -0.0563042 0.10814361 0.104075454 -0.023014443 -0.006038776 -0.10649119 0.12791026 -0.20863384 0.06882099 -0.00906428 -0.0032073304 0.1416542 -0.14733966 -0.19507131 -0.016165974 -0.08456456 -0.0779899 0.04356825 0.075924 0.025198044 -0.08703237 0.004284033 0.08253782 0.12163093 0.16904294 -0.04486659 0.113996185 -0.16870011 0.014883457 0.034656037 0.08462711 -0.10244961 0.028005743 -0.105675675 -0.04528989 0.11788466 0.055801775 0.041826162 -0.016796194 0.13261673 -0.019368067 -0.14932898 -0.048703063 0.16711092 -0.025730846 -0.059282016 0.16997175 0.16081557 0.24602327 -0.008834741 0.038837243 -0.023159575 -0.04481953 0.253026 -0.24609728 -0.1909373 0.14154246 0.0658266 0.14003168 0.08886838 0.014082147 0.11261671 -0.13409284 0.13155489 0.13165611 0.0728555 0.022309456 -0.10106725 0.1446291 0.07475661 0.109384075 -0.114583 0.07742871 0.01969926 -0.22965175 -0.07227108 0.0671292 -0.09056258 -0.030885866 -0.10581014 0.0033576232 -0.11252928 -0.031876944 0.08559394
31 -0.013792335 0.08413494 0.025346614 -0.07456358 -0.03804075 -0.015496635 -0.08671386 0.03783524 0.030981202 0.01671526 0.094013974 -0.055376012 0.057132594 0.07037282 0.05705679 -0.05470889 -0.035718046 0.09833248 -0.005704744 0.090238154 -0.020511482 -0.07367792 0.042557046 0.042530384 -0.10950525 -0.063620076 -0.037279323 -0.05689862 0.004956337 -0.023091745 -0.1606662 -0.05012344 0.018854935 -0.04031898 -0.055507563 -0.10294188 -0.09738331 0.14282328 -0.058661703 -0.2455319 -0.04922941 0.1722148 -0.01092605 -0.037492666 -0.1826222 -0.09705535 -0.038316786 -0.09596056 -0.10068639 -0.09711826 0.05389589 -0.059275504 0.14077519 -0.034443013 -0.03694483 -0.0063765603 -0.06137941 -0.06561756 -0.03861077 0.027985651 0.0506795 0.05449758 -0.09638107 0.03469934 0.07446131 -0.1041861 -0.030092396 0.15475547 0.18581045 -0.03656236 0.10662038 0.044846404 0.051572394 -0.036047317 -0.0753864 -0.15241131 -0.04363538 0.052571997 -0.0086393785 -0.04557811 0.079201624 -0.0102811465 0.0070774364 0.22311035 -0.011988604 -0.12555447 -0.1019426 -0.0010483281 0.11494084 0.0049505914 -0.012178294 0.11038782 0.08301362 -0.07263669 -0.030520087 0.023344954 -0.090131015 0.28395727 -0.40410724 -0.07981687 -0.006419583 0.0060877874 0.12900627 0.07795577 0.0792739 0.15226267 -0.0808498 0.1967807 0.053893153 -0.100060694 -0.22684756 -0.20054762 0.19060002 -0.021953255 0.07901141 -0.14470434 0.076336384 0.042060036 -0.10165165 -0.13730861 0.030230734 -0.03646994 0.003050968 0.026252694 -0.06127504 -0.21107906 0.01328741 0.05461592
50 -0.0266698 0.037563194 0.107461594 0.02959676 0.060162466 -0.042036697 -0.0808616 -0.020809501 0.029263712 0.09977778 0.1462771 -0.10283629 -0.03167278 -0.035265163 -0.060278792 -0.08658011 0.11209559 -0.0778127 -0.01317672 0.0075118244 0.07764941 0.0397046 -0.16003415 -0.06197249 -0.0322216 -0.042147614 0.20848608 0.060291313 -0.006992354 -0.060819283 -0.13247181 0.10656502 -0.080743514 0.012216976 0.043243334 -0.109816015 -0.03546305 0.08643414 0.0230355 -0.08422413 -0.12917349 0.19451062 -0.067450166 0.062267587 -0.13932577 0.034147803 0.035809506 0.039796166 -0.09623387 -0.06596653 0.06413618 -0.044868942 0.08230938 -0.032057554 -0.017490143 0.022156 0.025284823 -0.15441947 -0.021571096 0.18608342 0.0980739 0.09701385 0.10167553 -0.06719247 -0.010279548 -0.21198544 -0.033936508 0.07888326 0.124552034 -0.031825747 -0.0052109757 -0.05029682 -0.00014360709 -0.07443945 -0.093374215 -0.095391296 -0.008076974 0.0049860803 -0.05650539 0.08056725 0.15521693 -0.020074531 -0.010326402 0.14398554 -0.25888643 -0.097518206 -0.1215885 0.040120233 -0.03885084 0.008425256 0.05696847 0.012043055 0.30841962 -0.042342987 -0.019492216 0.000637089 0.014307073 0.4039759 -0.3072374 -0.053405117 0.069713674 0.04575171 0.14579038 0.12888175 -0.0960133 0.19883132 -0.10038162 0.07288856 -0.12689318 -0.032770574 -0.05871029 -0.043887924 0.08993486 0.09092915 -0.05411509 -0.1395456 0.16530171 0.12698808 0.00525246 -0.15940194 0.027010987 -0.08407354 -0.04598138 -0.0128852725 -0.06359641 -0.17644525 0.010852932 5.2628373e-05
70 -0.061171986 0.08550523 0.003446542 0.16330084 -0.12557836 0.21225561 -0.029732319 -0.009025119 -0.010150613 0.0010058255 0.06535971 -0.060269378 0.055821806 0.09300093 -0.06618917 -0.07808767 0.09633135 -0.109834515 0.025679553 0.0066153225 0.032795887 0.017578967 0.05185885 -0.051625345 -0.08941301 -0.09486643 0.029409409 0.026325416 -0.018069746 -0.04157097 0.019579865 0.0008020828 0.019799558 0.05398283 0.007730836 -0.23698199 -0.06304644 0.017302852 -0.018820573 -0.15968682 -0.1640849 0.19509743 -0.109137535 0.0012952874 -0.05147402 -0.011590699 -0.02503403 0.04683072 -0.13203385 -0.06557477 -0.021044187 -0.08356091 0.0047873775 0.07539402 -0.013353906 0.10635941 -0.057793904 0.09638985 0.07734995 -0.04089984 -0.026728766 0.16364814 0.0045412066 0.10335287 -0.061389696 -0.12676015 0.008214729 0.12092999 0.13820775 -0.014464921 -0.08946397 0.044930372 -0.016629817 -0.0052817245 -0.0054187304 -0.031796884 0.11090546 0.07471923 0.098292895 0.007970882 0.017873866 -0.003621419 -0.048682477 0.06290124 -0.07048504 -0.11441883 0.048126165 0.15372834 0.06872856 0.1547574 0.015251623 0.14976613 0.245528 -0.09583744 0.015673872 -0.09641161 -0.083831966 0.36962652 -0.33557737 -0.18208723 -0.06034312 0.101114 0.01848951 0.19168155 0.07152082 0.061378047 -0.07731046 0.09954287 0.0227091 -0.071155824 -0.150485 -0.09903798 0.015973505 0.100218534 0.103048556 -0.06926591 0.072085194 -0.046762653 -0.12828854 -0.21059364 0.099665776 0.018369617 -0.17291768 -0.14423159 -0.16279669 -0.0634383 -0.026103979 0.07800382
44 0.025791489 0.03755078 -0.03433492 0.057996515 0.017989691 0.0032570593 -0.08366864 0.14286055 0.030133812 -0.009597277 -0.030448217 0.025545383 -0.07687183 -0.023877604 -0.027374256 -0.0077927206 -0.010549649 -0.008020718 -0.06080113 -0.026701136 0.10779677 0.023963273 -0.020209335 0.016190315 -0.08331547 -0.032674573 0.047480617 0.026567478 -0.011490968 0.031388085 -0.042694625 0.032093495 0.07516578 -0.0456396 -0.046287768 -0.088582635 -0.09974711 0.03246408 0.02335825 -0.11909066 -0.08227135 0.17083673 -0.11530511 -0.09278405 -0.04153049 -0.110398516 0.053212907 -0.034162566 -0.045757096 -0.19861272 -0.13802971 -0.31947306 -0.017231314 0.0026333106 0.017646614 0.083576664 0.05331833 0.10378957 0.037625052 0.015005318 -0.06352807 0.14206953 0.04630981 -0.03166779 -0.22495995 -0.10058923 -0.12992057 0.19815701 0.2463513 -0.09996592 0.0045842347 -0.029101701 -0.053089432 0.016996166 -0.13191612 -0.093065254 -0.038168035 0.025664723 0.11171878 0.0066183824 -0.12156487 0.071174204 -0.070542894 0.22364256 -0.10796774 -0.06321669 -0.13254142 0.035274122 -0.07976165 -0.02991999 0.13405363 0.13001451 0.11367698 -0.10122572 0.0025368298 0.111228034 -0.09151984 0.41894203 -0.24619523 -0.10910884 0.085033834 0.10759483 -0.0026123282 0.05398106 -0.029190121 0.04378014 -0.0010809876 0.16648617 -0.039742675 -0.028435571 -0.1464228 0.024836574 0.16035168 0.03464403 0.144667 -0.038574412 0.049717586 0.15571468 -0.045753684 -0.061297745 0.13825704 -0.031070787 -0.13042986 -0.03310263 0.025615884 -0.03516314 -0.019315142 0.055987146
63 0.06894159 0.14996114 0.017848654 -0.0074146623 -0.07609532 0.10691552 -0.012200555 -0.0726256 -0.016061602 -0.014471471 0.022283196 -0.11952071 0.038832705 0.099383004 -0.15601477 -0.101897776 -0.051328987 0.058885727 0.012415551 -0.06793337 -0.005336986 -0.11732047 -0.086335614 -0.037105113 -0.06343589 -0.020225903 -0.02134357 -0.04864484 0.11513378 -0.026626423 -0.06615816 0.091402754 -0.1081204 0.121938355 -0.053130608 -0.11083149 -0.100958444 0.0842136 -0.045607667 -0.066909604 -0.08916831 0.10426959 -0.21936104 -0.010295347 -0.019156106 0.009549404 0.10866658 -0.045596037 0.036416605 0.0062171826 0.06853961 -0.17963707 0.021088533 0.026980303 0.03226318 0.08520939 -0.15620477 -0.09250281 0.046267606 -0.027291503 -0.038357668 0.02602941 -0.02469595 0.07588403 -0.1589746 -0.10997218 0.020267826 0.20486121 0.15400392 0.026946224 -0.03753348 -0.045030717 -0.019218871 -0.05220162 0.022896027 -0.09788903 -0.03724846 0.008887086 -0.04597105 0.02188234 -0.08601171 -0.056674503 0.016399559 0.29575104 -0.08387225 -0.11687268 -0.10445849 0.013452781 -0.035536144 -0.013143141 0.11834908 0.0040435917 0.2395886 0.028545877 0.033887304 0.033078425 -0.09314062 0.24707465 -0.24776383 -0.1368879 0.07125509 0.090340644 0.06828049 0.029902505 -0.04158095 0.08477581 -0.03425681 0.16952616 0.03538843 0.026380057 -0.14933302 -0.14241521 0.033547796 0.15909608 0.09282809 -0.080093704 -0.011383409 0.117811054 -0.08169834 -0.17078604 -0.01753344 -0.015317275 -0.13258417 -0.09298246 -0.08563068 -0.1559999 0.0023006783 -0.036107656
45 0.061497606 -0.052083906 0.0624037 -0.062503986 -0.15435317 0.16591248 -0.123044446 0.018898973 -0.13934176 0.061907757 0.05394654 0.18657911 -0.053776193 -0.16773124 -0.13014601 -0.01050854 0.024190724 0.0014652613 -0.044377502 -0.072881594 0.043988414 0.022303274 -0.09981139 -0.059040185 0.045637 0.06049688 -0.0038689647 0.00308828 0.014035808 0.00071208895 -0.06322343 0.06540251 -0.08126199 0.13373883 -0.13925691 -0.098932154 0.0038776372 0.0463105 -0.06448659 -0.20472434 0.0004149411 0.13503 -0.12439852 -0.047891334 -0.11613387 -0.15870427 0.1271233 0.0037520714 -0.071039096 -0.052509833 0.046653748 -0.054561034 -0.12358849 -0.08048677 0.061054565 0.091523625 0.014455313 -0.09898046 -0.031795487 0.11318031 0.0051943124 -0.020557959 -0.0010635938 0.084613554 -0.010448574 -0.06022593 -0.095799714 0.13477936 0.098840676 -0.043402188 0.06361017 -0.002237318 0.04337554 -0.007691883 -0.011823379 0.009778676 0.031144852 -0.02687528 0.0048022764 0.09024227 0.10304827 0.083951555 -0.03559701 0.25405407 -0.12068755 -0.022848412 -0.076761775 -0.026636196 -0.11286774 0.09669317 0.055437196 0.09443791 0.07156269 -0.13230723 -0.003933096 -0.018372672 -0.079029314 0.3392936 -0.3177495 -0.14766896 0.03455318 0.079038784 0.20314482 -0.07712658 0.0136303995 0.21183543 -0.050203346 -0.07332397 0.037448965 0.086153574 -0.024277382 -0.06621182 0.07332291 0.06661839 0.025986718 -0.15423445 0.10726886 0.028833795 -0.1301055 -0.22418101 0.112647645 -0.0037190903 -0.06525042 0.012507696 -0.06000932 -0.28257877 -0.093605414 0.11340147
88 -0.10937362 0.17963515 0.06324054 -0.08646092 -0.08564933 0.103736684 0.010900825 0.031668287 0.09426599 -0.13230442 0.07495483 -0.07756575 0.10784559 0.059401803 -0.006462943 -0.047791902 -0.044181358 -0.05175618 -0.04218067 -0.021036679 -0.07236425 -0.024683017 -0.02047536 -0.084385246 -0.015874373 -0.10514518 0.101527564 -0.09943467 0.019751988 0.017983953 -0.118179284 0.015201499 -0.082371294 0.03797993 0.14494592 -0.24776633 0.06368504 0.12216027 -0.12115198 -0.06370423 0.040852476 0.106875144 -0.107707724 -0.012816205 -0.12681814 -0.0058833044 0.09247709 0.06301199 0.15471493 0.055101104 -0.12602167 -0.17241609 -0.10903336 0.016168373 0.08443852 0.025162168 -0.09807701 0.047631223 0.09772576 0.03872233 0.02645005 -0.12180313 0.11013534 0.09213167 -0.015454315 -0.01735591 0.0077707446 0.0060713915 0.23636429 -0.10589459 0.1030184 -0.118546404 -0.09518813 0.031739555 0.070160925 -0.053742535 -0.064323686 0.016230287 0.019999152 -0.12263563 0.06827343 -0.019520316 -0.06212537 0.31422728 -0.11074043 0.042686764 -0.088533364 0.10620069 -0.06668467 -0.06527273 0.0095250895 0.21983536 0.15502526 0.054554876 0.05122644 -0.020073691 -0.08459999 0.21960117 -0.4049861 -0.18463472 0.03478523 0.15209255 0.12720336 0.13974658 -0.04149067 0.120242886 -0.16473593 0.1467 0.092576504 0.067201205 -0.064561054 -0.08569281 -0.04177859 0.038240936 0.102590844 -0.08054589 0.14632009 0.06906377 0.018325144 -0.18629429 0.06315813 0.020773154 -0.022410108 -0.10480862 -0.030956106 -0.09013999 0.033781618 0.06694236
59 -0.007233709 0.12843311 0.11000464 0.042696863 -0.057967 0.08447432 -0.11006677 -0.06621835 -0.02724076 0.045553483 0.16031367 -0.20730461 0.033058975 0.07853221 -0.076210424 -0.050501645 -0.0994375 -0.056594077 0.0045894645 -0.08313923 -0.012353548 -0.0077081397 -0.063482344 -0.06332141 -0.00011996561 -0.11495195 0.092596754 -0.14496653 -0.07022116 0.046073638 -0.08565911 0.068721324 0.020120492 0.030883232 -0.060490824 -0.19179198 0.03381657 -0.048389353 -0.13080248 -0.14092976 -0.23391695 0.1445029 -0.06922971 -0.0005928338 -0.11178074 0.036190104 0.044868805 -0.006244257 0.046809692 0.004742683 -0.029403515 -0.107025586 0.048126895 0.08017094 0.025578411 -0.05308452 -0.048370905 -0.062457528 -0.059827164 -0.063692845 -0.00950463 -0.014213351 -0.057860706 0.07865789 -0.020205647 -0.088660955 -0.032859284 0.10210496 0.21170095 -0.061614808 0.040403973 -0.09128398 -0.08558796 0.037054557 0.02460288 -0.028738247 0.05584041 0.04269807 0.078567915 0.11126221 0.08233138 0.17077628 -0.087074235 0.3241317 -0.10172752 0.0037553583 0.019339178 0.00758571 -0.03482185 0.01528891 0.037171 -0.059019923 0.05511924 -0.072548695 0.058566596 0.028741628 0.0034426132 0.36413532 -0.33052492 -0.08148257 0.07681689 0.15613176 0.097964235 0.044704966 0.05944016 0.22952053 -0.13003619 0.12875414 -0.072020486 -0.14767404 -0.029810913 -0.05181802 0.045227725 -0.0091287615 0.22537228 -0.12216392 0.13677917 0.02660699 -0.06639285 -0.17477348 0.036403872 0.0018993018 -0.15561247 0.004767993 -0.11055602 -0.008528058 -0.033419006 0.0032261563
33 0.081289224 0.09068982 -0.0011162194 0.0068666902 0.026324378 0.056260057 0.060944863 0.029796131 -0.029412432 0.008342811 0.08103028 0.075625256 0.08527769 0.16886674 0.044804152 -0.10733316 0.052651376 0.036648195 -0.12928362 -0.009795993 0.11108191 0.029620035 -0.10019591 0.010034444 -0.028194785 -0.049192697 -0.016699411 -0.08083289 -0.012609684 -0.033904865 0.008530983 0.027374858 -0.014078289 -0.0076750796 -0.13356316 -0.07047879 0.05555585 0.12434971 -0.04932748 -0.03791041 -0.07150177 0.21379998 -0.13537642 -0.05656494 -0.11126873 -0.015474369 -0.024518957 -0.114079535 -0.024551308 -0.09100692 -0.08507233 -0.0759596 0.04476405 -0.01422281 0.037234828 0.039795216 -0.029149916 0.008240076 0.05748886 -0.030900449 -0.069244415 0.124127954 0.046159357 0.06446773 -0.09371921 0.039063115 -0.077252485 0.2044859 0.20167987 0.06711194 -0.077347964 -0.11667198 -0.08067583 0.011723853 -0.11147511 -0.10354306 0.054809034 -0.026997047 -0.084633306 0.0501991 -0.037851054 0.022359809 0.003267248 0.2410754 -0.1054676 0.002663439 -0.037096597 -0.029938564 -0.06289323 0.07372595 -0.037709553 0.16165595 0.15371664 -0.08241479 0.014183927 0.021267233 -0.18623509 0.24131867 -0.31107166 -0.1423622 0.04099945 0.096606135 0.024901476 0.06193193 -0.059012286 0.16553016 0.021910612 0.09674061 0.030994445 -0.05586002 -0.12211291 -0.04407932 0.12926263 0.07783028 0.13336225 -0.015480529 0.18947828 0.11905878 -0.060568806 -0.271736 0.17767048 -0.01880584 -0.17696197 0.017391877 -0.054073624 -0.18793869 -0.030836105 0.04616615
57 -0.0965283 0.08090511 0.061492555 0.11238078 0.00028566935 0.103922024 -0.005885415 0.095279075 0.01505942 0.06833857 -0.042150684 0.06281103 0.10082408 0.034124725 -0.069167405 -0.10162036 -0.07674347 0.029826377 -0.07542939 0.059790026 -0.02945165 0.09566973 -0.07316486 0.0030371498 -0.08672692 0.005931607 -0.019880136 -0.027164657 -0.017307298 0.016467324 0.04867723 -0.0042359806 0.013949638 -0.028138915 -0.033139028 -0.17043178 0.05078889 -0.026328364 -0.038350694 -0.09782879 -0.080919266 0.21861796 -0.15508543 -0.004984709 -0.09596008 -0.008249692 0.17480546 -0.018250205 0.02295022 0.050430056 0.046261698 -0.21426943 0.0402193 0.032834772 -0.056645453 -0.018421756 -0.054596283 -0.19510765 0.04062525 -0.032525156 0.028596595 -0.0058109513 0.15480888 0.013801389 -0.10890169 -0.038137723 0.023782875 0.1441985 0.030086517 -0.03550194 0.17566863 0.079127684 0.1804482 -0.10992568 -0.0018194471 -0.21113738 -0.08678235 -0.021553153 0.025187152 0.0057842066 0.08641086 0.05542143 0.030879801 0.21974115 -0.1023044 -0.033348996 -0.16374841 0.06725851 0.01622662 -0.00901449 0.07835698 0.18629661 0.1496247 -0.046827972 0.046913423 0.13083062 -0.08238806 0.31854874 -0.26822007 -0.09973554 -0.004093977 0.13372613 0.081158355 0.108789526 -0.03825131 0.2428316 -0.20726132 0.13423024 -0.026966007 0.09482786 -0.036685996 -0.17498432 -0.01557972 -0.06501556 0.13289334 -0.12687942 0.122521855 0.14863724 -0.09564417 -0.05617146 -0.06763656 0.025437223 0.0064658117 0.08741369 -0.02944977 -0.14529781 0.0194048 0.05909211
52 0.007699118 0.029412625 -0.102207944 0.041254617 -0.042362254 0.002233149 -0.055326976 0.05093919 0.09650817 0.028035218 0.08853869 -0.12690772 0.07213258 0.10960324 -0.18102024 -0.053375855 -0.0721311 -0.08900712 0.06857323 -0.029678553 -0.16856703 0.0002828307 0.012319562 -0.056378204 -0.042135447 0.031391703 -0.051057074 0.016932469 0.07762563 0.04125682 -0.023318177 -0.0064359806 0.08431242 0.1417162 -0.023526194 -0.28869727 -0.083269455 -0.019246306 0.04269235 -0.14969133 0.07355641 0.118115835 -0.16243638 -0.024159703 -0.019098956 -0.05410373 0.019375209 0.0148157645 -0.07403005 -0.111230984 0.06916921 -0.14421289 0.03695023 -0.068595335 -0.05999655 -0.096174695 0.059528627 -0.044387355 0.009522761 -0.023207705 -0.10345448 0.025234522 0.14206225 0.06464981 0.010119402 -0.06573827 -0.03601468 0.19285686 0.1753715 -0.07464155 -0.009130217 -0.06887331 -0.09423058 0.0892605 -0.025669241 -0.28576148 0.046533417 -0.08325375 -0.012520158 -0.00641593 -0.015281925 0.073754214 -0.15042326 0.16771315 -0.20600832 -0.09374858 -0.026926558 0.052760307 -0.0016766093 0.05322319 0.024560036 -0.01990984 0.14513583 0.03353582 0.073532976 -0.012904269 -0.062138647 0.22630608 -0.1933749 -0.050012656 0.09083565 0.10632548 0.088699006 -0.0077678105 -0.07652664 0.10599796 -0.11347254 0.13710177 0.08302116 0.079526 -0.22534956 -0.028156871 0.07038195 -0.028503014 0.10714869 -0.23534311 0.15854323 0.16342923 -0.08973571 -0.15981585 0.030058743 -0.10499186 -0.16013487 0.0022325467 -0.04097181 -0.24176076 -0.073718734 -0.12059462
74 0.0737094 0.14217706 0.064422734 -0.03281687 -0.080466166 -0.007974622 0.10192314 -0.010598787 0.02640963 -0.06470665 -0.018060712 -0.19503726 0.033534795 0.010929313 -0.09341123 0.10208774 -0.03480806 -0.098086014 0.0016297878 0.018286422 -0.050651055 0.036776412 -0.0053925053 -0.05614987 -0.10573627 0.057148132 -0.02285414 -0.24195969 -0.016352968 0.12989736 -0.09356 -0.16678429 0.019281821 0.15180719 -0.011491083 -0.18733618 -0.08133569 0.16828968 0.055299006 -0.14662948 -0.102120355 0.14741154 0.0664871 -0.06880938 -0.050819352 0.016884962 0.09975375 -0.05248958 -0.077148065 -0.20026673 0.10717247 -0.15601692 0.034546256 0.02288569 0.0031031866 0.025322983 0.029747663 -0.019729644 -0.06407818 -0.016232602 -0.02088231 0.023686241 0.035059623 0.10978489 -0.027077232 -0.12999119 0.047116905 0.2002995 0.089410596 -0.163982 0.0029008472 0.024043329 0.069580704 0.0131052695 -0.008762048 -0.08169412 -0.08567822 -0.08668526 0.06394416 -0.11542824 0.00063853717 0.02020757 0.07254347 0.14275427 0.019943766 -0.19774678 -0.07644187 0.0724142 -0.058239575 0.0013870351 0.04887419 0.15035056 0.2070492 0.012403845 -0.074695095 -0.009617417 -0.23279352 0.27272916 -0.3596486 -0.15564094 0.08839894 0.13633783 0.106484905 0.079655595 -0.06639297 0.28468215 0.07058287 0.10492049 0.016609816 -0.068952255 0.0490174 -0.13576756 0.021915222 0.16510779 0.06818028 0.053587936 -0.0065822667 0.13051495 -0.0242862 -0.21952789 0.05046418 -0.020520318 -0.087153666 -0.02199994 -0.13806291 -0.12850212 0.029270006 -0.052723777
79 0.1184183 0.04007959 0.013420891 0.052982144 -0.08854251 0.03377551 -0.009996933 0.026037684 0.08756986 0.028135318 -0.095857285 0.027615353 -0.1001631 -0.07253745 0.0018984843 -0.030456677 -0.0026289101 -0.0028872455 0.12230512 -0.11760474 0.045498814 -0.09665898 -0.06819362 -0.0072705997 -0.09800422 0.020195138 0.01771876 -0.0046340246 -0.042506028 0.030014416 0.0031808666 -0.10258008 0.05349196 0.02862996 -0.028615506 -0.20422935 -0.20243004 -0.086537026 -0.011843053 -0.16046765 -0.0830554 0.082962826 0.023419445 -0.04277727 -0.04883759 -0.005018997 0.026997555 0.020661727 -0.014747324 -0.07248349 0.027628422 -0.046873022 0.018303094 0.09724317 0.059190273 0.048657905 0.12032772 -0.045112547 0.063666634 0.0037775247 0.016019061 0.26468414 0.07994089 -0.067568414 -0.057681564 -0.15984878 0.029509727 0.18802473 0.20814458 -0.055670492 0.025903432 -0.11820572 -0.15750861 0.013501989 -0.096191175 -0.11005723 0.041434087 -0.054086823 -0.030901495 0.08628849 0.047570955 -0.016306125 -0.05647976 0.20755304 -0.0775154 -0.055338815 -0.12595822 0.05198919 -0.023608258 0.013472333 -0.0009371017 0.18567733 0.117894515 -0.106582865 -0.0002344179 -0.037641007 -0.1790899 0.457551 -0.3165018 -0.10563945 0.06482613 0.1008446 0.14742328 -0.0772895 -0.029918434 0.13896121 -0.08309941 0.0076731797 0.16751929 0.032828733 -0.010351341 -0.012012191 0.09062797 -0.07961007 0.15569188 -0.08335138 0.07135095 0.08946568 -0.00086300226 -0.0793199 0.008336742 0.061794885 -0.07306241 -0.12941493 -0.06840134 -0.10471865 -0.06675897 0.07886755
36 0.02009227 0.07171963 0.061359152 -0.013334496 0.11500966 0.034070615 -0.041468844 0.050668262 -0.0237997 0.030086866 -0.010561422 -0.07056222 -0.06007759 0.02925187 -0.042302918 -0.017820291 -0.054851074 0.12520221 -0.066956975 -0.046654645 -0.039278284 0.079994224 0.09181335 -0.11819143 0.063269205 -0.08425523 0.023564776 -0.01729693 -0.017097473 0.15740396 0.01646907 -0.0448058 -0.029897526 0.25036842 -0.07622993 -0.16058742 -0.11667681 0.0040707756 0.05170987 -0.19794285 -0.1261875 0.052950203 -0.059469856 -0.053524885 -0.061729368 0.014380397 0.071153075 0.13682923 -0.066642955 -0.114411704 -0.04952722 -0.27676612 0.049888887 -0.17584853 -0.2111392 -0.018272936 -0.003988951 -0.055377565 -0.03904435 -0.03518548 0.040171165 0.11507694 -0.0033573976 0.053927686 -0.09165432 -0.12678109 -0.097626604 0.1372954 0.14180885 0.061458 -0.09567801 -0.030939909 -0.017372373 -0.017410712 0.083764456 -0.20652184 -0.036753345 0.03232784 0.04992427 -0.09548725 0.08533878 0.041646596 -0.022264512 0.27191272 0.12412066 -0.10026041 -0.008480124 0.07030288 0.018905992 -0.10479509 0.06015035 0.101269364 0.17319722 -0.016768817 0.13946214 0.034045152 -0.15022993 0.31203726 -0.37251255 0.009086109 0.009480381 0.103304915 0.11369571 0.12953763 0.11719524 0.15039629 -0.014538289 -0.070377395 0.046415597 -0.0093333805 0.0045107584 -0.06687599 0.17807126 -0.029904595 0.00012042393 -0.0642744 0.18188715 0.07023482 0.03865601 -0.21551268 0.2506149 -0.054314442 -0.04534087 0.025062153 0.021790193 -0.14686404 0.13114096 0.15082343
73 0.0027568985 -0.022950321 -0.020077677 -0.010240849 -0.016882163 0.15306436 -0.1274031 -0.044972576 -0.06756141 0.06526872 0.1539014 -0.012791899 0.10319962 -0.01732446 -0.08063739 0.056295317 -0.037008066 0.0035461867 0.025756901 -0.14294522 -0.1848818 -0.06565961 -0.10063728 -0.16298923 -0.14596258 -0.10976643 -0.005996324 -0.010189498 -0.007795494 -0.033768594 0.018678976 0.038208846 0.026722556 -0.013422476 -0.05634139 -0.20854202 -0.0030433983 0.086044416 0.022427965 -0.13322231 -0.017862925 -0.012561836 -0.035508845 -0.03205465 0.04850237 0.019932931 0.052245405 -0.002368166 0.0112360045 -0.059883814 0.061588217 -0.24052225 -0.11675245 0.09848825 -0.01855563 0.076247916 0.005624288 -0.06125219 0.09563643 -0.0026341607 0.0010078199 0.15828891 0.072909795 0.11119668 0.016906908 -0.13324654 0.03975469 0.20948729 0.17925717 -0.11530947 0.077240005 -0.06365942 -0.008310295 0.1962418 0.0058989762 -0.11143078 -0.054592818 0.06610182 0.030384555 0.06751025 -0.02823639 0.15093666 -0.005810388 0.27659178 -0.050000414 -0.011296736 -0.13979545 0.061215002 -0.053512335 -0.062113997 0.06984884 0.14445803 0.28439352 -0.06371243 0.032152593 0.14373092 -0.15645248 0.17297673 -0.27683786 -0.15066028 -0.03301235 0.025081031 0.009777784 0.07135782 0.034835927 0.1974779 -0.10907813 0.18043458 -0.026892576 -0.016447278 -0.09359865 -0.13712794 -0.04235476 0.06600951 0.039872393 -0.018235803 0.050563563 0.21891393 -0.03598545 -0.040792566 0.15334849 -0.109739594 -0.12126216 0.039157912 -0.05810747 -0.16922237 -0.00272204 -0.030033354
71 0.03673695 0.039161112 0.06539647 -0.014266554 -0.02844048 0.03604981 -0.08897109 0.0039790957 0.01843285 0.09237195 -0.036389537 -0.13192038 0.06000887 -0.02704523 0.004277714 -0.0869283 0.028856529 0.030819995 -0.16651821 0.10529439 -0.028368097 -0.00989347 -0.18730056 -0.12212235 -0.09247862 -0.014990737 0.17038766 -0.09449846 -0.03438858 -0.0075837607 0.021923138 -0.122999914 0.036771115 -0.036557015 -0.06257274 -0.21357797 -0.10705448 0.15260074 -0.025400417 -0.2425676 -0.06522646 0.14629869 -0.05494745 0.059391268 0.07211412 -0.045930978 0.0820535 0.014370744 -0.025581872 -0.086871095 -0.102377556 -0.089288436 0.12175597 0.025931044 0.030532042 0.15948175 -0.0827668 -0.037749503 0.06824005 -0.0036921375 0.016069094 0.023036966 0.008751731 0.098970965 -0.12611869 -0.0998262 -0.17194758 0.14838192 0.06545177 -0.11208323 0.16203485 -0.02533811 -0.03266289 0.088152625 0.017594106 -0.15737881 -0.0068638027 -0.09642969 0.018914336 0.04787952 0.022536818 0.11184931 -0.068708524 0.12952504 -0.13076891 -0.15291485 -0.13039938 0.121451356 0.0679987 0.013720968 0.08888427 0.085733406 0.15107279 -0.06558243 0.14264381 0.062449634 -0.13443124 0.27232677 -0.21506222 -0.09155947 -0.024163267 -0.073525794 0.08701523 0.040874973 0.017301576 0.18598025 0.005048545 0.17815657 -0.00322981 -0.050531093 -0.018954027 -0.12365315 0.11977569 -0.1234816 0.1487868 0.026911218 0.11473633 0.099190824 0.02965855 -0.17232908 0.07744864 -0.06475687 -0.14178649 0.07918088 -0.01089625 -0.2872038 -0.0258471 -0.052414093
105 0.040885776 0.17442949 -0.0034561143 0.05931516 0.016313616 0.14518027 -0.024529302 0.07084364 -0.011730934 0.032421857 0.06529055 0.14453238 0.110470586 0.11948623 -0.1689751 -0.120262764 0.10452149 -0.040821884 0.076887906 -0.03421009 -0.041722797 -0.08956141 -0.10168781 -0.10161822 -0.012847209 3.710861e-05 0.07269387 -0.106464066 0.010216351 0.11029608 0.061665557 0.019523175 -0.13454497 0.08457182 -0.054909866 -0.20384029 -0.09510268 0.1295636 -0.07758368 -0.17710333 -0.21297507 0.14852555 -0.0778884 -0.006985426 -0.09874012 -0.034051117 0.028592093 0.066745296 0.033222746 -0.036942124 -0.013464134 -0.039839666 -0.024680478 -0.054737855 0.025981868 0.07992094 0.009812832 -0.13639283 0.06667857 0.08300459 -0.012149475 0.0049157417 0.10252021 0.1002382 -0.052227836 -0.043666694 0.045851376 0.049583044 0.16723011 -0.19942275 0.0029673525 -0.074382365 -0.0904517 -0.1208045 0.030130161 -0.034861438 -0.055549126 -0.066716306 0.12375329 0.09306594 0.05054002 -0.1122679 -0.11327952 0.1852629 0.052118078 0.0009248658 0.041182254 -0.008517627 -0.009995151 -0.07694481 -0.0062140254 0.31094763 0.15083869 -0.10041959 -0.035863034 0.000120657714 0.04422845 0.31204486 -0.31466874 -0.14046177 0.016226823 0.051158823 0.017056983 0.0069889827 -0.10302325 0.10517813 -0.06860325 0.11142976 0.03781643 -0.10154786 0.018970584 -0.038818832 -0.09367473 0.07839253 0.09818375 0.056548774 -0.03847894 0.13265392 0.04336494 -0.23947816 0.13173339 -0.0029488527 -0.15512033 -0.018476333 -0.13187987 -0.2740985 0.0062214034 0.049453948
81 0.038691137 0.14160909 0.17735742 0.038453437 0.006566349 0.13815747 -0.13828564 0.037303653 0.011689178 0.07521167 -0.06023155 -0.04914073 0.09433141 0.11795676 -0.05973982 0.0079721 -0.07478864 -0.048426744 -0.086599566 -0.017378546 0.032704838 -0.17108619 -0.08494454 -0.2136465 0.014290378 -0.08695566 0.11753711 -0.12623581 0.09232314 0.0829399 0.045088224 0.09429311 0.12626007 0.05763099 0.0032161525 -0.30213225 -0.136004 0.12950234 0.057075165 -0.08945047 0.051647536 0.08633941 -0.10384161 0.055344693 -0.031169169 0.06140384 0.04290093 -0.0077493885 0.073741466 0.07158371 -0.023922563 0.008184137 0.11781643 0.027929872 -0.1191235 0.060530268 -0.024268618 -0.15849644 -0.03318023 0.043214288 0.062686875 0.0008985084 0.13324794 0.048066802 0.1020172 -0.029647013 0.08671317 0.11034301 0.019051103 -0.006925794 -0.07100427 -0.17756687 0.06520999 -0.052989643 0.0032451039 -0.3184295 -0.040362798 -0.057457827 0.010003121 -0.010277158 0.02930958 0.029775355 -0.057332978 0.21930012 -0.18336603 -0.10011295 -0.14644937 0.022552378 0.007985352 -0.031121124 0.09918478 0.044776246 0.19234379 -0.12537515 0.09122429 -0.020012043 -0.07497954 0.23823275 -0.2897954 -0.16019066 0.06586568 0.05989168 0.112366885 0.1704948 -0.08060847 0.29796734 -0.13266176 0.12432921 -0.062098533 -0.10434262 0.033110317 -0.12407492 0.007357449 -0.004015953 0.1497773 -0.10751427 -0.012061948 0.08059545 0.042577032 -0.24140452 0.06279008 -0.05805879 -0.07766514 -0.024141194 -0.06994745 -0.10064574 0.059610523 -0.06925984
41 0.10483114 0.032882884 0.06857382 0.087610945 -0.050918385 0.028422473 0.11450482 0.053153645 0.017849654 -0.034327846 -0.15054262 0.09504255 0.21205318 -0.033498526 -0.0065334626 0.10487904 -0.041538756 -0.0026580892 -0.102597475 0.025232373 -0.08848855 0.0406544 -0.052330196 -0.09640853 -0.015935466 -0.041243274 -0.00055009674 -0.025166363 0.14019533 0.03803145 0.06647326 0.029754952 0.13580193 0.06287655 -0.030134523 -0.14422089 -0.058934826 0.08279788 -0.06145451 -0.23647343 -0.08988486 0.2329023 -0.03079232 -0.00947216 0.05632649 0.018209577 0.056201328 0.043925494 0.016670138 0.0374618 0.10517576 -0.08344252 0.031148303 -0.0066966508 -0.07794885 0.07438224 0.14493538 -0.116920464 -0.10719499 0.0415823 0.037089154 -0.057831347 0.04169724 0.09611984 0.041863304 -0.16988888 0.0028615084 0.19338132 0.15449965 -0.09554851 -0.024392322 -0.11585625 -0.00760288 0.056726936 -0.04117847 0.058884427 -0.0070477845 -0.021852367 0.0029514984 0.031647656 -0.018377716 0.092556074 -0.0059815045 0.24835184 0.06397407 -0.05358827 -0.108396314 0.10320966 -0.03240118 0.021598307 0.039297145 0.17255719 0.21892375 -0.15724713 0.06740131 -0.11404365 -0.17946683 0.31130973 -0.23354281 -0.012530021 0.06732725 0.0297769 0.13243982 0.028667286 -0.20001078 0.135036 -0.18808892 0.12590353 -0.007023981 0.08773387 -0.123026095 -0.017186703 0.09421874 0.07812095 0.11873784 -0.12891832 0.1767977 0.06262111 0.0025587787 -0.16459264 -0.14113209 -0.06521684 -0.2023614 -0.15095979 -0.052305166 -0.22713 -0.052450787 -0.041236173
48 -0.031064581 0.045012634 0.114601925 0.00809764 -0.12207036 0.02922663 0.040484432 -0.13576919 0.10082715 0.015812924 -0.04250613 0.015271917 0.01613291 -0.030709788 -0.17442942 -0.119636156 0.014138709 0.032342132 -0.04801019 -0.14440197 -0.037915576 0.1112882 -0.11800389 0.0014267833 0.01813541 -0.063220605 0.099237114 0.0060696565 0.09073722 0.008504847 -0.032834835 0.018547326 0.10133012 -0.054525707 -0.13070288 -0.17504404 -0.096078 0.15044603 -0.13908638 -0.13824804 -0.08435612 0.3159344 -0.27301845 -0.027249351 -0.047693 -0.025358679 0.07720674 0.16079718 -0.049731027 -0.022152817 -0.030775107 -0.12161737 0.036367882 0.019369392 -0.06995721 -0.022937436 0.067378424 -0.09568681 0.05492186 0.0025131567 0.018016184 0.06366003 0.016305223 -0.05695223 -0.06502039 -0.14677884 -0.08082603 0.16316248 0.010043073 -0.039514028 -0.090972394 -0.1291392 0.059239045 0.005821645 0.09525053 -0.08244999 -0.054139987 0.0037904338 -0.0055583282 0.052310493 -0.02369175 -0.023876013 -0.076188624 0.12056273 -0.122154996 -0.16608201 -0.08401942 0.09796034 -0.06419916 0.009141961 0.11698972 0.018752981 0.15654136 -0.13540533 -0.013597472 0.15595484 -0.087814905 0.18666072 -0.34121877 -0.056551885 0.030551085 0.29368007 0.14426468 0.064110756 -0.09048339 0.1798597 -0.08678926 0.05983267 0.013124905 -0.0014890903 -0.05099549 -0.05682742 0.013084989 0.057228405 0.23123945 -0.0018496821 0.16087893 0.03667968 -0.07880089 -0.081494346 0.09774729 -0.07664719 -0.08701329 0.07861197 -0.12565854 -0.0623925 0.024680555 -0.0541932
103 -0.14027588 0.10714511 0.082804695 0.08659191 -0.16763958 0.095510595 0.053184375 -0.012000029 0.10785003 0.10168326 -0.13419703 -0.057332896 -0.05006917 0.090757 -0.07261799 -0.015498622 -0.064149946 0.04397734 -0.06825716 -0.12840939 0.07265885 -0.05826821 0.015033141 -0.095131405 -0.043562848 0.0659874 0.07499853 -0.074340016 -0.0454921 0.03812498 -0.03988697 0.11793984 -0.08860585 0.06840554 -0.040085837 -0.28182977 -0.038721804 0.053221818 0.045830432 -0.078304805 -0.14930187 0.14172457 -0.017471444 -0.08807697 -0.080875866 0.013493402 0.16718657 0.061427772 0.022061514 -0.067348145 -0.11903098 -0.08458018 -0.09150705 0.16855799 0.056341846 0.080803365 -0.06709918 -0.04871362 0.118694715 -0.027907483 0.1044143 0.15834372 0.0442641 0.13881639 -0.08241678 0.003267018 0.09065544 0.041603502 0.077322476 -0.1166784 -0.022558644 -0.0999612 -0.04870678 -0.046277568 -0.16772664 -0.010474759 0.10968904 -0.055331346 -0.0070368215 -0.08964587 0.090264805 0.056999102 0.039310165 0.21594301 -0.016361037 -0.061678473 0.019837148 0.09365548 0.030236265 0.017336527 0.048652507 0.22204806 0.24051848 -0.11621655 0.01984463 -0.06929195 -0.06711975 0.23952608 -0.115167014 -0.1886817 -0.01578609 0.120174736 0.0801096 0.2614754 -0.019401189 0.20963211 -0.112234086 0.08208254 0.02561208 -0.013281951 -0.15393214 -0.013517265 0.059947874 0.11647653 0.051886383 -0.08126779 0.15788263 0.1597742 -0.064476825 -0.2525448 -0.039364044 -0.06982031 -0.2248797 -0.06406807 -0.08439662 -0.29761946 0.037930235 0.025993567
114 0.06945445 0.10804251 0.043929283 0.087367244 -0.18623406 0.13978836 0.03086372 -0.006567492 -0.027907945 0.0103654405 0.09931212 -0.006834815 0.026597932 0.02733364 -0.24203414 0.0743859 0.017703574 0.06466523 0.021472069 -0.12673976 0.095921844 0.061323125 -0.023781016 0.03965657 -0.09646502 0.08108813 0.16414432 -0.0028754086 0.03522552 0.14833465 0.032946724 0.044452827 -0.08577097 0.044075973 -0.009087267 -0.21651947 -0.05653479 0.0357229 -0.079841815 -0.089833625 -0.15096065 0.25281337 -0.08831943 0.016345888 -0.09411847 0.034707963 0.07304056 -0.04349224 -0.041258782 -0.13697004 0.03572523 -0.2235063 0.047171824 0.08063484 -0.048144355 0.03503807 0.061178353 -0.16433224 0.06961978 -0.02803292 0.06929976 0.21097109 0.023780394 0.07099496 0.07826496 -0.037491195 -0.046265796 0.15486133 0.17803366 0.020470593 0.15331481 -0.04714226 -0.100343816 -0.078003235 0.0686456 -0.08694792 0.13550186 -0.095931806 -0.013540225 -0.07563481 0.16617158 -0.0018190072 -0.13970998 0.23554726 -0.08619154 -0.19781527 0.026307458 -0.04242785 0.03282566 -0.013411941 0.0370104 0.1286332 0.0936313 -0.0011067096 0.01855692 -0.05075747 -0.0145892035 0.22463262 -0.2220682 -0.17464228 0.1460575 0.111052625 -0.02306403 0.14560367 -0.050547242 0.16160144 -0.07479059 0.19550179 -0.07868618 0.000914152 -0.11776495 -0.08085459 -0.02977312 0.038635492 0.056058347 -0.11043051 -0.028662194 0.15186062 -0.014646256 -0.040674992 0.08176769 0.19791874 -0.2649207 -0.16356762 -0.06492995 -0.20253094 -0.012659899 -0.011536984
37 0.043922402 0.011349383 -0.13540804 0.05632693 0.0007581935 0.1943056 -0.15839593 -0.056493424 -0.060201533 -0.04187824 -0.018402528 0.025542865 -0.04736997 0.00050334434 -0.02312313 -0.029111343 -0.08856011 -0.066910125 -0.045719747 -0.06663984 -0.062106304 0.032833084 -0.02875823 0.037930824 -0.2592769 -0.012294696 -0.0006835383 -0.035716 0.07588448 -0.07164888 -0.15621558 -0.01207656 0.00074949313 0.03328387 -0.06579208 -0.2070954 -0.10794416 -0.12368394 -0.0664393 -0.13693419 -0.026193155 0.14804271 -0.07085096 0.014726132 -0.15445401 0.015771102 -0.05743211 -0.057656247 0.0012682424 0.0057524308 0.09402318 -0.17375936 0.017560085 0.045873147 -0.007096182 -0.01995983 0.0796964 -0.20745409 -0.02249801 0.048550744 0.053958725 0.1015169 0.02395137 -0.006942333 -0.102882005 -0.12780198 -0.016257674 0.18831556 0.07891589 -0.06235753 0.0023816866 0.015398387 0.09589827 0.041147236 -0.037223496 -0.17585333 -0.097992174 -3.2831074e-05 0.0057734754 -0.014425553 0.07225392 0.02188968 -0.13183075 0.16774072 -0.00579508 -0.031570155 -0.07250684 0.06976012 0.09312774 -0.06469572 0.14628993 0.1844151 0.31206897 -0.14513828 0.06903948 0.014858561 -0.06643374 0.3111373 -0.4044282 -0.0802101 0.0018725903 0.055190813 0.062904924 -0.024900943 -0.10997066 0.019163068 0.028885799 0.10244373 -0.10024789 -0.0007278384 -0.011557546 -0.0052935877 0.058715828 0.1268581 0.10261269 -0.105041 -0.14359173 0.12200934 -0.060967024 -0.106333666 0.10031161 0.02978727 -0.040648088 -0.039110746 -0.073018044 -0.17292303 -0.011784658 -0.018651245
