163 128
5 0.00041500427 0.022326404 -0.03490129 0.017383872 0.06125744 -0.050840665 -0.011436713 -0.07461959 0.023027042 -0.030164432 -0.059550695 0.05009249 0.09906021 -0.0231278 0.03908341 0.010368541 -0.050134365 0.023741165 0.03531929 -0.009258803 0.01469384 0.002000089 -0.012473839 0.013385768 0.03624374 -0.008621521 0.0074262833 0.023536127 -0.042410698 -0.03135998 0.01666123 -0.014223779 -0.062091295 0.054586947 0.00914298 0.06144671 -0.043186925 0.0058532725 0.11632958 0.117038876 -0.08790381 0.06783438 0.108330466 -0.0073327227 -0.048217747 0.039788734 -0.041603565 0.085038126 -0.08801381 0.08751763 0.0043934654 0.0691698 -0.06903791 0.026312567 0.05459988 -0.03534874 -0.020293698 0.024197584 -0.016275972 0.07298861 -0.0030900722 0.063313946 -0.052767843 -0.07083107 0.18674314 -0.20921315 0.013607827 -0.11217271 0.19828182 0.022511102 0.061644685 -0.03688877 -0.03773004 0.025432192 0.067629226 0.21950804 0.038082965 0.08699113 0.105735764 -0.14402613 0.03467777 -0.10293814 0.099734604 0.13321199 0.06928714 0.10024775 0.02494284 -0.073264845 0.026916023 0.105975285 -0.09907595 -0.22556639 0.010002221 -0.14114219 -0.07227259 0.01655939 -0.38033068 0.14726356 -0.056739062 0.26815334 -0.06999286 -0.0702447 -0.0645548 0.010979758 -0.0071391845 0.0021067488 0.08334205 -0.0035336548 -0.042363137 0.018151514 -0.12961148 0.055763125 -0.10127947 -0.010239289 0.08554213 -0.02249249 -0.4277403 0.064164735 0.07722081 0.004505471 -0.21113238 -0.31451946 -0.041204073 -0.049644943 -0.026514372 0.08364966 -0.073571734 -0.032000143
2 -0.0447011 0.0077904277 0.03620343 0.015502869 -0.027006889 -0.02985668 -0.04734458 0.0062409076 -0.00892326 -0.043147665 0.03486509 0.024657264 -0.03571793 -0.08562845 -0.007205729 0.0067936117 -0.025737563 0.068137616 -0.021620799 0.042860735 -0.022176215 -0.036072813 0.0011914221 -0.011014658 0.0755365 0.025710626 -0.04819315 0.0052884053 -0.018381022 -0.04201316 -0.03581286 0.0075956136 -0.13241704 0.012396699 -0.033541895 0.012378092 -0.036819376 0.08626325 0.06712235 0.052307125 -0.005644908 -0.049858782 -0.02321515 -0.024987217 -0.06946575 -0.049195405 0.01008205 0.1306073 0.017032066 0.12257368 0.084022224 0.15083075 0.108440295 0.023207389 0.026528426 0.07419302 -0.03995394 -0.030467946 0.040719118 0.011316701 -0.001532847 0.10451014 -0.04238551 -0.1267138 0.11270989 -0.102753155 0.027564956 -0.0067600664 0.2694652 0.03648995 0.06058642 0.0033148713 0.030648658 0.015039256 0.05702498 0.25823906 0.0073780487 0.13705434 0.0604176 -0.18901388 0.010688337 -0.10841322 0.12748152 -0.042648986 0.022076117 0.119335376 0.144543 -0.08917519 0.04653376 0.051862366 -0.038972147 -0.27972075 -0.0035794773 -0.06952955 -0.08054037 0.0037567846 -0.39197344 0.1534291 0.033477224 0.29067734 -0.025620311 -0.08519015 -0.014165935 -0.041894 0.03334167 0.033103548 0.02945663 -0.051604245 -0.048354592 -0.020036671 -0.10953062 0.03795633 -0.1533016 -0.040423438 0.12729934 0.054117404 -0.4311493 0.14223933 0.052193016 0.0013443908 -0.26461545 -0.3154158 -0.026651148 -0.13050771 -0.031642664 0.075821176 -0.17920008 -0.07997424
3 -0.013545322 0.035681907 0.063569754 -0.0044394108 0.02467979 -0.01940181 -0.025130063 0.04388133 0.045561325 -0.0046482743 0.059242595 -0.013689175 -0.03967713 -0.08589364 -0.060791574 0.013002721 0.039105434 0.081080236 -0.04353676 0.0022607103 -0.049323026 0.008769626 0.0528932 0.07701346 0.024786973 0.044259723 -0.030381154 -0.06868388 0.05118651 0.06493615 0.0492405 0.029820431 -0.078182496 -0.07306113 0.0085806735 0.016923392 -0.035868462 0.13336785 0.017504262 0.0104837315 0.056292765 -0.010862639 0.13420907 0.0055706208 -0.02111891 -0.03667771 0.045642287 0.11463279 -0.0017326047 0.06167112 0.019567486 0.09976652 0.023576653 -0.09631449 0.031985104 -0.07105482 0.03880822 -0.043775585 -0.02850071 0.13182954 0.0040498194 0.21966513 -0.08781126 -0.012507019 0.17440176 -0.21197265 -0.051110215 -0.10943996 0.21049559 0.069006875 0.06706489 -0.0109453695 0.061573144 0.03714399 0.116722584 0.19428791 0.1323809 0.09035278 0.15601788 -0.08465763 0.014405552 -0.09613325 0.0929403 0.081294835 0.056310404 0.16840424 0.0053613107 -0.055425327 -0.04126419 0.14028743 -0.08081662 -0.22939306 -0.0144054415 -0.17081186 -0.11369162 0.047450177 -0.29103887 0.1903487 -0.00031053383 0.22693588 0.048467513 -0.06499497 -0.056142725 0.038177565 0.013141617 -0.007824863 0.057517204 -0.09438756 -0.08045988 -0.09654123 -0.125051 -0.0041004815 -0.115098596 0.06966442 0.15713175 0.01437586 -0.42023647 0.06679929 0.07896701 0.036524594 -0.17071885 -0.36730245 -0.031530105 -0.06256039 -0.015961794 0.18389247 -0.12060041 -0.1599405
1 -0.055571612 -0.0043302276 -0.07743677 -0.049895223 -0.0115161 -0.08972097 0.0025921483 0.007128985 0.021915527 0.041693345 0.025952315 0.060567867 -0.1387354 0.044207286 0.054517835 0.009861672 -0.046334226 0.0062155463 -0.10088852 0.037397843 0.25586003 0.1303875 0.08516115 -0.1518464 0.029675473 0.10063987 0.019092156 0.21478143 -0.09516645 0.088597745 0.07097862 -0.042605024 -0.13463792 -0.10518983 -0.18537056 0.17163558 -0.042543504 0.056128535 -0.007481728 0.048306234 -0.11563674 0.0008684115 0.14366159 -0.11550739 0.07061913 0.052904528 0.0028097956 0.102111585 -0.11279612 0.0730089 -0.026716735 0.07553572 0.025940396 -0.046950795 0.04176726 -0.0325406 -0.10319534 0.053799912 -0.15860243 -0.002188672 -0.09354896 0.013779807 0.10771182 -0.0032023366 0.15458117 -0.19046424 0.06720491 -0.0630579 0.27548152 -0.043261997 0.0055103707 -0.11372956 -0.014472676 0.20152304 0.09927453 0.23307326 -0.05160235 0.0739877 -0.007730203 -0.1315624 -0.0063447463 -0.24882716 0.042870697 0.06823181 0.131339 0.038457412 0.012282086 -0.0029843661 0.042722672 0.055647228 -0.12914841 -0.25076288 0.05114029 0.07603728 -0.2070095 0.055853818 -0.33044294 0.037952054 0.15874794 0.235071 -0.08845604 -0.0001448347 -0.112402424 0.06801426 0.115494624 0.05459908 -0.044589866 -0.03986139 0.06709286 -0.06854787 -0.05487786 0.00026700628 -0.23054053 -0.005191202 0.2797598 -0.07216287 -0.5817246 0.10915021 0.22667089 0.04468997 -0.26060554 -0.16210367 -0.007636227 -0.18541361 0.04445543 0.15757315 -0.20114335 -0.08425958
11 0.0067253597 -0.016043464 0.010321088 0.0020007163 -0.014558116 -0.035953466 -0.0014818884 -0.011224509 0.05190241 0.039880957 -0.040637955 0.07462559 0.07494619 0.02609359 -0.025042364 0.023943802 -0.052668743 0.027035441 0.08295539 -0.0737633 0.0009649989 0.0037377777 0.01189779 0.010442708 -0.027052235 -0.020903178 0.10760015 0.048374668 0.0051939134 -0.07234567 -0.013870917 0.06343812 -0.015607913 0.025514804 0.0063851345 0.018329024 -0.03193211 0.07678369 0.10822402 0.061796155 -0.08075838 0.043857235 -0.0019400844 0.045545213 -0.12872459 0.100668885 -0.031002285 0.10803431 -0.07142656 0.070953555 -0.0200879 0.116223834 0.051589552 0.028710147 0.04015294 -0.029487072 -0.1017613 0.05692044 0.014888034 0.1272524 -0.033183414 0.04727426 -0.023885507 -0.07757599 0.23655696 -0.22204614 -0.025462607 -0.121033885 0.18334796 0.032205794 0.016931878 -0.052317437 -0.03603302 0.007607657 0.04285356 0.21908139 0.09513405 0.1212642 0.14783739 -0.11740086 0.0782676 -0.012685387 0.093595475 0.13932799 0.1191292 0.16054913 -0.025585987 -0.15317222 0.044070765 0.05356508 -0.13463838 -0.14349604 0.047893174 -0.040136103 -0.1961558 0.06490951 -0.34126648 0.19885142 -0.11749695 0.2760274 -0.039501917 -0.022036903 -0.07558 -0.027303832 0.021936791 -0.01644816 0.026658941 -0.06520012 -0.04324204 0.014693249 -0.11076731 -0.011815526 -0.100652106 -0.041536294 0.15170367 -0.049768485 -0.38833424 0.14417034 0.13364771 0.080945134 -0.19486795 -0.23271303 -0.044333164 -0.06645459 -0.055534564 0.10746686 -0.09087848 -0.033796873
14 -0.015872058 0.035225604 0.044727415 -0.06438367 0.102868885 0.04908045 -0.035097063 0.010227365 0.043092854 -0.05545453 -0.04869977 0.037560795 0.0873662 0.051451385 0.048365146 0.038076956 -0.030174337 -0.026283445 -0.050323006 0.07075629 0.082773946 -0.10085248 0.02348666 -0.0069283177 -0.032779764 -0.026709957 0.0041917674 0.026434293 -0.019412864 -0.0033941509 -0.00027127995 0.022341097 -0.0073904223 -0.019876102 0.032015584 -0.0428469 -0.11116489 0.02866211 0.01875787 0.079939775 -0.0621912 0.04371006 0.035212923 -0.069927074 -0.09578713 -0.021607045 -0.017721076 0.10636629 0.009803816 0.079085626 -0.038890358 0.08731094 0.0056749424 0.070367016 0.051384594 0.034193985 0.00631236 -0.009969032 -0.030281205 0.13642167 -0.067748375 0.12078124 -0.08362198 -0.08411712 0.11777662 -0.19295584 -0.011531368 -0.13014008 0.116526894 0.059979238 0.038234163 -0.0418805 -0.026682073 0.0765099 0.070262775 0.16035199 0.015674835 0.14200155 0.14014645 -0.07892119 0.014553889 -0.16181077 0.0320898 0.08414378 0.11153193 0.10913501 -0.008551325 -0.10447835 0.07542848 0.08081131 -0.12872945 -0.18595989 0.029735181 -0.16391383 -0.17302953 -0.033658493 -0.31648216 0.29468092 -0.08377087 0.26646435 -0.08115622 -0.06475238 -0.118696265 0.035464525 0.03623188 -0.01917141 0.06791369 -0.08918209 -0.025700644 0.008142837 -0.12635641 -0.0014683125 -0.062318243 -0.0532748 0.22978747 -0.07447571 -0.4037576 0.080018155 0.01415268 0.112539746 -0.24255097 -0.28594115 -0.028635906 -0.042342108 -0.050461162 0.105111755 -0.07313324 -0.10182755
26 0.0012010281 0.019045627 0.081704296 0.022706961 -0.05497893 -0.014866738 0.0076797707 0.010360053 0.06720347 0.0065896725 -0.019503659 0.03713056 0.054939993 0.025483988 0.08841378 0.0059539466 -0.00039638937 0.01400797 0.016786002 -0.06465194 0.03867662 0.038455576 -0.036737923 0.08328374 0.13607839 -0.008249642 -0.050840434 -0.04536827 0.036184225 -0.03493332 0.02149955 0.028739564 -0.04809016 0.059372645 -9.822697e-05 0.03565244 -0.057637364 0.031464953 0.15356977 0.073160015 -0.1017331 -0.022536041 0.06878527 0.018602645 -0.012283004 -0.0076567796 0.065991774 0.10301662 -0.007745471 0.14290392 -0.034123156 0.027372705 -0.028130969 -0.0054998104 0.09978324 -0.05041172 -0.004065671 0.06845113 0.101130664 0.07653725 -0.00965909 0.10215457 -0.08648961 -0.17230289 0.26250634 -0.14455947 0.0784277 -0.13668618 0.20786001 0.048194844 0.03860105 -0.042946655 0.06751494 -0.011893326 0.09652544 0.24594624 0.15160571 0.061881386 0.12501726 -0.19885653 0.0043753483 -0.10145677 0.056252148 0.029246263 0.09200509 0.074932404 -0.047585066 -0.042276178 0.057277553 0.07474797 -0.05907384 -0.24026282 -0.049617786 -0.099977784 -0.21286404 -0.012825547 -0.2933691 0.14509116 -0.072023734 0.23861045 -0.10836334 -0.095783696 -0.08723089 0.021478273 0.011505343 0.0068088938 0.018614262 -0.0871994 -0.08028807 0.06186135 -0.15831895 -0.018928003 -0.07174456 -0.03464755 0.16252331 -0.016754072 -0.4121163 0.115725055 0.055723645 0.06551606 -0.18121585 -0.25387865 -0.00033238364 -0.01905222 0.061458204 0.12861231 -0.09450633 -0.028872078
9 0.0027833683 -0.029417543 -0.04754024 0.04007794 0.009877131 0.04770997 0.07252672 0.038031183 -0.0561103 0.026839716 0.058079977 0.011529745 0.0059648138 0.034561105 -0.028646177 0.03228196 -0.023089955 0.02103768 -0.077553205 -0.0010704389 0.0087004835 -0.025943404 0.06018001 -0.029903438 -0.0056453557 -0.016311612 -0.03020226 0.035813056 0.050053004 -0.028791873 -0.033461735 0.10626809 -0.08443645 0.01897866 -0.04546899 0.070680924 0.03812927 0.047048666 0.07939716 0.08051011 -0.045564465 0.030621575 0.05860994 0.0436556 -0.004663682 0.014325576 -0.02861699 0.043176956 -0.042332076 0.07962928 -0.008051396 0.092635445 -0.044631545 0.058296733 0.052492723 -0.0034605097 -0.06997184 0.038548212 0.0030849215 0.042328984 0.012910493 0.071028344 -0.02450212 -0.14256927 0.22768804 -0.18126324 0.035846032 -0.12814608 0.18792757 0.054859452 0.027414469 -0.096570574 0.014457567 0.017558139 0.08702232 0.22027683 0.12082182 0.11152633 -0.0009390555 -0.12324735 0.10870704 -0.08053328 0.09558691 0.118423104 0.09426541 0.064056456 0.03574123 -0.0762481 0.043127272 0.05697128 -0.083806954 -0.2224709 -0.02499224 -0.18473753 -0.22984466 -0.0052161715 -0.32413915 0.16810738 0.05266757 0.24055442 -0.14705305 -0.070974395 -0.11245338 0.15702178 0.020873174 0.017713644 0.030477325 0.0050203744 -0.00031721374 0.01646079 -0.15291753 0.021103414 -0.07059924 -0.009361444 0.13977408 -0.034559716 -0.39533675 0.08202765 -0.02719439 0.009487185 -0.31426856 -0.30717558 0.0015650311 0.021678008 0.024443185 0.1459401 -0.14125188 -0.07958869
23 0.009953411 0.027473873 0.04625437 -0.017577449 -0.022692641 -0.023576738 -0.03854519 0.028026782 0.015954271 -0.014502119 0.043441065 0.017233443 0.002437854 0.04147067 0.0019093541 0.04103484 0.0109873405 0.08948755 0.08034791 -0.01310282 0.032976527 -0.0021281976 0.078348085 0.073052526 -0.01998643 0.020791225 -0.04272243 0.035257876 -0.04235316 -0.0039472603 0.0023984057 0.038745604 -0.061876565 -0.0034769769 0.054456454 0.12619093 -0.046493918 0.10565002 0.001152747 0.13113247 -0.06973859 0.074415706 0.14512841 0.024383117 -0.058598064 -0.03226808 -0.01020318 0.15752286 -0.04347438 -0.0045137815 0.0025338926 0.104557514 0.014807755 -0.034983497 -0.053604335 -0.023953112 0.010017266 0.08451647 -0.03852626 0.099943675 -0.07591198 0.17138647 -0.084181294 -0.042771824 0.19812219 -0.19060233 -0.051826645 -0.115824945 0.19440076 0.081377745 0.045758728 -0.025212929 0.050399266 -0.025657333 0.036707975 0.19036649 0.031390354 0.11413801 0.14680286 -0.15980253 0.04627242 -0.12523593 0.060749337 0.11634142 0.1556681 0.085697524 0.032502476 -0.051058505 0.07869824 0.07155902 -0.1322372 -0.19010954 -0.054672036 -0.19021608 -0.13608545 0.07266521 -0.3155288 0.22860447 -0.04482941 0.25988224 -0.06937596 -0.030184451 -0.004029495 0.021337299 -0.0059887846 -0.02324644 -0.07160049 -0.057652067 -0.0035575435 -0.05547999 -0.11709869 0.022235041 -0.13838781 -0.019986449 0.17245018 -0.015759377 -0.36648658 0.16191459 0.030001376 0.014447697 -0.21413492 -0.23932113 0.011284536 -0.06492608 0.040804636 0.12245649 -0.07221135 -0.10751159
15 0.014247618 -0.023257328 -0.040053397 -0.0071023447 0.0039076144 0.07194848 -0.00073144084 0.0060851644 0.037345216 0.032793988 -0.016249824 -0.0005100563 -0.010161875 0.04841155 0.011072016 0.034256954 -0.054392453 0.047887612 -0.018158387 -0.04781242 -0.0031177697 -0.03455224 0.047574043 0.008837052 -0.09522851 0.046985853 -0.0640111 0.039803073 -0.049591143 -0.032765713 -0.0922879 -0.082236946 -0.008041608 0.004918283 0.08631326 0.043675836 -0.10292289 0.08720248 0.105633736 0.021903029 -0.04764851 0.084817894 0.06406481 0.028030857 -0.055592198 -0.07232537 -0.0382027 0.12215539 -0.0028886148 0.04753232 0.00749256 0.03213769 0.043345846 0.018487487 -0.016221063 -0.028587036 -0.07539537 0.03302844 0.09892148 0.03796894 -0.014440971 0.08910277 -0.023329299 -0.10030092 0.22307442 -0.12386347 0.066271335 -0.113748714 0.19002701 0.027091073 0.08901425 -0.1717954 0.009768508 -0.029766614 0.024539024 0.19124092 0.02095176 0.07655265 0.12392559 -0.2043288 -0.045004547 -0.14849885 0.14556165 0.07345028 0.09229117 0.19653884 0.007473266 -0.06301257 0.10591641 0.12624653 -0.20385297 -0.20377955 -0.008292886 -0.15700229 -0.11024085 0.054736122 -0.349681 0.22497213 -0.087159924 0.19026358 -0.09982304 -0.007062837 -0.13580695 -0.040314276 0.02869874 0.045157645 0.05164977 -0.062466733 -0.067774035 -0.0847578 -0.1041178 -0.046126418 -0.11670601 -0.03607619 0.10153054 -0.018345973 -0.40788496 0.13253638 0.07789282 0.04305817 -0.16983494 -0.23956825 -0.04255825 -0.050283313 0.050664995 0.12644409 -0.17122898 -0.12931289
21 0.026861422 0.023776876 0.059373345 -0.06614398 -0.06017893 -0.037586574 0.023093957 -0.013869654 -0.036095627 0.09778696 -0.015442915 0.019845646 0.08149331 0.11455513 0.029384684 -0.065080784 0.08168392 0.09194643 0.046840932 0.02232646 0.037760552 -0.02185643 0.014992086 -0.010784704 0.005590938 -0.01117921 0.034808647 0.052436404 0.021642417 -0.024703182 -0.041246146 0.03081142 -0.032747258 0.072946906 -0.018145453 0.09465293 -0.0061548078 0.0014593691 0.15071332 0.034342878 -0.017868714 -0.013760205 0.07915794 0.11357011 -0.06318586 -0.027287975 0.03021601 0.14093919 -0.046373677 0.09157921 0.06755498 0.03985523 -0.06722681 0.020402947 0.06535504 -0.0335111 -0.03503499 0.0067844484 -0.0039833533 0.13851371 0.027033577 0.078937046 -0.05240673 -0.10211594 0.15971164 -0.13404386 -0.042951297 -0.075781845 0.12547489 -0.007951143 0.076107115 -0.017478373 0.03774973 0.02181216 0.12733403 0.2435249 0.073302515 0.043925945 0.13206148 -0.03203346 0.08783808 -0.07549189 0.11044344 0.14367943 0.073228985 0.15724567 0.04052042 -0.08785477 0.055177312 0.08475009 -0.09173864 -0.2843655 0.022520874 -0.09094362 -0.23118016 0.027765956 -0.34787795 0.21127278 -0.20626877 0.15716028 -0.0047188657 -0.10039495 -0.018646006 0.058527194 0.020169085 -0.045474738 0.018593758 -0.039208237 0.0024550622 -0.024514422 -0.053522352 0.07792251 -0.08782656 0.003912335 0.21336848 0.016607488 -0.38484654 0.105547115 0.10866213 0.08284555 -0.32418752 -0.2900132 -0.044677656 -0.116395675 -0.027514571 0.1387938 -0.04089808 -0.006399995
10 0.013236409 -0.035795223 0.025628114 -0.025235096 0.051953487 -0.04186683 -0.03654923 0.023323204 0.009073825 0.072260916 0.024083888 -0.04612134 0.021617908 -0.01740428 0.07281486 -0.031064017 0.012273041 0.012621243 -0.04837152 0.041088503 0.012428613 0.0006712435 0.03251999 0.0067205154 0.056277677 0.034922827 -0.04611045 -0.015758825 -0.013385775 0.024209296 -0.017001556 0.0471432 -0.051751062 -0.04353918 0.011368747 -0.05712426 0.007674509 0.105046704 0.029632883 -0.0086821895 -0.083519675 0.009112286 0.018533861 0.017567115 0.0060060695 0.007774772 0.024404258 0.03899551 -0.044220164 0.061204962 -0.0521268 0.15846401 0.011986734 -0.007473676 0.10433177 0.03780795 -0.09975283 0.0013831813 -0.014585086 0.10452268 -0.11755889 0.09785344 -0.06191232 -0.1350589 0.16864446 -0.15217642 0.024727004 -0.15276854 0.18819837 0.05385022 0.1072339 0.009068047 0.05017895 0.093742095 0.005589455 0.2527924 0.115151525 0.07334861 0.13639814 -0.20441426 -0.011367736 -0.13412195 0.12861376 0.13271716 0.1266892 0.17139181 0.031833876 -0.12159797 0.07243435 0.09006025 -0.14043832 -0.19942398 0.010789229 -0.11717943 -0.069099344 0.08031379 -0.31435382 0.25575536 -0.0238029 0.15758081 -0.03174358 -0.03160751 -0.05227535 -0.031509947 -0.007014822 0.031432804 -0.08801386 -0.09600058 -0.09168735 -0.028169094 -0.06518089 0.018291136 -0.08817648 -0.011955592 0.100637026 -0.015205191 -0.41757232 0.18157959 0.13299492 0.101558745 -0.26892886 -0.24428816 -0.020554151 -0.056510832 -0.08250895 0.08563979 -0.09073575 -0.13768074
6 -0.026348285 0.04066808 -3.278937e-05 -0.056935944 -0.0143271545 0.016283806 -0.040589456 0.00757034 -0.045530934 0.014121979 0.02066048 0.0056742 0.052216664 -0.016507031 -0.01170958 0.05057235 -0.08583104 0.031113427 0.023135422 0.07468927 0.0001509122 -0.0011239895 0.01975819 -0.01576189 0.04269122 0.106516264 0.043181915 0.053346466 0.08712356 0.011617713 -0.0007298175 0.024502173 -0.0544131 -0.0066847014 0.0030726804 0.06000939 -0.055687223 0.07286858 0.08511429 0.07094716 -0.030838948 0.009863394 0.07843552 0.026095454 -0.062252644 0.00063809124 -0.04452485 0.075769894 0.011575057 0.08663756 -0.044499755 0.047469243 0.04887188 0.038594086 0.017209968 0.03525759 -0.07947311 -0.044509884 -0.073822446 0.08745034 -0.00531685 0.13968255 -0.13184799 -0.17035587 0.16673088 -0.04824114 -0.07084331 -0.17659035 0.3408361 -0.009326027 0.06988147 -0.15055352 -0.012034032 0.0050503053 0.054937087 0.19717835 0.049576778 0.07987762 0.11374475 -0.09184583 0.01393637 -0.15484093 0.024923049 0.11978792 0.08993634 0.14216278 0.027910866 0.007820851 0.05733677 0.16541591 -0.0887684 -0.23448326 0.07330171 -0.1028718 -0.049365785 0.06379889 -0.33778876 0.21052375 -0.04679048 0.22961892 -0.022728194 -0.13868977 -0.15221243 -0.04070227 0.00086873997 0.12642148 -0.0026121666 -0.053459454 -0.13816054 -0.009599192 -0.0640797 0.04295692 -0.19509849 -0.080472976 0.11577933 0.0048019513 -0.4334419 0.13309157 0.10433981 0.047943223 -0.23996495 -0.1820043 -0.012844526 -0.03852149 -0.069437064 0.07785318 -0.14264224 -0.039521754
8 -0.002915198 0.06206325 0.011384618 0.029687429 0.049763206 -0.0854739 -0.027022295 -0.120653264 -0.008116672 -0.015724396 0.009860787 0.020716071 0.019124515 0.032434974 0.05141041 0.08325768 0.028401865 0.16055673 -0.037890494 0.009417433 0.12027327 0.026590342 0.074997045 -0.012071208 -0.028332341 0.018979928 -0.031904414 -0.011990374 0.066236064 0.030706188 0.035612445 -0.004421462 -0.076595105 -0.028710533 -0.009100721 -0.0549035 0.028165188 0.0948386 0.05832781 0.028928977 -0.060512673 0.120325096 0.12787145 -0.11635035 -0.088659495 -0.09538966 -0.055024944 0.1070271 0.0055204825 -0.017016938 -0.026290126 0.12082118 0.038003962 -0.025010005 0.036213864 0.036792222 -0.03940414 -0.010785816 0.026613317 0.021891074 -0.027414232 0.1312345 -0.006470121 -0.066623256 0.16423486 -0.10673636 -0.10375288 -0.053254854 0.29397067 0.08410072 0.123999 -0.06608753 -0.042499498 -0.027945008 0.03466752 0.24080595 0.12690763 0.10707416 0.047564596 -0.21421309 0.11718451 -0.11260013 0.08062061 0.08368552 0.2171481 0.09814337 -0.040697303 -0.08044819 0.045309115 0.08138317 -0.11040124 -0.22407001 0.009144804 -0.15171655 -0.08676348 -0.01428335 -0.2898254 0.20928404 0.03305617 0.21022972 -0.10172945 -0.078626424 -0.037054602 0.022366123 0.06253917 -0.0041303956 0.036645856 -0.038973056 -0.08975191 0.016352773 -0.02077457 0.03944776 -0.08594594 0.0071740276 0.1135895 0.01909257 -0.523683 0.11264386 0.08828645 0.087962046 -0.16264255 -0.23434031 -0.037117235 -0.08495554 0.028344011 0.1000925 -0.08757823 -0.030221326
20 -0.00019752816 -0.04642591 -0.059599273 -0.08106413 -0.03600236 -0.086397104 0.0940786 0.01054464 0.09155877 0.023862729 -0.067815885 0.06400373 0.03382633 0.06700328 0.040590096 -0.08019549 -0.06361589 -0.02958733 -0.01993912 -0.056009475 -0.056478903 0.03354161 0.027466375 -0.015241621 0.0045163888 0.054914773 -0.07483313 0.08646749 -0.040668353 -0.06864239 0.012244057 0.06434636 -0.03645207 0.015852293 0.020760924 0.02078968 -0.02335064 0.05616944 0.058832612 0.04566057 -0.11199618 0.06620826 0.05324446 0.0123467 -0.025731267 0.03387509 0.031801045 0.12271203 -0.023483275 0.10027313 -0.04243328 0.119068734 -0.03610867 0.0051467745 0.0684406 0.041282754 -0.056636542 0.06247206 0.021357138 0.08207834 -0.041118335 0.26619163 -0.027960958 -0.119753934 0.22624423 -0.1442082 -0.018824156 -0.21331275 0.24672045 0.044076882 0.11846315 0.04039028 0.0049447147 -0.0004264778 0.09634385 0.25625646 0.042386472 0.09651855 0.107230775 -0.22387588 0.0071464153 -0.0406482 0.10164388 0.07269032 0.12275031 0.063534595 0.14740893 -0.065232694 0.052097954 0.14931703 -0.0004652134 -0.19567774 0.011772061 -0.11526575 -0.17481713 0.03973047 -0.25985953 0.27160305 -0.08906403 0.2521997 -0.0947498 -0.062648356 -0.07846305 -0.017700082 0.010090794 0.023591807 -0.01220951 -0.04006642 0.03385351 0.0025798904 -0.1360363 -0.15618081 -0.08049241 0.0046762493 0.17872714 0.061368342 -0.3115122 0.16846456 0.017045608 0.0904503 -0.32822898 -0.19019371 -0.091885455 -0.04951466 0.022433717 0.11685704 -0.03793981 -0.054869805
16 0.0037620883 0.032224014 0.08900412 0.037435018 -0.02996638 0.015294958 0.016435692 0.020854086 -0.0256327 0.048205078 -0.008483886 -0.039915934 0.09479975 -0.03638556 0.033100512 -0.00948694 0.09031694 -0.069348305 -0.029249445 -0.016174076 0.059096467 -0.090831205 0.0046961387 0.030616537 0.043317217 -0.04262112 0.05577353 -0.06829354 0.01159647 -0.08642069 -0.09533922 0.05671328 -0.15729636 0.11726643 -0.09227558 0.06930179 -0.00449353 0.07388475 0.06062172 0.06664181 -0.16975841 0.023953602 0.14239696 0.024979167 -0.071285486 -0.03250633 -0.06889829 -0.033124514 -0.07336921 0.14038555 0.08837087 0.08239427 -0.063274086 0.064615875 0.018442111 -8.37176e-06 -0.046971187 0.01717393 -0.010791161 0.10693405 -0.049842373 0.16543466 -0.0508221 -0.045485232 0.22005731 -0.1277278 0.002391498 -0.18213105 0.23661132 0.04393716 0.023231603 -0.13307303 0.039352126 -0.013138244 0.13290901 0.19638975 0.03214156 0.079320915 0.08824811 -0.14685492 0.02425307 -0.09328149 0.06032465 0.05869314 0.084842205 0.21303114 0.025101118 0.0015005461 0.04391429 -0.0061885077 -0.17678767 -0.23963676 0.01521612 -0.099592894 -0.10132046 -0.018461062 -0.3802962 0.13542455 -0.0011714735 0.25974476 -0.07603911 -0.043878436 -0.031809006 0.07259411 0.009683995 0.04226232 0.0012908584 -0.09140644 -0.1362925 0.08782232 -0.20245057 -0.014482446 -0.01882989 -0.009883588 0.15326202 0.05874616 -0.41598937 0.112152316 0.08012557 0.004860536 -0.21190496 -0.23748001 -0.06964537 -0.02631685 0.016349804 0.07983959 -0.07146895 -0.05080326
34 0.010701233 -0.122516155 0.08945536 0.080177456 0.012776333 -0.046303138 -0.06427617 0.09116894 -0.0206826 -0.053666625 -0.0051975893 0.032044083 0.09078889 0.021788754 0.049731832 -0.047855087 0.045564525 0.11598759 0.02479582 0.044755492 0.036607638 0.06635408 -0.00013439184 -0.017907212 -0.014981942 -0.011062662 -0.01668544 -0.10867731 -0.0040484504 -0.006301003 -0.07440985 -0.012491922 -0.050392624 0.0207539 -0.078046665 0.019136554 -0.020378685 -0.026925685 0.115028344 0.07747273 -0.09390311 0.055460002 0.07180476 -0.018252462 -0.011600995 -0.01910529 -0.030329956 0.05082045 0.011080878 0.13036567 -0.024165608 0.072006136 0.018485352 -0.010059596 0.086540855 0.06784341 -0.011690271 0.020081492 0.023956517 0.012465179 -0.115013294 0.08583938 -0.015983816 -0.09941974 0.19624366 -0.17643364 -0.049965084 -0.116412476 0.2546197 0.0027032034 0.12745392 -0.10420991 0.011191121 0.07926399 0.10704262 0.27340758 -0.007585881 0.1252139 0.1346696 -0.10666478 0.007162292 -0.11011058 0.0043480904 0.1020258 0.123183355 0.116253145 -0.007442246 -0.009991239 0.06560501 0.0483094 -0.15323123 -0.20937112 -0.023492971 -0.14809242 -0.104681596 -0.024093535 -0.37886176 0.15450221 -0.05931408 0.1810905 -0.04831799 -0.08599315 -0.018317146 0.030947838 0.06349796 0.049662724 0.024826411 -0.034791768 -0.13898283 -0.040627815 -0.12238453 0.07964007 -0.11810506 -0.10571063 0.16197821 -0.03403433 -0.34065905 0.18019937 0.052361943 -0.0061821183 -0.22311476 -0.30067962 -0.049689632 -0.068428844 -0.014303904 0.06458919 -0.09717009 -0.18299878
7 -0.029086428 -0.053553443 0.026811078 -0.0626051 -0.073864676 -0.107936606 -0.034510124 -0.052851506 0.024877625 0.07947934 -0.040411055 0.0072801136 0.027657876 -0.053926256 0.023622273 -0.07303844 0.09260432 0.014974933 -0.025721082 0.015508695 0.0753098 -0.09302932 0.059735186 -0.060225986 -0.017098505 0.106221035 -0.01982094 -0.048155226 -0.0034883844 0.040745202 0.04168609 0.08067154 -0.072424285 0.07517304 -0.00893127 0.07879357 0.066504985 0.07157947 0.06302747 0.062499188 -0.081171215 0.022577552 0.14480476 -0.013184772 -0.054679286 -0.0014060126 -0.007086132 0.12688644 0.018089028 0.085151576 -0.12425696 0.06955334 0.09569082 -0.0044984357 0.04683494 -0.008415265 0.041820955 -0.000633033 -0.057896197 0.11570443 -0.08183784 0.12296313 -0.079386726 -0.08981262 0.14863116 -0.13146727 0.01915869 -0.043008644 0.3071543 0.032116886 -0.04322426 -0.059277706 -0.014314174 0.03373888 0.03736453 0.26010394 0.13339663 0.16473198 0.06383576 -0.10152201 0.009331174 -0.05271656 0.02908739 0.16319808 0.04615032 0.11460182 0.0143859 -0.13216493 0.08756799 0.13478841 -0.047703244 -0.20267054 0.027799685 -0.04218591 -0.07301678 -0.011469599 -0.39543667 0.06830579 -0.0049501946 0.19353499 -0.03783206 -0.08541898 -0.009992419 0.01337121 0.045608487 -0.024512736 0.08845251 0.020282838 -0.10983548 -0.03956523 -0.14814377 0.032411195 -0.080529876 0.056115378 0.123292685 -0.014788132 -0.39967614 0.13822657 0.050028257 0.06320032 -0.3167046 -0.30439937 0.015737358 -0.16595748 -0.06507625 0.06552044 -0.19781041 -0.0644024
13 -0.06604445 -0.07118364 0.0034635633 0.08892199 0.07137521 0.012315263 0.022337876 -0.015885955 -0.0007831601 0.14185981 -0.039423898 0.04477219 0.04277168 -0.02272374 0.016980225 0.07655194 -0.056010704 -0.009808541 0.07885213 -0.023325972 0.104010664 -0.0202086 -0.017410243 0.0018656224 0.070523836 -0.134893 0.06407755 0.09651998 -0.091884315 -0.029267458 -0.015618547 0.000884469 -0.072444946 -0.016128045 0.017912067 0.09243734 -0.04353465 0.024571879 0.06144659 0.059374075 -0.038426977 0.012586044 0.06885116 0.042379223 -0.07747116 -0.023564626 -0.048374027 0.13122222 0.039508842 0.08677156 -0.099404834 0.15940532 -0.049867954 0.05476198 0.01878679 0.019409934 0.016884007 -0.00051912887 -0.08989593 0.033166643 -0.05206753 0.10971747 -0.09664822 -0.09341888 0.19260369 -0.16429324 0.027624087 -0.09496298 0.15073316 0.024266561 0.06434057 -0.10144081 0.00255805 0.04032644 -0.0019424818 0.3416491 0.054205205 0.02599527 0.08805649 -0.09643662 -0.043542985 -0.11498936 0.11354661 0.05087443 0.10396275 0.028526273 0.015691066 -0.0061909757 -0.025884995 0.18368329 -0.09902676 -0.30265585 -0.026507817 -0.030487508 -0.14202192 -0.010137063 -0.37631297 0.22336969 -0.10258188 0.2767031 -0.06228841 -0.07029125 -0.093443714 0.025349671 0.025657091 0.07288021 0.01383798 -0.12777257 -0.036390543 -0.057021234 -0.022099072 0.023019044 -0.0863062 0.09815472 0.09564284 -0.06271372 -0.42094815 0.111575186 0.09118879 0.042932574 -0.20212618 -0.17499062 -0.07044644 -0.004952422 -0.08310324 0.16487685 -0.18538168 -0.094922714
25 0.018488834 0.12007003 -0.05428022 -0.012188037 -0.0675628 -0.012732526 0.052853405 0.029537132 -0.04564948 0.013331316 0.032214254 0.040031366 0.048553888 -0.019477887 -0.010572502 0.086591505 -0.0003134973 -0.037158545 -0.10501713 -0.037679847 0.01880195 0.06173431 -0.07751737 0.026470363 0.018511562 0.04837438 -0.005662821 -0.0010167194 0.02646376 -0.004108118 0.054785617 -0.0010408196 -0.039314494 -0.051490806 -0.067086235 0.06801516 -0.03859688 0.0014552614 0.10227423 0.093294255 -0.038454242 0.03318325 0.14789012 0.007479734 0.06549843 -0.032800548 0.028165882 0.13418272 0.031663023 0.06944175 -0.062406454 0.08653305 0.022947451 -0.026660541 0.08617646 -0.051338766 -0.02387335 -0.010438532 0.115357876 0.08148476 -0.040166073 0.07130629 -0.08497616 -0.0869117 0.13472396 -0.15916295 -0.023765258 -0.12075672 0.24400368 0.059273403 0.073315695 -0.11647104 -0.042095963 0.083674856 0.034940585 0.21068628 0.22858812 0.040376063 0.1808858 -0.18068537 0.04250771 -0.07320585 0.12644152 0.065828905 0.06359142 0.10240413 0.010129225 -0.074382514 0.065777816 0.17280152 -0.12953687 -0.2125354 0.015171772 -0.11213603 -0.1252962 0.079790875 -0.3593248 0.17153439 -0.052602068 0.23270987 -0.03596031 -0.085744 -0.12937853 0.059295855 0.07099935 -0.0036253633 0.13602558 -0.052682474 -0.054232318 -0.061697386 -0.08835023 -0.03971342 -0.0740485 0.0447036 0.1590665 -0.05212276 -0.4271189 0.034275256 0.12001239 0.08509349 -0.147006 -0.23262854 -0.057584822 -0.056133565 -0.058006156 0.15385899 -0.05509249 -0.060432214
12 0.016704466 -0.043936133 0.033654295 -0.018072417 0.101032175 0.06604083 0.031452883 0.008922017 0.029459331 0.012415611 0.067310646 0.014585811 0.044932637 0.048200976 0.042337418 -0.0022811028 -0.0030801578 0.031625 0.14526816 -0.043523904 0.07969619 -0.027877837 -0.025454465 0.037268016 -0.04637198 0.0086709475 0.040738415 -0.010935334 0.01685024 -0.08810091 0.018351499 -0.013321849 -0.06781504 -0.03029937 -0.012362874 0.12251832 -0.026484288 0.07206115 0.06096619 0.06688066 -0.10441847 0.090700835 0.08771729 -0.0068300893 -0.0813148 0.043112062 0.013150351 0.10842892 0.03415984 0.10357127 -0.026341546 0.076889254 -0.010017352 -0.08339282 0.039756637 0.041189976 0.017734868 -0.021208182 -0.038512383 -0.029225167 0.019985214 0.15577278 -0.066193156 -0.11061519 0.1346975 -0.18013246 0.006119185 -0.10696953 0.22444512 0.025967687 0.049148783 -0.08835232 -0.082368195 0.08179722 0.11872636 0.25365525 0.024714477 0.025178533 0.10736924 -0.065328635 0.029380534 -0.071897544 0.0929725 0.07321693 0.09906638 0.24138655 0.1181901 -0.045856886 0.025632309 0.09095203 -0.11641205 -0.2605849 -0.14275745 -0.11622276 -0.17814802 0.044393077 -0.28626233 0.15693389 -0.05961313 0.20460796 -0.09528969 -0.10250838 -0.051183872 0.0052608647 0.056454428 0.06720408 -0.022226386 -0.07146361 -0.09205499 0.053417534 -0.12300087 0.03686127 -0.16064103 -0.013114782 0.11422361 0.0392003 -0.3861827 0.09393279 0.01691212 0.08578979 -0.24336427 -0.3238638 -0.06943115 -0.04503511 -0.030975547 0.10825651 -0.108609855 -0.078679666
18 0.008490217 0.062745534 -0.071384974 -0.054566246 0.041774984 -0.076520756 0.031811822 -0.050508842 -0.056216758 -0.013966813 -0.017500468 -0.042976413 -0.08818215 -0.01060798 0.022436814 0.10457491 0.0017748551 0.03681505 0.01551137 -0.03852715 0.08344916 -0.049683355 -0.114499204 0.12124511 0.08060684 0.05199179 0.038070858 -0.020391969 0.13320029 -0.08487065 0.061214015 0.114759035 -0.12100718 -0.13962045 -0.050414294 -0.05951117 -0.033926062 0.051457584 0.018775934 0.07161035 0.02683205 -0.045517463 0.05819495 -0.027422957 -0.059363507 -0.0016861014 -0.04972982 0.08392284 -0.033101037 0.015402809 -0.04362453 0.1028901 -0.025672454 0.087442204 0.10540936 0.035309188 -0.024333887 0.11046555 -0.06250293 0.01820678 -0.04247523 0.082349315 -0.15899438 -0.07822973 0.16416259 -0.12625171 0.032408766 -0.14381012 0.17737783 0.054939598 0.11067543 -0.16457662 0.04673426 0.017738204 0.062038567 0.18178058 0.016938893 0.06502973 0.06471275 -0.21236691 0.020048402 -0.12209623 0.17414673 0.058751713 0.017152093 0.19045387 0.0734116 -0.1307295 0.040459443 0.07941966 -0.04545614 -0.29911962 -0.045456946 -0.08524657 -0.08131026 0.08449256 -0.28498438 0.18593256 0.03919087 0.22729628 -0.059150063 -0.08530951 -0.019006219 0.030606348 0.019800214 -0.0012102613 0.04478129 -0.0064029368 -0.12569988 -0.029525978 -0.11321465 0.073144436 -0.053333186 -0.0048396955 0.18225366 0.011984066 -0.46123937 0.114718005 0.058222108 -0.06868681 -0.25873506 -0.28830156 0.14176087 -0.11602853 -0.017269962 0.09707918 -0.17925349 -0.14789547
40 0.045468338 0.008966544 0.04878086 0.038278803 0.08247633 -0.029512208 -0.018142164 0.07375183 -0.06049226 -0.033280965 -0.010056445 0.03241072 -0.09095601 0.09113937 0.009312425 0.056191836 -0.04225759 0.0071168477 -0.06593878 -0.016442548 -0.06850852 -0.08820153 0.0034443862 -0.13168235 0.0028117555 -0.045731768 -0.010972074 -0.02233773 -0.0016645693 -0.11721375 0.020106083 -0.02479756 -0.042734355 -0.055153385 0.08323933 0.041661672 0.039588064 0.008242075 0.121160805 0.07266758 -0.11948914 0.0046261786 0.06349132 -0.02887564 -0.062057856 -0.06216384 -0.054532427 0.09612465 -0.035014108 0.098969266 0.013803278 0.10325276 -0.016788496 -0.15321971 0.104735844 0.030769529 -0.043031458 -0.0051538665 -0.014971832 0.11416988 -0.028020708 0.13162044 -0.11401983 -0.10317058 0.16931586 -0.1687897 0.05479695 -0.09035102 0.23773842 -0.00845381 0.04460396 -0.07899842 -0.0031455082 0.07279417 0.04893658 0.20432536 0.06612388 0.10356606 0.08518384 -0.07537268 0.10161515 -0.05529573 0.14061992 0.13326877 0.08251569 0.10590549 -0.0020521658 -0.09957215 0.040930938 0.118265636 -0.05717696 -0.19645415 -0.0216187 -0.15646811 -0.13254628 0.05352865 -0.36661652 0.22349969 0.020007392 0.19455858 -0.123219 -0.08175101 -0.05433841 0.07279163 0.04909406 0.011383121 0.018870644 -0.1111648 -0.13019271 0.009672971 -0.09517042 0.060998645 -0.0128277 -0.063609906 0.21485464 -0.13251196 -0.3457602 0.17836319 -0.012976897 0.09223569 -0.24170955 -0.22362864 -0.079924375 -0.021700293 -0.07737974 0.08751034 -0.14876978 -0.06750633
35 -0.035075214 0.05814905 -0.0028447506 -0.02892158 -0.062068045 -0.0839089 -0.008859427 -0.035021562 -0.025542911 -0.008160868 0.037398428 0.072605565 0.035664175 0.070419766 -0.03005679 0.06979757 0.023422271 0.050242607 0.020611772 0.024998019 -0.052643705 -0.012767186 0.04129194 0.04313075 0.07330413 -0.06036166 -0.04794492 -0.054905593 0.029539017 0.08496417 -0.007005036 -0.0054895864 -0.07534864 -0.030048467 0.028634133 0.056190748 -0.02184136 0.09905069 0.09722878 0.053571623 -0.04358068 0.034718893 0.04049439 -0.026860146 -0.07658851 0.008964472 -0.044418953 0.121877864 0.016139101 -0.026397776 0.041037448 0.08639579 -0.06826022 -0.031307954 0.071540736 0.053391825 -0.020018764 -0.023870297 0.05875321 0.09755932 0.060339786 0.088486 -0.09232196 -0.039347738 0.19866699 -0.16474272 -0.05055524 -0.11574545 0.2325293 0.03482175 -0.008813904 -0.027067108 0.123993196 0.049953908 0.10067288 0.25684577 0.043073952 0.1402709 0.13439669 -0.14899695 0.052967034 -0.051492564 0.08689277 0.09494345 0.02438478 0.13026865 -0.032693807 -0.08320768 0.019347481 0.067783386 -0.10169703 -0.21989752 0.03144039 -0.15300652 -0.11459042 0.12225391 -0.3997923 0.19667369 -0.046494585 0.23676024 -0.035515897 -0.07778038 -0.038990103 0.046721198 -0.012262006 0.020032043 0.11930523 0.033812232 -0.12506846 0.030892158 -0.032271996 0.0024534997 -0.11613564 0.026205016 0.18067172 -0.012475226 -0.36615145 0.08104203 0.016208733 0.0071214163 -0.28939244 -0.24918544 -0.006609314 -0.11893348 0.024323698 0.11273029 -0.036038708 -0.08998504
46 -0.034642037 0.024692269 0.048457325 -0.046291836 -0.012326152 -0.03372566 -0.0042499457 0.053637765 0.045923494 0.0049481746 0.009504155 0.044258144 -0.04937559 0.081363335 0.049304318 -0.018688366 -0.008400537 -0.08244961 0.023156771 0.057529185 -0.077881135 0.019228714 0.1121509 -0.14516708 -0.019435182 -0.050069306 -0.098033726 0.063357495 0.048722483 -0.03924782 0.04257614 0.019240689 0.027294384 0.01884386 0.09266871 0.016452918 0.014372508 0.04667952 0.15197347 0.059711672 -0.06093087 0.004887701 0.04116695 0.066280544 -0.14914608 -0.04845567 -0.04726164 0.12038805 -0.061845478 0.13023701 0.0023588806 0.19728354 0.037836626 0.022433518 0.04347948 -0.04627034 0.0046688034 0.06339339 -0.06272555 0.039421577 -0.05747531 0.03723726 -0.11605494 -0.101259835 0.12918599 -0.07009672 0.073514946 -0.12151329 0.15090048 0.06518904 0.08329829 -0.085272744 0.028088333 -0.033664 0.088605165 0.2690157 -0.020105354 0.105944864 0.14528678 -0.15224195 0.007766156 -0.090943515 0.10004216 0.077248804 0.034370087 0.07139576 0.0066048056 -0.18456867 0.11095207 0.121913016 -0.099477895 -0.17156099 0.0009794327 -0.086387806 -0.20703104 0.068921 -0.3287307 0.23389481 -0.15975405 0.29467735 -0.13477564 0.055258922 -0.06232052 -0.0076902886 0.055624172 -0.03473909 0.039297335 -0.115348294 -0.070913985 -0.014097958 -0.12353859 -0.03382977 -0.07296026 -0.050028373 0.18590496 0.032298148 -0.35080096 0.13941109 0.050993342 0.07227379 -0.28118116 -0.2816831 0.032614145 -0.030658627 -0.014791395 0.078869216 -0.008386482 -0.034607347
53 0.041149132 0.030183697 0.06448064 0.080249056 0.066851795 0.006563956 0.017856305 -0.008177545 0.028537834 0.031193767 -0.14988896 0.10667381 -0.004110404 0.10448983 0.017971672 0.044021733 -0.033883717 -0.056516565 -0.021629166 -0.02215375 0.02497781 0.027863389 -0.051845044 -0.018090935 0.026481874 -0.039897867 -0.031976197 -0.0458558 -0.0756132 -0.036939137 0.04906289 0.03570522 0.012725667 0.02588542 0.01328724 0.1391279 0.006851072 0.02726786 0.05581215 -0.02047879 -0.041841753 0.023322465 0.05682016 0.08140378 -0.10899506 -0.012223683 -0.0043340665 0.11126866 -0.0012866523 0.12400448 0.08217411 0.045118075 0.01911374 -0.1288243 0.105667084 -0.027044432 -0.0033426855 0.038895678 -0.012148187 0.01188315 -0.05809338 0.1814808 0.011647157 -0.0832887 0.116508976 -0.1873617 0.09819397 -0.21580678 0.015947355 -0.031971313 0.0016328301 -0.07736179 -0.037543178 0.050028123 -0.009336797 0.21276549 -0.011688874 0.119900785 0.114937276 -0.061629977 -0.023919161 -0.10483982 0.051121198 0.12795421 0.017594544 0.17043638 -0.0056235786 -0.064814635 0.06838061 0.023883784 -0.10050701 -0.31055173 0.021793902 -0.054722562 -0.1303644 0.15453897 -0.3840819 0.22885217 -0.065401874 0.33808076 -0.04623456 -0.09619258 -0.11392658 0.09722514 -0.025043739 -0.03793692 0.13097303 -0.11460577 -0.013945041 0.08869482 0.03318468 -0.046257433 0.014956127 -0.028728152 0.18620318 0.03789844 -0.4124064 0.1984707 0.051437005 0.0018319301 -0.23798831 -0.31665954 0.05462735 0.00066744146 -0.0018321887 0.19603735 -0.07684211 -0.05287086
17 0.087578975 0.06070815 -0.010273756 0.024150059 0.015041228 -0.059189398 -0.023862392 -0.030913383 -0.010167579 -0.019893963 0.067995675 -0.018279353 -0.029633459 -0.085665844 0.051717095 -0.060374912 0.025673585 0.1062341 -0.031092526 0.0496081 0.029348012 0.031904835 -0.046547856 -0.007115824 0.048936106 0.071250565 0.039989755 0.01268034 0.12876804 -0.082734734 -0.04176501 -0.046777572 -0.061692882 -0.0058377907 -0.025095679 0.046844564 0.068047285 0.04896414 0.082573995 -0.013083233 -0.07116959 0.07231405 0.19146821 0.006443981 -0.026992546 0.009580369 0.013284575 0.13512878 -0.10653759 0.14400996 -0.050672714 0.089540094 0.012579722 -0.023052324 0.03941331 0.043612804 -0.14761904 0.050943248 0.023226468 -0.011471951 -0.088067494 0.11786028 -0.11430575 -0.011759685 0.05630997 -0.1884528 -0.04536498 -0.0437222 0.28616348 0.10650443 -0.026685765 -0.08849326 0.064016655 -0.012497848 0.04528745 0.22414845 0.17407073 0.2538174 0.065495215 -0.19255832 0.071954586 -0.19774604 0.01305837 -0.06434712 0.04404092 0.17734313 0.08336899 -0.17395596 0.034853242 0.10519415 -0.16624391 -0.1490735 -0.08990181 -0.12383721 -0.025762396 0.1199984 -0.20071219 0.1390852 0.10480092 0.2427471 -0.120343365 -0.06977525 -0.12383239 -0.03300411 -0.036220774 0.013742006 0.07267089 -0.035126276 -0.15532824 -0.019406287 -0.027804965 -0.043992512 -0.16983077 0.020934762 0.12662251 -0.10040393 -0.43349 0.088979796 0.0021551838 0.14510296 -0.29906985 -0.34690717 0.037671275 -0.10538416 -0.112831526 0.1219389 -0.17404781 -0.06603449
28 0.059152074 -0.03639476 0.10084013 -0.02976189 -0.06339325 -0.15501998 -0.060651023 0.041859202 -0.04745645 0.017659077 0.04627433 -0.034166813 -0.06709491 0.017729662 -0.041925516 0.000700093 -0.010025805 0.016125023 0.058427837 0.028834952 0.08176311 -0.028984478 0.030329198 -0.061611462 0.12934145 -0.011700939 -0.07910077 -0.012893072 0.050773237 -0.0006793702 0.04746222 0.043134935 -0.16418302 0.0687779 -0.04241559 0.031022193 0.0585091 0.10169983 0.16366006 0.13758722 -0.07562628 0.056951247 0.06534241 -0.10193453 -0.10699471 -0.0724664 -0.07946802 0.11595788 -0.029174477 -0.10448334 -0.061003353 0.052302238 -0.045997363 0.01543332 0.13991977 0.04051935 -0.039475165 -0.059039965 0.03253554 0.039276358 -0.06545979 0.12999563 -0.02442641 -0.03662886 0.09577133 -0.23124777 0.01524417 -0.06847108 0.2788886 0.056709476 0.065533 -0.09578201 -0.11314289 0.033232313 0.11596684 0.13880044 0.060834672 0.25205848 0.18057898 -0.1421541 0.075263 -0.014089675 0.056033716 0.12361114 0.13585801 0.15173687 0.002657418 -0.07269029 0.06791936 0.19481772 -0.078634016 -0.23351021 0.016382314 -0.124199755 -0.16142106 0.07286597 -0.24609749 0.12546189 -0.015600122 0.26497906 -0.043186855 -0.08673463 -0.025519313 0.10690563 0.027584335 -0.00021712124 0.053090002 -0.022088917 -0.03889295 -0.030196136 -0.07859102 0.0877895 -0.07084763 0.023515554 0.19147134 0.0017865383 -0.34284 0.0024768796 -0.007982724 0.13509363 -0.3197061 -0.36020812 -0.09418324 -0.043203365 -0.011141913 0.09147438 -0.047632262 -0.021585725
43 -0.06693148 0.052461978 0.101369284 -0.019148225 0.054396037 0.0061226464 0.088189095 -0.067556046 0.06646422 0.1244122 -0.05696992 0.0049822396 0.06388608 0.08040286 0.114578165 -0.04971698 0.07256718 -0.07053397 -0.019127965 -0.044433556 0.13200428 -0.105142966 -0.04272631 -0.024709139 -0.014823992 0.018256418 -0.03706848 -0.11981785 0.03201382 -0.02303175 -0.008782253 -0.02515664 -0.12904277 0.0050061475 0.024968604 0.10406512 -0.08676539 0.10857865 0.09017692 0.041366264 -0.09167657 0.08741281 0.033159398 0.066241294 -0.083964765 -0.026947418 -0.12167643 0.11692757 -0.08051301 0.06589512 0.09760193 0.16536169 0.023403358 -0.024678627 0.01132062 0.06304791 -0.014924955 0.04073187 -0.052083246 0.008395208 -0.033430427 0.11784819 -0.11005656 -0.009647542 0.20579635 -0.05972146 0.019721994 -0.148011 0.2550271 -0.01533184 0.04641668 -0.021056775 -0.0024152591 -0.04953956 0.09159348 0.36353222 0.024217911 0.06184846 0.08373616 -0.111186124 0.09874579 -0.037725884 0.07297614 0.11267221 0.13932922 0.08116207 -0.027404614 -0.028924294 0.0144841755 0.022343962 -0.062009197 -0.23159853 0.017636005 -0.06841168 -0.14910568 0.0826286 -0.36261213 0.20675084 -0.031177968 0.26300803 -0.05673675 -0.07513752 -0.07912555 0.042167637 -0.025404803 0.025841054 0.016690148 -0.09965093 -0.08806971 0.05855215 -0.074967995 -0.041571412 -0.13123636 -0.033803284 0.10276623 0.009805228 -0.340808 0.15821373 0.08692718 0.104137294 -0.21109782 -0.21473259 -0.137477 -0.08970523 0.03613809 0.13083416 -0.124913655 -0.07024228
55 -0.012780253 -0.012777446 0.14417823 0.12637962 0.038299605 -0.034898497 -0.054548576 0.07521004 -0.049780034 0.007346516 0.017361887 0.10748242 -0.04516095 0.077519804 0.040137984 0.038802277 -0.0841632 0.020070402 0.061015792 -0.10885522 -0.027069045 -0.0666218 0.058935612 -0.045904588 0.006850536 -0.034603763 -0.020198015 0.027050212 -0.048783127 0.055070903 -0.030508073 0.06413015 -0.05285019 -0.03409256 0.026325336 0.040899176 0.0061887 0.0026499778 0.13347544 0.10641343 -0.062265027 0.042286467 0.0036913506 0.045647755 -0.06856682 -0.006680222 0.03582815 0.017772252 -0.07069588 0.035276297 -0.032621764 -0.025152385 0.015071069 0.023252416 0.0073982757 0.027496772 -0.008860941 -0.024581172 0.13490123 0.0810975 -0.05202311 0.046802945 -0.067415856 -0.116605535 0.22213787 -0.1600638 0.055251654 -0.017959742 0.11629071 -0.0018005167 0.038004234 0.017483216 -0.020591034 0.03876142 0.038910132 0.18524061 0.09090865 0.0657129 0.06710228 -0.10349026 0.05442756 -0.006252011 0.07347498 0.11809198 0.03076585 0.19952494 0.07448925 -0.06401144 0.02799522 0.17663155 -0.18409356 -0.23908171 0.13028793 -0.0821527 -0.18102223 0.057296164 -0.38571903 0.29824167 -0.12349292 0.23471576 -0.088243134 0.00056750875 -0.05182501 -0.07316741 -0.03536761 -0.050319076 -0.00865457 -0.10482573 0.011333926 -0.08600831 -0.10633166 -0.06607675 -0.039650027 -0.0769702 0.23566641 -0.015232772 -0.36004075 0.16443542 0.05235273 0.023917262 -0.29836908 -0.29800406 -0.04190533 0.014334998 0.023502763 0.26364097 -0.036563575 -0.102908
24 0.0042963075 0.049861424 -0.037646763 -0.038838167 0.023028811 0.04790239 -0.08412313 -0.052853394 0.01870713 0.018327048 -0.09638793 -0.024530673 0.084142946 0.02917287 -0.0073911166 0.08007727 -0.03363488 -0.06192696 0.0036449751 -0.091990076 -0.059117634 -0.016107187 0.080882266 0.007051379 -0.022943 0.0057227975 -0.03511544 -0.0045580724 0.05194596 -0.009091378 0.036151312 0.0935899 -0.15173315 0.035085212 0.01026553 0.06395208 -0.036898103 0.019060524 0.105840795 0.03871591 -0.059273787 -0.015195731 0.12337953 -0.10234865 -0.011869847 -0.11756831 -0.017401775 0.030074302 -0.01753889 0.086403236 -0.062748455 0.16365328 0.08283354 0.06543354 0.012419519 -0.052585423 -0.0075630066 0.008804681 0.06104137 0.025398348 -0.059022773 0.16729508 -0.023360461 -0.13376912 0.13887505 -0.12157672 0.04910206 -0.11196129 0.2901942 0.08781606 0.085121706 -0.04223842 -0.0045820763 0.100391075 0.072231345 0.1911572 0.020788176 0.12271272 0.13135232 -0.10033451 0.033711433 -0.021392884 0.15865056 0.035553347 0.13118091 0.065094896 -0.027445545 -0.050704226 -0.04672471 0.06427325 -0.08368595 -0.29189274 -0.07908914 -0.038367663 -0.14847666 -0.09955138 -0.32067794 0.11698323 -0.14208984 0.30186334 -0.0068081734 -0.051723197 -0.067158654 0.005185227 0.14478436 0.020508407 -0.02269298 -0.07202296 -0.15631056 0.078136176 -0.053188447 -0.011888263 -0.017869933 0.07803757 0.24785002 -0.033582836 -0.3796215 0.08593049 0.18271574 0.123406656 -0.21152663 -0.26541135 0.004249621 -0.16732208 -0.029026661 0.17458066 -0.14371133 -0.020847328
19 0.012182245 0.035544634 -0.1473393 -0.0143966405 -0.013641529 0.008602841 0.052462213 0.08282557 0.045629453 -0.018300153 -0.041894723 0.060920015 0.0069179074 0.110090844 -0.0054423423 -0.031249199 0.042069193 0.0098103685 -0.008898008 0.027153194 0.08218426 -0.053103864 0.07288001 -0.025448404 0.061827276 0.050042063 -0.031647813 0.12844239 0.020267805 0.061882406 0.03354614 0.06519789 -0.020032946 -0.026154814 0.027974168 -0.08243714 -0.052916765 0.03264241 0.10684636 -0.007626618 -0.0034632406 -0.011741944 0.025748841 -0.049892686 -0.10924344 -0.04346381 -0.065788455 0.08832406 -0.038076542 0.15450838 -0.010998982 0.06638874 0.07908442 -0.03958842 0.060047362 0.008343665 -0.010863338 0.068224765 -0.085643016 0.06294938 0.06262034 0.21103269 -0.110527426 -0.06709977 0.15516938 -0.12603706 -0.080979645 -0.081469394 0.17977996 0.042448245 0.046781935 -0.03761167 0.0004076522 -0.06907648 0.073491186 0.22587806 0.113168195 0.16350697 0.10565013 -0.19388838 0.039005592 -0.096900135 0.12405104 0.18741213 0.14206383 0.11521908 0.09713031 -0.05284235 0.056790147 0.041839533 -0.09390886 -0.22513124 -0.019136969 -0.1382131 -0.107202254 0.024916817 -0.2777083 0.27161345 -0.0745003 0.22794566 -0.13808893 -0.029385189 -0.10686752 -0.062790476 -0.035364915 0.03829238 -0.028683024 0.032481436 -0.045044195 -0.032308426 -0.018807286 0.021612711 -0.115906514 0.026023973 0.0818738 0.048783626 -0.5032304 0.06024192 0.15932171 0.099922396 -0.13663615 -0.28303793 0.018428575 -0.08874815 0.039713543 0.09396026 -0.19273339 -0.048141595
4 -0.018055279 0.052390642 -0.0054598143 -0.019944279 -0.12813267 -0.010520383 -0.049070213 0.05155495 0.16638893 0.0355782 -0.037191413 0.04466848 0.06902098 0.023335885 -0.11676037 0.04520452 -0.00879787 -0.07407811 0.06239117 0.068652876 0.12312017 0.050909534 0.09194705 -0.017775781 -0.15463251 0.069995314 -0.07715159 -0.024356816 -0.12940347 -0.10375368 -0.059648424 0.044780243 -0.08882833 -0.097779125 -0.0884962 -0.0009204706 0.0701129 0.10378689 -0.12354144 0.12254184 -0.03996389 0.12426249 0.1053185 0.0030338378 -0.05361844 0.12731822 -0.06776252 0.061688002 -0.0027539565 0.02255316 -0.01150889 0.13345127 0.031537186 -0.07668754 0.16383584 -0.09671883 -0.11324158 0.024690399 -0.057921275 -0.028995456 -0.026776647 0.12096601 -0.16250138 -0.10823015 0.14950275 -0.116725616 0.08669219 -0.13045494 0.33429894 0.01414135 0.04881268 -0.17090605 -0.105694726 0.20087029 0.05136905 0.18524441 0.02506986 0.17783757 0.033727568 -0.12742524 0.014173476 -0.2455496 0.12906273 -0.03374389 0.045293253 0.0021149262 -0.016895246 -0.108049236 0.08426562 0.111121245 -0.1315201 -0.2064452 0.10312303 -0.099802814 -0.13038298 0.07290092 -0.28454727 0.2109388 -0.03293365 0.32079527 0.15799831 -0.041262545 -0.01659443 -0.114772916 0.017103706 -0.053271648 -0.027182702 0.0603854 0.05431499 -0.08735802 0.020763174 0.058025878 -0.2045036 0.07267782 0.06622742 -0.028098732 -0.41456035 0.023743879 0.19680429 0.18132225 -0.31684858 -0.20569219 0.06620373 -0.1635381 0.2806597 0.22473931 -0.32490537 0.09841922
39 -0.0136437565 0.0006987854 0.09670579 -0.010434759 0.0773318 0.013908167 0.056522 -0.028965585 0.0638092 -0.06793358 0.006615723 0.09015989 0.09559435 0.038181137 0.0793817 -0.060108293 -0.18477368 -0.10058703 0.0560911 -0.06686813 -0.042918812 0.10579446 0.09438134 0.022872118 -0.02414103 0.04234377 -0.07015764 0.004657716 0.018758297 -0.034098245 0.14991459 -0.028231883 -0.0017892681 0.00989536 0.01657817 -0.0028197835 -0.015932506 0.058208626 0.11747587 -0.074414976 -0.033294123 0.06925548 0.03823965 -0.0026148318 -0.04854966 0.0025378366 0.015287926 0.07914216 -0.11879253 0.053337865 -0.08355712 0.04729591 -0.051159047 0.04889265 0.026947444 -0.0034746383 -0.07310014 0.008666124 -0.08727563 0.019987827 0.011693518 0.038743954 -0.09914893 -0.11115144 0.23354116 -0.17455491 0.12372311 -0.10987366 0.23088038 0.12628208 0.03550765 -0.11981642 0.046434645 0.08533971 0.14769372 0.18689536 0.000520331 0.10717156 0.14329995 -0.080177724 0.038873922 -0.03933066 0.06642414 0.0694752 0.13603152 0.053091466 0.019816449 -0.12195641 -0.00052981573 0.16911253 -0.13431565 -0.20796992 0.014310129 -0.10892965 -0.1142057 0.03843775 -0.3341475 0.18804973 -0.027232522 0.21322365 -0.14020973 -0.07649508 0.016335655 0.035517342 0.0660373 0.057622287 0.040624097 -0.10143053 -0.07124118 -0.01179819 -0.034147438 0.015543061 -0.1160214 -0.10521276 0.171749 0.07491371 -0.40421233 0.10003179 0.1788047 0.09833127 -0.2576215 -0.29075015 0.03789118 -0.052132934 0.0016009696 0.16510083 -0.06590636 -0.12620656
69 0.026690934 -0.024632774 -0.011171714 0.045024082 -0.07881667 -0.056006033 -0.075978294 0.018900372 0.02866098 -0.027310211 0.05516777 0.03004204 0.074359044 0.020464798 0.016159602 0.051086497 0.024200827 -0.007444156 0.1038624 -0.06932947 -0.012737323 -0.0290301 -0.021845484 -0.07630161 0.012431081 0.01842054 -0.047987618 -0.061116245 0.00697728 -0.070766285 -0.02008788 -0.09368007 -0.07627926 0.055562403 0.029356152 0.11345331 0.07924704 0.04973928 0.1227543 0.09544845 0.0007533636 0.061939023 0.099070676 -0.040923253 -0.14668274 -0.05903937 -0.011695937 0.113131315 0.06183972 0.15354206 -0.032418806 0.11881568 0.014922879 -0.089352705 0.03421418 -0.04210677 -0.043107167 -0.033291195 0.009532052 0.1393765 -0.023412086 -0.03663613 0.0049657603 -0.066284835 0.17187414 -0.16012467 6.35661e-05 -0.13185884 0.2073231 0.042304385 0.11889501 -0.0348914 0.10037819 0.043300226 0.026810786 0.17310165 0.13220632 0.20620114 0.15027298 -0.14138213 0.09283845 -0.0040588505 0.05636659 0.12006649 0.03955729 0.12264576 0.04916861 -0.1091372 0.049662847 0.10343287 -0.15132253 -0.30878744 0.019501658 -0.022216287 -0.05665621 0.04268279 -0.3201563 0.23281087 -0.042462423 0.25184137 -0.049369022 -0.063848935 0.05496762 0.020365506 0.10840746 0.05352973 0.07380969 -0.056845672 -0.017046707 -0.023892762 -0.20736971 -0.032003082 -0.10316578 0.02426178 0.19010258 -0.0017801889 -0.3562703 0.120118126 0.02714633 0.052585885 -0.21704406 -0.27443194 -0.09276704 -0.07779432 -0.012750926 0.08939899 -0.044151295 -0.10170893
80 -0.019774543 0.09459322 0.03135608 0.08688069 0.09321018 0.029830843 -0.015097296 -0.07365515 0.056128614 0.08209288 -0.104622826 0.0012762494 -0.008859257 0.11007945 0.05212978 0.012610734 -0.044782545 -0.0030059253 -0.073548116 -0.019634767 0.0041369614 -0.14608471 -0.056824867 -0.00010212182 0.015107596 -0.10376588 0.00901361 -0.06454654 -0.042022754 -0.011594034 0.0040884083 -0.05965572 -0.10591007 0.033247113 -0.054430757 0.09722093 -0.098123364 0.13568833 0.11267556 0.15777801 -0.13628134 -0.002693627 0.098364785 -0.046521086 -0.14428006 -0.06303752 -0.030985167 0.10938896 -0.076070495 0.16397619 0.006673047 0.018750392 0.006015147 -0.037517305 0.09379825 0.03617227 0.13678709 0.005614655 0.038182985 0.02176856 0.0020700912 0.06931728 -0.11281227 -0.060146075 0.14582169 -0.19942392 -0.006571344 -0.18666853 0.16459729 0.061675597 -0.032827906 -0.08931855 0.09583697 0.03305956 0.09706642 0.17761509 0.008272583 0.03992388 0.16997437 -0.091030836 -0.021360228 -0.048561323 0.13009475 -0.028459875 0.0072353794 0.08769243 0.04784783 -0.023900492 0.051543333 0.06752017 -0.107061245 -0.18637267 0.01856855 -0.099499166 -0.1832878 0.04635641 -0.39005977 0.21516028 -0.08047932 0.32290116 -0.04658113 -0.033153113 -0.0633671 -0.05267783 0.010928932 0.12611869 0.027339734 -0.08775272 0.002136651 0.016909903 -0.19979316 -0.0052383766 -0.08573222 -0.06416229 0.17827435 -0.007286098 -0.4121022 0.116750814 0.059713926 0.024779608 -0.25780866 -0.21481895 -0.013252027 0.09523883 -0.0042946883 0.19136739 -0.05589128 -0.04900625
72 -0.027142534 -0.02967071 0.05377079 0.084088154 -0.081752725 -0.04238531 -0.019174388 -0.03058412 0.071172446 -0.004251011 -0.02304063 0.023639869 0.0076635797 0.012843402 -0.031349383 0.020525327 -0.049531084 -0.003806365 0.033347704 0.019532751 0.010400762 -0.054548435 0.054279577 0.06704567 -0.0022595916 0.0039982693 -0.012229911 -0.034753803 -0.037519243 -0.050977945 -0.04137402 -0.014859228 0.04232262 0.06691012 0.007183645 0.0886215 0.0014602116 -0.02480311 0.12890969 -0.02406047 -0.04872766 -0.022965541 0.034940597 -0.066606335 -0.017586268 -0.04025661 -0.0785467 0.10590572 -0.05341524 0.014841741 0.0055222777 0.10841677 -0.00011584658 -0.027856188 0.067254506 -0.020474061 0.060065024 0.092039414 0.078320555 0.09261338 -0.08471759 0.13362575 -0.14746144 -0.08172993 0.29268938 -0.04336195 0.01115368 -0.108397245 0.117103286 0.001258267 0.062466547 -0.032191925 -0.010021558 0.030191803 0.083508655 0.24234343 0.005196069 0.1192523 0.1467567 -0.111359216 0.010495872 -0.00277495 0.09435129 0.09144077 0.1462649 0.073089086 0.038219474 -0.045439586 0.093511105 0.13608545 -0.038194172 -0.19323762 0.05375467 -0.12546997 -0.21118222 0.045128737 -0.430986 0.26933652 -0.12044108 0.2579642 -0.1519607 -0.08944883 -0.049520984 0.066921346 0.019544398 0.0244102 0.04345962 -0.11795405 -0.010235122 -0.04326776 -0.04168952 -0.019531408 -0.17777473 -0.13168666 0.3098216 -0.04524605 -0.31065017 0.12652066 0.035446778 0.016502025 -0.11092619 -0.31698117 -0.032357078 -0.026199987 0.03868377 0.13642155 -0.061209515 -0.024093352
66 0.11140337 0.018297844 -0.021550175 -0.018960532 0.046926126 -0.10422641 0.022724235 -0.05861496 -0.036428887 -0.006506067 -0.06388957 0.0022742231 0.05735658 0.10985851 0.029376151 0.15450475 0.10197644 -0.054241523 -0.06945057 -0.026610015 0.011721788 0.011759347 -0.021454662 -0.012732542 0.012450109 -5.67188e-05 0.0052418946 -0.0005433932 0.003158768 0.04081185 -0.027746487 -0.093439676 0.03637601 0.09919591 -0.072795935 0.13177353 -0.021430548 -0.02186285 0.08777639 0.029155405 -0.15472703 0.030585287 0.07129235 -0.044220597 -0.14319944 -0.015824206 -0.10463886 0.0770246 -0.018277625 0.09164869 -0.054462764 0.08647679 -0.0073361057 -0.13674468 0.09162559 0.007667647 -0.021844931 -0.039710693 0.035380937 0.097775266 -0.003301036 0.04008746 -0.045947533 -0.07753746 0.09318292 -0.19415362 0.007826613 -0.055744704 0.13409415 -0.0006759075 0.11000249 0.018716102 -0.019066311 0.1621611 0.0881743 0.13479525 0.13479304 0.09772365 0.14419751 -0.115262285 0.018673357 -0.04560382 0.12192376 0.1251565 0.028280167 0.13802667 0.01306449 -0.05713105 0.02310991 0.15098777 -0.081330955 -0.16589731 -0.115261614 -0.16038698 -0.18450487 0.12884504 -0.38370004 0.23656043 -0.087222025 0.1529968 -0.090583935 -0.06845925 -0.039507687 0.030310044 0.00844022 0.082394086 0.021364737 -0.068474874 -0.1530169 -0.05201195 -0.1700161 -0.064303614 -0.09935198 0.1218315 0.17158043 0.022711333 -0.43488428 0.13566834 0.14089999 0.070401326 -0.31162104 -0.28191182 -0.06310977 -0.02100631 0.13033907 0.13139316 0.0025478746 0.01373325
27 -0.05498449 0.08827022 -0.04937924 -0.0128783565 -0.03448672 -0.017464213 0.039934974 0.033906408 -0.010681871 -0.0031585323 0.019511009 0.118167035 0.10096695 -0.084514 0.08449528 0.038879488 0.03761573 -0.052787777 0.09501421 -0.06370698 0.011033925 -0.10431728 0.025924344 -0.0463944 0.06224748 0.09568794 -0.05286151 0.060984034 0.08284864 -0.007537641 -0.008929395 0.15857352 -0.11720299 0.03944186 -0.029598435 0.10514381 0.015387649 0.057232015 0.072302066 0.029939996 -0.095235094 0.0373311 0.043790676 0.07788874 0.0001347066 -0.04083895 -0.007337773 0.18010752 -0.029655857 0.0057774815 0.00016575375 0.14173251 0.10639827 0.035819817 0.01679334 0.039399173 -0.04306302 -0.013413574 -0.07874524 0.00016706843 -0.061629824 0.1354519 0.022230709 -0.09868691 0.13947895 -0.13395017 -0.023220308 -0.14901397 0.23645768 0.058371063 0.030862626 -0.085618235 0.044207446 0.16720489 0.0011436115 0.25838006 -0.019138334 0.16271006 0.045871697 -0.10523908 0.0030727016 -0.09459801 0.076734364 0.07489667 0.011610557 0.122352995 -0.057255976 -0.15644482 0.001456899 0.16869447 -0.12516764 -0.1834093 0.03303269 -0.09100371 -0.14156821 -0.014778567 -0.29293516 0.17777646 0.052262533 0.27725688 -0.09152448 -0.0054770866 -0.14033298 0.099938355 0.0082432935 0.02865394 -0.0037753514 0.08911938 -0.10670808 0.08385334 -0.031217583 -0.06680879 -0.0793053 0.03652848 0.0944402 -0.0095881075 -0.4153087 0.051681887 0.041442864 0.026039794 -0.23331997 -0.42707345 -0.019533236 -0.09746993 -0.020915985 0.08431099 -0.13464998 -0.1616268
31 0.012190276 -0.09308934 0.04308409 -0.036441356 -0.02650214 0.05608722 0.02392691 -0.00919398 -0.03724154 -0.09249885 0.052613944 -0.023803564 -0.098586634 -0.0407665 -0.028330065 0.08076956 -0.088852726 0.10435241 0.016638929 0.030744337 0.033682395 -0.07312336 -0.027952818 -0.0132999895 0.06690498 0.047056258 -0.11087446 0.04488018 -0.07273592 -0.03610931 0.07538762 -0.0578539 -0.050154865 0.018506061 -0.026333947 0.1457529 0.0739831 0.04509679 0.104647644 0.05710437 -0.027191827 0.12305559 0.104992874 -0.018945351 0.015066737 -0.010458301 0.02087973 0.14375858 -0.018247057 0.033920266 -0.07601775 0.04910885 0.028012514 0.03082182 0.017197855 0.07874932 -0.100966424 0.019409724 -0.031785727 0.06315769 -0.04381252 0.120099664 -0.0624305 -0.11656316 0.15794243 -0.17439619 0.028940607 -0.15595508 0.24123614 0.031081177 0.05452754 -0.10444978 -0.0327512 0.0943066 0.0531098 0.2847989 0.09010383 0.12331984 0.07323535 -0.17887278 0.041103855 -0.104651794 0.0733536 0.1816839 0.025582679 0.15383482 -0.06736397 -0.097801745 -0.01295089 0.13779132 -0.16757698 -0.21875101 0.09345644 -0.14851959 -0.10115766 -0.04399903 -0.4177124 0.16197148 -0.109842286 0.2029025 -0.04910765 -0.0035985913 -0.03419593 0.05878817 0.05311349 -0.0814984 0.085771166 -0.06057706 -0.071408994 -0.038233098 -0.052624594 -0.006620325 -0.12153455 0.012801169 0.19109914 -0.019562693 -0.33768338 0.024030346 0.102480054 0.089689694 -0.10232895 -0.26398128 -0.08476821 -0.027189538 0.0064596753 0.21181217 -0.058776416 -0.06165647
44 0.057989903 0.056028124 -0.0449772 0.08103941 -0.028940473 0.02346967 0.15125547 -0.074329615 -0.018545724 -0.0012228227 0.055216048 -0.025530664 0.005695188 -0.015105429 0.13088402 -0.02791506 0.080334246 0.053076047 0.090594195 -0.0004889281 -0.009176977 -0.04914893 0.007460352 -0.037749145 -0.06249039 -0.007382343 -0.051441457 0.07027081 -0.029590081 0.06754877 0.008754242 0.027461773 -0.14834766 -0.050402638 -0.07287312 -0.06402528 0.0135929985 0.024988348 0.051184177 0.0744862 -0.07767094 0.07409694 0.13344233 0.024446726 -0.0020502699 0.037499208 -0.14610256 0.10290204 0.036984354 -0.006390497 -0.07876015 0.1100122 0.13856745 0.023176549 -0.113585696 -0.005503241 0.08110006 0.030118935 0.0305045 0.0067922994 -0.11859031 0.16293238 0.034057107 -0.006109521 0.22605 -0.090340175 -0.005956567 -0.03999224 0.23381905 0.08332116 0.04923422 -0.13126549 0.10170344 0.0068282546 -0.008023422 0.27286696 0.16318208 0.27164754 0.046782065 -0.14083305 0.040086787 -0.13825762 0.124004364 0.17005147 0.037326183 0.09232578 0.045603752 -0.18938121 0.054508332 0.13979776 -0.060425118 -0.18496715 0.108332776 -0.034791283 -0.11377145 0.039723687 -0.4375181 0.08160779 0.05657452 0.204926 -0.058195014 -0.068336174 -0.11454101 -0.04226687 0.09315705 0.090856224 -0.001425941 0.061663277 -0.095319346 0.057546657 -0.10016741 -0.011874419 -0.08176827 -0.032880593 0.13063437 -0.0089579495 -0.40384054 0.090945244 0.008142465 0.19199172 -0.23318498 -0.31990448 0.004810328 -0.098847464 0.028666988 0.035860755 -0.16692306 0.022495156
32 0.055210542 0.078857675 0.030894004 0.012103423 -0.007710488 -0.04299458 0.07172863 0.11094757 0.10876093 -0.09232643 -0.13775606 -0.058694094 0.03700875 -0.048078507 0.0037986652 0.06226168 0.08562644 -0.0041925847 0.08754825 -0.0535168 0.07653352 -0.12676156 0.03957389 0.01059123 0.011146008 0.056682065 -0.03055397 0.08629126 0.059468422 -0.035466887 0.1429799 -0.073133305 -0.21024874 -0.048782904 0.0047035613 0.065617815 0.015884502 0.06525584 0.18658862 0.11171331 -0.042303335 -0.031792246 0.036563624 -0.13867365 0.027178822 -0.050762124 0.041720822 0.11168361 -0.065333664 0.15073642 -0.03695939 0.10148991 -0.021715255 -0.040717114 0.0286429 -0.012342074 -0.0856384 -0.069094576 -0.00083140895 -0.0037588333 0.009457362 0.19094941 -0.15219828 -0.11480234 0.13740885 -0.073704876 -0.059888884 -0.010861587 0.18920235 0.032464214 0.076634854 -0.1179341 0.04214311 -0.009449977 -0.002726787 0.26857367 0.11587179 0.09947732 0.0218566 -0.14915873 -0.08383144 -0.20554969 0.18520796 0.1195817 0.06622988 0.015944479 0.047483876 -0.08308411 0.07246496 0.15196775 -0.105312414 -0.2224202 -0.06014395 -0.13280194 -0.078138456 -0.0280118 -0.34364155 0.1795767 0.0513241 0.30268505 -0.10644313 -0.058848128 0.048469376 0.031588852 -0.12549812 -0.02495934 0.1308486 -0.085082844 -0.008967621 -0.08949498 0.0144681195 0.00044659642 -0.047527093 0.023531733 0.18728818 0.082128696 -0.35289466 0.100266606 0.1194151 0.12686057 -0.17836407 -0.3350504 0.018501751 -0.14265777 0.13554525 0.11985132 -0.14610106 -0.19289052
74 0.08609972 0.0436946 0.04657532 0.13480754 -0.018125389 -0.05865882 0.03275057 -0.04074388 0.020200556 -0.025318155 -0.048967768 -0.02080789 -0.119088784 0.08830679 0.018113391 -0.035843115 0.06846684 -0.05836945 0.033881117 0.011159806 0.07744068 0.078739956 -0.0625884 0.052702475 0.053014558 0.0033686927 -0.07154264 -0.064790875 0.049928598 -0.056559935 -0.0099356305 -0.009534935 -0.027451396 0.11599385 -0.01947403 0.11007386 -0.07079825 0.13520518 0.10549899 0.0059179305 -0.06611966 0.021519093 0.09798016 -0.029748023 0.001462249 -0.090585016 0.020559127 0.13600232 -0.013353435 0.056993023 0.058589898 0.13985404 -0.035125397 -0.108745456 0.13559923 -0.074674934 -0.015271629 0.08861255 -0.0007229324 0.16207433 0.03954442 0.09946799 -0.11164092 -0.046421703 0.18064134 -0.17713012 -0.060955435 -0.052011315 0.22442849 -0.03448536 0.004056797 -0.010583098 0.04059467 0.07516666 0.11071188 0.21339968 0.18204907 0.11804875 0.13172774 -0.1275799 0.1732449 -0.059009094 0.0545464 0.22761458 -0.015964912 0.1614015 -0.021952718 -0.08719736 0.061091807 0.095588505 -0.10652919 -0.27338392 -0.05691393 0.062425654 -0.11568521 0.06436384 -0.3357734 0.32809153 -0.093141176 0.29072377 -0.04329995 -0.064451516 0.019619096 0.015444938 0.059788797 -0.026585469 0.036160808 -0.06286262 -0.031665504 -0.03459077 -0.12568466 0.07962483 -0.09411794 -0.009235438 0.14364944 -0.065508865 -0.3563722 -0.0010758777 0.0971593 0.06478713 -0.19925761 -0.24073073 0.025106162 -0.017261524 -0.0068397145 0.08265874 -0.03460092 -0.100959726
22 0.05761707 0.019884191 0.016871883 -0.0074690287 -0.06826775 0.0017816811 -0.03824941 0.022707656 0.010394101 0.055975944 0.03740609 0.02310688 -0.057366796 -0.050690286 0.21488582 -0.018292105 0.05325394 0.034253515 0.036451865 0.06945253 -0.1536448 -0.09807934 0.071652174 0.09394285 -0.0041070515 -0.024279583 -0.04290961 -0.0115552675 0.037052207 -0.03376775 0.06451919 -0.06870069 -0.02895127 -0.09088275 -0.04769262 0.06981311 0.012936612 -0.024467897 0.050507948 0.22899821 -0.047136497 0.009781438 0.11225447 -0.02760474 -0.086414695 0.06204537 -0.05837441 -0.00060126267 -0.06015592 0.057852346 -0.051777225 0.13132285 -0.082413256 -0.008084515 0.031267554 -0.07051677 -0.063049026 -0.005037831 -0.09343736 0.018619373 -0.065238826 0.14291506 -0.0019272242 -0.12333978 0.22018479 -0.07001585 -0.119665526 -0.12367448 0.21212567 -0.025353407 0.051954128 -0.16511746 -0.055818085 -0.0021200625 -0.03909261 0.23980556 0.027371895 0.049054824 0.054155856 -0.1561503 -0.06177821 -0.13992693 0.13276468 0.03776685 -0.015836174 0.069879994 0.050039515 0.014863105 -0.05022405 0.07780554 -0.10194909 -0.14697362 -0.0026903886 -0.038642846 -0.082367465 0.09312311 -0.42582628 0.24884403 -0.030045079 0.30015102 -0.05881632 -0.031525023 -0.09479453 0.038872015 -0.012261062 0.08321525 0.02826967 -0.14537875 -0.016219867 -0.060193993 -0.16763958 -0.020781385 -0.12351844 -0.054925818 0.17430569 -0.05664829 -0.3181796 0.041835424 0.15255167 -0.0015001919 -0.2546657 -0.3458712 -0.068232566 -0.09619601 -0.00017845399 0.15721935 -0.18888372 -0.08070836
57 -0.00084973336 -0.024150144 -0.002088679 0.041637108 0.010555753 -0.038081646 -0.035892833 0.01584234 -0.10012859 0.09579088 -0.18972658 -0.00996224 0.019082045 0.03364183 0.01611448 0.0259523 0.029935447 0.0522606 0.020394357 -0.0866677 0.050370302 -0.019593427 -0.038393974 0.016171541 0.027730707 0.025740515 0.032222077 0.071273066 -0.06047523 -0.09010013 0.14944796 0.019005395 0.02419007 -0.011605832 0.013388759 0.0023896887 0.010453869 0.019683583 -0.019371169 -0.034060817 -0.049030777 0.0772859 0.006914201 0.03391881 -0.06270865 -0.055646665 0.055930413 0.103974506 -0.08841939 -0.07061212 0.14624865 0.019792706 -0.026490133 0.007931876 0.073259875 0.047764868 -0.021592198 0.053516507 0.013729259 0.10571101 0.03925194 0.097846985 -0.09112105 -0.15260138 0.20473683 -0.15112184 0.010546701 -0.16761652 0.2812557 0.105261326 0.12110029 -0.017922131 -0.080876514 0.014081585 0.02794641 0.20668088 0.083952576 0.13813005 0.14545785 -0.14297077 0.03795444 -0.05333642 0.11591308 0.10575954 0.1385848 0.17097098 0.0917962 -0.20937723 0.010106843 0.077773295 -0.1541723 -0.27430162 0.05352737 -0.1366915 -0.05171944 0.014817688 -0.35884875 0.14853205 0.058853924 0.31761247 -0.08961301 -0.012723697 -0.15119523 -0.014608809 0.057036478 0.016768608 -0.012675696 -0.006175947 -0.078627996 -0.015404725 -0.12088612 0.07583453 -0.06592513 0.08173328 0.20595509 0.124692075 -0.36175254 2.127506e-05 0.12201834 0.07821929 -0.1980906 -0.26366237 -0.09222226 -0.11366605 -0.0048101987 0.11491187 -0.05784897 0.068768114
70 0.024969086 0.13563514 -0.05413242 -0.06861816 0.05023846 0.032682784 0.041698463 -0.05419749 0.036520403 0.07100795 0.0055182367 -0.059462182 0.0033103165 0.10987007 0.022847537 0.039409366 0.026879227 0.05935606 0.019910384 0.061124958 -0.07006006 0.041897167 0.10099187 0.042122148 -0.08961401 -0.040339712 0.023917045 0.04334931 -0.091226116 -0.033733986 -0.018614447 -0.01624972 -0.033985566 0.11532435 0.020616144 0.15977864 0.051493943 0.049915653 0.004042306 0.049148425 -0.06443862 0.007402704 0.008252382 -0.057890594 -0.067759775 -0.0018580812 0.0012781101 0.08748437 -0.048133597 0.073255435 0.038340393 0.015783297 -0.048617646 -0.13803966 0.12247995 -0.0861737 0.012767177 0.11269757 0.096123874 0.024699062 0.029805686 0.058117628 -0.04405601 -0.038555775 0.17371066 -0.12416943 0.01261678 -0.07716214 0.13596149 0.035035785 0.07618905 -0.058570035 0.01784932 0.10011899 0.028520368 0.32174954 0.10639154 0.08228969 0.202306 -0.25533038 0.052105643 -0.06096458 0.09655143 0.17151691 0.06494699 0.051929623 -0.06855074 0.025553307 0.08258119 0.13701153 -0.10033203 -0.2011867 0.041478187 -0.16328281 -0.08838509 0.120380625 -0.3273771 0.21252395 0.017259562 0.11922488 -0.032881282 -0.15435329 -0.12349115 0.030495567 0.02728414 0.0049843653 0.084181845 -0.05476384 -0.17947936 0.003283563 -0.20420785 -0.07612368 -0.0815577 -0.1595523 0.1856833 -0.07147182 -0.45386094 0.10618252 0.07462818 0.06950717 -0.18469402 -0.3131078 -0.14897278 0.00096270745 -0.123064674 0.056679964 -0.10372207 -0.073914096
64 0.046309255 -0.03488535 0.06733879 -0.07550737 0.031165296 -0.025855323 -0.07711839 -0.05294104 -0.05682882 -0.069023184 0.096802875 0.004948314 0.10734655 -0.021497749 -0.03361096 -0.029858304 0.09073654 0.07335536 0.0685079 0.045421172 0.08404422 -0.020624714 0.007802957 0.0440275 0.059662096 -0.043553654 0.010009609 0.056666914 -0.06903371 -0.12069121 0.121297605 -0.03897424 -0.050243344 0.027722025 0.050159458 -0.01803744 -0.09810379 0.0496645 0.17708221 0.0017073862 -0.1265131 0.10684702 0.012108374 0.017649513 -0.11669636 0.061226215 0.12600023 0.057425324 0.09358121 0.13348652 0.01922825 -0.009300682 -0.053760026 -0.09755014 0.07065056 0.01783086 0.012137803 0.023077948 -0.024342852 0.012124175 0.028018937 0.046090588 -0.02739609 -0.05168507 0.14053805 -0.28179103 0.015224196 -0.15707284 0.16421252 0.025342481 0.059414435 -0.063703865 -0.023089144 -0.0026935653 0.065115646 0.23931053 -0.024024095 0.108546056 0.18543303 -0.1551535 0.099949494 -0.02140735 0.1494514 0.11557633 0.12504444 0.11142062 -0.032216072 -0.075083405 -0.038410123 0.15381905 -0.049703453 -0.22294568 0.028270619 -0.10033325 -0.10307633 0.014805518 -0.43731302 0.15124635 -0.099339105 0.24777 -0.027047196 -0.025845215 0.023483848 -0.0019800554 -0.004866225 -0.04581737 0.06345638 0.021315368 -0.046985563 0.05095033 -0.06710133 0.038628466 -0.15061 -0.07903756 0.14617461 0.043219373 -0.3181171 0.12867469 0.08397446 -0.023590196 -0.27633718 -0.2850948 -0.095313996 -0.09624496 -0.002223872 0.16091084 -0.12416179 -0.036121413
50 -0.07103655 -0.07523819 0.030187152 -0.009020048 0.0028469167 0.03800886 0.065967835 0.035008013 0.060078572 0.023049695 0.08932209 0.021735108 0.031570558 0.017798468 0.026306909 -0.07124076 -0.03240983 -0.04080561 -0.009083658 0.054193504 0.020175975 -0.10618196 -0.0018653877 -0.07119589 -0.04182758 -0.068497814 -0.04339566 0.093879506 0.021747544 -0.016406694 0.05917268 0.0857008 -0.08595586 0.06436323 0.046618775 -0.007950651 -0.008234017 0.13693188 0.055480294 0.04820543 -0.13764197 0.08588077 0.05240816 -0.0076820636 -0.0025372226 -0.16374224 -0.06352367 0.05771755 0.027404103 0.11321773 -0.07303653 0.069886535 -0.043656204 0.15796703 0.09679542 0.08685868 -0.021307567 0.04317564 -0.048951343 0.044757687 0.027504385 0.11941008 -0.10505064 -0.08108007 0.10509235 -0.16057923 -0.02183787 -0.19025879 0.1773371 0.09334205 0.19930674 0.017769635 0.040083893 -0.10286537 0.02803829 0.27305394 -0.04468988 0.16992505 0.10237866 -0.24263993 0.059344266 -0.07456207 0.13253273 -0.029006068 0.078921035 0.15592511 -0.03066611 -0.085803404 0.059285983 0.049312737 -0.1505605 -0.16319408 -0.08635509 -0.16798308 -0.08492649 0.01379195 -0.37355533 0.3201817 0.016672276 0.25018075 -0.061798368 -0.0506808 -0.02348133 0.09080211 0.10253141 -0.13773523 0.09206015 -0.031073168 -0.037918508 0.0068233083 -0.07235088 0.1145818 -0.17357577 0.0002431667 0.124061145 0.08831501 -0.34247836 0.087428 0.12496945 0.05055859 -0.17255569 -0.33075905 -0.003943279 -0.013664025 -0.032677755 0.10058196 -0.13644968 0.024146631
45 0.06770635 0.07115789 -0.036108684 -0.08513702 0.013537655 0.0075870776 0.03759277 0.014904974 -0.05671624 -0.01865559 -0.0037675104 0.14356497 0.05550465 0.03711793 -0.005844961 -0.03706046 -0.01487228 0.0026595432 0.0302069 -0.09454145 0.007933491 0.02833161 0.031229304 -0.010198442 0.10913563 0.18022855 0.01361892 -0.024975639 -0.03133449 0.06599065 0.064693615 -0.0011541541 -0.18446115 -0.024932208 0.00472494 0.008589186 0.070770465 0.21019885 0.10855229 0.10008662 -0.076026864 -0.034413498 0.110773824 0.033237416 0.006858531 0.048898146 0.061685365 0.039880123 -0.07072525 0.049063735 0.12114336 0.044386905 0.047603037 0.106418 0.0281156 0.035343673 -0.11861828 0.007948119 0.049322285 0.07479498 -0.0315496 0.14656839 -0.020614594 -0.08686175 0.1801852 -0.25052935 -0.017269362 -0.06389296 0.1963475 0.050844304 0.01894368 -0.1442819 0.12400004 0.0142201185 0.12263519 0.22601119 -0.011406624 0.02853363 0.12598704 -0.20271896 -0.0326974 -0.2301648 0.090207174 0.05524461 0.08597483 0.05381722 0.046387997 -0.0010944641 0.032912645 0.095367946 -0.057136532 -0.21484734 0.00303198 -0.1608997 -0.038697064 0.006629201 -0.35898507 0.24582976 -0.0036618796 0.23024602 -0.018444534 -0.09043152 -0.116077855 -0.017561356 0.03129874 -0.0046232124 0.06625442 0.010436268 -0.10013975 -0.050798718 -0.14861117 -0.016983239 -0.13789047 0.15267082 0.12780628 0.036953647 -0.35182208 0.057564124 0.044772137 0.18402478 -0.15684776 -0.35605907 0.099375434 -0.07529443 -0.07011851 0.115078956 -0.18471235 -0.024638586
59 -0.065275885 -0.038649313 0.0027572205 -0.039336026 0.044484902 0.021669753 -0.12434282 -0.007986304 0.031107916 0.007992039 -0.061518423 0.04274981 0.039765645 0.04680526 -0.10625782 0.024590522 -0.1135517 0.035825342 0.1272996 -0.09186331 -0.020474698 -0.052721802 -0.060257565 -0.043072365 0.13132724 0.010917956 -0.08119558 0.1593077 -0.020308878 -0.031339157 -0.13879278 -0.01561525 -0.011180545 0.061765544 0.048303768 0.01656139 -0.053177048 0.06571437 0.061840903 0.022408945 -0.032081094 0.039577186 0.11107684 0.018665344 -0.09469147 0.031043116 -0.000333688 0.03951474 -0.050364748 0.1000228 0.014302497 0.076846175 -0.12026643 0.0414829 -0.014087333 0.035471804 -0.011496967 0.067542195 -0.06947734 0.12063237 0.11033408 0.16640235 0.010055286 -0.11516168 0.23450962 -0.13667311 -0.020825246 -0.122541435 0.15213452 0.024115281 0.15162922 -0.08582341 0.031671144 0.031242462 0.13224436 0.1656373 0.061290387 0.2716599 0.10296465 -0.20485671 0.0026505725 -0.112402275 0.039244723 0.069799505 0.22475821 0.060095206 -0.042000607 -0.14211006 0.15727744 0.14849566 -0.17476602 -0.12225195 0.04836957 -0.07093578 -0.2302219 0.046236016 -0.28891662 0.1606782 -0.043876264 0.2695216 -0.012354211 -0.041366685 -0.06661086 0.07577824 0.15073957 -0.047137234 0.019417988 -0.049694814 -0.023849381 0.08553338 -0.021694593 -0.096957944 -0.05444735 -0.04988948 0.15846744 -0.0020931752 -0.40664345 0.06653727 0.1879157 0.10457877 -0.27887315 -0.2993275 -0.05942211 -0.09490124 0.061956476 0.04370669 0.0050831977 -0.095869005
63 -0.078888044 0.021944324 0.053058095 -0.0041234866 0.06855989 -0.040528897 -0.029058134 0.06792365 0.035891354 0.07243706 0.02291984 0.0586099 -0.015412646 0.029749222 0.02462509 0.050741397 -0.0068964097 0.07410448 0.0075571593 -0.12525877 0.056759268 -0.08936647 0.01730598 0.01784057 -0.03181521 0.0075692795 -0.005872617 -0.12686233 -0.06856789 -0.018109327 0.03582681 0.0049972604 -0.06273829 -0.04294027 0.017445698 -0.03905768 -0.005205062 0.007900739 0.06239358 0.1568712 -0.12229015 0.0828138 0.06885897 -0.0023864503 -0.071886346 0.018004615 -0.042683065 0.08489414 0.028708946 0.08039894 0.008521138 0.110097624 0.0060705524 -0.10661719 0.09618271 0.0070043164 -0.007757439 0.03493356 -0.024819022 0.0037556812 -0.044129316 0.0949003 -0.14149895 -0.1451596 0.15853408 -0.22275664 -0.008706136 -0.06460971 0.11516086 0.044488423 0.07135617 -0.003708685 0.014409584 0.0011055195 -0.07158254 0.2125538 0.08254231 0.008554704 0.13811426 -0.22836792 -0.03325104 -0.07135929 0.13939506 0.050761625 0.043571092 0.122264974 0.045776542 -0.022132661 0.08736788 0.06990348 -0.20389515 -0.1754559 0.076328024 -0.084520526 -0.17620753 0.10393918 -0.38757944 0.14252871 -0.06649402 0.2386454 -0.09483168 -0.14100459 -0.022042748 0.047998033 -0.036993228 -0.14383368 -0.00088049023 -0.07921726 -0.08166935 0.08470021 -0.20935936 0.02354597 -0.13874663 -0.054206446 0.15362963 -0.08688344 -0.39096195 0.14486527 0.078199044 0.10976415 -0.2689861 -0.24187765 -0.040920153 -0.007729044 -0.031871818 0.08795473 -0.056382377 -0.07547264
33 -0.01755128 0.1262728 -0.014156143 0.057836056 0.06406207 -0.0011217045 0.06781172 0.023069127 0.025957875 0.000622935 0.14103304 -0.032802578 0.03945858 0.085009195 -0.010843329 -0.018894427 0.08993894 0.065538205 0.1271309 -0.04826761 0.025859028 0.117426306 0.0273427 -0.072579026 0.068380654 0.042861346 0.020750185 -0.030974314 -0.06902122 -0.107715 -0.004651475 0.09329633 -0.0692376 -0.014814296 -0.056820642 -0.04414646 0.08653651 -0.08264037 0.101145126 0.08675014 -0.05719871 -0.03514155 0.14957519 0.03161179 -0.035791006 0.029899102 -0.0940817 0.13388598 -0.0059821256 0.08021391 0.0048315087 0.10584739 0.02142494 -0.08219567 0.11061941 -0.021977365 -0.105452046 -0.017253628 0.030748831 0.108283915 -0.13440049 0.19384773 -0.037963543 -0.0810065 0.14202937 -0.107086666 -0.043893866 -0.09480881 0.19506732 -0.07109852 0.08056723 -0.0137930205 0.04185364 0.010822388 0.0360675 0.25119662 0.049985472 0.12276183 0.08368386 -0.17108914 0.029172694 -0.13983528 0.08823827 0.1304081 0.070532076 0.13491572 0.03938026 -0.1118175 -0.008808228 0.07880233 -0.01758691 -0.31983277 0.012029052 -0.116263986 -0.0962335 0.0032202082 -0.39865008 0.21199203 0.048798427 0.22266701 -0.09079152 -0.02100296 -0.068314254 -0.10251249 0.044307422 -0.03326891 0.059839 0.019765027 -0.030236788 -0.10955584 -0.09038375 0.043643393 -0.06893423 -0.04078795 0.20140661 -0.08532774 -0.3488482 0.11213836 0.11773547 0.058914535 -0.17981948 -0.26089022 0.047515318 -0.061019525 0.057144523 0.21012472 -0.05599189 -0.046204444
73 -0.058295112 0.071556866 -0.04112851 -0.052324258 -0.0046951156 0.004121539 -0.04467135 0.009923122 0.075108804 0.04537835 0.03382368 0.11548574 -0.013012972 0.0267457 0.0738009 -0.033313245 0.04598998 0.020274382 0.061548144 -0.016279764 -0.021445083 -0.043530688 0.122752726 -0.039822463 0.07164577 0.114764534 -0.033029433 0.007279805 0.027588256 0.010525734 -9.681118e-05 0.0028392335 -0.06506953 -0.012771408 -0.0024993324 0.03583033 -0.024814244 0.064764485 0.13153419 -0.031725664 -0.02140755 0.057583444 0.11467639 0.050284978 -0.08189572 -0.023555541 -0.059457432 0.13648798 -0.014492594 0.054292325 0.029613528 0.10311719 0.041334286 -0.06489901 -0.027644956 0.052329637 -0.15956055 -0.010779217 0.0080147525 -0.022084419 0.02296899 -0.046475023 -0.043902736 -0.085174605 0.21563643 -0.1597243 -0.01791872 -0.20461525 0.2985218 0.01981041 0.03208008 -0.13159233 -0.06311675 0.006647255 -0.022183862 0.2586496 0.07907976 0.13139287 0.085364126 -0.1414329 0.09540493 -0.1241236 0.101690434 0.08444935 0.10145274 0.08412274 -0.0038463103 -0.005466865 0.01878568 0.07663657 -0.16567993 -0.17887506 -0.060697258 -0.08676544 -0.17746575 0.094894126 -0.3261112 0.22144252 -0.038547736 0.2686537 -0.13035773 -0.0017448192 -0.08928207 0.10361954 0.0135241235 0.0065351683 0.032728873 -0.03331567 -0.078879245 0.034143686 -0.08553301 0.017366938 -0.05032588 -0.031572673 0.23359878 -0.036655672 -0.41110557 0.06106421 0.038504962 0.0477294 -0.2435643 -0.16222998 -0.05894081 -0.073961414 0.028397745 0.083164275 -0.08955423 0.013059794
88 -0.11515312 -0.10315926 0.039473318 0.049650062 -0.007222551 0.044443287 -0.019265743 0.06479805 -0.010480406 0.033471443 -0.018327862 0.0028432736 0.096346855 0.07754091 -0.000998432 -0.051096555 0.042536642 0.058100976 -0.0013634823 -0.043469522 0.105930805 -0.021035373 0.03314678 0.005099652 0.025022335 -0.010508434 -0.1102784 0.042732473 -0.011001047 -0.036395304 -0.017318651 -0.06676978 -0.09929242 -0.03545847 -0.028083282 0.052327722 -0.09891988 0.07833713 0.07047656 0.07556361 -0.13611041 0.012657991 -0.05243248 -0.06848692 -0.15029973 -0.10706739 -0.027265247 0.016635077 -0.04590058 0.040161755 0.062351163 0.061224815 -0.08641835 -0.079405814 0.05305223 -0.078788415 0.07239184 0.018880287 0.12639865 0.05917199 -0.008830177 -0.05867674 -0.095549405 -0.015803607 0.29655164 -0.2606443 -0.026739618 -0.13738233 0.15064406 0.050787784 0.072108425 -0.12127743 -0.01501099 0.009282738 0.096795864 0.20100091 0.099811226 0.053217955 0.2368469 -0.14233431 0.11398522 -0.10090768 0.10927047 0.060709983 0.18722746 0.039431967 0.03159466 -0.09288079 0.036414254 0.024844198 -0.075327106 -0.2243944 0.10009946 -0.10808543 -0.18297741 0.04274342 -0.3946891 0.1988149 -0.12522593 0.23049742 -0.092681624 -0.011556197 -0.06949098 0.0024337277 0.16548759 -0.056504022 0.055532113 -0.09634196 -0.080251604 0.112892285 -0.08514058 0.023447879 -0.112412736 -0.09530285 0.19918479 -0.009191273 -0.36948326 0.035338275 0.06301698 0.009826423 -0.19956855 -0.24914184 0.06470942 0.062299255 -0.002298878 0.21657471 0.0034731107 -0.028827999
36 -0.0006159051 -0.010018467 0.008046759 0.015242086 0.017818397 0.13101657 -0.033867836 0.008982119 -0.08705582 -0.044120755 -0.037101194 -0.08264267 -0.07336437 0.081176825 0.018225515 0.0073403446 -0.0036145668 0.04353481 0.08106193 0.0019345707 0.10414796 0.09820978 0.007452014 0.12516873 0.12420326 0.024560377 -0.17341085 -0.046963863 0.0585605 -0.15381451 -0.025882881 0.1078945 -0.10418687 -0.019977579 0.03565668 0.05187796 0.012828527 0.0017577884 0.033317085 0.04038271 -0.06946212 0.040384557 -0.06320667 -0.022906292 -0.03269276 0.0019370402 -0.07728223 0.12915201 -0.09200465 0.01530695 0.0014569077 0.02227902 -0.03334074 -0.07436233 0.03017087 -0.08924602 -0.08453812 0.010481799 0.030704234 0.052293222 -0.1733489 0.08768178 -0.051135436 0.018174551 0.23056835 -0.16332866 -0.068457395 -0.16936028 0.2010509 -0.00095963257 0.015349991 -0.044481844 0.037848044 0.016080987 -0.004818902 0.19385426 0.09820013 0.12688059 0.1195866 -0.15332492 0.026145212 0.01938187 0.17410605 0.10217569 -0.04648227 0.10298916 0.103377156 -0.09389666 0.029463215 0.22819372 -0.01808544 -0.24528256 0.011207769 -0.05778409 -0.035180368 -0.074925266 -0.33400702 0.11499896 -0.06253471 0.25746635 -0.07217821 -0.08355556 -0.034920555 0.057500236 0.08541971 0.1251241 -0.0043989997 -0.04874354 -0.03531019 -0.007522169 0.044602055 -0.0033570975 -0.24254455 0.031780865 0.20999211 -0.14647442 -0.37631804 0.0991306 0.0748658 0.14657779 -0.23264594 -0.4164703 -0.07533572 -0.1533778 -0.09022448 0.0845327 -0.19845249 -0.06456971
79 0.027668025 0.074545994 0.11281234 0.08503373 -0.03505541 -0.039979517 0.03017996 0.02335261 -0.091962844 0.0333446 0.013569307 0.08426539 0.02871728 -0.04547158 -0.006879222 0.07990656 0.038501717 0.017850991 0.15032221 0.072412685 0.07731825 0.06066442 0.024177633 0.0010058486 0.006645304 0.13444485 -0.014948059 -0.015933352 -0.10088139 -0.07501516 -0.006554456 0.06178374 -0.10739878 0.08470255 -0.10520704 -0.075143196 -0.09635644 0.05143597 0.09593249 0.017770953 0.04727926 0.012174661 0.21067733 0.04847272 -0.113054104 -0.06307783 -0.013529746 0.111944385 0.014301848 0.093752936 0.001935945 0.1264913 1.6073333e-05 -0.0068118013 -0.010102849 -0.039309803 -0.019456709 -0.07816486 0.059482127 0.21751875 -0.046756312 0.115357794 -0.100985 -0.077952474 0.14541702 -0.2219299 0.07255401 -0.11938486 0.20890895 0.07457298 0.013530156 -0.09772839 -0.010114619 0.09087383 0.079542115 0.2740642 0.07427375 0.13655281 0.23339435 -0.20563266 0.029851958 -0.06300015 0.1927187 0.06303654 0.033505484 0.004610116 0.009382025 -0.1037644 0.07330783 0.1517211 -0.025314897 -0.19047432 -0.051373217 -0.1765652 -0.012856845 0.023195062 -0.28108978 0.14600411 -0.013491551 0.21279196 0.0053476095 -0.12585688 0.02858119 0.021595612 -0.013128003 0.1605401 0.013360106 -0.081790425 0.0013471224 0.03978412 -0.10076646 -0.056826327 -0.0751744 -0.03247612 0.16277672 -0.0108920075 -0.3079497 0.16471718 0.13252963 -0.13597305 -0.24842425 -0.3375903 -0.028838316 -0.052248027 -0.05054188 0.19031325 -0.16211317 -0.0666145
41 0.10816878 0.10153509 0.112171695 -0.09928185 -0.041937295 -0.043770935 0.012753381 0.009175045 0.023482727 -0.00697479 -0.16185965 0.14642486 -0.01562713 0.024541467 0.014195171 -0.08586197 0.004024514 -0.014113366 0.033145133 -0.05982683 0.10944345 -0.15295857 -0.068898425 -0.018923135 0.1732939 -0.039535157 -0.064829916 0.026583947 0.04258926 0.05507855 0.014833653 -0.03801275 -0.08213667 -0.018279612 -0.08940088 0.026876401 -0.06343551 0.07689409 0.060766965 0.036456198 -0.0990441 -0.05932794 0.15583882 -0.080553025 -0.09148934 0.041961916 0.03217731 0.046394434 -0.055385467 0.2129123 -0.0026255555 0.2522991 0.13062988 -0.0038238456 0.09768887 -0.026113003 0.07080174 0.05967772 -0.122079626 0.03384707 -0.06866074 0.19902888 -0.04585699 -0.057640783 0.2458848 -0.11376303 -0.09344988 -0.29246864 0.22698474 0.052278984 0.10206312 0.002284399 -0.093675815 0.08687242 -0.026414217 0.2653297 -0.103508145 0.012241552 0.15027083 -0.07473973 0.062973976 -0.16341345 0.17674954 0.14434096 0.13246626 0.09926857 -0.08149519 0.08984562 -0.06468625 0.030867416 -0.15920508 -0.15315725 0.04722566 -0.093955316 -0.08774318 -0.113374524 -0.32097575 0.10275418 -0.011307281 0.24419938 -0.0966501 0.044916082 -0.13741559 -0.17780663 0.027190773 0.0742752 -0.0011586972 -0.16309285 -0.050434105 -0.0056627626 -0.13220729 -0.06939938 -0.03497669 0.0012929395 0.17946902 -0.16462095 -0.3283793 0.14110199 0.10501058 -0.07335069 -0.33064166 -0.29091904 -0.057496313 -0.12886316 0.05587286 0.13213693 -0.13681634 -0.032036744
105 -0.072262615 0.04378405 0.08948377 0.0730719 0.042426903 0.12211891 0.026145747 -0.08334054 0.0031144302 -0.0512452 0.10324543 0.01816525 -0.02674034 0.0070462166 -0.020162024 0.057067674 -0.021575943 -0.08703296 -0.013420107 0.013303593 0.030985914 0.02862875 -0.06968287 -0.050003517 0.117081515 -0.03933558 0.022340162 -0.09113665 -0.014639539 -0.01544255 -0.03522364 -0.024924496 -0.0820163 0.0701112 0.014887897 0.092369795 0.051003743 0.05478389 0.11808974 0.04371101 -0.17128964 -0.007044567 -0.0068631535 0.06485777 -0.040843245 -0.074841134 -0.023061045 0.17396031 -0.0130043 0.025851518 0.033773236 0.058910467 0.06416876 -0.017861556 0.075676575 -0.019605687 -0.0034673994 0.009002167 -0.0045334147 0.18134288 -0.12880538 0.03553665 -0.2424825 -0.21011712 0.2327727 -0.058080126 -0.051097766 -0.07322219 0.18089503 0.009137905 0.061548695 -0.09918501 -0.015426567 -0.0722607 -0.06348156 0.16699104 0.024482356 0.10437847 0.21520244 -0.029794138 0.14460447 -0.037918128 0.10612837 0.09505416 0.13100795 0.16303399 0.062176168 -0.08017442 0.12241991 0.15725161 -0.12705918 -0.15349925 -0.05492037 -0.21970375 -0.1657362 0.049039453 -0.24704395 0.11190911 -0.07824382 0.3870747 -0.118214905 -0.03710101 -0.094216146 0.085920595 0.018033631 -0.014728301 0.0050749336 -0.1010465 -0.026403617 0.012423251 -0.2141603 -0.042434227 -0.06998864 -0.018331923 0.1770523 0.0070601976 -0.3987128 0.055831473 -0.013035056 -0.08284537 -0.26338333 -0.26897955 0.0064197 -0.026298964 0.030616842 0.21458732 -0.07775585 -0.07905726
52 -0.016454143 -0.063911855 0.05978351 0.019421915 -0.03788368 -0.03412731 -0.13114144 0.03929338 0.001100891 -0.025154367 -0.030669311 0.061992932 0.056024417 0.11613642 0.02316586 0.012001725 0.004070536 -0.105251946 0.06266089 -0.06591546 -0.021089623 -0.025182359 -0.03436361 0.017856946 0.12208732 0.047323685 -0.05910221 -0.0682757 0.04955717 -0.088059135 -0.14280312 -0.028765908 -0.12913917 0.06040911 -0.049292672 -0.0072612935 -0.07899398 -0.0501791 0.20943242 0.10637338 -0.12688583 0.0533518 0.11978293 0.10480724 0.0069212145 0.05091522 -0.0074569 0.1506097 -0.03204522 0.06520714 -0.08793757 0.0491838 0.043763876 0.03987337 0.102441914 0.0055987663 0.038108725 0.08055359 0.03779411 -0.080093525 -0.0009420789 0.11685827 -0.12748611 -0.05942815 0.22030306 -0.07739702 0.00757672 -0.109254785 0.22559142 -0.0024334504 0.066190414 -0.14016019 -0.049981892 0.03276972 -0.015568792 0.2741782 0.10607716 0.120388865 0.17638825 -0.14833854 0.058945015 -0.105698384 0.04998382 0.15054514 0.08425514 0.102556445 -0.010049183 -0.021077143 0.00060597475 0.078083225 0.074085504 -0.12839644 0.016800145 -0.10030601 -0.111317396 0.0056376425 -0.33528456 0.17589548 -0.05816535 0.24234763 -0.064240746 -0.06895032 -0.01101713 -0.05286734 0.06764266 -0.08417514 0.0014636936 -0.06647628 -0.015686514 -0.06813328 -0.06215831 0.0100007 -0.033499464 -0.09379082 0.2860014 -0.05969847 -0.4521779 0.09313762 0.17264907 0.038393714 -0.1764207 -0.2766279 -0.0056847045 -0.057602953 0.0038443534 0.07794122 -0.05307996 -0.089651525
81 -0.08698673 -0.03843229 0.1294034 -0.03806247 0.044951063 -0.017916735 -0.11999899 0.030304633 0.006506075 -0.06980021 -0.049872484 0.019156514 0.0702361 0.048868872 0.06498966 0.048095252 -0.014783931 0.022494817 0.13468792 -0.048647944 0.014454846 -0.039007764 0.061255228 0.12790471 0.09672383 0.13682453 0.005916971 0.014603896 0.0126511045 -0.088057905 0.042767543 -0.10328091 -0.01534126 -0.033720173 -0.076193586 -0.012949378 -0.047939163 0.075314 0.022774331 -0.0012854508 -0.094656736 0.114993885 0.0033912163 0.12759316 -0.13828404 -0.069865845 0.015359024 0.06958622 -0.017936794 0.011342131 0.07208581 -0.039118093 -0.03645815 0.077301346 0.03466936 0.01626434 0.031012032 0.048282757 0.1093183 0.06437915 0.01928116 0.03046722 -0.09462557 -0.047976118 0.18689841 -0.2120501 0.049427807 -0.19807665 0.08505056 0.08516605 0.02998432 -0.025909035 0.061110146 0.023593826 0.06056875 0.36200622 0.09076256 0.036095213 0.072607264 -0.10426928 0.055077564 -0.13944943 0.03029558 0.12142501 0.0360848 0.08612505 -0.0056334115 -0.021849623 0.039132454 0.030023534 -0.11991384 -0.2506445 0.09275281 -0.0006274737 -0.2767465 0.03881525 -0.3327659 0.30304703 -0.0036388866 0.29904017 -0.09946602 -0.07296985 -0.15060072 0.028847247 0.08263861 0.011712222 -0.09285301 -0.1301552 -0.037213884 0.077684276 -0.18020818 -0.041380867 -0.056550995 0.0040969085 0.22344932 -0.0031976427 -0.3548955 0.11682611 0.13646072 0.03957937 -0.17134917 -0.24086167 -0.044621333 -0.2217878 -0.03440066 0.18864214 -0.03486797 0.06672314
48 -0.06374645 -0.058831677 0.012431014 -0.0014650358 -0.0553798 -0.055764087 0.02657371 -0.07821491 -0.0042881616 0.115784205 0.025754744 -0.013114564 -0.0387184 0.08061903 -0.0031576552 -0.052910198 -0.029979682 0.015266345 -0.012412669 -0.0016123127 0.059455503 -0.16629805 0.0025638528 -0.042395614 -0.0018528805 0.11718928 0.11379199 -0.031687826 0.0855712 0.048392136 -0.021630377 0.041265257 -0.015963096 0.040229008 -0.07169689 0.008007682 0.005417424 0.04726368 0.07453602 0.057853214 -0.12075165 0.09802085 0.12807702 -0.04504053 -0.08947788 -0.030960018 0.01812917 0.13666639 0.06755228 0.048459534 0.0017311448 0.09401798 0.047945775 -0.023641264 0.05883896 0.0068846676 -0.123623475 0.08307221 -0.009473998 0.11084316 0.004553023 0.08326669 -0.011130038 -0.06777691 0.2150636 -0.15570231 0.12810637 -0.09414742 0.16519313 0.014533766 0.022832133 -0.06264077 0.0030999104 -0.01800607 -0.010389829 0.2013264 0.024896733 0.15796795 0.120162934 -0.1836216 0.014144662 -0.16137886 0.17229441 0.1098468 0.1392917 0.035291273 -0.09649126 -0.026314856 0.10550444 0.044586595 -0.12309224 -0.14352429 -0.037442543 -0.11882584 -0.18478246 0.062276814 -0.42769724 0.20065375 -0.03888982 0.25698072 -0.024885846 -0.14798743 -0.066951 0.037951216 -0.10744116 0.07090047 0.064173184 -0.013043855 -0.1467997 0.03838492 -0.15958893 -0.039386414 -0.13131791 -0.021755952 0.20956309 -0.07164405 -0.23850521 0.04371013 0.093964666 0.06241474 -0.20247091 -0.280491 -0.06323652 -0.038279384 -0.022350762 0.16383363 -0.25874132 -0.0589291
71 0.046962857 -0.01071827 0.0583336 0.0039001498 0.092060246 -0.03544868 0.03028199 -0.07693128 -0.05328888 -0.010049782 0.0722894 0.076040566 0.03809361 0.083585404 -0.07812849 0.0022859646 0.034619797 0.06538161 0.016988881 -0.034256697 -0.04267269 -0.011937104 -0.005979045 0.0015741203 0.058893617 0.059032883 -0.08201773 -0.111548565 -0.017810341 0.003037809 0.13253821 -0.047111258 -0.13745598 -0.036941018 -0.024297385 0.05412169 0.06816704 0.11708455 0.15429775 0.014259154 -0.10178125 0.018282225 0.076949485 -0.05345278 -0.03435198 -0.045227632 0.053586617 0.08373611 0.061180457 0.12639241 -0.08410257 0.072295934 -0.065695606 -0.017257277 0.10684163 -0.05415815 -0.10621587 0.10701358 0.0480058 0.10419501 -0.012549498 0.09698566 -0.000526024 -0.14069465 0.1142672 -0.16387679 -0.02173791 -0.16906054 0.17970684 -0.03353502 0.06938716 -0.03830894 -0.07613564 0.09094709 0.10949925 0.23147534 0.16343136 0.110183485 0.1113322 -0.10030245 0.10187533 -0.100991584 -0.022645712 0.0698657 0.08206019 0.08914245 0.0096381605 -0.14035714 0.13057363 0.05324956 -0.061860643 -0.26589027 -0.04865558 -0.053747837 -0.08205957 0.073475726 -0.35119018 0.1918246 -0.121223524 0.19189227 -0.024798954 0.015655927 -0.068204656 -0.084777765 0.11700458 0.05510579 0.04851682 -0.09399823 -0.033473063 0.016253166 -0.16525458 0.056858722 -0.103321046 0.06574372 0.06042146 -0.021291992 -0.29729778 0.036056995 0.19213846 0.027707608 -0.31348523 -0.39666167 -0.07743213 -0.1529619 0.01929984 0.1563682 -0.09890085 -0.053268656
114 0.02597994 0.095310725 0.094024375 0.0048346557 0.08914253 0.036166906 0.038217325 0.035092 -0.03420139 0.0075724875 0.043594945 -0.032600407 0.1205889 0.02204906 0.004835492 0.034813453 -0.049864016 -0.04321325 0.050097093 -0.021673234 -0.018425014 0.0039722794 -0.024429698 0.00510225 -0.06663616 0.051711407 -0.067935765 -0.09146102 -0.1360694 -0.048830174 -0.0655023 -0.026679166 0.15359798 0.04892598 0.04989549 0.18332098 -0.026113827 0.04917991 0.086234264 0.17999008 -0.052839752 -0.007198559 0.076130696 0.014030924 -0.048393328 -0.07091195 -0.08651178 -0.005237172 -0.08419759 0.10767737 0.08522845 0.11626139 -0.02139858 0.023634449 0.078598514 -0.067916624 -0.0011699409 0.016002437 0.0027729282 0.09606076 -0.065523244 0.10091412 -0.20964558 -0.065233245 0.16625953 -0.11074092 0.003419608 -0.20558509 0.16085608 0.114412464 0.051229905 -0.010105658 0.008628907 0.0015749969 0.13489567 0.26280105 0.084016874 0.010972729 0.100859664 -0.05389385 0.09798122 -0.015950399 0.1715772 0.15161735 0.09102948 0.019049833 -0.051659577 -0.12836942 0.08520297 0.10949181 -0.12196469 -0.12187203 0.021942278 -0.23722577 -0.20116626 0.031256188 -0.3101042 0.24268568 -0.08093798 0.2409239 -0.1288782 -0.11155772 -0.11656276 -0.053607572 0.078629725 0.0043890863 0.066112675 -0.008602715 -0.044293787 0.0169979 -0.0947615 0.10208852 -0.040110666 -0.008330517 0.2722398 -0.11039292 -0.32676563 0.15463898 0.023013534 0.03069834 -0.2931043 -0.19851786 0.03224351 -0.053561054 -0.012884728 0.21124431 -0.1251443 -0.18229218
103 -0.03239172 -0.0047303764 0.02392236 0.073735185 0.0005764509 -0.08988986 0.0006572275 0.029888913 0.11328075 0.05121753 -0.059883807 -0.018306553 0.018322159 0.08543139 0.046063498 0.05091829 -0.06181349 -0.0013701904 0.026675358 -0.022754377 -0.07324752 -0.0005984832 -0.07333464 -0.022301177 0.026059007 -0.079995945 -0.0022206944 -0.015868729 -0.056413144 0.00050369697 -0.008453513 -0.08049792 -0.037853997 0.109745696 0.010803536 0.14746273 0.057497803 0.07302634 0.17597862 0.0393193 -0.07228723 0.013618459 0.06325983 -0.0009894907 -0.11609185 0.03768688 -0.0399242 0.12248147 -0.066133484 0.024906907 -0.073997594 0.122386724 -0.083663225 -0.08493676 0.07180724 0.034671154 -0.080324374 0.04747535 0.052822813 0.14720745 -0.010522979 0.06581696 -0.10751905 -0.08680678 0.18044381 -0.101856805 0.031524073 -0.119362965 0.17832509 0.033751536 -0.042951554 -0.020055696 0.06173777 0.055506334 0.023503346 0.21560407 0.0887958 0.098517075 0.14108352 -0.2152562 0.086805455 -0.11546837 0.11316138 0.13111502 0.106547736 0.14992164 -0.014958808 -0.08571894 0.078948095 0.049982905 -0.079364255 -0.12556642 -0.004735804 -0.16529387 -0.061814137 0.013911077 -0.3418082 0.23065941 -0.14127514 0.21996611 -0.09662492 -0.033000875 -0.08838792 -0.030961106 0.17558439 0.06545461 -0.020213684 -0.058108695 -0.011009246 -0.010873058 -0.13453534 -0.0052902717 -0.09976239 -0.09099218 0.19661762 -0.13995534 -0.37821713 0.11792027 -0.01802077 0.06758352 -0.26841748 -0.18955383 0.07651289 -0.07251517 0.07501872 0.2530411 -0.102078885 -0.027194003
99 0.082307324 0.0075282925 0.018511536 0.09452943 -0.07384812 0.11963673 0.10975532 0.062165074 -0.014773311 -0.00575945 0.03653112 -0.021048978 -0.024738953 -0.05164778 -0.051504336 0.06342932 -0.011002751 0.04584759 0.15879816 -0.096823156 -0.045792166 -0.10793231 -0.09309817 -0.04147778 0.055611804 -0.03133955 -0.008551656 -0.046251312 -0.105703615 -0.07681903 -0.014334609 0.054451287 0.07651886 0.025939345 -0.1005467 0.051573507 -0.07583553 0.005443462 0.06870537 0.056863427 -0.092558175 0.011916978 0.008804463 -0.009294965 -0.11612317 0.019990679 -0.07054861 0.08921921 -0.115884356 0.12470825 0.005688841 0.08856418 -0.037562136 -0.082403846 0.18553717 0.01141366 -0.034740258 0.0009421631 -0.0084228 0.07643826 -0.084069274 0.14784703 -0.046453808 -0.06599627 0.15615208 -0.21172668 0.13707249 -0.088310614 0.17100905 0.1292253 0.1476952 -0.016822957 0.04117644 0.060555972 0.11279254 0.19151449 0.10928797 0.12157661 0.09127449 -0.16476043 0.08745522 -0.014270122 0.041183114 -0.037621804 0.10180563 0.004313524 0.069399245 0.016029803 -0.03379066 0.17973296 -0.10621136 -0.12648278 -0.013692394 -0.16744925 -0.17363213 0.020588443 -0.36809713 0.15251961 -0.022860792 0.31343323 -0.07950965 -0.12678267 -0.15843849 0.025864959 0.053463884 0.015976848 0.08617031 -0.089325406 -0.057943188 0.026054155 -0.10368609 -0.053044535 -0.04424211 -0.08076991 0.24000229 -0.015750177 -0.4824677 0.09161849 0.030242782 0.03448376 -0.23309186 -0.16019101 -0.088784374 0.011713179 0.00038903908 0.25356567 -0.0086078495 -0.054123
