163 128
5 0.08083765 0.074917495 0.009121285 -0.053029757 0.089629985 -0.024407117 -0.021020947 -0.024436671 0.0049752365 -0.06513848 -0.0010862793 0.05425929 0.051552605 0.033334397 -0.05489135 -0.023614751 0.070801266 0.07031474 0.06345864 0.07402983 0.008122416 0.040634528 -0.13400725 -0.11411109 -0.019830836 0.042614892 0.12271589 -0.04694271 -0.15603305 0.0901361 -0.09297397 0.074780256 0.12299284 0.045713227 0.03519707 0.007171585 0.015637603 -0.08410496 0.17769553 -0.15826724 0.14491063 -0.007911583 -0.09381307 -0.086131714 0.018187903 -0.0912089 0.038148805 -0.10010028 0.027604578 -0.048794113 -0.059046634 0.03550961 -0.012547588 0.1015506 -0.026229866 0.11071842 0.10266444 0.063215464 0.18813987 0.009432237 -0.080868736 -0.025245719 -0.0520249 0.055089153 -0.10247526 -0.0061616325 -0.109517775 0.15597787 0.11793264 0.099757776 0.09793975 -0.00050259405 -0.15741388 0.09935494 -0.0958008 -0.12782076 0.0131758675 0.09194192 0.07668065 -0.09511988 0.10866925 -0.04240742 -0.051304936 0.03086589 -0.024372121 -0.04489854 -0.085496515 0.108166315 0.098967545 -0.006834775 -0.05847111 -0.092096075 -0.09636575 -0.0061164596 -0.16253375 -0.04271942 -0.026386261 0.03986392 0.07150531 -0.06772198 -0.03921686 -0.11574184 0.0051554153 -0.13351163 0.06217491 0.104935765 -0.06871346 0.14111885 0.009409362 0.2030556 -0.2638792 -0.030343056 0.013985357 -0.0942276 0.0968192 0.046295296 -0.040970422 0.0743064 -0.1146796 -0.0071699354 0.0865635 -0.0008617907 -0.06908719 0.12893301 -0.12591727 0.15346727 0.04002815 0.0599386
21 -0.087571435 0.06516757 0.056555606 -0.015324306 0.032350034 0.030395934 0.006957268 -0.048815276 0.038051464 -0.026717983 0.01663211 -0.010957426 -0.020667437 -0.021164361 -0.0055247513 -0.015405399 0.08392268 0.07596306 -0.05202722 -0.050384987 0.107559495 0.08865466 -0.06831298 -0.0459942 0.12978446 0.04956835 -0.00078560674 -0.09779448 -0.06073988 -0.22167069 -0.045271352 0.0561607 0.0047006924 0.05784971 0.1414824 -0.017859315 -0.0015782057 -0.13679166 0.10713513 -0.047330312 0.09659784 -0.008241804 -0.0631128 -0.14901221 0.047001988 -0.12022264 0.06358973 -0.10828888 0.0983979 -0.0496734 -0.07286757 0.09428009 -0.014302828 0.08259125 0.0673294 0.08560048 0.14620216 0.080373935 0.08507126 -0.10108557 0.0196997 0.05264476 0.044245232 0.10087428 0.015255315 -6.7962654e-05 -0.19218563 0.17558467 -0.004717721 0.17832549 0.09636582 0.017064437 -0.2296052 0.042478025 -0.072728634 -0.00020407197 0.032554366 0.080142915 0.0035716838 -0.0073240045 0.12351602 0.06939764 -0.12860876 -0.03220183 -0.07123723 0.007616087 -0.04912989 0.046791278 0.19070381 -0.10821185 -0.13266227 -0.1035704 0.030327735 -0.1898566 -0.19130874 -0.14431156 0.0689743 0.045128234 -0.007584826 -0.07481558 -0.106728405 -0.07817004 0.021276517 0.042187326 0.02445486 0.06674349 0.0041113505 0.14864452 -0.00230119 0.1450478 -0.046103094 -0.06558239 0.005889209 0.052531272 0.10013699 0.12886706 -0.052501917 0.06980881 -0.017384972 -0.0065783216 0.08752669 -0.034026135 -0.07965591 -0.0042853947 -0.15520588 0.26884857 -0.009733707 0.0018827203
18 0.0064373813 0.034891523 -0.039301917 -0.07128411 -0.05236182 0.036618497 0.012796305 0.02715206 0.01572905 -0.117297396 0.05797797 0.052847035 0.013139848 -0.014631162 -0.049867094 -0.036860887 0.124167755 0.058432877 0.0115715945 -0.061873946 0.04782931 0.030024169 -0.07629857 0.042620983 -0.04061126 -0.01897346 0.041051507 -0.033530463 -0.1067802 -0.0067351186 0.03366894 0.118193574 0.042752024 -0.08039537 0.047668047 0.0630397 0.1260262 -0.099918425 0.089968845 -0.0735715 -0.029220957 0.10705058 -0.05012839 -0.037780046 0.16646223 0.063670136 0.13862598 -0.013820053 0.07121277 -0.07269245 0.0056151343 -0.03579139 0.023500018 0.10113077 0.06585018 0.07426765 0.17597532 0.119202316 0.166852 0.046928246 -0.057700958 -0.06695441 0.0005582793 -0.014054835 -0.05263727 -0.020736914 -0.20439324 0.21769154 0.050317015 0.019320752 0.1236359 0.01663258 -0.21024497 0.12382816 -0.0037110404 -0.06348218 0.09013012 -0.02843583 -0.015489464 -0.012940783 0.07936596 -0.07530045 -0.033922277 0.11561533 -0.057784174 0.005820494 0.050169412 0.054183528 0.014342241 -0.019688318 -0.08212053 -0.1263316 0.0013746336 -0.14601488 -0.014101541 -0.18423328 -0.018963289 0.040674277 -0.01949096 -0.0104123475 0.07171678 -0.056161616 -0.036428735 -0.06570742 0.048511356 0.21509385 -0.031486392 0.24090563 0.016616387 0.13482383 -0.22680259 0.0033393868 -0.04640019 0.053885505 0.105795525 0.07416796 -0.05325066 0.08666964 -0.098717 -0.19865118 0.092647284 -0.060187135 -0.1898528 -0.017364053 -0.049138688 0.28486818 0.07499919 -0.07371827
2 -0.008319603 0.04131682 -0.022928726 -0.024882864 0.05779746 0.060006384 -0.006857947 -0.05289388 0.15064935 -0.07629986 -0.014300959 -0.023748403 0.06605485 0.01064315 0.043284245 -0.124541715 0.11363596 -0.027320907 -0.044933945 -0.017109614 -0.014716477 -0.010503601 -0.037706986 0.011929185 -0.004248005 -0.063286014 0.044158373 -0.0020595398 -0.12030117 -0.14139867 0.0015138789 0.03352853 0.022309208 -0.09277412 0.013574465 0.016509555 -0.033465188 -0.120358326 0.15818381 0.0034364655 0.023854991 -0.09394017 -0.043308858 -0.08076598 0.05478903 -0.08269244 0.042830344 -0.09809776 0.08248045 -0.05619305 -0.2020932 0.0492129 0.019661048 0.051587466 0.058606 -0.03816415 0.062105954 0.09924379 0.11069184 -0.029057018 0.057281826 0.058806434 0.058552798 -0.00031033214 -0.094459035 -0.14492652 -0.092372544 0.15762228 0.032818466 0.102130786 0.16349103 -0.042913176 -0.29333246 0.090637155 -0.08441111 -0.07239956 0.04102095 0.054314498 0.10075513 0.013899332 0.12872683 -0.057790957 -0.08385171 0.06377184 -0.12677148 0.067321666 0.0005013997 0.080916785 0.14697903 -0.026980812 -0.08548633 -0.21968934 0.065859556 -0.08814507 -0.19300118 -0.07828528 0.0016860482 0.021434292 0.0024511032 -0.04485776 0.12770668 0.02797949 -0.04817613 -0.12090973 0.14001109 0.1099817 0.062404282 0.095334046 -0.024593163 0.10076812 -0.07602956 0.035500392 0.037667792 -0.019316897 0.108617105 0.019759433 0.033565994 0.094452105 0.06227862 0.07991848 0.17464687 -0.05115222 -0.014394975 0.10186471 -0.061366785 0.2768518 0.07747636 -0.0006154034
16 0.08128221 0.1365056 0.03476994 -0.012371909 -0.07478636 0.059074692 -0.0771364 0.02423901 0.15786098 -0.034028124 -0.06798289 -0.0036901825 -0.061810043 0.10539165 -0.023926472 0.15241624 0.10018162 -0.03443459 -0.031557918 0.10737747 -0.014922383 0.014725465 -0.1016693 0.0014485917 0.0136991935 -0.0377204 0.08874003 -0.07548449 -0.08577312 -0.124768645 -0.058927696 0.025399666 0.025190273 -0.029442329 0.14166288 0.037297864 0.0974616 -0.11186055 0.09253223 -0.12131092 0.046701394 -0.03489319 -0.15604846 -0.13393477 -0.12898414 -0.018130105 0.20551972 -0.13991727 0.11442134 0.040267613 -0.08113947 0.10308388 0.040987235 0.06792538 0.04085008 0.07476451 0.055053208 0.061614912 0.121879324 -0.032946143 0.035070505 0.07883657 0.13675486 0.096040726 -0.046198 -0.10673582 -0.003184795 0.13841972 0.047412276 0.08367607 0.13849717 -0.016429063 -0.18629707 0.13659467 -0.07189357 0.03229366 0.046600603 0.029623216 -0.059887737 0.04215576 0.09504016 0.07381187 -0.11541759 -0.009097346 -0.14641517 -0.11350988 -0.014795305 0.040286206 0.08562563 -0.038936306 -0.089519866 -0.11862739 -0.00024442276 -0.16092406 -0.15113823 -0.04202913 0.04236532 0.08364058 -0.043322872 0.017424813 0.047235142 0.015164062 -0.02676582 -0.1691216 -0.018645009 0.09287331 -0.06504731 0.1422462 0.10187518 0.09101491 -0.19541155 0.039265536 0.04462318 -0.046213087 0.03216059 0.036976114 -0.06774321 -0.01364257 -0.051859457 -0.12077134 0.13293177 -0.08847878 -0.11907563 0.03866205 -0.10600516 0.2508001 0.12204432 -0.054040384
23 -0.08997928 -0.0025230972 -0.0059796246 -0.035939574 -0.0061406195 0.023623163 -0.04327881 0.076053955 0.010713671 0.029716233 0.11147309 -0.040563144 0.0061822617 0.023120178 -0.043299213 0.01907682 0.21747021 -0.0369475 0.017409384 0.0920883 0.0020434677 0.017725246 -0.11588212 -0.0068451976 0.050734855 -0.010429687 -0.025325703 -0.08904874 -0.20397548 -0.073565476 -0.053304523 0.09455444 0.007436933 0.013593574 -0.00016652315 0.11358258 0.025191806 -0.116779216 0.062448956 -0.087134 0.07061404 0.044198174 -0.050966486 -0.12621413 0.079443924 -0.024141612 0.072014034 -0.039356254 0.05249913 0.01959358 -0.023691107 0.0966653 0.04637433 0.024834845 0.027329618 0.100155644 0.1266242 0.0836466 0.16287296 0.0133743035 -0.07666961 -0.024882317 -0.0042752894 0.10985723 -0.05656585 -0.13986272 -0.1449151 0.16135441 -0.06494775 0.08612877 0.021277241 -0.01631138 -0.16784625 0.13513982 -0.09294281 -0.050375637 0.056200504 0.05870441 0.0192931 0.18492828 0.012990112 0.021911677 -0.080577254 0.033676825 -0.0046015936 0.011649616 0.08978054 0.07099768 0.11922694 0.10951275 -0.08259091 -0.1070964 0.011417728 -0.09406821 -0.067515485 -0.17566612 0.011172336 -0.0088844765 -0.028592791 -0.13570262 0.018052608 -0.06945669 0.016190616 -0.10771013 0.08717918 0.14938949 -0.055143707 0.090943426 -0.01025993 0.062384468 -0.20144182 0.009407722 0.04010128 -0.05425822 0.06355338 0.07000855 -0.014593525 -0.07138216 -0.108351596 -0.056168873 0.1705244 -0.14544436 -0.15354049 0.0017892172 -0.091966234 0.24807431 0.070270315 -0.007861562
1 -0.03446478 0.0058441367 0.0034151305 0.06838264 0.051329598 -0.059920996 -0.10218656 -0.1408053 0.12757497 0.005216927 -0.0052192365 0.08896393 0.008503828 0.07664274 -0.08192563 0.117167495 0.15173946 0.08383839 0.03452823 -9.053135e-05 -0.11920221 0.10577233 -0.08605903 -0.09580176 0.016354077 0.08156686 0.008065048 -0.02846355 -0.16925637 -0.120471716 -0.0186448 0.11619307 0.062357064 0.03788158 0.018726487 0.04085759 0.11184475 -0.15559591 0.11550747 -0.018831065 0.0046679527 -0.041753393 -0.11476994 -0.11161314 -0.031433955 0.09365398 0.14573154 -0.12599681 0.08296511 -0.024652554 -0.077213325 0.08455419 0.05791923 0.030067526 -0.0546293 0.037498444 0.06685597 -0.045926772 0.13094239 -0.075630344 -0.046804417 -0.0321539 -0.04160944 0.07988587 0.043119058 -0.10038221 -0.01967357 0.15871154 0.0989562 0.06456139 0.09099414 -0.035842396 -0.123052694 0.09413692 -0.09406266 0.0020138887 0.090039775 0.06719246 0.006678439 0.03695767 0.10024462 0.07074569 -0.060094174 0.15123583 -0.08111416 0.070365354 0.008581195 0.07380761 0.15323998 0.084820844 -0.10028043 -0.10461857 -0.030643346 -0.19195598 -0.16462076 -0.11342538 -0.036293358 -0.028691072 -0.04750233 -0.07091545 -0.031219414 0.024429403 -0.012935673 -0.14669272 0.19206671 0.12146963 -0.038450684 0.10301634 0.006891151 0.09679402 -0.08728766 -0.00787157 -0.05322662 -0.040836 0.14320673 0.12487526 -0.023729548 0.07729479 0.002695079 -0.00141095 0.034961145 -0.039895352 -0.09547451 -0.013778783 -0.061451375 0.24981296 0.0026130208 -0.03681259
31 0.003686524 -0.006868632 -0.07459247 -0.035310283 -0.017727822 0.034111723 0.026252734 0.09332679 0.032766905 -0.24679562 0.027755784 0.07021434 -0.078311786 0.031289637 0.050294142 -0.18055348 0.1106082 0.06926526 -0.09977156 0.021778544 -0.04029465 -0.097639024 -0.13106148 0.006999633 0.09941816 -0.07333446 0.084301256 -0.056147832 -0.16887975 -0.040108643 -0.057116892 0.053027313 0.05844065 0.09305933 0.04556333 0.002098758 0.0460526 -0.123179115 0.09116634 -0.074261725 -0.03105249 0.053749964 -0.16198084 -0.08302112 0.031081278 0.007906566 0.03923599 -0.022041205 0.07769777 -0.10715648 -0.043342017 0.07399296 0.1501942 0.061390385 -0.028735865 0.0056678043 0.06425312 -0.025398102 0.12560225 0.031715527 0.051943693 -0.004525057 0.0477958 0.021629289 0.017948156 -0.08101029 -0.06741633 0.012083726 -0.022681057 0.15384024 0.12410853 0.08152244 -0.19839808 0.116447225 -0.073908605 -0.07935351 0.11606206 0.08127195 -0.015696654 0.013017991 0.08306139 0.038042095 -0.18392709 -0.033534326 -0.07191605 -0.056050528 0.070488654 0.08449585 0.07589366 -0.057071432 -0.11053922 -0.17179377 0.01567901 -0.07475066 -0.13099095 -0.119668126 -0.064688295 0.028010754 -0.026654353 -0.04704699 0.08334939 0.005356753 0.0060832608 -0.056005042 0.11434027 0.076824635 -0.09091327 0.07155512 0.05566823 0.19289277 -0.13113746 0.012344388 0.016370092 -0.059224527 0.09676363 0.044927943 -0.20257472 0.05232634 -0.12994486 -0.010075766 0.16084835 -0.11258959 -0.14758265 0.055161536 -0.02391629 0.20110695 0.1151767 0.04860636
40 -0.05918154 -0.011775082 -0.033316568 -0.035541818 0.034645647 -0.01953879 -0.019746725 0.10285107 0.084781736 -0.036002472 -0.061729334 0.0693586 0.05327172 0.059567444 -0.101772115 -0.081546605 0.17339812 0.07364893 0.0177379 0.09366409 0.037398133 0.08051703 -0.07847183 -0.06317644 0.023946915 -0.00732899 0.04538822 -0.020839376 -0.13877013 -0.16135685 -0.11706905 -0.0036787929 -0.008151539 0.0721476 -0.05124068 0.01699527 0.039979663 0.044345777 0.14366299 -0.1221272 -0.06326058 0.0019251193 -0.24950843 -0.06799605 0.08699373 -0.05542498 0.037508793 -0.12392496 0.11984176 0.08793718 -0.02366434 0.030176459 0.013205657 -0.08157235 -0.05503869 0.0011135034 0.15489231 0.069276206 0.058811825 -0.032203794 0.049852222 0.0480462 -0.017837256 0.10857552 0.014727288 -0.08608434 -0.01638168 0.07560089 0.020852854 0.10855328 0.17682461 -0.080185324 -0.20401445 0.076204054 0.014319365 -0.08593491 0.024348648 0.06724453 -0.039137207 0.048423167 -0.009954836 -0.015391119 -0.18760568 0.108967066 -0.042391546 -0.016115906 0.008538255 0.20269091 0.047654297 0.012791047 -0.15740624 -0.10056117 0.110073484 -0.11807984 -0.12332591 -0.092988074 -0.034034107 0.058794603 0.042684782 -0.04819152 -0.026363248 0.048225317 -0.053997006 0.036140304 0.10073285 0.18600923 -0.03251181 0.25370705 0.022191644 0.067512274 -0.15356705 -0.063801445 -0.02133548 -0.03224326 0.1393804 -0.0093575455 -0.035071854 -0.12270686 -0.1089525 -0.0047310824 0.22634688 -0.1024155 -0.12638623 -0.035840593 -0.16289364 0.18672164 -0.036362953 -0.08598396
17 -0.1348265 -0.10946842 -0.051535483 0.034757048 0.019165292 -0.038148325 0.01608769 -0.003937868 0.21058919 -0.110999145 -0.057402037 0.0788307 -0.025604852 0.04256507 0.045065735 -0.024649078 -0.04970192 -0.050025944 -0.09650774 0.03363831 0.054698233 0.017573077 -0.117869556 -0.113467 0.023571748 -0.019691026 0.02010382 0.058762446 -0.049673237 -0.02665024 -0.0419159 -0.013880149 0.15603158 -0.006010986 -0.08280157 -0.110888004 -0.037414916 -0.07553686 0.0723388 -0.09223018 0.041326884 0.08486752 -0.13072295 -0.12075304 0.1037586 -0.06782038 0.08470662 -0.09335749 0.1526574 0.025605945 -0.12699151 0.093845196 0.020521369 0.0940602 -0.13838144 -0.008031518 0.112559974 0.08868904 0.109253235 0.054654833 -0.07908303 0.008389257 -0.0067034736 0.09314351 0.049712412 -0.058269154 -0.14891066 0.11292874 -0.052407555 0.120371 0.010468379 0.04211567 -0.09390796 0.08634525 0.009817986 -0.02910421 0.1026087 0.09819252 0.038597014 -0.13299778 0.082027 0.051212385 -0.10387846 0.13879685 0.04426901 -0.021974456 -0.072575144 0.16002065 0.11766995 0.018853966 -0.026820086 -0.17142777 0.011072165 -0.015874404 -0.1102462 -0.10394198 -0.012204532 0.0075287023 0.081619635 0.024664678 0.075792715 -0.13302946 -0.08560023 -0.10350184 0.024680309 0.26744565 -0.091260925 0.18108211 0.06559096 0.13362896 -0.14663576 0.023750504 -0.02182025 -0.09515272 0.10924543 0.08907353 -0.06581046 -0.021723622 -0.07439746 -0.04319528 0.12536697 -0.093146846 -0.045882273 0.15271994 -0.15597841 0.23624162 -0.027893668 0.02927735
27 -0.007867713 -0.045604575 -0.06193523 0.037555184 0.023154262 -0.034372408 -0.009044998 -0.04322578 0.11271801 -0.18133256 -0.04178531 0.0391036 0.0498581 -0.104571074 -0.013626689 0.014333593 0.1106892 0.042243373 -0.025099594 -0.10762787 0.018514182 0.084730886 0.015601743 -0.087283514 0.008830847 0.006454948 0.100954264 -0.06504707 -0.20464577 -0.07607852 -0.05934253 0.03006258 -0.04376494 -0.09277794 0.03199158 -0.008738363 -0.07986703 -0.10495196 0.15818606 0.029624322 -0.10830519 0.016374754 -0.09616552 -0.08283517 -0.049906846 -0.0062575783 0.10297565 -0.13503537 0.120040126 0.0044698655 -0.009840265 0.050893858 -0.05916897 0.037423845 -0.10073114 0.04780488 -0.13793679 -0.0752315 0.046302192 -0.023319 0.079329506 -0.0066756695 -0.004688664 0.086805865 -0.06552772 -0.11929598 -0.17667569 0.14332889 0.10249543 0.1953941 0.0084244255 0.018732773 -0.07013697 0.28934005 -0.0012686774 -0.024002828 0.06653287 0.14477442 -0.048701413 -0.09835171 0.018647105 -0.011380556 -0.0916905 0.13817579 -0.08937647 0.03787389 0.031800397 0.03817333 0.10537077 0.0016608111 -0.12600344 -0.11120857 -0.011641602 -0.018349208 -0.07133267 -0.1119945 0.15204996 0.14018491 -0.13565142 -0.023325719 0.112354346 -0.032338236 0.033160362 -0.13259006 0.062499177 0.12341498 0.03327396 0.20493938 0.0035113785 0.26906434 -0.107243076 -0.07589002 0.07984888 0.007727856 0.04392554 -0.0010725392 -0.16354826 0.009676877 -0.09169599 0.018678095 0.072044715 -0.009798292 -0.114040084 0.0374361 -0.1723636 0.24841638 0.018553544 0.007848946
12 -0.091508225 0.056665406 -0.010769384 0.14002898 0.09140517 0.03434914 0.055000264 -0.09516674 -0.031775523 -0.051074117 0.020875016 0.009421289 0.009115031 0.07107975 -0.07069848 0.025379883 0.16284212 0.1358194 -0.08246775 0.0141866505 -0.13707706 -0.012404326 -0.07978057 -0.04295789 0.038417693 -0.026876414 0.073807515 -0.12935515 -0.1364698 -0.12666817 -0.1634827 0.13231876 0.082008444 0.020204267 0.078322895 0.11855215 0.095326565 -0.12983397 0.1289854 -0.082821965 -0.017321736 -0.041791305 -0.11628375 -0.1212756 0.01122372 -0.080450326 0.1011317 -0.058239188 -0.035242442 -0.084257215 -0.049283735 0.06522941 -0.15414143 0.11727252 0.08539237 -0.05301179 0.1626907 0.09019713 0.16601884 -0.091548845 -0.013357242 -0.0984108 -0.04877752 0.11081278 0.018445233 -0.14655721 -0.11934342 0.101083025 0.11664658 0.12872551 0.07419484 0.0009956332 -0.06551744 0.091203935 -0.020485811 -0.14080288 -0.011394373 0.049611185 0.025619281 0.019452281 0.07569151 -0.01260297 -0.17840876 0.12875494 -0.050231956 -0.08790112 -0.030902147 0.10001929 0.098421715 -0.040530466 -0.0501345 0.025352463 -0.045293216 -0.06808072 -0.09142242 -0.114717096 -0.051036112 0.001576438 0.14571904 0.0022707067 0.07648359 -0.0660305 0.0063247965 -0.065464504 0.091426656 0.17248063 -0.08329029 0.13418955 0.040101916 0.11405845 -0.0784758 0.059976276 0.0787079 -0.0218787 0.12931244 0.018111447 -0.01994091 0.0811809 -0.015490234 0.0460901 0.17792343 -0.0517526 -0.13618413 0.07022479 -0.19736095 0.14665818 -0.021101343 -0.0077470955
28 0.016413968 -0.02299745 -0.10812029 -0.04395661 0.091905445 0.0082901195 0.07461299 0.05562658 0.10926974 0.020124933 0.044630297 -0.040484805 0.041346084 0.006073754 0.03283199 -0.016907256 0.10327566 -0.031415146 0.10298536 0.110225886 -0.07573706 0.049530726 -0.07409662 -0.03235422 0.06351704 0.091999434 -0.018029535 -0.037448984 -0.14427903 -0.12450656 -0.024672745 0.12019659 0.01509356 -0.067592196 0.054317046 -0.008487675 0.08492271 -0.119282514 0.13478097 -0.025887217 -0.025949096 0.015409122 -0.09487384 -0.20872454 0.002308877 0.017917274 0.04436695 -0.064436466 0.13434057 -0.066215746 -0.035007868 0.03510798 0.042419523 0.12820913 -0.03940333 0.080917835 0.08734374 0.18025334 -0.008867862 -0.07218629 -0.038035877 -0.013759348 -0.022091605 0.041003224 0.0151540525 -0.15537055 -0.14801732 0.04692171 0.07916737 0.10283225 0.045076568 -0.027553942 -0.23462084 0.15240705 0.02558428 -0.11206987 0.18532205 0.055108044 0.016655052 0.05141972 0.11818758 0.09651639 -0.13052832 0.029209817 -0.08223209 0.047592133 -0.05525788 0.07101448 -0.0026633595 -0.035517577 0.010228526 -0.11500207 -0.016143624 -0.07108865 -0.1137911 -0.19047862 0.086501054 0.07564988 -0.06345355 -0.05996073 0.0405374 -0.07507508 0.0724099 -0.11071294 0.0043350714 0.15925334 -0.07690773 0.11660685 0.0172606 0.17211598 -0.079117894 0.08960453 -0.044773877 0.06594301 0.18741737 0.030216033 -0.016768996 -0.010840983 -0.08752898 -0.07027856 0.09165499 -0.077013195 -0.10053131 0.07968451 -0.020652259 0.24825203 0.047403287 0.03512126
8 0.05227911 0.017395126 -0.0055269133 -0.044386998 0.090865605 -0.013356487 -0.07610496 0.061052434 0.12317833 -0.14591704 -0.16019006 0.025527641 -0.07332062 -0.04180413 0.06562967 -0.081510685 0.09549249 0.04069273 -0.003954494 0.06473509 -0.06188695 -0.076089315 0.05450855 -0.066891365 0.05832178 0.07179077 0.041346867 0.0038923572 -0.115121424 -0.053205233 0.06480741 0.011626692 -0.014518329 0.03936884 -0.041965026 -0.007887051 0.06755903 -0.13269266 0.07268678 -0.029517004 -0.039588384 0.033737376 -0.17406812 -0.1343181 0.10880476 0.08922974 0.041749235 -0.059480887 0.07511535 -0.027155276 -0.105432846 0.074606605 -0.056870017 0.14031452 -0.03348627 -0.047130164 0.06922482 0.016088568 0.11865462 -0.0080368705 -0.06438764 -0.0359361 -0.109318055 -0.008364852 -0.031378448 -0.14414415 -0.08110199 0.1321208 0.011063219 0.21324681 0.088788606 -0.014690125 -0.16592936 0.15557915 -0.031154716 -0.07653575 0.08454743 0.01497033 0.07333954 -0.05218804 0.13289902 0.01345066 -0.10079294 -0.024488278 -0.059747584 -0.048048276 0.0027452034 -0.0030885525 0.10709611 0.06334998 -0.13244797 -0.17964986 -0.016180828 -0.16458364 -0.012565682 -0.07801134 -0.023074266 -0.017720131 -0.0039956453 -0.033289798 0.12923983 -0.13552716 0.013965088 -0.13560234 0.09515968 0.164256 -0.09970665 0.17996998 -0.013808279 0.110221945 -0.09061613 -0.08943457 0.044998467 -0.005357288 0.039287463 -0.001511914 -0.03130301 0.04615999 0.016179107 0.016003333 0.14347415 -0.061865646 -0.1369754 0.009205181 -0.14124036 0.26474202 0.030768916 0.004781643
36 -0.00043921807 0.05995477 0.045661587 0.026656589 0.12771255 0.10868904 -0.13886754 0.052484028 0.054318946 -0.039068718 -0.09888492 0.0023686928 -0.011622259 -0.057607297 -0.026090963 -0.075087264 0.1692832 0.003914714 0.043962624 0.03755303 -0.03353629 -0.047136277 -0.13712522 -0.053216465 0.047465708 -0.068816125 0.008176519 0.010535014 -0.18660666 -0.020039132 0.029182844 0.007079832 0.056417666 0.024570003 0.026603533 -0.0020035217 -0.017052187 -0.10333724 0.09843035 -0.16439988 0.0110825775 -0.03123328 -0.06857527 -0.2136232 0.11507205 0.0008153547 -0.012039768 -0.09080782 -0.023585165 0.0019423743 -0.042642064 0.11417387 0.061060898 -0.019978976 -0.0538641 -0.009330463 0.04577671 0.07344037 0.12851764 -0.04352293 0.005470371 0.010747491 0.024862844 0.024589902 0.030779302 -0.03351991 -0.13976532 0.07175344 0.089353904 0.19121452 0.070344456 -0.02465102 -0.18243062 0.041781988 -0.108354345 -0.091164455 0.009740846 0.05754784 -0.067665 -0.03584407 0.1388768 0.12581229 -0.133787 0.12093443 -0.041406125 0.094975546 0.013702463 -0.0061287456 0.18102847 -0.03781005 -0.10676476 -0.14536303 -0.008691611 -0.08228654 -0.19610965 0.015222895 0.04203074 0.053713918 0.07733427 -0.05052755 -0.03013729 -0.01848986 -0.020321118 -0.11149354 0.0368447 0.11340707 -0.10366603 0.06799543 0.00053608057 0.161999 -0.10777934 0.018794985 0.03831909 -0.06090461 0.081856586 0.08232678 -0.10617429 0.06541485 0.06477114 0.082835235 0.12241435 -0.15768428 -0.103475235 0.101231396 -0.14955631 0.20550962 -0.016528834 0.020603636
9 0.0035067715 0.11683089 -0.025127728 0.05100584 0.09566884 0.06317955 0.10169509 -0.044238903 0.0049299584 -0.0025029925 0.018611636 0.108089216 -0.03922687 0.02743601 0.0056338427 -0.01589489 0.09972181 0.054465387 -0.046275835 0.00829364 0.07365274 0.02242322 -0.06392512 -0.01873083 0.010593811 0.011601474 0.020526005 0.038020562 -0.11694992 -0.07836401 -0.10000781 0.13417669 0.109363616 0.01788509 0.0543712 0.036372982 -0.0072701517 0.030841472 0.13677533 -0.18303283 -0.006157688 -0.023526253 -0.13944526 -0.17646064 0.13093236 -0.09754269 0.02470054 -0.0951792 0.057063103 0.006570154 -0.09931841 0.08253227 -0.0006903492 0.066842504 -0.00846573 -0.07454067 0.11913815 0.14348707 0.14907552 0.021808883 0.061030544 -0.07295379 -0.03749613 0.0089239795 0.011410289 -0.054822873 -0.16264547 0.13642418 0.05374134 0.04893558 0.043714073 0.023115486 -0.13695684 0.10173962 -0.07959648 -0.049909372 0.032832213 0.06287525 0.055170223 0.025253741 0.090156645 0.03403254 0.020185882 0.05226806 -0.021627435 0.0924318 0.01383507 0.09500702 0.11853056 0.025039176 -0.11900443 -0.17386459 0.0427115 -0.11611428 -0.12682617 -0.05280966 -0.010211264 0.07979711 -0.027260784 -0.066583075 0.08645029 -0.068465434 -0.005341958 -0.22211337 0.11968663 0.1778042 0.005248818 0.2009462 0.010618262 0.09856456 -0.13149832 0.070124105 0.01471654 -0.08439673 0.1402288 0.042438705 -0.030862935 -0.0005788546 0.015390522 0.035909865 0.079767875 -0.1590588 -0.09702348 0.04955926 -0.07977392 0.21975735 -0.08455765 0.0040569627
73 -0.028385859 -0.07296027 -0.057239413 0.0060308375 0.07072073 0.051276617 0.09005443 -0.06673956 0.028441189 -0.08020768 0.0057817884 0.06301253 0.025319178 -0.039637562 -0.048646692 -0.067607746 0.10604921 -0.02857603 -0.017140385 0.043000847 0.020941347 0.013178742 -0.076174684 -0.18333575 0.13665022 0.022883235 -0.13810298 0.022415625 -0.16376375 -0.058105174 -0.06565966 0.08526746 0.07203313 -0.0707022 -0.028333455 0.04107236 -0.0059509 -0.07046854 0.12510964 -0.07250878 0.01826129 0.07532341 -0.06624939 -0.13529368 0.112775154 -0.043764815 0.06612437 -0.03554572 0.2059683 -0.018079061 -0.023923457 0.07896762 0.022765711 -0.0076587726 -0.06347262 0.081974655 0.16906224 0.09309133 0.2773367 -0.07760118 0.00981317 -0.01883595 0.051367674 0.06756845 -0.038548373 -0.048155718 -0.16980478 0.13391523 0.1318461 0.19319789 0.028421165 0.0669797 -0.1029865 0.09721902 -0.031134183 -0.07648956 0.09304634 0.042185012 -0.106797874 0.029302146 0.05166561 0.059798945 -0.078497216 0.14083171 -0.08239616 -0.02101471 0.0029993458 0.061850008 0.11426122 -0.0070017464 -0.0429848 -0.058567435 -0.043278996 -0.030977057 -0.065000586 -0.023947613 0.023115799 -0.003912836 -0.086291604 -0.12131438 0.012498881 0.037886735 0.11011976 -0.14489421 0.0896958 0.14468701 -0.040459804 0.080684744 0.065383606 0.050389647 -0.08285835 -0.03365234 0.04337417 0.021308074 0.16735366 -0.015260813 -0.057322305 0.043618903 -0.050767705 -0.0039554937 0.18561426 -0.034258135 -0.071700394 0.060315005 -0.20817567 0.1967029 0.036176037 0.008312884
39 0.072380856 0.07180433 -0.022538045 -0.05177624 0.058029752 -0.10693212 0.037791066 -0.019938983 -0.12819399 -0.00994516 -0.11510421 0.076376475 0.009605935 0.042817917 0.049714297 -0.013352149 0.061402064 0.10643069 0.017132083 0.05998224 -0.087450854 0.036534924 -0.16974662 0.020461475 0.017433207 -0.04820329 0.17929207 -0.08669992 -0.1646306 -0.039436635 -0.13312395 0.06922301 -0.08407901 -0.041666433 0.06323307 0.082256086 0.02635561 -0.12826025 0.22546974 -0.09862703 0.03431636 0.004020872 -0.18777911 -0.06837023 0.054942325 0.012695178 0.110201165 -0.054882105 0.19709074 0.06016718 -0.0880566 0.075987056 -0.011439174 -0.047889035 0.02774011 0.080740854 0.08403371 0.04533702 0.16162804 -0.045011543 0.004031132 -0.05267689 -0.036267478 -0.025419246 -0.10536265 -0.08011742 -0.09186551 0.21003266 0.07888695 0.014062097 0.14632088 -0.09474843 -0.15877175 0.11036539 -0.12818211 -0.14908677 -0.012087645 0.11831275 0.00051247637 0.0032345643 0.079259515 0.042273603 -0.087729245 0.04573713 -0.15482025 0.02883847 0.012787616 0.022848748 0.21622145 -0.03050151 -0.17504396 0.0064449254 0.017323302 -0.15840334 -0.049494717 -0.10089737 0.011271749 0.027719872 -0.041925624 -0.07073496 0.026876612 0.06141472 0.08247225 -0.08512392 0.01451805 0.1169835 0.004187544 0.110753015 0.03642786 0.22703557 -0.07952531 -0.015116127 0.03860854 -0.017905647 0.12948637 0.054263588 -0.06944949 0.06690114 0.05034784 -0.037864413 0.07362863 -0.031515628 -0.04940308 0.1361876 -0.17832673 0.20550941 -0.08953355 0.018364817
45 0.029836684 0.0062302635 0.07218941 -0.025194507 0.13226444 -0.041157268 -0.05036198 -0.108249724 0.04235341 -0.01124519 0.039368108 0.07300313 0.01697892 -0.14166589 -0.074160986 -0.006184898 0.11512356 -0.02269615 0.061304986 0.010606286 -0.00061330333 -0.04546478 -0.097024195 -0.054371413 0.086875424 -0.022261962 0.074940145 0.04111723 -0.27486745 -0.11978387 0.0038408036 0.0829578 -0.02689587 0.034375653 0.04669981 -0.021898912 0.06515544 -0.15537222 0.097235166 0.0074315174 -0.085081406 0.015832154 -0.1621557 -0.06300915 0.019848758 0.009179326 0.0056348266 -0.07674981 0.06914497 -0.10577832 0.024927914 0.14371291 0.062207527 0.04724702 0.09864729 0.06624517 0.13563931 0.027610205 0.10754517 -0.029569693 -0.03100449 0.0118478555 0.073253855 0.0984878 -0.11580693 -0.05112401 -0.113057636 0.14207652 0.063440956 0.23649953 0.06576625 -0.057390902 -0.14684992 0.102021724 -0.022181759 -0.041939303 -0.024181535 0.025982643 0.096634485 -0.022310209 0.12790543 0.046978965 -0.1199849 0.034267265 -0.0012049775 -0.13738182 -0.0032565831 0.030277258 0.14246522 0.11532538 -0.04659593 -0.075106144 -0.069983885 -0.107382655 -0.21148996 0.04591384 -0.040328115 0.20100813 -0.039642863 0.091364995 0.07213908 -0.15920666 0.105511926 -0.08400709 -0.018904366 0.15196073 -0.058478985 0.20107727 -0.063787594 0.042453386 -0.14207093 -0.008872102 -0.04501507 0.043384224 0.10572517 -0.0047722994 -0.05937984 0.07672768 -0.013210736 0.07410418 0.07426534 -0.03693755 -0.09474232 0.10091624 -0.105039164 0.21136785 -0.041903798 -0.07559528
14 0.052124664 -0.048402034 0.03182635 0.07490149 0.051372055 -0.0008490105 -0.0816271 0.099212795 0.065473124 -0.15398085 -0.07702489 0.115457505 0.044126842 -0.004789664 -0.1145259 -0.0699638 0.082108624 0.09103926 0.104890294 0.13010143 -0.044511236 0.0014395544 -0.13497086 0.012523561 0.009540709 0.115058675 0.08318448 -0.035463303 -0.1554802 -0.07071005 -0.0154205365 0.064383 -0.004639217 -0.009250827 -0.0056304084 -0.03754912 -0.07100952 -0.1056406 0.14750127 -0.019184368 0.044580903 -0.039863005 -0.052890506 -0.15437068 0.11090616 -0.047055073 -0.00041260326 -0.1297199 0.021971712 -0.09877051 0.0015284831 -0.117594436 -0.0761084 0.07811893 -0.046631917 0.00476139 0.13534337 0.08260304 0.15263647 -0.0100280475 0.045788657 0.008439034 -0.037866272 0.0715942 -0.15124239 -0.059317235 -0.17378315 8.939726e-05 0.012955081 0.18632498 0.013079513 0.09396911 -0.15045126 0.11107505 0.0339765 -0.07965382 0.08401037 0.11258109 -0.109071545 -0.040723845 0.17612101 0.06477454 -0.07394535 0.12134174 0.023257717 0.0024532536 -0.07697036 0.07261894 0.14966138 0.10534872 -0.09687245 -0.17042431 -0.045194507 -0.044677358 -0.12717268 -0.13130066 -0.10413455 0.024390351 0.010884119 -0.07690828 0.07209664 -0.11221366 -0.014833093 -0.12427865 0.13378833 0.1476566 -0.02768623 0.003456737 0.069663666 0.08741418 -0.0816264 0.0010147729 -0.02958932 0.010607377 0.123659216 0.023380771 -0.011537736 0.15724091 -0.03630254 0.021005278 0.11881683 -0.10562952 -0.08172671 0.020747853 -0.20767602 0.1833378 0.04296653 0.019020187
58 -0.09557993 -0.058110036 0.09258841 -0.017736638 0.06067697 0.051470194 -0.043547034 -0.0065385797 0.067119464 -0.0044216295 -0.010508797 -0.05257618 -0.028898127 -0.012384907 0.042685166 -0.040339395 0.041515242 -0.022188477 -0.027936518 0.017203009 -0.052073155 -0.034880746 -0.14817028 -0.08595372 0.0052524526 -0.008641438 -0.02378747 -0.087396264 -0.2187593 -0.16109283 -0.05406602 0.036343545 -0.0034206347 0.09175998 -0.030305646 -0.033833276 0.093873724 -0.12918071 0.083546095 -0.09868521 -0.040100824 0.07317986 -0.10659992 -0.1607558 -0.008173209 -0.053473916 0.059499178 -0.12001484 0.032983307 -0.0023367382 -0.08214819 0.034222037 -0.050959773 0.0117811365 0.016965095 0.047779333 0.11003172 0.15238413 0.14533907 -0.009804104 0.009384633 0.027905717 -0.01120378 0.07800677 0.013659079 -0.14372422 -0.1531235 0.120564036 0.14204043 0.1899622 0.11659591 -0.04605993 -0.07925277 0.13117182 -0.091593914 -0.07728205 0.017896384 0.10275025 0.0011338334 -0.07731027 0.16699296 0.034328528 -0.11058768 0.13865395 -0.032954235 -0.08783285 0.017909864 0.01749383 0.1177074 0.058924396 0.04339379 -0.090095885 -0.05871606 -0.1119288 -0.08723339 -0.049768735 0.095267154 -0.038238466 -0.0014364657 -0.1573002 -0.013337306 -0.00821796 -0.045295216 -0.13730018 0.030436624 0.011208215 -0.09066429 0.1664583 -0.07038653 0.024947163 -0.16010721 0.03268131 -0.020038374 -0.019602112 0.06082821 0.08898769 -0.056675684 0.14944226 -0.21637684 -0.012662272 0.07919796 -0.087691 -0.01798075 0.1141853 -0.08207718 0.20303206 0.030343993 -0.057154275
35 0.025669811 -0.07735729 -0.08119443 0.026829941 -0.0062513095 -0.042880118 -0.051327724 0.037553024 -0.016791837 -0.0656073 0.03697435 0.0038741436 0.036405418 0.022798019 -0.054207183 -0.08192671 0.15004571 0.030396847 -0.08014874 -0.033588123 -0.01584206 -0.062095616 0.023523979 0.016689176 0.07303198 -0.054342207 0.17481783 -0.0468844 -0.17444311 -0.1530071 -0.036580194 -0.003290189 -0.049155645 0.07721155 -0.02446696 0.018912062 -0.017872116 -0.084296584 0.08856284 -0.012883476 -0.04829807 -0.066155545 -0.07227355 -0.04889691 0.0113346465 -0.02499081 0.04452452 -0.0031262327 -0.040736917 -0.03201214 -0.058305733 0.0699272 0.01129684 0.067973256 -0.044210464 0.034339685 0.13137044 0.028329354 0.19105436 -0.015668454 0.0039296327 -0.0706226 -0.040327173 0.08577586 -0.16581897 -0.1281955 -0.11537923 0.08205825 0.07491002 0.12284129 0.09661697 0.01886168 -0.15838863 0.0730667 -0.031970788 -0.03758046 0.045490596 0.014856757 0.0910366 0.08684815 0.12651806 0.10271903 -0.10774566 0.016357375 -0.015036588 0.0046800515 0.02868678 0.044457167 0.12165346 0.003862458 -0.030560896 -0.1756034 0.009065002 -0.1375361 -0.08847372 -0.14762095 0.08711371 0.058352232 0.025216814 -0.032896433 0.024325045 0.07448065 -0.034237433 0.023161693 0.1326849 0.04294675 0.029761134 0.20066977 -0.04023905 0.11278963 0.0013575817 -0.017497204 0.039928887 -0.05017737 0.14809746 0.061221603 -0.07286409 0.04318791 -0.12954745 -0.01551427 0.14431825 -0.12211267 -0.132299 0.14064376 -0.17582324 0.38722032 0.0020784491 0.06724514
3 -0.098220654 0.03146307 0.03021248 0.0010070892 -0.033013314 0.0535859 0.1076536 0.00888055 0.13393499 0.011807627 -0.0072103958 -0.06751136 0.05735223 0.039764237 -0.037836675 -0.021499867 0.14195263 0.027199544 -0.038230393 0.023946825 0.024463091 0.061737563 -0.09304655 -0.06682497 0.08771954 0.037032116 0.054983877 -0.065616414 -0.17164846 -0.03932206 -0.019520463 0.06365294 0.027029606 0.026582064 -0.035586324 0.05801791 -0.014490667 -0.05962664 0.22243473 -0.14651626 -0.048710834 -0.017608726 -0.034338918 -0.18803973 0.09214547 0.05516458 0.06069088 -0.1376861 0.094934076 0.024517639 -0.1959389 0.045995243 0.013950228 -0.10225579 0.019360956 0.009123457 0.07615605 -0.011721094 0.12681957 0.011771419 -0.046601757 0.018759876 0.12216116 0.060563087 -0.09070971 0.07108027 -0.08142091 0.16697489 0.08565004 0.11632514 0.10439787 -0.03780629 -0.10574009 0.08348794 -0.031488508 -0.08177009 0.11095466 0.13243802 -0.0026506702 -0.010591794 0.07973936 0.07349994 -0.11937331 0.06572971 -0.007953523 -0.059966065 -0.021678377 0.024907367 0.08981302 -0.031477507 -0.02849407 -0.123765446 0.029569928 -0.1468796 0.04727984 -0.019360596 0.09316779 -0.0142944995 0.15332888 -0.04253037 0.005439854 -0.080932654 0.047219403 -0.17008747 0.0670528 0.20375928 -0.03210619 0.14004989 0.028485265 0.057366792 -0.15857486 -0.056616154 0.0047763814 0.0063749948 0.20689462 -0.041611902 0.00872117 0.07608916 -0.003492431 0.022149218 0.17652723 -0.063427985 -0.06187181 0.08156512 -0.15413347 0.24721333 0.12942679 0.050740603
53 -0.09131157 -0.05638934 -0.04930526 0.047495294 0.018654387 0.061835546 -0.07630985 -0.112914756 0.05748851 -0.08095481 0.09710486 0.0414693 0.13052523 -0.013403664 -0.011284254 -0.036656152 0.058396213 -0.07637618 0.029511211 -0.031963695 0.001378721 0.016491126 -0.1644163 -0.110047124 0.06499115 0.04578239 -0.023761733 -0.026739823 -0.15176025 -0.059900966 -0.10960871 -0.06372429 0.016143063 -0.005232339 0.019182904 -0.07353749 0.05759679 -0.21556084 0.19626462 -0.014759383 0.03494924 0.02919829 -0.07911514 -0.25074148 0.013214025 -0.08461424 -0.063660674 -0.050568853 0.111732535 -0.060236193 -0.029696336 0.023803981 0.056993138 0.026022777 -0.08309612 0.039620787 0.100631885 0.09632588 0.097816035 -0.06842389 -0.07603706 -0.17607337 0.11080203 0.121885315 -0.06245142 -0.17652993 -0.21095064 0.033526137 0.008214665 -0.014782786 0.13912262 0.0080992365 -0.13848713 0.019709067 0.08424588 -0.08048285 -0.044978548 0.08381612 0.045285814 -0.005889894 0.16744389 0.046944223 -0.13199267 0.0042031608 -0.047426462 -0.08001293 0.0992064 0.06394899 0.074295096 -0.009418456 -0.00665605 -0.25120088 0.0006177126 -0.1392836 -0.023071954 -0.056948993 0.01302804 0.09946195 0.06863636 -0.11006906 0.11636401 0.0168689 -0.020219278 -0.16967253 0.06910608 0.123220064 -0.05450719 0.13741703 0.07040926 0.07568541 -0.05164988 -0.031001598 -0.035913974 0.070964366 0.22797826 0.026318695 0.031924058 0.076568924 0.0900239 0.0091073625 0.039972186 -0.08881418 -0.15264568 0.112805195 -0.083887696 0.25771433 0.031843495 -0.07088864
24 0.021586321 -0.07077083 -0.047005992 -0.037177287 0.006318198 0.084368795 -0.06963816 -0.027328262 0.013023912 -0.039091624 -0.033153273 0.08734798 0.013880095 0.07684756 0.06501344 0.022001406 0.04982371 0.04454549 -0.04185201 0.046261482 -0.012240274 -0.016988944 -0.017352667 -0.09800799 -0.0061239027 0.011608625 -0.06780324 -0.10037588 -0.14237872 -0.13181162 0.008158261 0.14309533 -0.06881419 -0.017835302 0.023783658 0.016878113 -0.014035659 -0.15670487 0.1017452 -0.025726458 -0.036718037 -0.048918232 -0.08192018 -0.16405804 -0.039054707 -0.028419428 0.035698418 -0.0752514 -0.028672902 0.01751255 -0.051406365 0.13426004 -0.039935745 -0.06297327 -0.058792055 0.18834718 0.022468757 0.059655886 0.21148232 -0.13818634 0.072691046 0.17467977 -0.05551294 0.077883616 -0.080126695 -0.032110516 -0.12464647 0.071455106 0.12940775 0.15233284 0.083051085 0.00040256625 -0.15212706 0.0570608 0.019640042 -0.07838619 0.10363301 0.074177966 -0.0560847 -0.0655374 -0.010992446 -0.057311274 -0.23897539 0.013235841 -0.085730925 0.019270368 0.06677142 -0.007091135 0.0905788 0.10273274 -0.06088238 -0.16057979 0.03265005 -0.08109312 -0.13081582 -0.09167359 0.09469035 0.14161415 0.02695375 0.10081689 0.030972442 -0.032637585 -0.023715688 -0.1274834 0.06755182 0.22050802 0.0066717966 0.1236082 0.046242557 0.16062398 -0.11325829 0.008982536 -0.07850509 -0.11431277 0.12536936 0.06993123 -0.02544835 0.11568473 0.038846437 0.055388235 0.14259036 -0.15697838 -0.007003503 0.07809767 -0.061800644 0.27537483 0.08192658 0.044183522
6 0.048985954 0.00046296854 0.0066142567 9.161631e-05 -0.030660985 -0.05052902 0.023762502 -0.011882889 -0.030473787 0.016839428 -0.034349553 -0.04255691 0.01247022 -0.027807908 0.0011000617 -0.1724671 0.16771556 0.0330961 -0.026581045 0.08785737 -0.063057676 -0.038203605 -0.184728 -0.016984833 0.07624413 0.035142627 0.15401524 -0.0041361363 -0.19676106 -0.13512762 -0.08262884 -0.021535398 -0.02366207 0.008677847 -0.030778548 0.060325783 0.0010521119 -0.05369769 0.16011707 0.029855834 -0.043052588 0.04163172 -0.15751965 -0.280778 -0.012622717 0.0049670795 0.04934074 -0.12625684 0.04427248 0.021203214 -0.045127127 0.03796333 -0.055097394 0.01285693 0.048400458 -0.005469628 0.05565085 0.07730427 0.22776136 -0.032398168 0.061493285 -0.013112651 0.021309223 0.034591913 0.08465959 -0.005575759 -0.14390282 0.01495352 0.0065108384 0.21558544 0.0051371614 -0.060241073 -0.11203759 0.046585683 -0.07252351 -0.014041464 0.06719784 0.21575974 -0.059666082 -0.1239395 0.16383786 0.033909477 -0.12728915 0.056688506 -0.120657 -0.02395478 0.039857328 -0.00014082117 0.024682302 -0.022959393 -0.12078891 -0.16247743 0.10120259 -0.08342218 -0.070176415 -0.18197328 -0.023864701 -0.023197517 -0.069098875 0.03061244 0.032499038 -0.066978276 0.07294331 -0.15976183 0.02440337 0.13000067 -0.088736475 0.10179435 -0.025229832 0.08847306 -0.052821975 -0.04962494 0.06449156 0.039050724 0.22261311 0.09376476 -0.005003675 0.13968204 -0.053058773 0.02560988 0.1123063 -0.04461867 -0.005236186 -0.011620568 -0.09870248 0.22382355 0.03687251 -0.028564755
26 -0.069227256 -0.12363014 -0.04962093 -0.13978103 0.08439364 -0.06643515 -0.056161825 -0.07868453 0.10576865 -0.06615183 0.091453455 -0.03248265 0.025505522 0.016387193 -0.035450216 -0.08197076 0.06978403 -0.008743129 0.15378377 0.046152472 -0.030762687 0.0915063 -0.12512013 0.005531915 -0.0018537856 0.0027250957 0.13235512 -0.17392133 -0.06771444 -0.04212085 0.021413594 0.088438116 0.009762193 0.045895822 0.02957367 0.106705405 0.057505935 -0.051459424 0.028351936 -0.13941398 0.0010804468 -0.06067959 -0.121928796 -0.23870651 -0.004277215 -0.009423743 0.11247108 -0.13946374 -0.049693108 0.027769033 -0.055962104 0.04272575 0.13048087 0.017828733 0.06412046 -0.08224161 0.1558902 -0.05559857 0.22796372 0.010679797 0.07910735 0.030018875 -0.02383658 -0.023579786 -0.07113043 -0.030530605 -0.16148539 0.13756083 0.07735985 0.15385751 0.121861234 0.009843449 -0.23417506 0.09150881 -0.09873287 -0.06820188 0.13815847 0.09764762 -0.051714547 0.038361195 0.1260343 0.052078646 -0.09345675 -0.016946504 -0.07323248 0.00054470677 0.01320466 0.21548373 0.06833211 0.009570773 -0.024215301 -0.1763643 0.018706644 -0.035681527 -0.08660322 -0.041529495 0.043870475 0.06981023 0.018619359 -0.06280648 0.04276164 0.08113776 -0.008686305 -0.09247806 -0.032741636 0.117841676 -0.03518287 0.11257375 -0.085330606 0.0068529206 -0.12494117 0.03603356 0.014797361 0.015241156 0.1534222 0.08038477 -0.051360622 -0.007248088 -0.06839072 -0.019218722 0.15938146 -0.08735777 -0.05023502 0.07179699 -0.21601827 0.21589297 0.026473679 0.061509177
52 -0.12512617 -0.10703077 0.013245575 0.04667563 0.16155617 0.06069448 0.007356045 0.102293044 0.08057869 -0.12271267 0.08490241 0.0927625 -0.018076347 0.0819873 -0.1401079 -0.098813735 0.1363324 -0.051861838 -0.007669563 -0.10388487 -0.08578077 -0.004541607 -0.003704092 -0.0019880056 0.097416304 -0.044922512 0.028602518 -0.10658389 -0.13828981 -0.08792946 -0.031024877 0.065777615 0.048193812 0.0109204 -0.0781232 -0.0043060924 0.005266844 -0.19426458 0.14030777 -0.09088612 0.06277573 0.008430704 -0.16646442 -0.18974805 -0.028535547 -0.023545213 0.02473419 -0.12681156 0.10754881 -0.013422983 -0.045270473 0.08166418 0.03756329 0.039746244 0.02423168 -0.0035681631 0.10909617 0.2045788 0.15429701 0.030400483 0.025576133 0.0048307073 0.11326263 0.1783958 0.025269631 -0.052303933 -0.08228359 0.12662663 0.0139326295 0.11419499 0.072352126 -0.021992728 -0.08484476 0.08838139 -0.0018824829 -0.16299881 0.052206025 0.18983917 -0.0037328892 -0.058198653 0.014913885 0.01645124 -0.07111032 0.10312521 -0.07047732 0.09902864 -0.010067721 0.083265975 -0.0052473065 0.05447823 -0.16483189 -0.13952582 0.094791695 -0.21891354 -0.025168682 -0.09717021 0.16397077 0.11157843 -0.050186783 -0.038148064 -0.026682436 -0.071811736 -0.01936345 -0.03473155 0.09258228 0.12907018 0.06267658 0.08589122 -0.026483553 0.007272615 -0.02944391 -0.10998015 0.039885335 -0.07359593 0.19149362 0.02670781 0.0071338317 0.03556763 -0.038759165 -0.02929187 0.06289003 -0.06606026 -0.18694103 0.15724781 -0.11379358 0.14229618 0.18146342 -0.028464373
34 -0.059117883 -0.10086345 -0.035070386 0.049010687 0.08062111 0.04939182 -0.037681103 0.054450363 0.06744171 0.015991349 -0.063705765 -0.015238122 0.0051883375 0.08860186 0.016302625 -0.01120237 0.062448446 -0.08561862 -0.06746492 0.09705046 -0.053398874 0.067909114 -0.11015346 -0.085571915 0.11058209 0.01866093 -0.0037589418 -0.06764332 -0.046655495 -0.1595676 -0.019661477 0.0924474 0.04380519 -0.11354007 0.049406394 -0.048005104 0.010608516 -0.10305308 0.011815782 -0.18342897 0.07548938 -0.061379343 -0.05687908 -0.028028283 0.020492284 -0.070870206 0.0680178 -0.08027184 -0.0038528736 -0.04836668 0.011906563 0.059238173 0.034845598 0.016756348 -0.02761892 -0.13652764 0.0621323 0.0857628 0.17452677 -0.002768475 -0.0072447294 0.098709196 -0.019112477 0.005717302 -0.040498517 -0.17256716 0.0038810675 0.13550818 0.062851645 0.19142811 0.07717303 0.010126669 -0.11482838 0.067893386 -0.0032744894 -0.02977311 -0.04777583 0.004706975 0.017750125 0.01477559 0.14330631 -0.009180114 -0.18667051 0.12286054 -0.08233744 0.014516437 -0.0046114703 0.10374971 0.082722016 0.036172736 -0.13372289 -0.15420097 -0.0061716344 -0.098231465 -0.069676325 -0.010308288 -0.014961112 0.07613478 -0.13147457 -0.018094424 0.08923096 -0.06473328 -0.06924703 -0.17305818 0.1130361 0.0729388 -0.07171037 0.10402831 -0.016410144 0.13002358 -0.23932818 -0.025137892 -0.13263234 -0.15382025 0.08175501 0.083553255 -0.07573908 0.12375941 -0.17928052 -0.009731605 0.074861296 -0.06572611 0.038182896 0.1435577 -0.2154332 0.30965063 0.059297778 0.015725506
25 0.028292948 -0.006692911 -0.089550026 0.006782146 -0.025759442 -0.0345484 0.009821929 0.040059842 0.041508693 0.019993154 -0.014437529 0.053008623 -0.0027887607 -0.030140119 0.023311634 0.044395212 0.18969776 0.12966806 -0.0013378832 0.11545946 -0.11748779 -0.12265776 -0.09490846 -0.024929067 -0.04899972 0.011213468 0.03928632 -0.012056524 -0.19831641 -0.019121084 -0.01981849 0.041209035 0.067510106 -0.0386166 -0.057082545 -0.07225683 0.047323033 -0.08360245 0.0679383 -0.060345914 0.04908722 0.031521104 -0.13747357 -0.103867926 0.03456507 -0.057975803 0.08230011 -0.15010497 -0.031596974 0.011371283 -0.015768688 0.08525663 0.014599249 0.06875394 -0.0810361 0.056608856 0.19035657 0.049909428 0.19669178 -0.068275735 0.056736834 0.019220626 -0.058568787 0.20661794 -0.031761862 0.0028293259 -0.141847 0.102746114 0.04699435 0.12370232 0.12467704 -0.048753772 -0.06813649 0.056696862 -0.011618034 -0.045401447 0.115217626 0.10381008 -0.01758618 0.087286435 0.09754658 0.11204169 -0.24998778 0.06515259 0.02341685 -0.06294289 -0.018286685 0.075674444 0.18672325 0.04803913 -0.13059175 -0.047675885 0.039451476 -0.10840654 -0.034582578 -0.16888708 0.022180777 0.05224385 -0.033387072 -0.033789065 0.1584593 0.014866626 0.032155164 -0.07648154 0.014242938 0.11125997 -0.00972907 0.06933439 0.017679777 0.18297783 -0.15861471 0.020633185 0.0395035 -0.06800498 0.044539053 0.078547835 0.02483299 0.06227427 -0.0016963945 -0.062734954 0.06708978 -0.12327563 -0.13163796 0.03702149 -0.10540602 0.23203559 0.014857847 -0.027947668
37 -0.059169296 -0.022815242 0.07402796 -0.016690888 0.082973145 -0.012136784 0.004293924 0.018744554 0.008113734 0.016789911 0.102341734 0.019312229 0.06599319 0.0075423406 0.024979487 -0.09891757 0.0077488036 0.013877394 -0.014617049 0.047155544 0.050039675 0.0671886 -0.008683554 -0.062071208 0.06325179 -0.118587464 0.107283436 -0.05827215 -0.13556103 -0.08959326 0.061690412 0.02384542 -0.03125671 -0.002298016 0.029731093 -0.03458668 -0.028222708 -0.20704935 0.20108649 -0.026769444 -0.059687715 -0.036993705 -0.16809954 -0.1834912 0.05317658 -0.054846913 0.11770502 -0.14555837 0.093063675 -0.034358755 -0.10977078 0.10425573 -0.023178056 -0.02822313 -0.092557885 0.0075739464 0.042558167 0.011967048 0.12001723 -0.010833858 -0.025133124 -0.09718137 0.07830007 0.106628686 -0.07768974 -0.13283867 -0.11830148 0.08098352 0.026801648 0.20087805 0.10382644 -0.009286884 -0.05030519 -0.023959959 -0.046024356 -0.1045812 0.07043982 0.0646489 -0.066042684 -0.06272978 0.11372734 0.029053025 -0.021455029 0.0702631 0.02504496 -0.022269247 0.042941995 0.1440888 0.06777752 -0.053148825 -0.08764296 -0.1474109 0.025499422 -0.030597096 -0.10836802 -0.110747315 0.046731874 0.097181775 -0.019574171 -0.011834452 -0.027273955 -0.12054621 0.060335986 -0.085994236 -0.03424201 0.009908879 0.061850205 0.09396012 0.07669301 0.17036135 -0.093079016 0.08303527 -0.021381723 -0.09781883 0.12003946 0.20935164 -0.09790231 0.029610232 -0.09622577 -0.04420804 0.13425758 -0.13609502 -0.13211884 0.04651835 -0.19602273 0.25427347 -0.066678286 0.021171527
11 -0.018150078 0.021393357 -0.08255682 0.06113262 -0.059576333 0.08261793 -0.036681093 0.039288104 0.062715866 -0.10359439 0.027355373 -0.09121993 0.07586689 -0.086566 -0.032815233 0.05145209 0.1216464 -0.09113447 -0.038973663 0.057543553 -0.044834618 0.12601206 -0.026260667 -0.11986961 0.07213075 -0.012704777 -0.031970818 -0.010919124 -0.11815942 -0.0872439 -0.058229093 -0.034577277 -0.012615593 0.061929233 0.09765407 -0.03099601 0.053310342 -0.071923174 0.0454333 -0.043107048 -0.018251285 0.015410859 -0.06593667 -0.15676667 0.110766314 -0.05927787 0.0383172 -0.04826605 -0.009621403 -0.099987306 -0.08002645 0.055102825 -0.0083808135 0.020420097 -0.08031366 0.032544695 0.16105708 0.20654525 0.08935681 -0.020273127 0.011728314 -0.012172366 0.04543992 -0.037332583 0.13435705 -0.034732137 -0.1612046 0.05900795 0.1270027 0.2282981 0.098080516 -0.008466454 -0.16731587 0.061542187 -0.034110285 0.026714781 -0.018847363 0.070169605 -0.10857374 -0.017657276 0.17064665 -0.014814748 -0.17587543 0.07641414 0.010279932 -0.06803532 -0.031621043 0.11860035 0.14241304 -0.06302466 -0.103024475 -0.13577242 -0.034874532 -0.024049887 -0.14010566 -0.19973946 -0.04440946 0.04629354 0.08972064 -0.11144143 0.10973976 0.022526763 -0.015454122 -0.063005015 0.09333397 0.05349408 0.04736156 0.0794534 0.08715261 0.020924691 -0.039345637 -0.00434575 -0.014255984 -0.03803759 0.1357126 0.06774055 -0.13225165 0.021174157 -0.15461747 0.03381186 0.20481761 -0.10670033 -0.12491403 0.029839726 -0.24862477 0.28514662 0.1120891 0.031097922
13 -0.0065735085 -0.056870297 -0.042483795 -0.009750043 0.07304095 -0.010212517 -0.05484571 0.040268756 0.092906594 -0.0065973946 0.07770522 0.028670171 0.021479193 0.014549161 0.03500034 -0.0953566 0.1237786 0.14759834 -0.044410657 -0.018020067 -0.04227097 0.14098342 -0.18711947 0.022724947 0.06273331 0.065523684 0.09962442 -0.057249803 -0.07675443 -0.03706252 -0.034926184 -0.019280583 0.113895044 0.048672676 0.045902133 0.116418295 0.13624257 -0.09919429 0.17498972 -0.078329474 -0.17447917 0.06672623 -0.118984856 -0.063340515 0.08707319 0.026295956 0.036551073 -0.1184645 0.10139088 0.049267385 -0.0521609 0.04336852 -0.08043478 -0.009135023 0.032352913 0.036453217 0.06323506 0.032853413 0.18805182 -0.032561366 -0.023433134 0.010738096 -0.113470055 0.057101216 0.004120898 -0.11601016 -0.19808063 0.12869795 -0.010287149 0.0783633 0.09185434 0.027136844 -0.09254239 0.13095659 -0.12254668 -0.0999705 -0.018882878 0.055872418 -0.030655753 -0.011987633 0.09161737 -0.037873007 -0.06775998 0.10089145 0.0650641 -0.02437546 0.090203695 0.06884727 0.0899288 0.0028183192 -0.1110828 -0.16767262 -0.025179097 -0.09154179 -0.07245523 -0.10797794 0.072976395 0.042455357 -0.008215787 -0.008240036 0.08089431 -0.03753199 -0.12020002 -0.047533948 0.10711552 0.00034624417 -0.11242746 0.13232501 0.06287556 0.123151146 -0.20012927 -0.027236464 0.02172166 -0.055192497 0.0042727804 0.06659276 -0.078177154 0.10222866 0.035855025 0.019278526 0.05298707 -0.1820541 -0.121581845 0.04578519 -0.101619005 0.29866147 0.053499814 -0.03563146
7 -0.046023607 -0.114534855 -0.031819414 0.030909909 0.1554532 -0.035686523 0.029392278 0.023188826 -0.019853495 -0.06349116 0.02931692 0.03942475 -0.07334762 -0.021657819 0.09122127 -0.08231259 0.049477417 0.042101383 -0.028440766 -0.109991625 -0.02202471 -0.02552621 -0.01674305 -0.09140639 -0.05015349 -0.13532358 0.006505045 -0.10917368 -0.18581724 -0.029941514 -0.022054683 -0.007390163 0.029333817 0.019904938 0.06653472 0.0219325 -0.019563876 -0.14243168 0.08235085 -0.019035999 0.026771752 0.010671909 -0.16435604 -0.07507648 -0.034169562 -0.041718643 0.22677624 -0.08649482 0.038369425 -0.027938752 -0.08149032 0.08949984 -0.047545217 -0.07255324 -0.0471147 0.024109028 0.18995343 0.08200587 0.13695921 -0.021835657 0.05979024 -0.0012296434 -0.08245992 0.008848977 -0.023111917 -0.05492046 -0.13682708 0.12839746 -0.0017451436 0.19423825 0.24313867 -0.010749729 -0.19593784 0.12916508 -0.089169756 -0.042070787 0.06634379 0.0808213 0.13226695 -0.08209777 0.12439217 0.11256573 -0.19314675 0.11402008 -0.04512523 -0.015844448 -0.00097558176 0.13184161 0.06685051 0.10623591 -0.08287984 -0.025409732 0.017552283 -0.0039433194 -0.07075493 -0.14660513 0.007505949 0.07358132 -0.0248685 0.08705776 0.050263647 -0.044433244 0.042728506 -0.15410867 0.11553445 0.13573103 -0.05109061 0.1777697 0.041005176 0.10224247 -0.15755711 -0.0013212147 0.04878221 0.02800631 0.117004946 0.15425289 -0.05405409 -0.021955246 -0.027909877 0.04256265 -0.0030927435 -0.051811107 -0.06126658 0.08969042 -0.05070828 0.20326132 0.08028997 -0.02554172
22 -0.08254918 -0.047273923 -0.076761946 -0.12591937 0.056468464 -0.041455008 -0.077700056 -0.08253231 0.007317688 -0.07788107 0.037230004 0.09626298 -0.012983875 0.021476582 0.036653906 -0.022043739 0.10873346 -0.020194301 -0.084432945 -0.029373366 0.04305553 0.020635009 -0.09382146 -0.082055055 -0.044926118 0.10375622 0.12896807 -0.060672775 -0.115069754 -0.085831255 -0.050326403 0.053555965 0.0025939448 0.018013515 0.026818892 -0.0480925 0.0649415 -0.02377043 0.099925525 -0.036493283 0.057068832 -0.1146297 -0.033648994 -0.09213785 0.033433516 0.025132824 0.16378728 -0.068948545 0.004514538 0.065781474 -0.10902749 0.12482225 -0.05304003 0.03358476 0.016862035 0.061392043 0.1788406 0.025594568 0.13879327 -0.016638579 0.032334656 -0.037883546 0.055046983 0.08858042 -0.16681522 0.0047470587 -0.08476732 0.13387881 0.15089455 0.1291938 0.033908233 0.011808271 -0.15297368 0.11586142 -0.06735405 -0.11833314 -0.008699695 0.063045196 -0.034481727 -0.007791004 0.06461511 0.0067533655 -0.060154155 0.14494368 -0.080451995 -0.08877303 -0.058344204 0.109480165 0.08096289 0.04601653 -0.12865749 -0.13714269 0.124089755 -0.09203308 -0.1027057 -0.085401155 0.091109425 0.076922245 0.07381787 -0.03595341 -0.04068505 -0.05238759 -0.011809637 -0.17339799 0.2302042 0.14022452 -0.07539698 0.18766098 0.069933854 0.07670287 -0.053389713 0.028460285 -0.08707473 -0.028438041 0.0863342 0.13981344 0.008302636 0.005560182 -0.02755951 -0.08811708 0.038021505 -0.06715596 -0.08202798 0.19194995 -0.07540379 0.22984387 0.04354332 -0.10885135
15 0.07795488 -0.12401806 -0.07743841 -0.104974166 0.060047865 0.046092298 -0.04925648 0.019566067 0.07467793 -0.116327725 0.068855315 -0.0166425 -0.04086043 0.028693767 0.0075509427 -0.13594499 0.07339327 -0.0062373294 0.0529789 0.1149707 -0.017402507 0.11183294 -0.091279365 -0.10792611 0.08741229 0.112831205 0.08843814 -0.02770526 -0.24467082 -0.23812845 0.022405421 0.05814994 -0.008778594 -0.01743599 0.11140325 0.12759355 -0.06310842 -0.16479932 0.109159745 -0.08394019 0.0016450094 0.012334697 -0.08205806 -0.1634467 0.05956775 -0.06673701 0.077081755 -0.15171324 0.044904284 0.012929421 0.017824458 0.073696576 0.026349086 0.038697463 -0.038709704 0.038306177 0.041782048 -0.069410734 0.25272366 -0.022073507 -0.022321329 -0.07701922 0.051418178 0.24934657 0.010357802 -0.013334987 -0.022193504 0.13061903 0.09036411 0.10106522 -0.0257505 0.07541382 -0.11044842 0.108011656 -0.08990042 -0.12555036 0.037865836 0.07100441 -0.0601045 -0.004166316 0.15449524 0.1483683 -0.025612162 0.100534834 0.03595763 -0.18467867 -0.07402502 0.15336643 0.19103462 0.06269625 -0.051763836 -0.14203459 -0.0247661 -0.12251593 -0.05572425 -0.20651706 0.002894896 0.008109586 -0.008548774 0.04128605 -0.006738175 0.021246891 -0.02421495 -0.022216158 0.11350563 0.08373257 -0.024063075 0.24964337 0.1328422 0.11773459 -0.039534114 0.04034543 0.016838294 0.068445615 0.026910422 0.09107023 -0.08087772 -0.028061042 0.023308735 0.029566942 0.11285574 0.04982225 -0.067284286 0.058515813 -0.11301607 0.1747869 0.06280492 0.052709147
47 0.0286221 0.024195375 -0.019718857 0.03325487 0.11140557 0.04464802 0.07077946 -0.053160053 -0.014845197 -0.0118437195 -0.016293412 0.05956512 -0.07143724 0.053264484 -0.11920821 -0.097006574 0.23806153 0.1361135 0.092682436 0.025732294 -0.02955664 0.060801324 -0.05195092 -0.14004491 0.06883101 -0.03486794 0.025556535 0.056934174 -0.1153025 -0.09843439 0.054363824 0.015277443 0.056186356 0.032846306 0.038767606 -0.0067735757 -0.015291993 -0.17063287 0.04537436 -0.14582841 -0.05004257 -0.05678686 -0.17232578 -0.08776184 -0.0005555091 -0.11387788 -0.09388296 -0.06379651 0.12622206 -0.037088417 -0.055421345 0.059271757 0.0761503 -0.032495998 0.01176624 0.05788433 0.065070994 0.068869896 0.07432081 -0.08553148 -0.01396403 0.09654139 -0.021468148 0.09135139 -0.005565771 -0.059942573 -0.16677327 0.19496192 0.030040296 0.043021962 0.11351582 0.028745353 -0.15285465 0.04900858 -0.064045586 -0.04986986 0.09248097 0.02521262 0.043009978 0.1338617 0.21047418 0.0022358445 -0.04122137 -0.010403995 -0.0061108414 0.0230041 0.016923908 0.076240145 0.088726655 -0.024473814 0.023547765 -0.21357508 0.04263132 -0.17372873 -0.10417806 -0.17598902 -0.027732207 0.062133905 0.015380983 0.059227314 0.0860268 -0.162668 0.04968942 -0.19548282 0.032421734 0.1031331 0.055251207 0.18337329 -0.0381291 0.19213115 -0.08103693 -0.021811264 0.005861982 -0.05940908 0.20033051 0.11305408 0.007065173 -0.031387992 -0.06023199 -0.1409573 0.061990194 -0.104518466 0.04169838 0.10943877 -0.07053083 0.19022158 0.070153944 0.0013513786
19 -0.063482024 -0.101279445 -0.08096104 -0.10925862 0.042251907 0.04893087 -0.0035637286 -0.05670055 0.018213592 -0.027109696 -0.025130061 0.036896292 0.06780564 0.03323336 -0.0843595 -0.02107469 0.20783006 -0.08369842 0.04133696 0.0035236415 0.032761052 0.0014061454 -0.014816665 -0.11077706 0.029472748 -0.03961468 0.021296512 -0.051543165 -0.110020265 -0.021658214 -0.015573819 0.06523805 0.06036537 0.010662544 -0.0021807407 0.096639946 -0.019963242 -0.10271434 0.11347313 -0.011200179 0.062183343 0.034400746 -0.14342797 -0.101331964 0.049432755 -0.072601944 0.05637009 -0.068006836 0.11884318 -0.056895513 -0.07250041 0.06854052 0.039836127 0.036559198 0.087981865 -8.224023e-05 0.12326186 -0.00012297029 0.10588483 -0.023536189 -0.08295161 -0.056999043 0.012270899 0.010075531 0.037585307 -0.04267418 -0.13736184 0.25416392 -0.04143994 0.15205853 0.105419464 0.026860284 -0.12805754 0.18495815 -0.013551341 -0.006347282 -0.02305197 0.046511125 -0.1470762 0.012742809 0.048068844 -0.010943866 -0.19828558 -0.06440889 -0.10832604 -0.059502114 0.017250264 -0.041367494 -0.04719514 -0.00975646 -0.116235726 -0.0699291 -0.054534946 -0.107918195 -0.13561347 -0.11109727 0.12971573 0.032151952 0.015216174 -0.07637716 -0.06174321 -0.034725547 -0.005316102 -0.22285758 0.068990946 0.15341862 0.008180013 0.08633144 -0.023653354 0.141618 -0.09384598 0.0525713 -0.003397688 -0.03813119 0.17536591 0.11396133 -0.02053304 0.112968124 -0.03907628 0.013328852 0.16614367 -0.017765766 -0.044436112 0.029130504 -0.14617014 0.29691005 -0.028252434 -0.060028132
65 -0.011762647 -0.08613328 -0.05299431 0.16607113 0.16522993 -0.03993762 -0.006329097 0.052619584 -0.06136433 -0.051269785 -0.0047693783 0.074890085 0.09293409 -0.0049819886 0.01906075 -0.07927914 0.18647686 -0.05988761 -0.06931203 -0.028923867 0.09331703 -0.056700364 -0.13143894 0.0067447606 0.13908754 0.06915966 0.05832582 -0.056088205 -0.114704095 -0.070808284 -0.08790667 0.003430779 -0.09121155 0.007997031 -0.030286768 -0.114906654 0.026434094 -0.108091876 0.09007384 0.013895949 -0.07834917 -0.08659674 0.015515585 -0.17599738 0.07988271 0.0065610544 0.063875735 -0.06998112 0.13619305 0.04931116 -0.07044819 0.15624644 0.07029203 -0.0024455313 0.028082633 -0.06382837 0.14461304 0.06879395 0.11409759 -0.13462678 0.0900499 -0.059631426 -0.08585756 0.04344621 -0.032946385 -0.09321895 -0.13137975 0.18017812 0.090421036 0.18439654 0.09713789 0.041682933 -0.104302585 0.20043316 0.039136708 -0.04060913 0.025159596 -0.068237655 0.027740516 -0.018930053 0.12316063 0.041437663 -0.093963966 0.019304132 0.0021297229 -0.079354234 -0.026355503 0.02550333 0.19029808 -0.04403021 -0.051194444 -0.122992575 -0.041070588 -0.10790122 -0.12870048 -0.14947626 0.08165177 0.008403578 -0.051337577 -0.041799396 0.025924494 -0.07199913 -0.052611385 -0.08077887 -0.06595661 -0.02318471 -0.13378172 0.083062895 -0.08585857 0.15307035 -0.16520576 -0.003499124 -0.062220108 -0.024259588 0.16174006 0.0058193584 -0.015227605 0.014002302 -0.07078844 -0.016282717 0.09067557 -0.078602575 -0.08998274 0.06840248 -0.1718437 0.24404088 0.08224607 -0.0026934955
30 -0.08156163 0.011791949 0.022420112 0.022206152 -0.0153852245 0.048320312 -0.11673342 0.054878186 0.04881503 -0.09938777 0.02163408 0.0286827 -0.06739501 -0.02989448 -0.061022565 -0.02641887 0.13859794 0.00655554 -0.051870227 -0.046410475 0.030578203 0.08077681 -0.0079149725 -0.16462952 -0.08144264 -0.004511937 0.023242177 -0.13014619 -0.123734936 -0.037462004 0.021920146 0.043947093 -0.017728124 0.07908469 0.060131773 0.030891117 0.072015665 -0.18811755 0.037017457 -0.08778794 -0.058291912 -0.027240148 -0.038063087 -0.26320305 0.04307516 -0.06064059 0.022778945 -0.022276586 0.115554586 0.07428516 -0.15205361 0.069883205 0.009776184 0.04384645 -0.07465272 0.043929875 0.069084466 0.118675806 0.13418107 0.19735609 0.007827143 -0.011954296 -0.014235553 0.0037027213 -0.018788058 -0.042442553 -0.12707503 0.1653771 0.0638735 0.18341361 0.055001486 -0.019513065 -0.11778605 0.13233823 -0.033755016 -0.026282556 0.023930078 0.13934523 0.00043688453 -0.13828498 0.21228608 -0.06785676 -0.057730086 0.08164144 0.003031595 0.053756554 0.024587108 -0.010724566 0.06297811 0.092950396 -0.06486593 -0.13985965 -0.072533555 -0.15683976 -0.08973509 -0.16363236 -0.11226812 0.08833105 -0.013837208 0.0034939316 0.07887281 -0.03839086 -0.000779572 -0.18662138 0.038128227 0.08280929 -0.013447836 0.22503576 0.017025415 0.1059245 -0.024252392 0.12891181 -0.10701761 -0.035118762 0.14831841 0.078034274 -0.06759361 0.1403655 -0.060240977 -0.06794979 0.08676188 -0.05245525 -0.1593466 0.09691557 -0.005320098 0.16900347 -0.021425292 -0.04572278
69 -0.12783551 -0.19983569 0.032700825 0.021340238 0.044706482 0.0609885 -0.10162378 -0.018551495 0.15163296 -0.1842899 -0.015115929 0.030734275 -0.02767728 0.010990131 -0.031350367 0.008271296 0.031528644 0.09557601 0.037363507 -0.0004983773 -0.079870224 0.0014986037 -0.021850636 0.041874733 0.08710343 -0.020528136 0.079930946 0.06626005 -0.18527402 -0.08774314 -0.08540123 0.09116386 -0.019791113 -0.03375044 -0.034285758 0.020106856 0.05092175 -0.12042436 0.1104476 0.01207674 -0.015048728 0.0436589 -0.107835226 -0.16494949 0.068881385 -0.007324813 0.14990813 -0.19068693 0.041627914 -0.05636702 -0.026062997 0.058414437 -0.006649137 0.06545794 0.05278476 -0.021152116 0.05784488 0.11072275 0.19398995 -0.13192362 0.07183122 0.019420423 -0.084298395 0.019337935 0.079977475 -0.04992825 -0.14728604 0.17004576 0.01603171 0.15261742 -0.040217336 0.09941688 -0.25681803 0.23824908 0.008880821 -0.040931575 0.07865654 0.14552431 0.055142205 0.054922014 0.07185526 0.09206819 -0.17410098 0.01693002 -0.088828824 -0.106576115 0.069700345 0.121682554 0.047419764 -0.06731194 0.0025309415 -0.020575492 -0.018045375 -0.11926971 -0.05787457 0.0070732366 0.02537721 0.13831179 -0.04191839 -0.15433171 0.05768705 -0.024163203 0.02415749 -0.17706905 0.014599791 0.14467277 -0.06461649 0.030287955 0.052166108 0.0711586 -0.174814 -0.059760902 -0.07710368 -0.026051315 0.050829317 0.07595472 -0.018399458 0.035566725 -0.036676172 0.057900243 0.08086493 -0.05116904 -0.14307912 0.084397875 -0.07106025 0.18173642 -0.037598316 -0.040476553
64 0.04998234 0.008004642 0.15128309 -0.051009845 0.029227333 -0.00080984546 0.0076825824 0.011098287 0.06347069 -0.049096785 -0.03564619 0.12954234 0.03504717 -0.006995776 0.023797242 -0.017229982 0.20625266 0.046847034 -0.08871879 0.06442113 -0.0035037538 0.090350024 -0.06846813 -0.030824574 0.090368286 0.063762605 0.088554956 -0.019958744 -0.1079283 -0.14848822 -0.0611813 -0.060709506 0.03435378 0.012538124 0.0045786267 0.0079511115 0.047979504 -0.093830585 -0.020019783 -0.19248116 0.032588955 -0.06993995 -0.20682259 -0.046578787 0.15122144 0.021586442 -0.060056366 -0.15490578 -0.035757117 -0.15964867 -0.02010155 0.18538342 0.04212374 0.08201907 0.055312287 -0.02233784 0.0885772 -0.028880633 0.121365234 -0.037708934 0.040908415 0.05720213 -0.004290152 0.0498194 -0.09742315 -0.1285645 -0.16047007 0.11942964 0.095711015 0.119126916 0.029500494 0.0075103748 -0.09676097 0.09568371 -0.07685191 -0.007592901 -0.0382654 0.059483025 -0.042002924 0.045784954 0.10568717 -0.026584435 -0.0055517973 0.18115522 -0.058155905 0.004863933 0.09758824 0.05465334 0.08002295 0.015749786 -0.12690908 -0.048813835 0.07926232 -0.23768312 -0.07146042 -0.15729688 0.06920005 0.11259906 -0.044949904 0.00691643 0.029796796 -0.05559054 0.022087697 -0.15577312 0.08220478 0.1459101 -0.14108197 0.19519907 0.021116456 0.12185314 -0.0094062565 -0.06267004 -0.014885616 -0.04824638 0.12457242 0.046856858 -0.13228111 0.12185706 -0.08634598 -0.0208392 0.07591108 -0.021160034 -0.11527569 -0.039212458 -0.13796628 0.24097924 0.15620273 0.111458875
20 -0.04298681 0.04283496 -0.008560266 0.010800833 0.0027505269 -0.00022743069 -0.026495768 0.10576593 0.07880623 0.052057058 -0.021359518 0.15081488 -0.057304326 0.0052081626 -0.0661999 -0.119167775 0.09806631 -0.025973283 -0.09694269 0.023227805 -0.05017075 0.0063263234 -0.010749219 -0.057647567 0.11398229 0.09703285 0.07926331 -0.12536672 -0.12704548 -0.18345818 -0.057292145 0.08131293 0.014948874 0.03446757 -0.056811254 -0.05518302 -0.0636361 -0.12957765 0.18400013 -0.06224202 0.08109436 0.018337123 -0.13042597 -0.2015758 -0.039750934 -0.022733789 0.11835158 -0.037983764 0.08597922 0.08167359 -0.076275565 0.018837893 0.061562575 0.028587129 0.05138649 0.06921816 0.07629906 0.0626504 0.05142218 0.053844307 0.025631245 0.08237636 -0.0075555947 0.036315273 -0.076243155 -0.16404007 -0.12281983 0.075796105 0.11133251 0.03618018 0.19726203 0.059790704 -0.13049152 0.054468475 -0.099233866 -0.14021212 0.21693255 0.034636945 -0.017052755 0.021329667 0.0033289972 -0.0017702478 -0.14661461 0.02524465 -0.03372764 0.024006013 -0.04996135 -0.0037929057 0.1603741 0.007045383 -0.091564775 -0.12494169 0.08097383 -0.06828645 -0.11395035 -0.05544238 -0.030560851 0.008642537 -0.051032454 0.008382683 0.10944334 -0.080155015 0.07739836 -0.17521702 -0.028121999 0.2022594 0.10049103 0.1444462 0.054220263 0.12629385 -0.07788419 -0.15752903 -0.11496028 0.005415236 0.17862621 0.14398232 -0.06524943 0.08290454 -0.09673368 -0.08019169 0.06533617 0.010704183 -0.141033 0.003883348 -0.10491382 0.2531841 0.017312042 0.00871387
54 -0.015994292 -0.09105436 0.060375556 -0.032363802 -0.08556175 -0.13140167 -0.10535315 0.011907979 0.048003323 -0.13156295 -0.13564865 0.020313391 0.053886034 0.05453641 -0.013827308 -0.0758192 0.1679755 -0.0013244625 -0.05637737 -0.009387893 0.020296147 0.011171926 -0.06786527 -0.016466483 0.115793176 0.019101461 0.085203804 0.023676177 -0.20324379 -0.17050977 -0.03501771 0.08867828 -0.031677138 -0.12733293 -0.05877457 0.017072545 0.024932873 -0.15545203 0.03331432 -0.054334603 -0.009752918 -0.0034166921 -0.030649545 -0.14304994 0.15555558 -0.077674955 0.17409946 -0.15809567 -0.018294135 -0.023432937 -0.08097981 0.068610504 0.023143213 -0.012575567 -0.044137355 0.11816158 0.07256091 0.030494867 0.0823543 -0.05734679 -0.024391335 -0.05632249 -0.0335493 0.060170166 -0.068998046 -0.034436755 -0.18326129 0.19869113 0.0561787 0.0631915 0.09705328 0.018043462 -0.22366084 0.094914936 -0.0058777346 -0.032722007 -0.032984994 0.099605516 -0.005482644 -0.08290206 0.17649375 0.043837298 -0.107721865 0.12898053 -0.09500718 -0.044222783 0.013686058 0.07398792 0.06217219 -0.035489466 -0.038901832 -0.1370573 0.10688596 -0.19109012 -0.080906965 -0.1767426 -0.020413263 -0.07631564 0.1556448 0.045514528 0.0008345317 -0.078614384 0.011128778 -0.19390737 0.032547053 0.088621914 -0.035081726 0.042357754 0.011034233 0.15231925 -0.06705375 0.048535805 -0.038781352 -0.018626671 0.028365746 0.12026497 0.058815453 -0.038346153 -0.011402924 0.07653938 0.10431493 -0.035091467 -0.09633961 0.08758433 -0.10274976 0.20276408 -0.006318238 0.05217254
70 0.0130779 -0.08296236 -0.010661684 -0.054380648 0.021831427 0.029481824 0.009938121 -0.052994136 0.09575403 -0.17721659 0.026607003 -0.03598957 -0.006435028 -0.028450942 -0.07984012 -0.0067468374 0.13591777 -0.050019473 -0.021048255 0.08934481 -0.10314676 0.028791064 -0.11488743 0.064365156 0.046626963 0.055392068 0.040281843 0.055688843 -0.181839 -0.11170898 0.028185658 0.058382243 -0.027076384 0.09161226 -0.008948128 -0.01872938 0.0033118175 -0.19336568 0.09605089 -0.005409305 -0.027343595 -0.049442556 -0.13593248 -0.06863366 -0.08705053 0.08158136 0.06895138 -0.014388546 0.12888321 -0.02015284 0.0019977621 0.0020407622 -0.053291112 -0.018288681 -0.08600131 -0.03248281 0.09920808 0.025881741 0.07139342 -0.01106531 -0.08273801 0.005758334 0.052623436 -0.02186502 -0.041513916 -0.14353237 -0.123355515 0.122616604 -0.0043095774 0.110431194 0.0908506 0.05614879 -0.10139483 0.2156839 -0.08178075 -0.04122339 0.022272956 0.059269853 -0.00063732243 -0.024447247 0.10330755 0.023108782 -0.05073122 0.13007124 -0.048170798 -0.028188078 -0.033105355 0.08863764 0.0076584173 -0.034135677 -0.1456034 -0.070642225 0.07827336 -0.132673 -0.1817537 -0.20265536 -0.062104225 -0.021440098 -0.07855058 -0.04053463 0.020308806 -0.041102014 0.05296929 -0.17425546 0.16627823 0.12675588 -0.026157003 0.043015245 0.10862343 0.10047935 -0.13976265 0.0046015047 0.031809527 -0.108411506 0.15401176 0.0061069587 -0.16177064 0.07948432 -0.1560691 -0.022322502 0.11443661 -0.09005581 -0.037704114 0.018116312 -0.18713869 0.19309686 0.1069872 -0.0613747
10 0.09492187 -0.11506744 -0.09341046 0.01940384 -0.0070414273 -0.07883821 -0.032445375 0.098937 -0.029961023 0.047026128 -0.043192014 0.043647494 0.018524505 0.15000415 -0.28121895 -0.10717034 0.009756121 -0.049454294 0.09579376 -0.031227091 0.005035313 0.024507225 -0.16751505 0.057302773 0.07085194 -0.0009167575 -0.013506934 -0.012001584 -0.18158521 -0.026813932 -0.019847212 0.16771355 0.10679958 -0.004085165 0.028474906 -0.17998421 0.13524212 -0.15523995 0.077504955 -0.12543343 -0.10303712 -0.076280214 -0.1143525 -0.017819075 0.080157064 -0.102468625 0.07077429 -0.06460505 0.1733858 -0.023832016 -0.060224183 0.11714993 0.068125844 0.09304445 -0.0012562075 0.12885253 0.11640001 -0.008429391 0.11826992 0.049780942 0.02928083 -0.0028247116 -0.038969442 0.076921456 -0.011803604 -0.0017291887 -0.15142556 0.2112354 0.0103022745 0.14010243 0.054232486 -0.03162546 -0.16300304 0.15131469 -0.1584533 -0.08783941 -0.0043661436 0.111490265 -0.030094003 -0.03302761 0.21792889 -0.0129528 0.029530829 0.07580343 -0.038384218 -0.03413603 -0.03321306 0.10579368 0.14721596 -0.081946746 -0.1072384 -0.065144286 -0.030187452 -0.012912111 -0.044480514 0.024432397 -0.011175519 0.006805685 0.046127878 0.0065752836 0.08216365 -0.0312682 -0.06656786 -0.13080218 0.12763064 0.1568536 -0.017155308 0.09257566 0.023951346 0.134681 -0.106133595 -0.004019826 -0.08649421 -0.118250936 0.037312753 0.054938685 -0.018143946 0.032709766 -0.1540864 0.03183885 0.18664551 -0.035448123 -0.08815646 0.12993616 -0.015789058 0.28807312 -0.004676201 -0.031160096
43 -0.025341367 -0.05534336 -0.052318774 0.016561076 0.08577813 -0.0577116 -0.17734449 -0.0032441344 0.006152716 -0.07541595 -0.009019959 0.021724235 -0.03382182 -0.03182417 -0.043768704 -0.0070966203 0.041049164 0.10434936 -0.0040621655 0.005770039 0.03890457 -0.023915283 -0.14807254 0.05195468 0.07864904 -0.0291057 0.036391463 -0.10996873 -0.23406644 -0.12597172 0.016739262 0.008347826 0.0002815046 -0.032754134 0.101695426 -0.0081085665 0.12686886 -0.18342897 0.09276368 -0.18125336 0.0037815194 -0.10255931 -0.12596644 -0.04873749 -0.008566902 -0.031211043 -0.07083937 0.011958193 -0.0010196825 -0.12044218 -0.04350795 -0.001063499 -0.05578892 0.030360907 -0.05456225 0.024431013 0.15901509 0.028832423 0.074029185 -0.081671886 -0.013442514 0.024585282 -0.05204065 0.011793877 -0.024746297 -0.11529559 -0.03541547 0.07854237 0.07099221 0.15064132 0.04128927 -0.01940029 -0.16427621 0.07714661 -0.105154306 -0.12551613 0.08453871 0.10624348 -0.08104411 0.057853624 0.19885972 0.124062546 -0.1874456 0.104947254 -0.14120156 0.001741132 -0.005504692 0.095919736 0.042553633 0.024179732 0.023353295 -0.044984635 -0.065028414 -0.09348871 -0.13598235 -0.058742244 -0.006858124 0.08469378 -0.03748295 0.009760687 0.08797103 -0.1003555 0.078739524 -0.11200005 0.16742107 0.15290922 0.055340216 0.20821011 0.053256117 0.07700364 -0.04439866 0.101560734 0.007139805 -0.027345225 0.16439989 0.068211965 0.064012155 0.03528024 0.026543379 -0.0045284615 0.06871755 -0.01788167 -0.118675835 0.1370905 -0.1322362 0.27749032 0.043213136 -0.056749735
33 -0.07472209 0.03980297 -0.007918629 -0.07040894 0.11494957 0.012090408 -0.03508327 -0.0016181552 0.013745703 -0.10151984 0.015867438 0.038161255 0.17692173 -0.03603349 -0.05665533 0.044076473 0.073706105 0.08695692 -0.044696555 -0.09323116 -0.048720658 -0.008008593 -0.19101605 0.028686032 0.034320284 -0.0026441554 0.1548676 0.028826555 -0.16963103 -0.105881415 0.019246532 0.013389885 0.09201949 -0.039933212 0.061762836 -0.05304816 0.016811943 -0.106609754 0.15372983 -0.10710816 -0.15873402 0.029510932 0.021970568 -0.13523334 0.11521659 -0.022567332 0.09451934 -0.05516543 -0.050041683 0.046021283 -0.14325623 0.027415995 -0.09851197 -0.003547582 -0.058197167 0.09280957 0.1258228 0.0070075346 0.07207075 0.101377815 0.018627644 0.028521579 -0.04106301 0.1701894 -0.043741196 -0.0083440505 -0.15964185 0.21409054 0.04479981 0.1984749 0.17465 -0.044228286 -0.24498917 0.08634137 -0.06373273 -0.06956975 0.11807739 0.03995965 0.038857788 0.06532874 0.06050307 -0.04266901 -0.19400015 0.145514 -0.10620524 0.014564211 -0.06217555 0.027138397 0.1032143 0.012268229 -0.028112873 -0.095714174 0.0074718585 -0.14958733 0.00513037 -0.013844022 0.07569516 -0.0882268 0.03504556 -0.043180656 0.015187557 -0.04841139 -0.0543073 -0.084350795 0.10913234 0.07611267 0.023232264 0.16452187 0.07983584 -0.010565303 -0.20747136 0.058017522 -0.057729516 0.046483193 0.07397371 0.080673166 0.047721136 0.07515651 -0.06406732 0.08099861 0.07369308 -0.056700002 -0.15058064 -0.0043619336 -0.14188334 0.1726928 -0.02284516 -0.06239823
55 0.037877426 0.10926868 -0.05178203 -0.06624869 -0.022583587 -0.0027493432 0.019933278 0.025609411 0.017461961 -0.1684926 -0.013901169 0.11545123 0.13472667 0.004884276 -0.08300346 0.015335168 0.09029569 -0.024196876 -0.013908809 0.0074968287 0.026829509 0.01498217 -0.07961585 -0.03420185 0.052583307 0.05601951 0.017194677 0.034669273 -0.20215221 -0.14950322 -0.019903684 0.035616763 -0.00844085 0.01887901 -0.014590827 0.06926027 -0.020688528 -0.25060973 0.18742359 -0.026976353 -0.020960864 -0.01853763 -0.050357573 -0.23176412 0.026778637 -0.10499493 0.08986019 -0.12669063 -0.04188395 -0.13538194 -0.11375158 0.00017179886 0.06267973 0.06984407 -0.028208926 -0.044474103 0.08168358 0.05530584 0.0817388 -0.008194602 0.0595364 -0.0050984193 0.08021518 0.07793047 -0.0107247 -0.103623256 -0.04903831 0.18698205 0.12798673 0.1664073 0.04505954 -0.046998583 -0.04297181 0.2035714 -0.09954865 0.0071912888 0.09997659 0.083103076 0.072182074 0.094922476 0.05995987 -0.0032193116 -0.12198612 0.0527219 -0.0009021029 -0.0008921706 0.0804809 0.059509467 0.1643322 0.023404403 -0.13184462 -0.071100116 -0.0588713 0.036719482 -0.09401186 -0.10827507 0.04123424 0.042974334 -0.02409806 -0.09197272 0.056432366 -0.15154053 -0.0032653217 -0.10280439 0.17684114 0.12712508 0.014438425 -0.0029103868 -0.05377219 0.08736198 -0.1354645 0.1067983 -0.019794986 -0.036208827 0.08472239 0.06621269 -0.02981557 -0.022736486 -0.088946804 0.048214566 -0.0092731165 -0.14318614 -0.10591867 0.12492117 -0.15646888 0.24820958 0.04062311 -0.033582553
4 -0.014076284 0.10394418 -0.017618658 -0.083958775 0.13970494 0.10862321 -0.004971297 0.029073656 0.15650007 -0.18441674 0.09353253 -0.020903531 0.10245889 0.06629192 -0.038528614 -0.13212648 0.13999555 0.05133601 -0.06401174 0.082387455 0.035551436 0.043650635 -0.11407697 0.051073797 0.053077824 0.06807372 0.023593735 0.0020233456 -0.21061419 -0.2127975 0.0140319625 0.119826995 0.058775235 0.06862895 0.007988263 -0.05835197 0.0305654 -0.118076324 0.0456886 -0.03294215 -0.005123474 -0.027520133 -0.15463842 0.015397189 0.06508118 -0.10507018 0.10689713 -0.011677114 0.0686835 0.08123984 -0.084088184 0.14773524 -0.06658204 0.13434091 0.0033898156 0.08940858 0.04323016 0.142661 0.07576377 -0.08769163 -0.07267707 -0.06226134 -0.053839054 0.022651419 -0.067994356 0.04501769 -0.13061313 0.18992294 0.044339254 0.16322799 0.058710717 0.05936187 -0.24867912 0.10994601 -0.0051508937 0.0022945898 0.037866645 0.0147671485 -0.03407313 -0.0075443177 0.030484442 0.11652721 -0.031347767 0.06055139 0.070666656 0.010981713 -0.15444057 0.02956605 0.051226076 0.07829932 -0.013961187 -0.02572337 -0.036110412 -0.10899971 -0.08329484 -0.12234353 -0.05471813 0.009154452 -0.043744583 -0.023132602 0.034786925 0.020350708 -0.031305406 -0.14088842 0.06366713 0.101456955 -0.039946634 0.05531501 -0.02259658 0.12165426 -0.17378461 -0.019029418 -0.04555288 0.062675305 0.13464749 0.070136175 0.031371783 0.022397432 0.012781562 -0.104176804 0.12947932 -0.047981013 -0.1750617 0.020936934 -0.13096833 0.28053135 0.083043456 -0.11898018
101 -0.05964974 -0.06279088 -0.022074793 -0.004100049 0.035776507 0.041419268 0.16962858 0.07698052 0.050634336 -0.010325616 -0.114500314 -0.017984089 -0.0076938267 -0.024537241 -0.06820527 -0.087272376 0.16984753 -0.03138378 -0.025843991 0.07486185 -0.068457864 -0.108771876 -0.07474107 -0.09970616 0.014781602 -0.04085896 0.08325998 0.04314727 -0.12045968 0.03071306 0.11885821 0.11886848 0.13861723 0.087052695 0.12634216 -0.02607245 -0.04200285 0.047551002 0.10795148 0.040834337 0.023691492 -0.016279552 -0.09314596 -0.16704042 0.035139102 -0.08889585 0.094700426 -0.034283765 0.036740422 0.07742914 -0.02993997 0.015938628 -0.051647026 0.04453399 -0.0085931625 0.0031276073 0.0739269 0.124126345 0.15938522 0.01842732 0.023546148 0.009684419 0.009984292 0.034479316 -0.067054 -0.03310701 -0.19051345 0.09546911 0.060467597 0.09573073 0.14060864 0.007169826 -0.15583448 0.012525407 -0.1022247 -0.19463025 0.031499803 0.0012093494 -0.025960261 -0.019393608 0.14300255 0.07362399 -0.019263713 0.06945878 -0.0646018 -0.046527844 -0.024580553 0.043280113 0.17306915 0.080746904 -0.088485315 -0.1982171 -0.030291907 -0.09315218 -0.040799245 0.036142804 0.009368271 0.08793027 -0.116278134 -0.07804608 0.07607712 -0.032392588 0.061536938 -0.09885521 0.12090121 0.14136268 0.07183838 0.16061859 -0.012213905 0.20510556 -0.15907383 -0.015838007 0.017661968 0.059811175 0.106319815 0.07430219 -0.076549515 0.084677 -0.08356492 -0.036653604 0.1899782 -0.08966893 -0.15509376 0.030308887 -0.02986794 0.29760823 0.115777716 0.011872264
32 -0.040491797 0.039948132 -0.09472696 -0.06688011 0.010348185 0.027420785 -0.0014036084 0.0009145077 0.14384352 -0.12165678 -0.04524282 0.17427252 0.14373332 0.0058268663 0.0019657963 0.0014632107 -0.03746676 0.019466935 0.07185017 -0.022810886 -0.051652335 0.023952272 -0.036471132 -0.102216296 -0.044905663 0.04060926 -0.09049674 -0.01727732 -0.17852136 -0.07491698 -0.036571015 -0.06436979 0.055584833 -0.041192263 -0.024038328 -0.005724617 0.06322056 -0.17502286 0.09939849 -0.10614112 0.031449884 -0.04105318 -0.14073001 -0.11438574 0.120074846 -0.056383245 0.03951895 -0.10851797 0.12145564 -0.16088538 -0.014042812 0.14449549 -0.03752188 0.12133028 0.0670552 0.043236613 0.01790316 0.03936457 0.17496327 -0.05889793 0.061131503 0.011843358 -0.03404359 -0.006332381 -0.08176757 -0.19166192 -0.1848039 0.18296534 0.037702814 0.15683025 0.2545729 -0.09500367 -0.14095683 -0.017113023 -0.11824108 -0.06608413 0.091438934 0.13534528 0.017011302 -9.558824e-05 0.08287474 -0.042600527 -0.07970384 0.07839297 0.014627886 -0.001916815 -0.07531565 0.0036128324 0.13384606 0.044634953 -0.04613416 -0.056971163 0.009130275 -0.09482746 -0.0422094 -0.14013942 0.096568204 -0.027569816 -0.014584918 0.020506084 0.04211531 -0.023432435 0.020716589 -0.15096442 0.029950522 -0.017560223 -0.093269095 0.22200496 0.118325554 0.07593328 -0.031949766 0.087822326 0.091583915 -0.0020974479 0.19531235 0.02806758 -0.046505105 -0.051350903 0.035132334 0.028775794 0.09322074 -0.10905148 -0.10896878 0.045915317 -0.18498428 0.18794961 0.05872106 -0.09185434
46 0.003224784 -0.16708872 -0.060730845 0.011617948 0.029399998 0.06059282 -0.043838777 -0.08047492 0.034688212 -0.12452895 0.025291532 0.08578745 -0.012364943 0.09435967 -0.024025805 0.008089035 0.04431668 0.12787889 -0.015005475 0.0140395295 -0.13528295 0.12904707 -0.14085129 -0.010619174 -0.034182176 -0.05450509 0.1662463 0.042839807 -0.13003959 0.012367669 0.05880141 0.1064339 0.083319224 -0.0023013651 0.031167183 0.050324854 0.037891738 -0.058739416 0.1948384 -0.12000404 -0.024140617 -0.0013697264 -0.02396579 -0.07117784 0.029465435 -0.099401064 0.014218444 0.027342547 0.13696359 0.034151446 0.0023731655 0.16764146 -0.051596154 0.08088129 0.0050773406 0.043913323 0.09621895 0.08424636 0.17384571 -0.0033919252 0.07230067 0.0672988 -0.06641658 0.11584685 -0.023898687 0.16077028 -0.027196126 0.032038644 -0.07197825 0.07098667 0.105739586 0.034365717 -0.13582453 0.07769832 -0.0851847 -0.0919359 0.0061466666 0.13200991 0.05647406 -0.029215617 0.11526702 -0.040937424 -0.040048514 0.083453886 -0.12949808 -0.04540663 -0.0018764766 0.14107199 0.04065591 -0.015164677 -0.07681338 -0.10743625 0.037367195 -0.10404162 -0.15522218 -0.05727428 0.07829926 0.13088691 -0.024186963 -0.010466728 0.07143284 -0.07100047 0.08333596 -0.13921855 0.12991239 0.035417676 -0.09064129 0.16364697 -5.525179e-05 0.05487301 -0.08156804 0.005286424 0.007308927 0.034466818 0.13607958 0.123191744 -0.0942385 0.1375061 -0.112581775 0.015114697 0.16020878 -0.05268472 -0.08497278 0.12402854 -0.25568014 0.26809186 0.09511509 -0.056328095
81 -0.044440195 -0.13185547 -0.031079816 -0.10286292 -0.06490109 0.043397263 -0.055433065 -0.06858012 0.09937224 -0.15126361 -0.094579265 0.008742382 -0.007938764 -0.06251172 0.05034103 -0.047183216 0.068015195 -0.020961208 -0.121713415 0.06458134 -0.029390872 0.052142892 -0.08599934 -0.05297512 0.02197896 -0.013805629 0.033335757 -0.000636053 -0.14992173 -0.091092244 -0.048689563 -0.0043324735 0.027605318 -0.030895863 -0.0052372026 0.046461314 -0.08458922 -0.071024075 0.03491627 -0.040938783 -0.11403319 0.1243291 -0.14378378 -0.10910628 -0.0072997077 -0.032697916 -0.017565532 -0.06143432 0.11702195 -0.068065 -0.09373627 -0.029430525 0.12615398 0.07977342 0.026340624 -0.00023901254 0.06476127 0.09022 0.15769741 0.11989013 0.020792944 -0.07404646 0.032120973 0.12067076 -0.08576164 -0.05727102 -0.16523595 0.16546689 -0.030086134 0.10813659 0.02891849 -0.015801134 -0.089621514 0.130605 -0.017949054 -7.670353e-06 0.011275757 0.11552121 -0.025538417 0.06871913 0.13957678 0.066608444 -0.09560336 0.043405313 -0.0009967462 -0.025298892 0.038783126 -0.028152762 0.11919269 0.014736857 -0.09343719 -0.06279406 0.064598836 -0.15825045 -0.15945911 -0.0713027 0.12174541 -0.0019979642 -0.02615804 0.022430666 0.054311913 -0.05961095 -0.006805615 -0.09265106 0.01857393 0.038914297 -0.036585115 0.10520147 0.0035989797 0.15668501 -0.13593386 -0.059720054 0.08506798 -0.06191003 0.200291 0.053039793 -0.11385909 0.07242897 -0.043456115 -0.02114024 0.07448656 -0.12725207 -0.11457755 0.18010265 -0.16681004 0.2981741 0.059279118 -0.024569198
104 -0.036573734 -0.060599636 0.011574331 -0.006832992 -0.02175617 -0.032353267 0.008353545 -0.030874679 0.17647874 -0.03820559 -0.12405053 0.028597737 0.059073698 0.10671053 -0.031170223 0.010470428 0.14905983 0.07517057 0.050253786 0.0726234 -0.076030895 0.09492062 -0.163078 -0.19571921 0.070355766 0.057856668 0.034721885 -0.03565956 -0.121684246 -0.13312873 -0.06257576 0.17515278 0.11268569 0.006783496 0.032325838 0.056634005 0.030271923 -0.09179387 -0.042940985 -0.023359107 0.020704905 0.010609964 -0.08194026 -0.08941257 -0.01512261 -0.02691654 0.14324918 -0.114169024 0.04368302 0.09618625 0.01045975 0.05023565 0.03432746 0.000730032 -0.025304737 -0.011638977 0.07996691 0.04742121 0.051486768 0.036528192 0.0590214 0.023616735 0.045253817 0.0399818 -0.040487908 -0.08673214 -0.25045893 0.16113232 0.052806646 0.10108933 0.18917422 0.017849093 -0.12528035 0.061462708 -0.103326954 -0.023103682 -0.010361953 0.0787591 -0.059441254 -0.0343838 0.07534941 -0.050985556 0.01767418 0.0903341 -0.052908994 -0.07893468 -0.05426571 0.020101283 0.13710018 0.15874569 0.040442 -0.09120691 0.06331401 -0.103817455 -0.110346965 -0.04924964 0.056995478 0.031844344 0.07067913 -0.069169775 0.05398224 -0.021638498 0.029043786 -0.2519046 0.12995344 0.1285723 -0.02576015 0.23172739 0.05121282 0.1961209 -0.14051054 0.15424451 0.028174214 0.015652204 0.08832239 0.06877668 -0.024800962 0.01009202 -0.051498074 0.12762326 0.2659791 -0.12913759 -0.029089915 0.00983122 0.004794516 0.17769441 0.057267338 0.061431184
98 -0.029029964 0.0029510749 0.014300491 -0.14464888 0.07691381 -0.056670163 0.057007603 -0.0930972 -0.03532647 -0.100143634 0.08391753 -0.014251848 0.08165505 0.011268522 -0.03451231 -0.059383698 0.035379782 0.01809856 -0.03129146 0.030879809 -0.07732805 0.08150324 -0.009646371 -0.09055027 -0.008025158 0.14384402 0.053450655 -0.13299808 -0.24372245 -0.05338719 -0.093082644 0.060400482 0.04917073 -0.048136026 -0.027497945 -0.076044515 0.10983806 -0.12032089 0.1065954 -0.0382493 -0.0013184543 0.10929081 -0.19200273 -0.12896883 0.08723344 -0.04660178 0.023850884 -0.018399773 0.20279565 -0.025665125 -0.060748104 0.12536561 -0.04217154 0.035341542 0.032670736 -0.057692546 0.066979475 0.12323348 0.14291778 -0.06353223 -0.08578544 0.05312258 0.044238612 0.13199499 0.011189131 -0.11729435 -0.05780367 0.055500794 0.14788674 0.13545266 0.0129972305 0.065818876 -0.17149425 0.046672676 0.008388897 -0.06194978 0.09378657 0.07332061 0.10398745 -0.008476697 0.08101925 0.042463902 -0.06934351 0.08130836 -0.084963076 -0.037712656 -0.052227013 -0.013264698 0.10216611 -0.005635103 0.041207243 -0.18690698 -0.05612626 -0.15489842 -0.058729887 -0.16098112 -0.008895256 0.12237137 0.028926412 -0.080048785 0.15131488 -0.005349456 -0.0029106943 -0.16301255 0.056372397 0.15888467 0.025501728 0.100657955 0.023671785 0.056025047 -0.15171105 -0.021934282 -0.07294242 -0.106475756 0.055995326 0.045356844 0.06141995 0.15894245 0.020573102 0.017645007 0.0884121 -0.12299434 -0.08157925 0.09650104 -0.27053055 0.17550126 0.022845952 0.09910458
123 0.030919032 -0.057895 0.060333002 -0.001919169 0.09043473 0.113024786 -0.0065615065 0.029010009 0.15251261 -0.05177009 -0.0072981277 0.05078533 -0.048920933 0.055538945 -0.08003379 0.11053362 0.19302031 0.043228637 0.05474011 0.007476425 0.07541606 0.050528906 -0.15559568 0.013041249 0.06136353 -0.026668856 -0.050965596 -0.07777201 -0.14564489 -0.08277089 -0.09997412 -0.02873698 -0.003234666 0.071419284 -0.010177082 -0.027748702 -0.073571645 -0.018544145 0.09730202 -0.0011265771 -0.1141117 -0.023111138 -0.08774229 -0.10977646 0.011213697 0.0968646 0.01676825 -0.012813865 0.17686617 -0.0010788073 -0.113196835 0.038449712 0.03451223 0.058232017 0.082897924 0.014432579 0.07975171 0.07694992 0.14620312 -0.06851603 0.11172529 -0.0013231764 -0.05931382 0.105456926 -0.03310664 -0.08989986 -0.17799373 0.10461794 0.15639645 0.19637291 0.040520832 0.0037827995 -0.09946179 -0.015859453 -0.08462624 -0.053869605 0.112681784 0.04527277 -0.07691543 -0.021320498 0.23599866 -0.0052921437 -0.0021408857 0.09821061 -0.034925774 0.018071814 -0.017024193 0.13504742 0.002752444 -0.046552658 -0.04988055 -0.044430573 -0.030130766 -0.014636675 -0.117678545 -0.056926906 0.055615757 0.012789692 -0.04177527 -0.091669634 0.11010112 0.061530612 0.029339453 -0.19842638 0.14373802 0.05852587 -0.10738136 0.08495748 0.051504258 0.11340108 -0.18696496 0.045006007 0.005406923 -0.023871522 0.19801065 0.051298432 -0.13616489 0.08996598 -0.029349493 -0.04661888 0.14786959 -0.09297368 -0.13471174 0.13014098 -0.15027797 0.18777485 -0.08556313 0.023174534
63 -0.059963573 0.012944642 -0.0028343052 0.024922678 -0.048905183 -0.002300694 -0.042206928 0.069296405 0.030873505 0.08992048 -0.010258639 0.04450757 0.005012243 -0.034715813 -0.18959647 0.005620866 0.17554712 0.052076634 -0.004212922 0.042030532 -0.028391335 0.0096608205 0.029530765 -0.069701225 0.15455113 0.05520271 -0.0077243843 -0.046999197 -0.12902802 -0.04128689 0.054655302 0.04725159 -0.0028424533 0.01938231 -0.04516347 -0.052316215 -0.08087318 -0.14493282 0.13706473 -0.12656307 -0.19173601 0.036512926 -0.02672312 -0.12923877 0.012130623 0.011788543 0.07409407 -0.089406535 -0.009623277 -0.065276526 -0.102033675 0.15663342 0.0816201 -0.0576943 0.013593157 -0.026262593 0.16195436 -0.04154314 0.11867213 0.002117432 0.0054012635 0.030489532 -0.059612103 0.09990009 -0.118875615 -0.0697965 -0.17662787 0.1534489 -0.0029668978 0.1564175 0.111903675 -0.01818376 -0.059891827 0.1475403 0.022393819 -0.11162777 0.003881677 0.00411574 -0.13932012 -0.0018244898 0.18991534 0.01611374 -0.056274083 0.001389922 0.018618032 -0.0889642 0.08394525 0.16948591 0.097380005 -0.015616892 -0.039000727 -0.1393337 0.0426937 -0.07542208 -0.02131033 -0.077969275 0.12646237 0.13527812 -0.14375493 -0.02023434 0.114511825 -0.053553488 0.025437215 -0.15406682 0.059811823 0.1579772 -0.09131753 0.16730817 0.10946837 0.124201626 -0.21348363 0.031033901 -0.07127877 -0.024508217 0.05510727 0.015224324 0.0003847874 0.058501046 0.02053792 0.0053428537 0.13401169 0.013078613 -0.073006384 0.08864535 -0.18761352 0.2139037 -0.047799945 0.0466448
92 -0.16192774 0.083290204 -0.010622558 -0.05205524 0.11280982 -0.09321408 0.032211214 0.026343947 0.005054552 -0.07357303 0.083119124 -0.078797795 0.007359562 0.03098344 -0.021121757 -0.089900486 0.20326503 0.10863661 0.11808302 0.047245298 0.0005268268 0.07503374 -0.10926659 -0.020630816 0.024599299 0.107873425 0.16421545 -0.016543234 -0.19686586 -0.023995051 -0.029347623 0.056137595 0.02549436 -0.053261835 0.124022804 -0.0025971194 0.042574566 -0.16263951 0.15613864 -0.03756506 -0.05764798 -0.13332845 -0.13492693 -0.14026803 0.07929247 -0.011263298 0.07053209 0.00076249393 0.17777346 0.0598829 -0.0513794 0.03975814 0.03410853 -0.034345046 -0.026514892 0.13260625 0.13429111 -0.09301434 0.18368167 -0.024422279 0.011567808 0.008732538 0.0034165315 0.050395075 0.04074623 -0.046100996 -0.07034358 0.1549121 0.04099695 0.14009398 0.06251042 -0.095306195 -0.09744664 0.09859266 -0.07144348 -0.06883721 0.15771966 0.12955843 -0.00047427244 0.018395763 0.029183486 -0.0058903154 -0.062157016 0.12920079 -0.071432464 -0.12132827 -0.02438062 0.051014908 -0.053498823 -0.023549406 -0.14040451 -0.08571969 -0.0007769489 0.01825141 -0.04698205 -0.13315943 -0.07408426 0.092831284 0.08486161 0.08245412 0.06991985 -0.063178994 0.0037658208 -0.22722141 0.070525095 0.0023675978 0.0051842886 0.13540202 -0.10465355 0.21654102 -0.1548959 0.052566946 0.0391519 0.11495044 0.184685 0.027644476 -0.13126816 0.095626354 -0.10547777 0.021678608 0.094179094 -0.10121583 -0.041579902 0.06762943 -0.10543806 0.17482768 -0.03259201 -0.041006655
56 0.08729436 -0.06584513 -0.108794875 -0.04886282 -0.014192211 0.060056712 -0.04178152 0.16104129 0.07395567 -0.058443077 0.033365 0.105306655 -0.018327694 -0.017783573 0.020602144 -0.0351938 0.12662812 0.045132034 -0.060446307 0.1358044 0.030057652 0.055226475 -0.13141663 -0.008022 0.055365227 -0.059233055 0.11478199 -0.11975832 -0.21883503 -0.14496242 -0.009878482 -0.015603399 0.029462833 0.0003597095 0.12159892 0.042397764 0.0040262286 -0.18282901 0.11053134 -0.093903065 0.020553723 -0.0020922427 -0.14047742 -0.16015476 -0.00734899 -0.074468546 0.08805571 -0.02028764 0.17820683 0.025977202 -0.10876712 0.11243041 0.056531843 0.07607823 0.03003903 -0.032475483 0.094455585 0.10391176 0.16983902 -0.005839005 0.010672249 0.017612632 -0.09848712 0.10537242 -0.040788688 -0.030117974 -0.13296756 0.16119936 0.11550653 0.12039825 0.17845492 0.06269639 -0.12107322 0.0019896228 -0.06627038 0.018090243 0.10277882 0.03413367 0.04612772 -0.0110728415 0.08909837 0.0708782 -0.028175075 -0.0052179624 -0.043958183 -0.03759193 -0.07591025 0.095443584 0.15776065 0.014764961 -0.100447185 -0.03221735 -0.010802712 -0.14630555 -0.013534128 -0.039867133 0.074143805 0.1419415 -0.058367793 -0.13859014 0.073477305 -0.11324653 -0.0667392 -0.054075826 -0.00930217 0.24801925 0.063638136 0.09595084 -0.07769961 -0.01567227 -0.17010017 0.021348936 -0.02564873 -0.0041453238 0.096362755 -0.030409638 -0.07143204 -0.014531196 -0.052106213 0.03634793 0.21329956 -0.13722879 0.058054 -0.050122973 -0.17191039 0.15268682 -0.06894412 -0.032614257
85 -0.06210482 -0.03979775 -0.09709357 0.0021641683 -0.048682295 0.02260193 -0.07994681 -0.021823244 0.13000971 -0.06512079 -0.062410004 0.019461043 0.08877606 -0.003960401 -0.0074546435 -0.07002494 0.24719842 -0.08265588 -0.07130974 0.08056822 -0.1144418 -0.02457068 -0.18664332 -0.10461877 0.031177474 -0.048763786 0.13308167 -0.013332912 -0.16524503 -0.0694623 0.040879827 0.09273879 0.007853228 0.059652787 -0.0016659806 0.028314743 0.039253175 -0.14751235 0.08529745 -0.062617056 0.02719438 -0.046957552 -0.17418015 -0.13729405 0.087383516 -0.036134705 0.058335066 -0.10814029 0.08888232 -0.012077386 0.0003818385 0.07270535 -0.009633898 -0.0047834986 -0.016776446 -0.032026637 0.061769865 0.041160323 0.33271086 -0.06232773 0.0012166286 -0.014670954 -0.06532362 0.16992664 -0.058385115 -0.06793123 -0.14207152 0.11386614 0.10513296 0.20957598 0.087787814 -0.028655479 -0.067596845 0.08925757 -0.054590717 -0.103472956 0.027457554 0.08035413 0.067701 -0.037039287 0.14664537 0.073970616 -0.009432132 -0.042356074 0.063448116 -0.10827276 0.018642768 0.117894836 0.0466437 -0.07416048 -0.099169254 -0.13263282 -0.06300368 -0.055290118 -0.052369665 -0.006068194 0.0932696 0.027929045 0.088782765 -0.0069914055 0.108982265 -0.11963442 0.0025175712 -0.14476718 0.10881141 0.21336138 -0.07502023 -0.025216408 -0.047874458 0.07203214 0.0165963 -0.015126288 -0.07977061 0.03154188 0.08518502 0.053697575 -0.114342146 -0.043428537 0.053834386 -0.048123293 0.028930858 -0.076661736 -0.11556143 0.101728365 -0.10244171 0.21018425 -0.048681147 -0.040805865
79 0.033547293 -0.080229506 -0.08063176 0.015130492 0.056720793 -0.02714938 0.008838646 0.003119216 0.14921929 -0.0980217 -0.029002488 0.014703872 0.069703415 0.057613898 0.019942708 -0.015730776 0.009532841 0.040087454 0.053810112 -0.011008737 -0.060678314 0.0069112554 -0.07248791 -0.018493066 0.13779178 0.00779913 -0.03174931 -0.0035927203 -0.108053364 -0.0010492946 -0.04373411 0.055719472 0.008799286 0.07590415 -0.013167516 -0.02466568 -0.051479664 0.05144215 0.17162473 -0.06946163 -0.05997167 -0.114407614 -0.14235786 -0.250706 0.0038877316 0.028995873 0.038675323 -0.066722885 0.0812908 0.016810967 -0.07122315 0.076600514 0.06639857 0.13470636 -0.006806146 0.09494364 0.22177209 0.1140634 0.2160587 0.059143826 -0.008814728 0.008108326 -0.017758284 0.087600715 -0.078989275 -0.017152961 -0.12287558 0.28691098 0.08239347 0.11796042 -0.08801807 0.007704545 -0.16320543 0.106672 0.0049930136 -0.026632452 0.16209468 0.06255671 0.07412513 0.06895519 0.090417296 -0.09330528 -0.01991702 -0.02225856 0.03133681 -0.1373178 -0.023738421 0.061871424 0.103835374 0.08889878 -0.052824672 -0.083691664 -0.09211651 -0.056071255 -0.17759249 -0.08522683 0.036925517 0.086741015 -0.026639374 0.03766554 -0.011169145 -0.110856794 -0.08467448 -0.18944772 0.076121196 0.06216249 0.06695437 0.17554957 -0.034036376 0.12450541 -0.19271454 -0.026171613 -0.042312514 -0.036682572 0.17512396 0.0057602976 0.031233644 -0.013447097 -0.015923614 0.025997847 0.17996049 -0.12839712 -0.025017219 0.00991787 -0.119691335 0.1426618 0.05812047 -0.06416939
89 -0.104117386 -0.018147007 -0.036035288 -0.10283968 -0.04758269 -0.074861206 0.07796988 -0.04609133 0.025375525 0.005745119 -0.040527176 -0.02998149 -0.072943896 0.062661946 -0.0509199 -0.06973726 0.10524166 0.045087595 -0.038737167 0.08857944 0.091518395 0.09046447 -0.15161043 -0.08223667 0.0764574 0.107676275 0.045614008 0.047212142 -0.1175026 -0.12040684 0.065314434 0.1266701 -0.0775368 -0.049003124 0.051284745 -0.0033495512 0.02671223 -0.1396982 0.096273065 -0.022733841 -0.12742476 0.031077178 -0.025435522 -0.04928938 0.05644628 -0.0023562296 0.03657575 -0.02514281 -0.021887416 0.03595954 0.02120737 0.051021557 0.012949198 0.1514163 -0.06803403 -0.0059434366 0.08328912 -0.010300275 0.22898272 0.087831974 0.09330634 -0.0145208435 0.039797194 0.03216752 -0.12751193 -0.09304843 -0.15230647 0.24264129 0.11045318 0.17585202 0.07533529 0.07658994 -0.119255275 0.074472964 0.025618238 -0.14669518 0.004980327 0.12140075 0.009749379 0.014184416 0.1771807 -0.089595385 -0.09640848 0.03818386 -0.04611558 0.06499677 -0.020454772 0.040870447 0.13757783 -0.0971472 -0.18963961 -0.10772112 0.10447417 -0.2237661 -0.0069915215 -0.056822263 0.095449775 0.11753037 0.010196737 -0.004715147 0.0774011 -0.14759715 0.040608626 -0.2022218 0.1320702 0.022481425 -0.08242909 0.08487052 0.013720118 0.08542366 -0.14529265 0.045305084 0.071471766 -0.059143882 0.27244905 0.08705695 0.030907428 0.11034007 -0.025331337 0.016692944 0.1264639 -0.18503217 -0.061719805 -0.017443232 -0.15180896 0.054019164 -0.087079786 -0.05904677
57 -0.041057955 0.004420818 0.028783577 0.11324152 0.02994919 -0.05139324 0.0883094 -0.0866862 -0.10812587 -0.14058799 3.666705e-05 -0.038530122 0.03721823 0.024118446 -0.037338417 0.023976713 0.070413835 0.0950909 0.100952074 0.1344178 0.07482496 0.03166886 -0.1540183 0.0118399635 0.1664063 -0.097278275 0.19140154 0.046888784 -0.088277124 -0.077942826 -0.044547316 0.17948 0.027618779 -0.048326846 -0.03802572 0.010776482 0.021551766 -0.1798486 0.044799317 -0.16199693 0.023552883 0.04244368 -0.13636869 0.01460169 -0.060430184 -0.017777279 -0.052619644 -0.047016453 -0.058065657 0.12869763 -0.046362538 -0.0028501817 -0.014014166 -0.035844125 -0.17902409 0.07047377 0.16355178 0.044458255 0.18527034 -0.0062022153 -0.0185199 -0.0630195 0.012925986 0.030453457 -0.022413217 -0.024460744 -0.08192093 0.136547 0.122346826 0.18662779 0.17827675 0.04298979 -0.06947185 0.19394897 0.016892048 0.021189516 0.13711774 0.09459889 -0.071823575 -0.022242816 0.10827798 -0.061547022 -0.09658457 -0.077494524 -0.066336274 -0.09592307 0.054858766 0.08511171 0.1337052 -0.058774356 -0.13440543 -0.15133213 -0.084147066 -0.1197312 -0.06303885 -0.21791744 0.06317557 0.04400298 -0.064117424 -0.076103896 0.059769712 -0.1175067 0.03764571 -0.0880133 -0.0112412255 0.09043788 -0.08545331 0.15171365 0.15288411 0.036662947 -0.13374281 -0.027508218 0.066965334 -0.04217652 0.07856445 0.07922925 0.011962545 0.020697786 0.0063606254 -0.09441657 0.046908233 -0.03192061 -0.20553136 0.08774054 -0.0780234 0.33893764 0.0721792 -0.04360024
44 0.01049321 0.03677608 0.02132754 -0.00971297 -0.0137357665 0.039785486 0.040292613 0.011375435 0.039195005 -0.06665737 -0.09405403 -0.014371406 0.0872035 0.14159277 -0.07771069 0.13113004 -0.026369208 -0.00049073814 0.045857508 0.023927031 0.023041293 0.012820674 -0.054285616 -0.0078499 -0.05129608 0.04257166 0.010473349 -0.064237535 -0.2846035 0.07016057 -0.0151613355 0.06142351 0.00973578 -0.013143697 0.06472235 -0.113783896 0.059985206 -0.036916174 0.12228392 0.0053433585 -0.11830194 0.014898778 -0.18086801 -0.1375683 0.020994263 -0.053653043 0.12144984 -0.116435446 0.09189165 -0.010431537 0.058248136 0.05669647 0.010141356 0.007935265 -0.035001907 -0.109641664 0.113243945 0.06761685 0.15738513 0.028345969 -0.0057446547 -0.029588036 0.007446234 0.18985242 -0.011853574 0.0035328334 -0.18834887 0.13717893 0.05969258 0.1507094 0.07679086 0.096945286 -0.084813535 0.011628182 -0.003499814 -0.036305394 0.12099487 0.14626113 0.04324144 -0.024242762 0.20236391 0.1515997 -0.12693456 0.030021846 -0.001566012 -0.08420528 0.051228832 0.13794462 0.04558704 -0.058965567 -0.10324926 -0.14311233 0.010563939 -0.115025215 -0.0897313 0.007827505 -0.0050888346 -0.0063087256 -0.03274018 -0.0066052717 -0.051185496 -0.010407687 0.12822244 -0.12202604 0.17034678 0.048929572 0.06465383 0.117218964 0.00649131 0.12813641 -0.17451479 -0.11105103 -0.011895496 -0.006237822 0.07363783 0.025312422 -0.06847518 0.012372507 -0.13144825 -0.04946127 0.07629561 -0.08076059 -0.16724733 -0.019454176 -0.22003467 0.2908887 0.023063088 0.044151723
