163 128
5 0.018640243 -0.038964055 -0.05499125 -0.008724426 -0.00473192 0.04487601 0.057018377 -0.017532593 -0.042284798 -0.042005356 -0.10017476 -0.098896034 -0.024646048 -0.045384146 0.11169847 -0.040034868 -0.00021739794 -0.02416853 0.071038835 -0.046308957 0.077031806 -0.0046981024 -0.03349866 0.13075376 0.04842781 -0.057590745 -0.023001611 -0.013310963 -0.023262268 0.088521086 0.026538495 0.025369799 0.09858764 0.030968225 -0.007110302 0.07163171 0.02052251 -0.12750259 -0.11999423 -0.0013522173 -0.084225655 0.06609251 0.051838048 -0.12089197 0.08978818 0.22290234 0.018362654 -0.016466143 0.047221705 -0.07887692 -0.07663202 0.1080121 -0.01150792 -0.120274365 0.067303635 0.09625911 0.1391044 -0.04086435 -0.032227155 0.08861615 -0.0017108008 0.032286547 -0.019757882 0.07084763 -0.061205424 -0.182221 0.0324459 0.0666419 0.033723693 0.11338936 0.087387994 0.05868212 -0.06407867 0.077649236 0.0700098 -0.07135739 -0.14114228 0.035337754 -0.03335998 -0.011054932 0.018585576 -0.1899992 0.14470308 -0.21056226 0.07501349 0.094392985 0.016316293 0.021598496 -0.15607363 0.077692345 0.052306384 -0.035729304 0.01309013 -0.105455846 -0.049978897 -0.04378736 -0.058493543 -0.07129827 -0.031610366 -0.0032575203 0.11136125 0.09217729 -0.031074371 0.08641882 -0.06290262 -0.18356162 -0.041968986 0.10239408 0.17728728 -0.16651385 0.10329151 -0.10062136 -0.12041101 0.03410629 0.045184094 0.060613092 -0.012180116 0.022725713 -0.034942046 -0.043369006 -0.12373814 -0.031217406 -0.0117335925 0.14681177 -0.13281336 -0.041010033 0.02883167 0.0385571
2 0.034053564 -0.15807003 -0.093430124 0.06629467 -0.06993041 0.0026445119 0.05887607 -0.045681145 -0.08910873 -0.08222948 -0.010596858 -0.09547409 0.015098554 -0.083249375 -0.033599213 -0.054195393 0.048462797 0.090172514 0.06259619 -0.064659126 0.008638766 -0.015401215 0.026935617 0.051460285 0.040070288 -0.015185491 -0.06518219 -0.050384007 0.05515913 0.04900484 0.08371766 0.107440636 0.041046478 0.0127215935 0.06862471 0.02000438 0.016599115 -0.060920715 -0.0842382 0.047552317 -0.12033197 0.07673404 0.04131167 -0.10424778 0.013138424 0.09987832 -0.012044999 0.022148231 0.0003134668 0.0144007085 -0.017585844 0.124154165 -0.07788341 -0.23188655 0.16159663 0.057493526 0.03974458 -0.09226764 -0.10202629 0.1007937 -0.03251902 0.015683096 -0.012867012 -0.049579207 -0.14390887 -0.20277743 -0.09157604 0.062309623 -0.010893776 0.023646401 0.25886697 -0.041092742 -0.06586305 -0.05183885 -0.13240366 -0.08709279 -0.1277678 0.11449615 -0.0056620715 -0.061788656 0.021705374 -0.1572155 0.09606704 -0.12947236 0.030870985 0.042659216 -0.04689348 0.0022024314 -0.17536084 0.049800232 0.062358864 -0.07349834 0.10679401 -0.14606762 -0.07405703 -0.008716538 -0.009745769 -0.119432494 -0.05375632 -0.04104695 0.03939916 -0.019236943 -0.07447706 0.11122038 -0.036253564 -0.1539912 0.030855097 0.13178498 0.16409576 -0.23325561 0.029089529 -0.08389706 -0.04004598 0.06478665 0.0527503 0.032288477 0.04325226 0.0014700976 0.05771212 0.06574313 -0.089857474 -0.055942517 -0.06052249 0.22203317 -0.16226497 -0.0076832245 0.13221775 0.07061424
3 0.065979384 -0.11043451 -0.058196317 -0.0049965386 -0.02472259 0.14213581 0.08198483 0.0056728176 -0.06687973 -0.1466259 -0.04943565 -0.12317406 0.06741668 -0.07723415 -0.0137489075 -0.07982794 -0.010732106 -0.026851838 0.022135165 -0.08302154 0.0071296813 0.11134451 0.044378966 0.042072434 -0.0074070655 -0.16051605 0.06534493 -0.10652839 0.09658759 0.04432077 -0.14785436 -0.06451351 0.1601938 0.06938035 -0.03277756 0.010327 0.03901763 -0.11622815 -0.06930355 -0.040502667 -0.14010414 0.08671229 0.04896441 -0.12863575 -0.026497291 0.19946146 0.014684281 -0.10093045 0.042043593 -0.06467512 -0.027096177 0.13438286 4.6583278e-05 -0.14993238 0.056844592 0.07365792 0.057093315 -0.067405514 -0.17658326 0.10220804 0.020100601 0.03366013 -0.04732662 -0.0015110234 -0.10262622 -0.18169768 0.0038295747 0.012001916 -0.079500586 0.13377364 0.1221165 0.11817735 -0.0458839 -0.04234116 -0.017313384 -0.01802119 -0.012091661 -0.011898562 0.012531215 -0.08840587 -0.025327843 -0.15368983 0.17871276 -0.1902242 0.003437325 0.015185023 -0.09319524 0.007855483 -0.14196067 0.053576287 0.05927673 -0.07433279 -0.09504305 -0.13768438 -0.056964274 -0.07283012 -0.048596207 -0.0694973 -0.07414318 -0.014285645 0.032273993 0.024769824 -0.054045916 0.08965655 -0.047751114 -0.16003089 -0.07811 0.12100125 0.17341368 -0.15241598 0.068373844 -0.14490853 -0.12862228 0.09146696 -0.05378402 0.06359674 -0.041617837 0.056557536 0.030276936 0.008198899 -0.070087865 -0.061230548 -0.06482892 0.16630678 -0.20342751 -0.13660824 -0.05412987 0.08285787
11 0.12952615 -0.07147946 -0.024930935 -0.02362096 -0.088503845 -0.011055763 0.10246415 -0.04788644 -0.06611038 -0.049390413 -0.062275365 -0.13329378 -0.026227674 -0.011759522 0.0616536 -0.034151144 0.061910752 0.017873004 0.032746274 -0.05166911 -0.01248133 -0.0011679479 0.15937454 0.15813534 -0.007128221 -0.14903593 -0.07008148 -0.060349833 0.017969947 0.04549446 -0.015529983 -0.062628046 0.09629737 0.10030968 -0.069324225 0.054258663 0.07316745 -0.087254114 -0.12368758 -0.008064729 -0.06340332 0.02754085 0.04842281 -0.090834126 0.06293978 0.10843268 0.048947994 0.024565654 0.07868118 -0.1355116 -0.0124373995 0.11254402 0.03238274 -0.14117762 0.13063858 -0.025418757 0.1630274 -0.07806336 -0.1434045 0.1642615 0.053003773 0.020345671 0.041376434 -0.1376536 -0.03243119 -0.035671167 -0.09596683 0.14156619 0.0028189474 0.10213537 0.042841844 0.059407655 -0.053952876 0.06401955 -0.0078614615 -0.11057315 -0.13385119 0.041153405 0.0421496 0.048384257 -0.06557692 -0.111296795 0.17948693 -0.20149319 0.14285238 0.08323148 0.031020252 0.06375943 -0.16530275 0.16553749 0.07675232 0.023301966 0.09182731 -0.11378457 -0.051874295 -0.045010343 -0.062280316 -0.19175597 -0.0688195 0.0021778184 0.12943117 0.074621364 0.007693146 0.056432024 -0.0397482 -0.16030134 -0.009838253 0.01792202 0.14101343 -0.0702509 0.015795581 -0.19059908 -0.020721823 0.06864234 0.020072991 0.10199825 0.04602475 0.06325981 0.037595313 -0.017056677 -0.10105946 -0.045954045 0.012830124 0.14179915 -0.20556113 -0.079869084 0.021943372 0.0046744593
1 0.041849736 -0.11393686 -0.07954737 -0.088184096 0.21354838 0.15354526 -0.15150824 -0.21688446 -0.16637939 0.013243511 0.107545845 0.06585215 -0.14791249 -0.006666521 -0.13678253 -0.11919122 0.10347 -0.010800861 0.031473614 0.029472534 0.051123284 -0.10590181 0.2267356 0.009619009 0.012228792 0.024076313 0.002866978 0.0229051 0.040916473 0.16164151 -0.03367277 -0.035855047 0.13293442 0.009481614 -0.016445823 -0.004180676 -0.042589873 -0.11430399 -0.03846379 0.1274021 -0.01869796 0.08848987 -0.036726967 0.07921123 -0.10083347 0.03365033 0.06644396 -0.04195225 0.029255483 -0.118355125 0.004983122 0.03504814 -0.15267146 -0.15526061 0.09583603 0.09486079 0.120092764 -0.11717944 -0.06462545 0.17375761 0.11092949 -0.048922595 -0.15969676 0.009348808 -0.07339815 -0.17465144 -0.030273942 0.12051595 -0.15875062 0.16463938 0.11356741 0.13643037 -0.17912202 0.136278 0.037332807 -0.13525352 -0.10772371 0.02351942 -0.10002414 0.034330238 -0.01462142 -0.15754642 0.18231516 -0.19872963 0.20261574 0.09336258 -0.052534807 -0.19237147 -0.124882884 0.24052772 -0.006169643 -0.10029384 -0.02415241 -0.080273226 -0.06032543 0.14758186 -0.035163037 -0.2023674 0.030855916 -0.16503215 -0.049633715 -0.035063215 -0.102800325 0.06625698 -0.08114499 -0.18117088 -0.1277318 0.0793669 0.19920887 -0.22573869 -0.031910334 -0.08963426 -0.24724331 0.0148137035 -0.056782678 0.039042328 0.0986175 0.09518269 0.00129935 -0.022748424 -0.05861589 -0.17464171 -0.093140505 0.19859223 -0.3022129 -0.028984826 0.041757584 -0.09626826
14 0.10051982 0.06523357 -0.07860617 -0.046444725 -0.053982724 0.008344294 0.09032844 -0.07884783 -0.0014427277 0.0024990432 -0.061127145 -0.14134227 -0.025778847 -0.07716554 0.046287112 -0.03311025 0.0010005155 1.8268734e-05 0.12478435 -0.08552515 0.17626773 -0.011624601 0.045500062 0.12770405 -0.008824036 -0.023308927 -0.06776104 -0.09932039 -0.053931467 0.044632852 -0.06295572 0.028911749 0.07466854 0.10624556 -0.057034478 -0.07402315 0.020059766 -0.04144473 -0.120495394 -0.025656769 -0.11408745 0.062819876 -0.008877052 -0.019788496 0.13213255 0.19149075 -0.049444824 -0.0023906478 0.065366216 -0.090386696 0.0025860236 -0.0488622 -0.04425174 -0.14897479 0.12414666 0.11195586 0.16012216 -0.13123117 -0.105950564 0.07172338 -0.08483904 0.012660196 0.06399595 -0.0743166 -0.094592914 -0.18704274 -0.004411647 0.10317253 0.0028654377 0.07720671 0.14131808 0.008826228 -0.06637203 0.090116404 0.11701491 -0.065990105 -0.16917081 0.017247291 -0.0495201 0.006216663 0.11081029 -0.13682806 0.16798276 -0.22376557 0.02121722 0.13762039 -0.032840513 0.016837506 -0.17366706 -0.05143314 0.03726196 -0.07785748 0.012068663 -0.0848916 -0.050259892 0.026453616 -0.09597369 -0.2025753 -0.039472025 -0.046291366 0.07420553 0.15677898 -0.08284973 0.042829894 -0.039064515 -0.15537779 -0.05832815 0.058932066 0.06612174 -0.14528044 -0.024162367 -0.076870635 -0.052348964 0.03044491 -0.06740482 0.10291269 0.009385942 0.052479975 0.002982499 0.03472132 -0.11499175 -0.08789509 -0.07754489 0.19095942 -0.104672156 0.0032589284 0.08476953 0.09103215
9 0.076891094 0.017016849 -0.013231394 -0.021320606 0.01210434 -0.014274997 0.003243196 0.05100225 -0.06046904 0.055007853 -0.02072651 -0.04704984 -0.08944009 -0.16449143 -0.04113696 -0.0038576399 0.0833197 0.06479966 0.11209903 -0.16420993 0.13896674 0.0032798252 0.07604109 0.06909717 0.017681912 -0.07607866 -0.0066802367 0.06927761 -0.014664652 0.049437616 0.054079767 0.077783026 0.04294794 0.03110049 -0.037265588 -0.03930153 0.10175063 -0.19717665 -0.057990864 0.029994156 -0.089155085 0.07963463 -0.004634475 -0.077761754 0.114402995 0.20081972 0.00087755074 -0.07081339 0.103847876 -0.06309817 -0.011735617 0.043218788 0.10287534 -0.1309336 0.14975928 0.06266275 0.049165204 -0.074648015 -0.12074745 0.040784743 -0.09469655 0.01824458 -0.08554571 -0.056098238 -0.04833438 -0.11357599 -0.081268884 0.009317576 -0.06742435 0.19787915 0.20201395 0.16892384 -0.021266628 0.07694728 0.0038859316 -0.14168999 -0.09342734 0.06750983 -0.07327249 -0.015141998 0.042230733 -0.21485625 0.06737774 -0.27114022 0.10138658 0.12259424 0.0062760995 -0.06066849 -0.18060164 -0.013106731 -0.008070097 -0.106108546 0.043137185 -0.24137498 -0.12326735 -0.15562724 0.056443594 -0.03074547 0.031126445 -0.074570596 0.12952694 0.05984044 -0.05148232 0.002799254 -0.08370138 -0.11692769 -0.039216284 0.06759147 0.12366422 -0.16278839 0.026369834 -0.040123202 -0.10611109 0.08925001 -0.048647393 0.1339047 0.06788314 0.037970882 -0.0080062775 0.103138275 -0.018890051 -0.12326625 -0.06747083 0.10051005 -0.20327698 -0.0045711244 -0.01450213 0.0075579453
26 0.098763034 -0.063398086 -0.06765044 0.12479307 0.047141206 0.0028573151 0.06157444 -0.0075543993 -0.100641 -0.07345383 -0.05497232 -0.12199356 -0.032460175 -0.11649246 0.116419494 -0.049470842 0.02534352 0.03487684 0.048375223 -0.060575053 0.026294002 0.06029962 0.042734846 0.08968214 -0.06552667 -0.014715124 -0.019483117 -0.008789064 0.002195981 0.14544062 -0.06951049 -0.033263747 0.015297668 0.04255404 0.0019988439 0.06479119 0.13830449 -0.15825832 -0.15743943 -0.018763239 0.012876123 -0.012040606 0.047722824 -0.16737622 0.1782886 0.18505579 0.03778126 0.043835953 0.05186217 -0.097113855 -0.05999321 0.050898783 0.057996307 -0.10590606 0.105901435 0.09983362 0.11679725 0.0053904545 -0.2196632 0.0913618 -0.067758806 -0.036318786 -0.013801024 0.023353497 -0.12915295 -0.09571975 -0.06328876 0.17082258 0.10192161 0.030410882 0.15931773 0.008304412 -0.10805656 0.14805225 0.03903882 -0.0030380464 -0.113726765 0.100583 -0.04427913 -0.06762556 0.030216893 -0.08795515 0.16731669 -0.28666797 0.079489164 0.12149587 0.047462083 0.027158236 -0.13476585 0.08644938 0.09580951 -0.0808204 0.016942063 -0.04069311 -0.05978761 -0.09078207 -0.053039987 -0.09492411 -0.07226488 0.032066863 -0.0014332081 0.009218871 -0.013272447 0.12122411 -0.037782893 -0.16125302 -0.028575448 0.070376 0.16477463 -0.21652535 0.040683642 -0.0343713 -0.108050965 -0.009033204 0.06410287 0.03685023 0.026878426 -0.009621556 0.074331075 -0.030042676 -0.038814556 -0.021042457 -0.019237282 0.09146535 -0.08113078 -0.14132704 -0.008610776 -0.04594668
23 0.13379046 -0.06517632 -0.04653261 0.0073747085 -0.022280412 0.107962124 0.015660077 -0.008760082 -0.013493134 0.047259327 0.015008184 -0.19012855 -0.058322124 -0.089357786 -0.021648647 -0.124304794 -0.0023778556 0.031663436 -0.014567244 -0.06632754 -0.026855813 0.05730248 0.12821572 0.18314487 -0.036339574 -0.0776384 -0.07284387 -0.0345768 -0.02833054 0.12781328 -0.0018334222 0.053167075 0.10278995 0.06533203 -0.097945005 -0.04726704 -0.03482071 -0.06091437 -0.1366007 0.058117546 -0.08110187 0.042720843 -0.03139062 -0.10549824 0.17924604 0.16327341 0.08605701 0.011715578 0.032632206 -0.014881016 -0.019193228 0.091917574 0.029983586 -0.1781568 0.063717626 0.11777741 0.09283147 -0.03349757 -0.041064877 0.14878915 -0.04173852 9.377226e-05 0.0118799275 -0.08047249 -0.020688178 -0.20057248 -0.007601741 0.0887166 0.015557283 0.17656437 0.14481565 0.063221976 -0.09142219 0.05562463 0.035559893 -0.056652814 -0.10449741 0.10824961 -0.08910728 0.030280331 -0.020220853 -0.20279258 0.12938619 -0.10666872 0.09608063 0.018594261 -0.014822438 0.086993776 -0.16996054 0.09666404 -0.019864758 -0.059654437 0.003438114 -0.16487625 -0.028743586 0.0038190593 0.033160146 -0.011588114 -0.054149464 -0.055339906 0.052961502 0.1166778 -0.027256496 0.086996146 -0.030749321 -0.2066111 -0.03907532 0.15258524 0.07422701 -0.17314398 0.0029054745 -0.075287804 -0.017734895 0.09940228 -0.024925012 0.102036886 -0.031242473 0.0605776 0.0125868665 -0.009419796 -0.07409942 0.026709706 0.022660306 0.19387811 -0.11849279 -0.05998104 -0.0223265 0.09649844
7 0.041325618 -0.027529588 -0.0055405307 -0.00021295968 -0.016281595 -0.03360204 0.076814406 -0.069959946 -0.05482562 -0.0074284305 -0.027305996 -0.1680349 -0.087070376 -0.06320722 0.06347604 0.023016157 0.007000822 -0.06269817 0.03528237 -0.04464742 0.0010442707 0.010745078 -0.00894737 0.09255525 -0.0059878966 0.0070511033 -0.0063823597 -8.248774e-05 -0.12527256 0.08210707 -0.0013109421 0.079608254 0.07425357 0.017500844 0.020451132 -0.063536935 0.0517178 -0.18517505 -0.12688392 0.05522252 0.06125823 -0.0459736 -0.06540123 -0.08649535 0.111069225 0.16175337 -0.04486966 0.07052632 0.14938055 -0.032670982 -0.044207368 0.09266947 0.0613765 -0.121821076 0.08380516 0.007751035 0.08682486 -0.04202402 -0.19705804 0.11373203 -0.06319839 0.019018076 -0.08353685 0.04669495 -0.075737655 -0.24662854 0.010560409 0.08080096 0.021595726 0.07555746 0.20884931 0.07971775 -0.12843491 0.032383736 -0.093929484 -0.06180817 -0.13915057 -0.024866126 -0.050470036 -0.018552301 -0.06556003 -0.09879417 0.107573435 -0.21003543 0.1209435 0.052151266 -0.054987732 -0.034273036 -0.18298806 0.13806584 0.063587174 0.0129133025 0.02616499 -0.035165254 -0.071016476 -0.036903925 -0.11718874 -0.103816696 -0.08671895 -0.0058849994 0.010246764 0.0853565 -0.050845075 -0.00636502 0.012045875 -0.14633445 -0.07518575 -0.010264836 0.1814072 -0.15956984 0.02621532 -0.18526384 -0.116864644 0.042422164 0.0736173 0.037044536 0.11700839 0.09249292 0.06829566 0.009616364 -0.06553311 -0.12348291 0.017637143 0.14421833 -0.18366595 -0.054839056 0.0076924074 0.051696952
15 0.081938915 -0.095590085 -0.01046777 -0.013237938 -0.06765036 0.09286567 0.00071448187 -0.013565388 -0.11110282 0.04475022 -0.13250586 -0.09997636 -0.010353844 0.0011958558 0.012033435 0.011521276 0.061320078 0.05379103 0.06406763 -0.07738776 0.025848145 0.07690859 0.028155558 0.04085855 -0.038837396 -0.058526628 -0.027040895 0.025778791 -0.049117107 0.020617044 0.025572388 0.036688108 0.06352471 0.08387976 -0.104192905 0.119304195 -0.064466015 -0.0949502 -0.17752725 -0.05198415 -0.04662593 0.008408446 -0.0018300442 -0.049582534 -0.006749703 0.24597928 -0.009361581 0.04385686 0.10836031 0.0031425543 0.08233545 0.1078202 -0.019962307 -0.15155101 0.102192216 -0.0051047155 0.066749305 -0.0047235624 -0.1422844 0.15380798 -0.020897131 0.019126948 -0.0710986 -0.05562711 -0.123804554 -0.2782537 0.0077513014 0.121929854 0.041366395 0.046642974 0.1852434 0.052792247 -0.14583872 0.072557084 9.677949e-05 -0.09173934 -0.098584116 0.051714703 -0.0197617 0.0402869 0.038700704 -0.1438237 0.14713334 -0.23989064 0.06709564 -0.047355693 -0.09549268 0.016041968 -0.27805948 0.027327234 0.14480086 0.013430452 0.00075926 -0.036867008 -0.08104452 -0.0032346738 -0.043293767 -0.21298385 0.02970588 -0.014636068 0.006589143 0.091208465 -0.07082548 0.0899847 -0.10430899 -0.16769455 -0.02156089 0.05021476 -0.019065903 -0.14410436 -0.0055037234 -0.08453753 -0.051948767 0.05639564 0.10588495 0.14029916 0.09181622 -0.00890145 0.070562534 0.015381023 -0.021063324 -0.034213625 0.06849543 0.07475492 -0.1421807 -0.107145995 -0.034046855 -0.018649565
21 0.01720003 0.0031405925 0.03760794 0.04102137 -0.040009007 -0.05892309 -0.019639049 -0.030206326 -0.05171274 -0.0483542 -0.06303724 -0.15792455 -0.013140946 -0.013011761 0.1614781 -0.019107921 0.048736274 0.055075787 0.084662415 -0.051835068 -0.08598857 -0.061859135 0.0492489 0.09998071 -0.036297932 -0.00458512 0.013589018 -0.0679272 -0.0009417557 0.028310858 -0.12716056 -0.1073794 0.1508596 0.09224283 -0.018367825 0.15401143 0.025106564 -0.029562393 -0.10382273 0.0021216816 -0.06955198 -0.0075249798 0.029871313 -0.08796134 0.106383264 0.13138346 0.025200343 0.089675084 0.11299089 0.014685324 -0.029181987 0.07305194 -0.028463548 -0.14121602 0.107240975 0.027985565 0.11516763 -0.03266328 -0.12445952 0.046108685 -0.041940514 -0.021686032 -0.105024755 -0.073476374 -0.0850477 -0.20976168 -0.037944432 0.15447916 0.042901974 0.045280643 0.032777246 0.011121875 -0.13885856 0.025653915 0.018459052 -0.0484833 -0.10273989 -0.06299843 0.03787018 -0.10582312 0.00048541444 -0.13249448 0.106364526 -0.21679713 0.12063172 0.09300072 -0.003046068 0.061641674 -0.17569219 0.119665414 -0.024735253 -0.14955926 0.0714458 -0.03621616 -0.14009033 -0.017084468 -0.07726958 -0.11974722 0.01886076 -0.048165474 0.028893068 0.09953815 -0.04241374 0.16396208 -0.06813054 -0.21293579 0.025985476 0.103517435 0.15643832 -0.19176589 -0.08035912 -0.008198204 -0.03943374 0.020063536 0.0644836 0.13926029 0.032967668 0.04322038 0.18589692 -0.029824035 -0.008729174 -0.15233245 -0.09842784 0.23587446 -0.11421032 -0.036174178 0.013284154 0.062044866
10 0.19541849 0.04584366 -0.06329261 0.11679846 -0.017915819 0.14640284 -0.020964792 -0.07600874 -0.00086344016 0.06624429 -0.07072892 -0.07468292 -0.039706327 -0.04573433 0.04910966 0.050121713 0.08126836 0.03608126 0.057802495 -0.103447564 0.070019744 0.10453561 0.0518213 0.094886914 0.038077172 -0.09144984 0.032433853 -0.008927502 -0.058517158 0.06715935 -0.05338526 0.08298442 0.087220386 0.010084674 -0.0047296123 0.06809857 -0.082864 -0.04620776 -0.17007747 0.025362851 -0.04106739 -0.0007008334 0.06947415 -0.077118404 0.07419997 0.18573752 0.023142694 0.060823258 0.048348513 0.04214752 -0.0077646533 0.06518464 -0.03162389 -0.21664423 0.14833577 -0.02656286 0.17488383 -0.120677926 -0.118899606 0.2131765 -0.083351865 0.05797014 -0.1720146 -0.050557047 -0.06176542 -0.19154085 -0.11584596 0.014778849 -0.009963284 0.07361401 0.10026194 0.19935128 -0.030345965 0.04807192 0.055322543 -0.05277438 -0.1820421 0.028550645 -0.023699347 0.070764534 0.053394977 -0.12464303 0.16838698 -0.2718254 0.0785978 0.12172363 -0.062855124 -0.02496542 -0.09897265 0.03736537 0.008417357 -0.0518316 0.005387936 -0.051248647 -0.07844722 -0.046531677 0.059639838 -0.059965145 0.016997505 0.050076906 0.000458375 0.10874031 -0.009534697 0.109629825 -0.09572116 -0.14730893 -0.15986541 0.05360027 0.20647931 -0.092172936 -0.01638498 -0.07850593 -0.027592024 0.013885393 0.03437971 0.013014797 -0.04736184 -0.021944847 0.05662835 0.095244184 0.11535788 -0.083529696 -0.06325807 0.1033679 -0.17811035 -0.023887876 0.045033406 0.03762902
20 0.11162439 0.02616212 -0.016153788 -0.086783946 0.023761889 0.1493208 0.08714441 0.10727274 -0.015644487 -0.0665959 -0.12619612 -0.12110105 -0.05999987 -0.030759279 0.11268057 -0.030457472 0.07630253 0.068048954 0.0949304 -0.047349885 0.074170485 -0.011883008 0.07462543 0.14553455 0.0048102625 -0.007438727 0.023948774 -0.020517204 0.11226903 0.03823373 0.003178576 0.036419466 0.083599254 0.04754937 -0.04151313 0.10842238 0.040206306 -0.06818106 -0.14274912 0.005188687 -0.040381845 0.12245861 0.07354023 -0.14509574 0.11412192 0.0847816 -0.047148585 -0.03198275 0.067786634 -0.055521123 0.024580367 0.05108827 0.024200793 -0.13273445 0.05840613 0.18879528 0.025873391 0.0101776 -0.13939182 0.03887558 0.010315461 -0.061672837 -0.020485256 -0.061134033 -0.07169293 -0.26600826 -0.04053239 0.12981099 -0.00013555336 0.08645074 0.15048566 0.06859115 -0.19479686 0.088053435 0.015762078 -0.13514452 -0.1331845 0.14455052 -0.07686467 0.0056752376 0.016405502 -0.17658502 0.046886396 -0.14448778 0.1482322 0.029906502 0.033115458 -0.0036581173 -0.20338157 0.043657538 0.09683986 0.04213465 0.088076435 -0.080058455 -0.09438879 0.061402604 -0.042130884 -0.113242894 -0.027986385 -0.010577298 0.039285757 0.0034759215 -0.0068573216 0.074599646 -0.033669084 -0.029118976 -0.03128552 0.10407065 0.21681255 -0.14275274 0.07439181 -0.07025804 -0.12611504 0.08379983 0.099992126 0.1265358 -0.033936262 0.0066371914 -0.036203355 -0.0031173143 -0.006530199 -0.042347882 -0.024352795 0.18102016 -0.14337867 -0.071709625 0.026296575 -0.024580315
8 -0.00280941 -0.057639785 -0.09238006 0.11303243 -0.08089311 0.046547685 0.10275654 0.016932335 -0.083486676 -0.06797735 -0.06499637 -0.21171352 -0.1034279 -0.02743281 -0.07643968 -0.02283312 -0.014823746 -0.033903595 0.040844727 -0.04659441 -0.06409283 0.024235383 -0.03438683 0.06252369 -0.041717067 0.05044527 -0.021581361 0.0008337962 0.058404222 0.06160541 -0.048042864 0.025324462 0.19331901 0.11677549 -0.029944044 -0.025733806 0.014071247 -0.16632274 -0.068355456 -0.038588732 -0.16510624 -0.054495025 0.030670244 -0.151125 0.0027756356 0.19663277 0.08353549 -0.079422474 0.09744619 -0.05207928 -0.059811063 0.08282036 0.003923078 -0.21627751 0.22543955 -0.037942138 0.07396688 -0.13753751 -0.08775011 0.035212755 -0.023631705 0.0014730644 -0.25255126 0.026083356 0.005156902 -0.24211065 -0.0055789794 0.049665857 -0.0654415 -0.0066246404 0.115094066 0.057366703 -0.1372171 0.06730458 -0.08188117 -0.08620082 -0.07926158 0.07848964 -0.076245226 -0.12170497 0.017326152 -0.10593148 0.11659112 -0.17514947 0.0980428 0.09897178 0.02027564 -0.02631619 -0.11394093 0.09774683 -0.030089933 -0.061629273 -0.09306758 -0.08616638 -0.0993296 -0.026015203 -0.062460296 -0.09791504 0.054500565 -0.051113263 0.032838795 0.010035382 -0.0897833 0.115800716 -0.010374215 -0.15361688 0.07097784 0.051794704 0.08808636 -0.1993156 0.0007452301 -0.17185187 -0.101489864 0.09311183 -0.010210552 0.10133375 -0.04645346 -0.024357269 -0.023972243 -0.037066743 -0.072168745 -0.112590425 -0.05222074 0.1640912 -0.15808363 -0.010670734 -0.022257987 0.08499023
16 -0.0022906035 -0.03438345 -0.03978814 -0.113439456 -0.026051192 0.010873848 -0.0066889236 -0.16082703 -0.008364878 0.033110917 -0.096843556 -0.22342937 0.15752973 0.0043239705 0.1140587 -0.090640165 -0.071559355 0.027050564 0.023339741 -0.062482808 -0.018496085 0.0908443 0.08887898 0.09499052 0.03140553 -0.09215586 -0.087029316 -0.048705954 -0.0041689062 0.108913094 -0.039423138 0.0027177844 0.04544348 0.04935151 0.006099887 0.0150143765 -0.08225093 -0.09071251 -0.13129458 0.060428746 -0.03501014 -0.047848452 0.055924125 -0.07199377 0.042577073 0.22968645 0.01404705 -0.055900123 0.012423314 0.04221564 -0.010933034 0.017075617 -0.00010105462 -0.17681101 0.12221671 0.04613364 0.15159096 -0.117471084 -0.07532482 0.20701376 -0.103444576 0.043433663 -0.0133497715 -0.027582977 -0.055614732 -0.27230155 -0.07987091 0.08637845 0.113359295 0.07286598 0.20647216 0.018936725 -0.11904933 0.10947591 -0.03107688 -0.056696035 -0.080648586 0.072846346 -0.0066229682 -0.076717995 0.026010973 -0.060625874 0.12641582 -0.08529912 0.0019439325 0.104297616 0.059923746 0.013672327 -0.2400453 0.14732708 0.03859049 -0.033636738 0.08054175 -0.19295484 -0.03697079 -0.033648968 -0.03069795 -0.025504233 -0.06462767 0.06437942 0.051707037 0.07926079 -0.12620533 0.03253304 0.017108606 -0.16110887 0.100576535 0.10108525 0.23301406 -0.18676853 0.00047055806 -0.013496649 -0.058167838 -0.0653958 0.03436804 0.04407749 -0.027667176 0.048686452 0.11151546 0.015385871 -0.07448946 -0.092160426 0.020712784 0.08664871 -0.15309659 -0.09121765 0.065489285 0.017677937
6 0.12952712 -0.06150843 -0.014817837 0.15121499 -0.013341417 0.04320851 0.13736571 0.0076666507 0.010447135 -0.1462067 -0.05730453 -0.08112095 -0.0031130111 -0.10507907 -0.017340377 0.049054462 -0.02645488 0.05843069 -0.096779704 0.009779884 0.032548424 0.0022853503 0.09186799 0.1587799 -0.036051825 -0.077911004 -0.10115991 -0.07631813 0.0042876303 0.11794282 0.051238593 0.07766291 0.121878885 -0.00881455 -0.027619513 0.08895996 0.022520361 -0.093476154 -0.05658847 0.018700356 -0.05335532 0.027014282 -0.005014076 -0.17021897 0.00027466926 0.20476346 -0.03773363 -0.07270129 -0.008310087 -0.043410275 -0.0001538011 -0.00010035693 -0.123625465 -0.13763082 0.11437991 -0.021384124 0.12690964 0.0152302915 -0.14905263 0.08229137 -0.03484675 0.045562945 -0.061637618 -0.025177894 -0.14676979 -0.25049317 -0.038994547 0.0010337486 -0.002674531 0.07560174 0.17126808 0.06622858 -0.07514767 0.029246008 0.076592356 -0.17676528 -0.09078327 0.033188913 -0.08734577 -0.07995513 0.08816802 -0.18263097 0.1435002 -0.22772299 0.087094985 0.09314763 0.044242814 0.022816705 -0.13213721 -0.021623371 -0.04021799 -0.036552552 0.019137578 -0.12307169 -0.009584007 0.0024237777 -0.08867198 -0.106332324 -0.12642428 0.040441975 0.022264969 0.17751753 0.033828083 0.08540925 -0.042670224 -0.1752677 -0.1227744 0.0119556645 0.18620047 -0.11861266 -0.040971443 -0.14662501 -0.12257013 0.034776986 0.009147862 0.13046162 -0.03735416 0.060461365 0.12948461 -0.01670783 -0.060293287 -0.06416164 -0.05768499 0.08728809 -0.053737152 -0.08958302 0.04978793 0.04670387
34 0.045365755 0.06301658 -0.042662308 0.0029253666 -0.12495327 0.06671958 0.018071566 0.027055569 0.03899629 -0.023828264 -0.0043257023 -0.14805964 -0.039422717 -0.011226461 0.016244363 -0.00094093126 0.07842575 -0.031129222 0.013030379 -0.09868629 -0.14177237 -0.042010464 0.07222187 0.124630205 -0.040944457 -0.09898353 -0.013474685 0.045465317 -0.02891933 0.1905441 -0.083330065 -0.050695814 0.07760694 0.10246808 -0.022288248 0.07971613 0.066446885 -0.0359111 -0.116007805 0.045846503 -0.15867202 -0.0011613204 0.0052274754 -0.16083208 0.11740718 0.20725441 0.056506176 -0.080974 0.15337047 0.003866456 -0.005003428 0.05499844 -0.00553412 -0.14198685 0.0920439 0.14953756 0.04994677 -0.041475337 -0.06867883 0.06538292 0.017911468 0.053426377 0.01085858 -0.04102848 -0.08830254 -0.13654678 -0.093162365 0.18706523 0.052528884 0.014621617 0.09389104 -0.032797687 -0.08276975 0.05196192 -0.049364712 -0.028224846 -0.11106652 0.05135887 -0.0074848677 -0.09579523 0.08979211 -0.1307876 0.12224799 -0.23033655 0.028551085 0.08541495 -0.12908821 -0.04068536 -0.14495358 0.110737264 -0.009014018 -0.11320659 0.046687115 -0.21191669 -0.053994358 -0.09000245 -0.0766981 0.0047952407 0.03557383 -0.08792036 -0.015821112 -0.008887736 -0.11010795 0.07716301 -0.08481459 -0.08828501 -0.024166957 0.06359694 0.21735395 -0.21547812 0.03305625 -0.09767811 -0.045633417 0.09653708 0.007777127 0.021065498 0.052701794 -0.03662392 0.010980125 -0.04432626 -0.09095946 -0.10107374 -0.05152034 0.0844468 -0.19120367 -0.111996055 0.15315825 0.12207481
25 0.08851006 -0.08797162 0.0039848196 0.01665728 -0.074845105 -0.033708017 0.062612586 -0.0116099 0.02449397 -0.07841854 -0.07513403 -0.020650288 0.052437086 -0.0893308 -0.008571458 -0.02970913 -0.019818753 -0.010236762 0.050428122 -0.08199251 0.060639776 0.06430317 -0.006006406 0.087887816 -0.102026805 -0.0022558975 -0.06497865 0.012105232 0.022259181 0.035504743 -0.11800726 0.01033672 0.051820412 0.08439876 0.11424479 0.053291 0.061050825 -0.1385538 -0.06308835 0.11880961 -0.01409008 0.1414894 -0.028551815 -0.1113996 0.122623414 0.17591015 -0.07312855 -0.018932799 -0.0014583529 -0.010891038 -0.023269864 0.13997923 0.033602443 -0.2252222 0.16641606 0.20828936 0.06343805 -0.06013588 -0.08940489 0.10105784 -0.10697014 0.13681854 -0.13694598 -0.038631447 -0.090929694 -0.23820531 0.027492078 0.026276657 0.03741364 0.08563631 0.08484709 0.071328774 0.02853755 0.04923226 0.069435425 -0.18489076 -0.072202645 0.07971006 0.019716542 -0.10961519 0.085876316 -0.13196701 0.2167998 -0.07680563 0.14377603 0.04901045 -0.07895038 0.0019738078 -0.21841018 0.028463893 0.07836826 -0.09447959 -0.0011830867 -0.0028124216 -0.064547785 -0.07801351 0.004388211 -0.10675757 -0.053986706 -0.034116015 0.016459964 0.1014855 -0.03642153 0.11140402 -0.09285777 -0.19611329 -0.14067411 0.07935985 0.14340006 -0.19522029 -0.0028506843 0.013326211 -0.08859759 0.12162394 0.002853199 -0.026225263 -0.01837483 0.04091325 0.07774942 0.120899834 0.022396198 0.022807239 -0.005440264 0.22206712 -0.121521346 -0.043977335 0.06596571 -0.023001427
12 0.044239122 -0.033004206 -0.07808579 0.031562284 0.0014311188 0.0390065 0.1291711 -0.026021512 -0.09447504 0.06702127 -0.0646894 -0.08275882 -0.043715898 0.0015677072 -0.03717103 -0.0783785 0.043460228 0.15565003 0.081857316 -0.10138671 0.014582236 -0.027203295 0.03888322 0.081748515 -0.028175019 -0.074964836 -0.029387146 0.041897435 0.08147702 0.09937925 -0.015260145 -0.07640394 0.038265925 0.030630793 0.01881962 0.0181672 0.041595425 -0.018597456 -0.037066724 0.08203386 -0.16627754 0.073297314 0.034546852 -0.115967795 0.16206676 0.12465344 0.025823142 0.004815118 0.071396746 -0.032238234 -0.06790015 0.028970046 0.06354196 -0.20239191 0.066604376 0.08035666 0.15376224 -0.105399676 -0.12802461 0.16791715 -0.032351084 -0.011415137 -0.019757522 -0.108616926 0.038986783 -0.17047974 -0.13019176 0.044541717 -0.023561293 0.08530187 0.02094312 0.062972985 0.018562015 -0.09456348 0.034335747 -0.07049135 -0.1947851 0.052295692 -0.0046669203 0.004017047 0.017507855 -0.026435297 0.08101393 -0.19059442 0.03479223 0.015768254 -0.038534146 0.0036925862 -0.19348904 0.09766139 0.06368773 -0.03030545 0.05834511 -0.118468255 -0.08356274 -0.027705064 -0.19882053 -0.06539025 0.06242301 -0.0067164716 0.043755002 0.096176386 -0.15854579 0.09876355 -0.00045815535 -0.24886398 0.027728027 0.105202325 0.22352336 -0.16234726 0.04077148 -0.25716794 -0.07179669 0.015315868 0.033767715 -0.09709496 -0.022327112 0.06317143 0.050992962 -0.014427226 -0.033857077 -0.057434965 0.086038224 0.20177929 -0.1656663 -0.10808754 0.042850133 0.08850869
13 0.18633543 -0.07096975 -0.09606649 -0.09032619 -0.06342855 -0.005335704 0.01780469 0.0073460997 0.0051996736 -0.011221177 0.048713397 -0.025062935 -0.003799908 0.011211473 0.08343622 -0.1063536 0.06685636 0.036207635 0.13276759 -0.092300974 0.05156821 0.15487349 0.05319718 0.13827601 0.0057851966 -0.044851534 -0.00047142076 -0.05666192 0.060830075 0.13801546 -0.012764382 0.044069264 0.100160815 0.0057173097 0.022259684 -0.013033237 -0.009878053 -0.115146965 -0.09422238 0.05031068 -0.10344771 0.03261128 0.040022966 -0.1259249 0.15705496 0.18711047 -0.06548592 0.030835671 0.08868171 -0.09541544 0.06709631 0.04229299 0.036562663 -0.052165154 0.0850084 0.05044902 0.09839126 0.021721693 -0.15350282 0.13644315 -0.08418302 0.030160014 0.017282525 0.032370474 -0.021456497 -0.1167146 -0.047870792 0.18533161 0.027918525 0.056218125 0.15323813 0.07849383 -0.11050149 0.12757841 0.024020575 0.032882724 -0.14382072 0.0062802327 -0.033591326 0.03740338 0.039406862 -0.093781926 0.24940707 -0.25225928 -0.011043462 0.051884823 -0.038433887 0.06414046 -0.15688607 -0.03782084 0.036039326 -0.10253347 0.11252714 -0.1468717 -0.13920099 0.014888413 -0.12998727 -0.046424568 -0.054038685 -0.07452994 0.074972205 0.0109180845 -0.11229136 0.0250375 -0.04409889 -0.20865509 -0.023118092 0.099743254 0.17970726 -0.14984453 -0.05720305 -0.20342451 -0.1266058 0.00517474 0.042489026 0.16041307 0.016832134 0.050827146 0.0042078393 -0.07279754 0.036594547 0.0466604 -0.00082009047 0.10505359 -0.071345 -0.16808671 0.065337054 0.035289504
35 0.14620116 0.025763048 -0.054946966 -0.018383767 -0.060623635 0.10920415 0.12012515 0.013884297 -0.0050878106 -0.041705143 -0.05920769 -0.1355164 0.053358562 -0.095303096 0.034476276 -0.106521234 0.08478363 0.07683904 0.08870481 -0.1827345 0.077677086 0.061389055 -0.06937845 0.10386964 0.010834679 -0.05314451 0.09297482 -0.046994895 -0.07734897 0.045941163 -0.10986481 -0.06754345 0.0972533 0.053777717 0.03599794 -0.041444387 0.00749567 -0.059276532 -0.09213146 0.04587137 -0.12442717 0.06592944 0.12948057 -0.089102484 0.053122252 0.25295994 0.040904257 0.0053503937 -0.008569386 0.06500925 0.06787528 0.046775915 0.054509282 -0.1746414 0.16511753 0.06701774 0.13638212 -0.034977928 -0.121901184 0.13803236 -0.015697176 0.07742668 -0.034567203 -0.09257185 0.0024926886 -0.15663294 0.021207402 0.016865274 0.03939781 0.09374679 0.12503006 0.09019798 -0.12961663 -0.08871965 -0.016384026 -0.17831184 -0.09044503 0.07694151 -0.0036937273 0.034206454 0.040368047 -0.18160132 0.13354757 -0.11541174 0.1295682 0.16117735 0.00042054878 0.040943995 -0.13663201 0.006568553 0.026722003 0.019915935 0.09794889 -0.12417632 -0.06432102 -0.054226015 0.007679111 -0.05444141 -0.021377213 -0.014654939 0.013523185 0.051514924 -0.069593936 0.07789382 -0.09043719 -0.22049887 -0.03680577 0.031351425 0.114836894 -0.2745718 0.01850152 -0.02858088 -0.08615989 0.07019822 -0.08716196 0.05755943 -0.07442095 -8.4769905e-05 0.020129373 -0.102978155 0.029962856 -0.13112007 -0.03603835 0.041615024 -0.2060515 0.028581588 0.033392783 0.012460632
46 0.0765061 -0.009975579 -0.16059187 0.008315204 -0.01351351 0.05175026 -0.011368933 0.006971594 -0.020112393 -0.024825722 -0.157488 -0.18968503 -0.024687149 -0.024415042 0.12615564 0.03666064 0.019714868 -0.0008745513 0.039674632 -0.1714288 0.06281546 0.049474124 0.08437708 0.10471227 -0.09137739 -0.094423436 -0.00059919193 -0.10646385 -0.051114205 0.020092074 -0.007884492 -0.07621023 0.12292941 0.05241645 0.10040074 -0.013468661 -0.014035142 -0.050463896 -0.19254956 0.06324114 -0.04664612 0.00048270484 0.06562308 -0.15031151 0.10029186 0.16467786 0.050089095 -0.031118292 0.02519296 -0.058360193 0.084048 0.15661655 0.051331807 -0.12894182 0.19885916 0.0657711 0.12240499 0.019871222 -0.044681128 0.062046383 0.042596277 0.01744019 -0.020455066 -0.11862775 -0.13629861 -0.20718355 -0.10647862 0.069608286 0.050838582 0.048148848 0.09330626 0.16364893 -0.11367301 0.13054433 -0.0004834899 -0.08494261 -0.14465137 -0.07259581 0.031353924 0.13041374 0.022408362 -0.15481481 0.13692997 -0.1917898 0.07792962 0.004982969 -0.026272293 -0.0031249358 -0.15721804 -0.18899778 0.036519635 -0.040895116 0.04729107 -0.019346826 -0.057654496 -0.025344992 -0.14750208 -0.19663802 0.0343462 -0.1626586 0.074317805 0.069041274 -0.060577404 0.09790241 -0.077193186 -0.17626779 -0.070671305 0.0077769808 0.08361586 -0.20310238 0.00011456755 0.029716054 -0.0006537676 0.030521158 0.09930108 0.13764034 0.10800412 0.055503845 0.07543939 -0.010469953 -0.06168363 -0.08890243 0.035535052 0.19100119 -0.07663566 -0.029087888 0.11040506 0.04249346
40 0.13181931 -0.0017639644 -0.057002906 0.06580094 0.007046341 -0.004121795 0.028463332 -0.042200897 -0.025807677 -0.0033793608 -0.09920162 -0.13108374 -0.097875 -0.015685242 0.043710332 0.06949163 0.06515342 0.052882902 0.08924766 -0.07188885 0.02156165 0.12104772 0.13239251 -0.0030309747 0.12307565 -0.108729854 -0.002619301 -0.006534513 0.08286897 0.084731266 0.044867963 -0.0077897534 -0.009911612 0.08904731 -0.008106324 0.08735978 0.07762959 -0.0672371 -0.11458869 0.023352839 0.01956037 0.0467495 -0.033406194 -0.15283991 0.043828793 0.1800084 0.08879438 -0.052338816 0.12129344 -0.033477824 -0.089573465 0.08557704 0.0605229 -0.08477885 0.09663453 0.033608057 0.04312592 -0.0026713365 -0.05289009 0.06760058 -0.083071046 0.07615792 -0.11129031 -0.06644479 -0.13694124 -0.17518127 -0.013328162 0.19948572 0.04653298 0.14690392 0.0772802 0.03893369 -0.01660116 0.14128262 0.007990865 -0.030485915 -0.08384967 0.07744432 0.061304677 0.041024767 -0.040927697 -0.12797274 0.1956303 -0.17431039 0.080930576 0.08130853 -0.055512194 0.03871907 -0.08195603 0.08367091 0.1415924 0.01868226 0.12815008 -0.10558281 -0.14751513 -0.052411564 -0.07265738 -0.17080228 0.044080738 -0.14840783 0.13019264 0.09382447 -0.073213935 -0.004181365 -0.010012907 -0.1344013 -0.011376229 -0.015891982 0.12888683 -0.3569183 -0.02187144 -0.073172025 -0.12249217 0.029091405 0.030508379 0.055199467 0.0026422928 0.06957852 0.053434208 0.047470026 0.043364074 -0.045110352 0.04608324 0.21290039 -0.16154978 -0.018140469 0.018810099 0.05948293
53 0.023617001 -0.1565211 -0.035826866 -0.09103713 -0.03196079 0.12702483 0.06484913 -0.061532553 -0.10694898 -0.0029355763 -0.13360743 -0.24395043 -0.04756368 -0.03537689 0.10815942 -0.09427209 0.17882313 -0.031562164 0.022349631 -0.051571496 0.21675758 0.022184592 0.052643113 0.077635586 -0.0048487275 -0.08165627 0.03250058 0.03364264 0.09978808 0.07791766 -0.046682317 -0.13215706 0.04728346 0.033642 0.014753 -0.009621623 0.047154862 -0.018648904 -0.10402674 0.036101885 -0.025775082 0.05187507 -0.012468307 -0.15823194 0.18163775 0.06457952 0.067477636 -0.028984217 -0.01499246 -0.076592565 0.057878975 0.08864914 0.017648848 -0.19835263 0.093417965 0.036031395 0.13612373 0.006537238 -0.13375647 0.12791063 -0.083659984 0.022854706 -0.042029213 -0.021494195 -0.112778455 -0.22095472 0.048552588 0.14849286 0.019509764 0.05206489 0.04172027 0.088944316 -0.054713335 0.11471316 0.022932293 0.030608302 -0.11890321 0.13591716 -0.07617905 0.08272742 0.069908425 -0.18463628 0.17260854 -0.11939671 0.09702806 0.11931793 -0.0034665603 0.0335181 -0.13413726 0.075578086 0.09285757 0.026460912 0.07395886 -0.1894968 -0.077284716 -0.02130229 -0.001661688 -0.10992618 -0.026185656 -0.0126375295 0.045766175 0.17356169 -0.018773543 0.048572693 -0.09570345 -0.18048456 0.0053568482 0.041695535 0.14858888 -0.13615185 0.006012956 -0.17543703 -0.07519512 0.022891367 -0.04417031 0.1612153 0.13419303 0.026541552 0.024062848 0.07075995 -0.00893042 0.018361952 -0.06489472 0.084870264 -0.07253711 -0.14391531 0.018097883 0.002172429
19 0.15125899 -0.03318154 -0.102256194 0.022092251 -0.03734983 0.07698278 -0.015147556 0.061603904 -0.04881893 -0.06404792 -0.11131075 -0.13339713 -0.09848804 -0.07518233 0.07860458 0.07800376 0.04273295 0.128217 0.17889872 -0.12729801 0.12678964 0.0949759 0.08351827 0.05829265 -0.084253676 -0.0038043628 -0.09532376 -0.08864566 0.022987958 0.16140766 -0.09354686 0.09125856 0.085060686 -0.0047541056 0.08276285 0.018280355 0.10657039 -0.015050887 -0.043544754 -0.030214839 -0.024074784 0.008635582 0.041524537 -0.11059127 0.014265546 0.32240042 -0.05100934 0.02600468 -0.009051666 0.025276495 -0.09244704 0.0557121 -0.028290592 -0.123920076 0.11310394 0.015623358 0.09688012 -0.052286647 -0.15518722 0.10834925 -0.05881111 -0.007570918 -0.14801016 0.06056695 0.023190895 -0.2126381 0.007012727 0.052382905 -0.10837073 0.1604807 0.21425933 0.0742734 -0.025504047 0.053922947 -0.08517958 0.022795193 -0.12164459 0.034846537 -0.09185904 -0.080018625 0.0150832115 -0.12904498 0.14209688 -0.2571953 0.0915168 0.03414281 0.043530922 -0.10608725 -0.17198187 0.040872697 -0.068151146 -0.07634759 0.003457264 -0.10532769 -0.068388194 0.035899725 -0.088707924 -0.03194878 0.04456589 0.021515757 0.057308197 0.08433802 -0.1123355 0.028311357 -0.015383198 -0.1457155 0.13208205 -0.0012348738 0.21091636 -0.12705378 0.075330764 -0.082787 -0.07148853 0.04322027 -0.043036237 0.17233887 0.016950462 -0.02634499 0.008830003 0.004996069 -0.03979201 -0.023420693 0.09898114 0.09473232 -0.09250439 0.023668658 0.024391243 0.05072039
18 0.1823973 0.034408793 -0.10535147 0.04226508 -0.075913295 0.18020312 0.09436658 -0.022829382 -0.010728601 -0.0148282815 -0.06250581 -0.0791645 -0.09904794 0.030909447 -0.015307837 0.02652892 0.017745716 0.14450312 0.12906322 -0.109903164 0.037964005 -0.0565817 -0.031885087 0.03480083 0.04126321 -0.003982315 -0.07949418 -0.0036969604 -0.008419714 0.17686725 0.044476163 0.048911896 0.092055574 0.03010861 0.046388827 0.09212108 -0.04791538 -0.11741409 -0.13836455 -0.041244153 -0.04149116 0.118205436 0.09368791 0.03322356 -0.010392199 0.21003166 0.08380077 -0.0547001 0.099536255 -0.008909974 -0.006403283 0.18844995 -0.049384676 -0.16790605 0.15280291 0.07978452 0.009001636 -0.03957426 -0.16308145 0.08671225 -0.07642403 -0.058085743 0.00016768418 -0.030408524 -0.032808363 -0.24534838 0.0024499763 0.06547042 0.06605828 0.1194204 0.026004441 0.027769575 -0.03861495 0.027502863 0.038889036 0.0028016043 -0.20032752 -0.07383973 0.038944606 -0.17535813 -0.03765044 -0.061176166 0.19533311 -0.27045825 0.06939593 0.05168005 0.04715058 -0.041473158 -0.17095266 0.10044062 0.14766997 0.018344177 0.0060354485 -0.059029132 -0.13397723 0.03141211 0.027379975 -0.09409889 0.02012157 0.019303186 0.06881038 -0.013292982 -0.038526528 0.05233687 -0.10514861 -0.17986283 0.029673312 0.013914608 0.14147483 -0.28042027 0.10383097 -0.09703625 -0.12923442 -0.022402868 -0.014127369 0.085367076 -0.017860686 0.04298381 0.13693555 0.00014169735 -0.10022109 -0.08825415 -0.032462824 0.17354997 -0.04685114 0.066842094 -0.03563001 0.066278584
17 0.089885265 -0.09721287 -0.108620875 0.066443324 -0.006653832 0.049124625 0.0052141347 0.05173281 0.047494296 -0.012597857 0.005735958 -0.0302079 -0.11372543 -0.08088767 -0.01110536 0.06493114 0.045730542 0.028127884 0.049935605 -0.07531059 0.10871985 0.10158819 -0.028689336 0.11468804 -0.031300437 -0.016294217 -0.053286977 0.11257431 0.042818747 0.17719729 -0.018890698 -0.08090895 0.12591738 0.015166935 0.10440805 0.032198425 0.037598137 -0.13725807 -0.08326095 -0.018146332 -0.19341183 0.17486373 0.094568305 0.05599637 -0.022368891 0.08582185 -0.026112126 0.045639656 0.10769724 -0.0667455 0.03228458 0.12641649 -0.03871711 -0.18222696 0.11636146 0.010958029 0.055401318 -0.07929207 -0.1833039 0.07455245 -0.09601409 0.065620296 -0.068640724 0.040041674 0.04762608 -0.28090763 0.019860074 0.11794871 0.017745307 0.027814696 0.09522106 -0.051787857 0.011535397 0.011509737 0.012013283 -0.057739858 -0.102263056 0.015587541 -0.14550282 -0.09640481 0.10304854 -0.10806895 0.23783955 -0.24023011 0.081968136 0.089607365 -0.09294615 -0.099719204 -0.09646351 0.10926564 -0.064670265 -0.04243152 -0.056833077 -0.07290143 -0.039444245 -0.06708133 0.030613232 -0.032755256 -0.14136383 0.067819335 0.15309526 0.1810738 -0.045904215 0.035147507 -0.06602512 -0.22279947 -0.09774478 0.060036328 0.11491659 -0.23144813 -0.06542301 -0.04810812 -0.16746688 0.03755013 0.043920297 0.049594678 0.0576222 0.09824835 -0.024672067 -0.0725273 -0.12825043 0.06401567 -0.0445092 0.18625554 -0.21426934 0.012659595 0.17709652 0.04332914
24 -0.014854699 -0.17512342 -0.036287375 -0.0965111 0.06975605 0.039539304 0.055020373 0.031606887 -0.016041953 -0.12443304 -0.0070501994 -0.26798517 -0.037230644 -0.03853577 0.13253617 0.053488318 -0.032604825 0.007451788 -0.031238547 -0.03908013 -0.044262227 0.038305447 0.010837859 0.117931776 -0.056075703 -0.055446208 -0.029547323 0.09663621 0.047098964 -0.017432345 -0.0025903722 0.15465254 0.085591614 0.07770428 0.012389023 0.036954865 -0.0370223 -0.029185493 -0.08655016 0.04720435 -0.11316427 0.11918485 0.057538997 -0.037375204 -0.0017694089 0.10773422 0.02348677 0.015862191 0.037716348 0.050031763 -0.028851759 0.09108733 -0.034661744 -0.14754415 0.04235655 0.09307812 0.18124129 -0.08901283 -0.07646109 0.14540905 -0.014808268 -0.0010808166 -0.027311103 0.029604124 0.068680525 -0.19078165 -0.073859364 0.05086565 -0.037319854 0.13607675 0.1461817 0.046699483 -0.08843214 0.079246625 0.021724414 -0.025775142 -0.16923612 0.08756511 -0.052377716 -0.039211296 0.040557247 -0.11260133 0.19271857 -0.1385647 0.13464093 0.07808871 -0.040637087 0.063541815 -0.28166053 0.08828986 0.14169182 -0.027691571 0.09632449 -0.07002099 -0.20296174 0.051525652 -0.03228607 -0.1171183 -0.0073771267 -0.053758003 0.15990037 0.12317437 -0.10179229 0.054114457 -0.038203128 -0.15178192 -0.047503207 0.014248335 0.26228255 -0.19330287 -0.09275272 -0.12012217 -0.082637675 -0.100925505 0.023413684 0.17683831 -0.10292716 0.1139529 0.018346388 0.10328703 0.0029786797 -0.14034474 0.00032796452 0.08808031 -0.10706897 0.10246029 -0.054022133 0.037928812
43 0.0865985 -0.13057849 -0.060582332 -0.040392086 -0.057784237 0.030920614 0.05542945 -0.032426946 -0.05864873 -0.05015688 -0.089020975 -0.16210854 -0.09267795 -0.02139482 0.10822359 -0.026360335 0.06808306 0.16103989 0.026054395 -0.04670927 -0.022872966 0.09668873 0.10489122 0.04006583 0.04253566 -0.03830747 0.06087845 0.016938165 -0.07792913 0.14275266 -0.027585644 -0.042777587 0.19246274 0.038456846 -0.04467787 0.017864726 -0.030002028 0.01556552 -0.080612436 0.07051348 -0.12856895 0.09636228 0.04628881 -0.10190667 -0.025364725 0.20479923 0.1317872 0.06799293 0.100770146 -0.05391284 0.01855136 0.00804307 0.04716687 -0.10078084 0.1078429 0.06167188 0.17922686 0.027663784 -0.0388458 -0.00437749 -0.017666608 0.06779679 -0.06011614 0.023958609 -0.017026339 -0.29169303 -0.04308952 0.077446155 0.016790597 0.08985563 0.10959503 0.06554273 -0.12033093 0.055660818 0.04687656 -0.07336665 -0.1109803 -0.019322688 -0.034226183 -0.018773839 0.016041478 -0.24437904 0.06235362 -0.20370498 0.07703891 0.054325145 0.09187353 0.08029234 -0.12704241 0.038431175 -0.0036365145 -0.07457343 0.0849794 -0.18605831 -0.075110905 -0.06810174 -0.11006204 -0.12125368 -0.048412688 -0.035943195 0.13116458 0.05615883 -0.094824284 0.044355214 -0.089460485 -0.12504888 -0.07781377 0.107942805 0.16580518 -0.18924166 -0.0010226336 -0.09552868 -0.07053761 -0.056597736 0.06247842 0.08727919 0.026388954 -0.004485607 0.0518711 0.05612467 -0.029076634 -0.10093313 0.04610864 0.13475017 -0.11295821 -0.055472683 0.015469305 0.0602386
55 -0.005921348 -0.17185783 0.03134625 -0.016728673 -0.045001157 0.035578642 -0.049479693 -0.12511957 -0.18727177 -0.19296542 -0.08384524 -0.07369236 -0.005531037 -0.054595392 0.0585521 -0.13521297 0.096199915 0.106539324 0.020112902 -0.07081376 0.1152867 -0.11988021 0.14095081 0.031256907 -0.06454176 -0.22337323 -0.039597634 0.07074579 -0.076695845 -0.070718706 0.07297167 0.026662862 0.081877485 0.09059842 -0.07127122 0.071443476 -0.033339042 -0.0939894 -0.13954946 0.0033503994 -0.12342195 0.004620787 -0.038695235 -0.07926248 0.18212698 0.23113963 -0.06417933 -0.03014614 0.07515155 -0.02797353 0.004514243 0.12910463 0.17372164 -0.28459507 0.1826435 0.16441932 0.1331256 0.0087099625 -0.13058369 0.14500408 0.021546131 -0.018822549 -0.07096623 -0.05011354 -0.1177842 -0.07350752 0.009077052 0.20677994 0.10703727 -0.0043932456 0.0976065 0.14081451 -0.10641719 0.018089453 0.023990361 0.015170208 -0.02778935 0.07766374 -0.0569185 0.037788283 -0.08457383 -0.13268435 0.13306907 -0.25912 0.05440317 0.05066449 0.06136971 0.07568399 -0.21779072 0.020932786 0.021353628 0.025326539 0.08837545 -0.038669582 -0.042085223 0.026157212 -0.053773258 -0.1100911 -0.067017816 -0.06847699 0.08799921 0.046735816 0.042946823 0.06884053 0.06931185 -0.100338936 0.055638023 -0.047233663 0.12469068 -0.10738373 -0.0072404207 -0.0945889 -0.09106052 -0.08974437 0.13783105 0.01799067 0.075206965 0.014491036 0.021520901 0.023163943 0.02328969 -0.09915016 0.012402835 0.24256831 -0.26885483 -0.014660249 -0.034606498 0.042107236
27 0.0780049 -0.048024908 -0.005269235 0.015254056 -0.09772417 0.022103798 0.10635756 0.017028412 -0.039584603 -0.07290951 0.016659288 -0.057462085 -0.14438657 0.026180351 -0.012601246 0.037849206 0.11798869 -0.041128732 0.111666 -0.10492511 -0.09254064 -0.05287552 -0.009345952 0.10505741 0.016980734 -0.079806805 0.122479744 0.038263615 0.07388331 0.16204084 -0.0971588 0.042405654 0.17899573 0.1114981 0.00363446 0.0116848 0.09523849 -0.11976029 -0.021191426 -0.012032963 -0.09344502 0.11725762 0.17751306 -0.16002938 0.14653723 0.13684596 -0.06292284 -0.0016877932 0.02388125 0.057649482 -0.04430276 0.013938835 0.025226902 -0.16231583 0.088610396 -0.08259862 0.20285498 -0.1209966 0.020479655 0.16547436 0.004436963 -0.035924032 0.051908564 -0.035938885 -0.1598713 -0.19275737 -0.06900637 -0.0157553 -0.02254258 0.017591286 0.14255151 0.07903344 -0.04514477 0.15714814 0.053006187 -0.16859889 -0.091984235 0.042298514 -0.033634625 -0.08267135 0.003165303 -0.19729175 0.15986793 -0.16599455 0.08559753 0.05081882 -0.07018522 0.0011681962 -0.09092291 0.05476346 -0.040775947 0.043833967 0.12760189 -0.068676725 -0.1490797 0.0008184766 -0.069919564 -0.08027325 -0.054806586 -0.056619957 0.12868913 -0.010449197 -0.0889926 0.110952854 -0.113464326 -0.17368013 -0.061053462 0.055781294 0.06427561 -0.21332262 -0.009431284 -0.16914377 0.004986774 0.0976525 -0.028140498 0.002704979 -0.052179668 0.097393915 0.19932385 0.06409352 -0.1607446 -0.023838313 -0.04705937 0.22995661 -0.10293248 -0.03184871 0.014015081 -0.015758049
39 0.007253821 0.0878628 -0.091471575 0.046560068 0.05536401 0.025648436 0.056491185 -0.019502603 -0.028267147 0.06772633 -0.09793533 -0.13400966 -0.0028189404 -0.025143377 0.11689169 0.012946858 -0.0033706347 -0.10482838 0.03930349 -0.16106243 -0.047032904 -0.06862893 0.059432305 0.21952993 -0.066138044 -0.06852329 -0.057518087 -0.10135536 -0.044521313 0.089471675 -0.051101092 0.039576862 0.07988538 0.060844474 0.073219664 -0.013941491 0.053795427 -0.003228207 -0.13380252 0.08302385 0.015943063 0.038645424 0.029970927 -0.035262235 0.087656 0.1277117 0.099571824 -0.055213284 -0.026642775 -0.0038010955 0.07734362 0.11421989 0.12844008 -0.14105733 0.21932706 -0.03961261 0.15693003 -0.07425998 -0.021077156 0.13080806 -0.03167569 0.00021618532 0.060651705 -0.026396884 -0.000440647 -0.2141723 -0.0824722 0.11245629 0.080887645 0.19614883 0.14736868 0.059939265 -0.14504303 0.1472995 0.054500718 -0.082075 -0.0763259 0.074337244 -0.15977222 0.010813271 -0.06906326 -0.011243927 0.10575982 -0.22051291 0.113633186 0.04987733 0.044593878 0.0698642 -0.17333682 0.07760184 0.10903729 -0.016879778 0.05127458 -0.016848378 -0.15815632 -0.106377095 -0.11900879 -0.1745824 0.022078224 0.053309333 0.058123596 0.05825431 -0.12589082 0.07354771 -0.02154487 -0.17353913 -0.0166597 0.041063525 0.072227 -0.20114926 -0.05263998 -0.13653818 0.005222464 0.030209102 0.1589499 0.118017204 0.07793757 0.05726609 0.028440889 0.00046695594 -0.11440462 -0.034186553 0.08062466 0.1254038 -0.21248657 -0.03468958 0.05928162 0.018273719
69 0.10369257 0.010069782 -0.04140383 0.032765664 -0.07106031 0.11609775 0.11389053 0.09339042 -0.07079746 -0.08159207 -0.08020179 -0.15154055 -0.008317367 -0.06002986 0.03783528 -0.0073580057 -0.026933629 0.01421131 0.022534637 -0.06818952 0.036901504 -0.029379044 -0.03385757 0.22448078 -0.024176229 -0.047329586 0.018846087 0.05596751 0.018983956 0.09082114 -0.04774746 -0.121829264 0.13801934 0.07349628 0.01327731 -0.0015173245 0.09910914 -0.1291561 -0.13141502 -0.005239474 -0.099479996 0.061463166 -0.043726895 -0.11245857 0.061147936 0.15783972 -0.07982498 -0.081569836 0.10327422 -0.020784736 -0.011616208 0.17296225 -0.01480305 -0.25761667 0.1515853 0.0085414965 0.1300202 -0.016403574 -0.120445125 0.063640565 0.055870693 0.04140608 0.04394073 -0.0152451005 -0.09504382 -0.22161262 0.026972419 0.06939345 0.00771715 -0.022676812 0.097553276 0.08553838 -0.0063655702 0.08216495 0.026162852 -0.017760346 0.07490083 -0.023978837 -0.035147 0.14764306 -0.062045615 -0.18158184 0.08436043 -0.24439014 0.069193445 0.10315289 0.055185188 0.0044567734 -0.13944115 -0.11908927 -0.041264948 -0.14554982 0.08689047 -0.07898243 -0.02444058 -0.08365696 0.064322166 -0.08894179 0.017731398 -0.09896853 0.039697863 0.020194918 -0.01336213 0.04588838 -0.051235054 -0.13174744 -0.01165171 0.09104056 0.31762534 -0.21898629 -0.00047005693 0.002155022 -0.048314728 0.16333395 -0.037792053 0.12294296 -0.06603486 0.12002418 0.024811193 -0.058849216 -0.1534237 -0.00925654 -0.015948625 0.1693991 -0.09935483 -0.069851354 -0.026293863 0.003110821
80 -0.060290884 -0.11981276 0.07628764 0.10858716 -0.008991912 0.011645148 0.086278014 -0.06990572 -0.009461694 -0.036789782 -0.011795906 -0.28432512 0.018765204 -0.100243144 0.17343575 -0.07479474 0.085624404 0.12881231 -0.11721238 -0.028364949 0.124815956 0.019817425 0.120820686 0.10668093 -0.059528973 -0.0046120915 -0.11501423 0.014998946 0.039236527 0.013438017 -0.026846124 -0.10003713 0.12174533 0.019952983 -0.0702452 0.0073234336 0.039730843 -0.21656676 -0.07606127 0.15299977 -0.10433381 0.0035554112 0.046922415 -0.103245236 0.03989571 0.24616057 0.008258793 -0.08066109 0.08539959 -0.11193838 0.06760597 0.0073083206 -0.07811524 -0.08619906 0.08810897 0.007497462 0.18625346 0.007376059 -0.15417978 0.2316267 -0.19238247 -0.05905267 -0.05616002 -0.11662282 -0.0029196537 -0.1629804 0.009710528 0.053254724 -0.027905388 0.054826293 0.08148362 0.1590547 -0.072824515 0.13870509 0.08321887 -0.016883831 -0.049284134 0.021196447 -0.0068570953 -0.055564567 -0.034329765 -0.14978212 0.20368612 -0.25567433 0.19703135 0.16923878 0.1306798 0.05067179 -0.14842111 0.06250515 0.15276144 0.0311526 0.06449825 -0.07547062 -0.005083696 0.023878248 -0.15955357 -0.10107359 -0.10255142 -0.054328796 0.013212623 0.0026914678 -0.029826697 0.008227861 0.019270517 -0.1374771 -0.109846935 -0.04922155 0.09642151 -0.30627155 -0.011263083 -0.07631752 0.025689822 -0.005236005 0.1265805 0.08877243 0.054045312 0.08511877 -0.034828953 -0.016497381 0.009393557 -0.055369735 -0.05387931 0.09710272 -0.046401672 -0.1315951 0.07930884 -0.18472593
4 0.18106903 -0.11834135 0.07951266 0.085233755 0.07906502 0.086882845 0.079666264 0.053674657 -0.11873084 -0.007820956 -0.02333155 -0.1146625 -0.04955797 -0.0101164235 -0.093205966 -0.059757467 -0.03285795 0.006238313 0.04486224 -0.1849168 0.06830355 0.17786305 0.059576675 0.15189566 0.12196833 0.051158052 -0.052454647 -0.14381497 -0.086678624 0.01993196 -0.078490876 0.014012822 -0.017563527 0.18922617 -0.072140954 0.18951805 0.18703791 -0.09356471 -0.15916488 0.16349767 -0.0053236084 0.014768948 0.08329934 -0.0088343555 -0.08522456 -0.0031300504 0.10186417 -0.01985549 -0.0015598392 0.032335296 0.010516925 0.035872675 -0.17128907 -0.2969497 0.22369303 -0.09937286 -0.031088427 -0.017037094 -0.09885672 -0.045924235 -0.010114872 0.027911833 -0.098689154 0.10132177 -0.016800866 -0.26576406 0.09174848 0.12058696 0.021385051 0.051364884 0.16541886 -0.085988835 -0.082192674 0.031106474 -0.015079196 -0.21652794 -0.118705444 -0.17756344 -0.082851455 0.063774966 -0.07256208 -0.008735885 0.2255433 -0.17279615 0.30134308 0.18788964 0.03825396 -0.18355204 -0.27684817 0.02409769 0.033109028 -0.07796428 -0.012334598 -0.16712426 -0.08459676 0.09039552 0.01216227 -0.12931618 -0.119516544 -0.022987558 -0.14446193 0.06189839 -0.016654981 -0.12294969 0.06415265 -0.07867486 -0.15380399 0.045112837 0.23543885 -0.19055934 -0.038283285 -0.17741883 -0.12921385 0.14954273 0.007032842 0.10092223 0.11747064 0.10629092 -0.075248584 0.0882524 0.115843005 -0.008182936 0.04913611 0.21963754 -0.26281765 -0.086591884 0.036410198 0.031301327
50 0.3100126 -0.05405039 -0.017387703 0.0637571 -0.05864742 0.057058398 -0.0112950085 -0.008984832 -0.005959438 0.051448002 -0.14212368 -0.04431895 -0.095058635 0.09269861 0.06654563 0.0017780149 0.038785685 0.074513584 0.032813165 0.009803714 -0.046750706 0.0519662 0.0752703 0.2307432 -0.009053388 7.329882e-05 0.03870297 -0.038307004 -0.07365495 0.072458655 -0.02514971 0.07810203 0.16100456 -0.040994026 0.012252212 0.13416447 0.13859807 -0.012135814 -0.24446602 0.05691007 -0.08809575 0.14992405 0.012396559 -0.06393843 0.15965728 0.25524843 0.040928006 -0.06556756 0.10308259 -0.20066567 0.011827919 0.14521396 -0.018026905 -0.11545771 0.05990924 0.09811701 0.06844959 -0.16226736 -0.16379125 -0.005744722 -0.098099984 0.013076465 -0.11530819 -0.09577836 -0.008868601 -0.20204653 -0.0605497 0.055562347 0.16011813 0.12611166 0.15726922 0.07518192 -0.061657995 -0.09442753 0.09071364 -0.08804991 -0.035859052 -0.0009688134 -0.10365163 -0.022583302 0.045518313 -0.10661186 0.09109205 -0.17817801 0.22204104 0.10928093 -0.022986006 0.045282774 -0.12209779 0.0003486021 0.010285657 0.03284149 -0.099509 -0.048598766 -0.13185894 0.021536224 -0.15638942 -0.06276481 -0.036592793 -0.059940983 0.11990906 0.06960372 -0.12668917 0.0032223123 -0.03572522 -0.07349921 0.054492958 0.11855076 0.04399072 -0.19966038 0.08084197 -0.18661915 -0.1280492 0.04750746 0.03863769 0.07104504 0.056876283 -0.0779928 -0.009921066 -0.0029535387 0.041900083 -0.13988337 0.046414517 0.14724867 -0.18720117 0.08889499 0.10487453 -0.041340627
66 0.11189894 0.007346404 -0.102818355 0.0868296 -0.04771255 0.058850776 0.04267665 -0.011729302 -0.050961908 -0.047576576 -0.0030247662 -0.14967893 0.02768517 -0.098507926 0.067575626 -0.085172206 0.024276761 0.06283813 0.06252452 -0.100796655 0.0962933 0.05773309 0.11875384 0.08554591 -0.0599214 -0.076254606 0.06006979 0.075240016 -0.0043960223 0.020481713 0.043955237 0.02204426 -0.035035484 0.029829385 0.062438414 -0.033445872 0.1546088 -0.03701842 -0.061273623 -0.019543253 -0.09447824 0.029724406 -0.036104437 -0.17275111 -0.005019501 0.1581913 0.009246749 -0.05732137 0.07915906 0.047530588 0.15245163 0.1408623 0.13282889 -0.18330781 0.17409702 0.089104295 0.14728661 -0.15333563 -0.091913715 0.06780198 -0.018576464 0.016693223 -0.049846116 -0.13981964 -0.032449402 -0.18186815 0.0043786312 0.15209427 0.09085086 0.093163684 0.059182152 0.15353957 -0.07542163 0.12197293 0.076337464 -0.095679775 -0.1733865 -0.018824251 0.0100306375 0.012806277 0.10244764 -0.19071424 0.13734935 -0.1428138 0.15084015 0.14133489 0.078121506 0.058831304 -0.2200373 0.09794124 0.11212748 -0.10099616 0.059096325 -0.09889114 0.03051305 -0.07683668 0.0033308077 -0.038803976 0.10673509 -0.1283553 -0.084537596 0.027356617 0.020334922 0.09036742 0.09314751 -0.14078294 0.06322815 0.145839 0.1352799 -0.07982805 0.013749262 -0.07666673 -0.11823266 0.029767737 0.06264222 -0.010999393 -0.0057386016 0.10471674 0.19548602 0.010312294 -0.030405901 -0.055574782 -0.08174196 0.18438879 -0.20284806 -0.12426442 0.030756246 -0.009077368
31 0.1098387 0.033922084 -0.05924369 -0.14695273 0.048038017 0.14526355 0.051675938 0.022523731 -0.070022136 -0.08554166 0.007030321 -0.19513549 -0.087841764 -0.17027771 0.13203256 0.005588805 -0.046605606 -0.088667765 0.041875474 -0.060095947 0.033034377 0.1356612 0.03295251 0.040197976 0.07359804 -0.055605795 -0.003581324 -0.0013158942 -0.024345431 0.076156706 -0.024865124 0.079915136 0.16598026 0.022265859 -0.0039788657 0.02127159 0.056560613 -0.16227788 -0.13874115 0.001573229 -0.06295853 -0.013655066 0.09879119 -0.108259216 0.10904461 0.17174038 -0.03806765 -0.0068272864 0.090372615 -0.09238863 -0.019910725 0.0082995985 -0.057896674 -0.1373951 0.12652639 0.049784467 0.20098916 -0.06182289 -0.06074732 0.054258846 0.037976608 0.04539904 -0.0829103 -0.030132206 -0.027547076 -0.22505666 -0.008991061 0.03243327 0.06978703 0.08976969 0.046430405 0.145189 -0.07446626 0.055125687 -0.06745711 -0.09022743 -0.19458076 -0.051233016 0.032903705 0.052134454 0.121830046 -0.1665623 0.17225757 -0.2407412 0.054782264 0.08882325 -0.06214548 -0.010587837 -0.13372421 0.056050517 -0.08201346 -0.081436455 0.08203481 -0.11845357 -0.1001633 0.076620646 -0.08841346 -0.111831866 -0.05940265 0.0139526 0.15695055 -0.0041140113 -0.07858213 0.13563344 -0.09544857 -0.054331724 -0.023736535 0.066550486 0.15598516 -0.046411023 -0.057293832 -0.009397451 -0.00941567 0.10055987 0.014686629 0.049677458 0.040993083 -0.03752755 0.020472683 0.026199503 -0.07354893 -0.07575649 0.033402327 0.24988793 -0.15902182 -0.1491251 -0.041981637 0.08952795
71 -0.005234343 0.013574326 -0.04778785 -0.009854416 0.024636682 0.12325482 -0.02428251 0.059101854 -0.05522197 -0.05058892 -0.10652637 -0.22120884 0.023029353 -0.034057904 0.05776308 -0.033797126 0.083198346 0.07237107 0.09065867 -0.075132646 0.02693141 0.080450326 0.06227546 0.039156772 0.073089086 -0.057757776 -0.021384802 -0.05359657 -0.029126193 0.05409803 -0.04537135 0.10944306 0.19549575 0.08155474 -0.10112028 0.04334614 0.05417752 -0.10061495 -0.19896965 0.029215017 -0.10520946 0.061838366 -0.005083762 -0.08776745 0.08892044 0.088725835 -0.039936956 -0.0084054405 0.056525733 0.015449733 0.034167033 0.1069056 0.04926838 -0.1621941 0.24422723 0.032265004 0.31476054 -0.09096233 -0.058029685 0.14689338 -0.08730619 0.07695568 -0.035362124 -0.13903324 -0.15584643 -0.19088694 0.014819031 0.19718415 0.093710594 0.13098441 0.10333378 -0.053640872 0.0030902957 0.09338455 0.0469661 -0.056021973 -0.0046469686 0.020445948 -0.025560753 0.09730231 -0.07484571 -0.21342611 0.14706182 -0.09369363 0.08887676 0.19708191 -0.1960907 0.1400541 -0.01241697 0.012826318 0.09041278 0.09727766 0.11584757 -0.19084892 0.042829487 -0.03745975 -0.13822313 0.014966259 0.027933834 -0.19497411 0.07021473 0.022529282 -0.06519929 0.02031331 -0.048341293 -0.1616898 -0.05826489 0.07237993 0.04649995 -0.15690903 0.034116898 -0.07795459 0.055375904 0.1159429 0.015620789 0.11890643 0.045092735 0.18990883 0.17408207 0.023412107 0.02409534 -0.053895164 0.003691325 0.20761847 -0.1064059 -0.06109444 0.087439284 0.047062796
28 0.09687965 0.12174083 0.06404622 0.0868369 -0.039421234 -0.018710025 0.09632738 0.035943873 -0.13588558 -0.05405277 0.0048315353 -0.01929451 -0.0035440177 -0.021222934 0.07411585 0.102584675 0.15016714 0.0701299 0.0075341584 -0.14197746 0.00091875595 -0.013499356 -0.010034435 0.09223534 -0.06576863 0.028403379 -0.11860572 0.09143877 -0.023623342 0.17359453 0.016856227 0.13733228 0.1895623 -0.03931659 0.033803683 0.079405926 0.06424138 -0.13465078 -0.117085025 -0.03425805 -0.08984422 -0.06945783 0.11902267 0.021324115 -0.035532396 0.24778013 0.06168365 0.030599255 0.022903003 0.02261461 -0.124129556 0.11663451 0.06711668 -0.23827471 0.14117193 -0.021616383 0.10811048 -0.1434556 -0.08213117 0.10480223 -0.02694664 0.08439616 -0.0033667975 -0.025397597 0.016177008 -0.14251244 -0.09881696 0.044097643 -0.021553598 0.14372444 0.022560049 0.06291751 -0.040755484 0.09249098 0.003601923 0.03430827 -0.11013367 0.14115489 0.02114428 0.0024892704 0.107568905 -0.071946755 0.15410747 -0.17235677 0.039455045 0.04830039 0.035034884 0.028464388 -0.24957143 -0.0130272 0.05428526 -0.08057361 -0.08109958 -0.10760196 0.025974141 0.00866482 -0.038640827 -0.064944364 -0.052396014 0.17262276 0.2235378 0.018432291 -0.12152282 0.0145959165 -0.10935164 -0.16009687 -0.03225957 0.10185651 0.12080369 -0.26119658 0.010598873 -0.120373115 -0.05006858 0.13413148 0.028342726 0.13290207 -0.02027326 0.0520488 0.045560587 0.06044132 -0.0073204106 -0.07610375 0.037732583 0.21504451 -0.245915 -0.083245635 0.07436632 -0.029955665
70 0.021239897 -0.18850239 0.06754809 0.020244736 -0.038248643 -0.025629736 0.06565312 -0.04085586 0.0138503825 -0.014680427 -0.12874074 -0.1817772 -0.019332692 0.07085452 -0.10741031 -0.011786327 0.10715301 0.11173959 0.023178862 -0.04220485 0.21132343 0.037193652 -0.010943839 0.036050055 -0.032826852 -0.035149053 -0.11213035 -0.047598094 -0.027855784 0.15005362 0.013660596 0.061244193 0.07844387 0.14650404 0.039282028 0.040367745 -0.0034840354 -0.026415309 -0.24868523 -0.03940817 -0.1732409 0.09205466 -0.11855072 -0.1469605 0.19404738 0.17346251 0.048418745 0.0011130042 0.17117107 -0.02338965 0.085502975 0.061839 0.060433924 -0.13088588 0.0982193 0.23072477 0.16182765 -0.029445032 -0.06777254 0.041302275 -0.030505365 0.07430885 -0.0395938 -0.021176817 -0.05119211 -0.22740266 -0.010669851 0.09449868 -0.020297285 0.023112958 0.01762951 0.14813446 -0.099326886 0.09898697 0.021946682 -0.015913092 -0.19245192 0.067286 -0.02278122 0.04488089 0.010556231 -0.018210359 0.040810104 -0.23771928 0.10758704 0.15843055 0.0139118545 0.06810259 -0.07360866 -0.13982473 0.100697175 0.10639639 -0.02903613 -0.074369535 -0.037001625 0.07684395 -0.098450705 -0.1808433 0.0031475942 -0.06985908 0.05863727 0.19006182 -0.03691093 -0.03142825 -0.05033028 -0.09158416 0.011358786 0.12238561 0.089330085 -0.31248787 -0.08281212 -0.112643 -0.18493754 0.1042144 0.05028731 0.094738126 0.006966399 -0.015475508 0.0033915283 0.018497974 -0.042442795 -0.04101012 -0.0066648503 0.22704582 -0.15330133 -0.0922193 0.053653747 0.004532201
32 0.18255328 0.086643405 -0.08383866 0.09285102 -0.003872596 0.023484346 0.029581951 -0.011271169 -0.067212485 -0.07264471 0.040554874 -0.05840749 -0.0075912504 -0.021451551 0.017478442 0.016772281 -0.041483413 0.05691685 0.026440116 0.02448119 0.018510548 0.06662941 0.027464291 0.105652355 -0.10531746 0.07323431 -0.057479404 -0.020304635 0.05052304 -0.030564027 -0.014669318 0.058226842 0.115851425 0.010971961 0.04339363 0.052694127 0.08233586 -0.01958557 -0.061525922 0.060742274 -0.09383545 0.18428168 -0.008089844 0.038322974 0.001754069 0.23133957 0.023794066 0.024982978 0.04293689 -0.026542354 0.016302565 0.11023062 0.06356406 -0.102593526 0.0056548933 -0.018542524 0.061779853 -0.0489104 -0.12330051 0.04078613 0.030676203 -0.011265456 -0.16941202 -0.029451601 -0.074319474 -0.18122585 0.07701949 0.27468708 -0.019885425 0.1363902 0.22143666 -0.053874582 -0.06521362 0.09616259 -0.13670592 0.024918351 -0.20632192 0.040690143 -0.1805871 -0.042769693 -0.059062313 -0.07761807 0.015599158 -0.24838042 0.020125471 0.039992668 0.088391185 0.023500148 -0.16511829 0.07415336 -0.08419634 -0.08535803 0.05653709 -0.14113925 -0.10231166 -0.03378638 -0.08695246 -0.10846793 -0.04017086 0.08719894 0.072852425 0.009397357 -0.12683871 -0.04753567 -0.07441639 -0.16366245 -0.15877306 0.0725719 0.30561993 -0.2840337 0.0861521 -0.015831267 -0.09668206 0.0043325233 -0.068133995 0.002236777 0.0029541617 0.10059193 0.11877574 0.16895804 -0.0232885 0.017207783 0.036182635 0.2493156 -0.19444953 0.057756502 0.089807466 -0.006599637
44 0.019544523 -0.12257501 -0.20627446 0.13453396 -0.030232038 0.077427626 0.03316714 -0.08792616 -0.03364654 -0.006623416 -0.010668862 -0.06893857 0.11275208 -0.0892114 -0.004486859 0.047413614 -0.06302966 -0.025168775 0.00056248636 -0.04445295 0.047264487 -0.058338888 -0.038200088 0.12542212 0.079712555 -0.059081674 -0.030305399 0.06495169 0.11568248 0.119893946 0.0043723 -0.23853447 0.1312649 0.03179563 0.11260681 -0.055859853 0.08947592 -0.14991525 -0.062628195 -0.05375146 -0.02898982 -0.012376997 0.10598 -0.17632155 0.015640447 0.25138342 0.07114418 0.13020203 0.062839106 0.05219092 -0.0973011 0.085034244 -0.059526768 -0.15893786 0.23245768 0.007030345 0.00795144 -0.09600897 -0.1282588 0.056248434 -0.039992187 0.06512739 -0.03979182 -0.002124237 -0.14302664 -0.16600263 -0.057054956 0.07876267 -0.01674608 0.11235394 0.19471245 -0.009093674 -0.10062136 0.057049975 -0.05712769 -0.043912426 -0.04930439 0.1375965 -0.025129652 -0.12786658 -0.04558725 -0.19959947 0.15805322 -0.22250739 0.08193647 0.12673995 -0.04753361 -0.04866028 -0.09775077 -0.072596684 0.0680595 0.03400919 -0.09889632 -0.13910545 -0.09596763 0.09597472 -0.056841347 -0.07801329 -0.111562274 0.050023656 -0.07561154 0.035290632 -0.22193395 -0.0014285777 -0.12756525 -0.15767008 0.0076127048 -0.038431518 0.19073988 -0.12690249 -0.0038615884 -0.13099727 -0.10861748 0.08254392 -0.010963141 0.12188611 0.15449382 0.11209916 -0.14208157 0.06617888 0.040146634 -0.0237825 -0.030874014 0.32055503 -0.014522765 -0.020525383 0.07935399 0.08648836
57 0.05890827 -0.06413312 0.0046045156 0.039413776 -0.006427791 0.19276918 -0.045211855 -0.06312868 0.0146057755 0.025897186 -0.09319564 -0.15586047 0.020769335 -0.0968794 0.039451666 -0.13957793 -0.16638337 0.047414914 0.056331154 -0.13534787 0.10085003 0.065812275 -0.01579727 0.2591241 0.0057043894 -0.27194652 -0.07018113 -0.01744416 0.1700213 0.06174222 -0.056622583 0.053883683 0.014305358 0.04178353 -0.07884992 0.101010434 -0.026628824 -0.031171508 -0.21084072 0.022025721 -0.10327255 -0.06632925 -0.057773978 -0.105535075 0.029474575 0.21880054 -0.025099827 -0.1554278 0.06671343 -0.006240959 -0.016643792 0.09585183 -0.024982244 -0.22299457 0.15262662 0.063302256 0.086276956 -0.069426775 -0.09599717 0.07228198 0.062150113 0.0062109674 -0.03613771 -0.12403101 -0.0073510893 -0.16349123 -0.01897274 -0.020281432 0.02758278 0.053819023 0.07995297 0.05869532 -0.18884468 0.07101175 0.07046435 -0.06429173 -0.07412182 0.009209378 -0.13586326 -0.0287462 -0.034317702 -0.20081562 0.14920875 -0.16693282 0.11740644 0.042014003 -0.039447963 0.08601224 -0.09291493 0.036751118 -0.006211578 -0.051367708 0.003158447 -0.07906619 -0.17330568 -0.10540954 -0.13929816 -0.15155979 0.052953117 -0.12658451 0.012389814 0.07493647 -0.1503784 0.059443433 -0.050981034 -0.06209617 0.05289291 0.06374825 0.14103484 -0.14520903 0.024592219 -0.0837056 -0.080492295 0.070539184 0.017487155 0.1238066 0.032751445 -0.019506192 -0.01356458 0.15524913 0.0046946034 -0.09593287 -0.019984825 0.19702713 -0.028876195 -0.051614907 -0.017999645 0.13723129
22 0.121236265 -0.06062832 -0.022134408 0.0038695987 0.08385428 -0.011690505 0.055178035 -0.0709527 -0.12728322 -0.1355293 -0.0338558 -0.16182989 0.05769869 -0.08513207 -0.050893616 0.1172075 0.04397549 -0.01582109 0.0072995545 -0.045544367 0.055567086 0.20491922 0.044163596 -0.008901166 -0.15829353 -0.041139424 -0.05654986 -0.08286173 0.10315805 0.06106342 -0.025339138 -0.077606425 0.044720933 -0.0752146 -0.0523328 -0.0101382155 0.13579713 -0.068818316 -0.06930173 0.16330308 -0.08570381 0.14091623 0.019105457 -0.046527505 0.09577286 0.17350851 -0.04555085 0.07322186 0.0026109125 0.00070319657 -0.0010957179 0.15175377 -0.12741457 -0.06855263 0.19281605 0.09801506 0.12999544 0.038046 -0.07886217 0.12273356 -0.06575933 -0.086692415 -0.074893504 0.093612984 -0.15254204 -0.22539726 -0.042088304 0.050348904 -0.1112921 0.19140454 0.22186527 0.023407198 -0.105334185 0.04307769 0.0061708256 0.04489307 -0.0011633099 0.15477164 -0.012212775 -0.003568593 0.010717454 0.052635 0.20685221 -0.16540109 0.07638278 0.019590883 -0.06735015 -0.017443918 -0.11509956 0.039397802 0.06558185 -0.06264215 0.01622632 -0.11130313 -0.158868 -0.0027125524 -0.08219896 -0.0895165 0.036450204 0.06274421 0.07179753 -0.013816079 -0.01865445 0.015607118 -0.117981866 -0.2729564 -0.1787535 0.20059218 0.13005532 -0.26237383 0.043057427 -0.120985456 -0.013748008 0.06443705 0.041977055 -0.008598686 0.06852484 0.046565235 0.18632169 -0.091598526 -0.17340371 -0.04860557 -0.03851749 0.19323 -0.11500157 -0.012682302 -0.021336624 0.12461831
45 -0.015251775 -0.10519282 -0.026715403 0.046677526 0.046670537 0.13669161 -0.08360614 0.15102546 0.05317481 -0.007203477 -0.055920687 -0.0936217 -0.0056483042 -0.057003766 0.002784342 -0.039096285 0.02980199 0.09271966 0.08303416 -0.08812129 0.054329928 0.023369638 0.059412234 0.16367331 -0.11140275 -0.008502825 -0.08045847 -0.018885529 0.08013807 0.13118652 -0.057481177 0.15706067 0.1307466 -0.018861156 0.08750451 0.0143808955 0.0025414682 -0.16178074 -0.1686783 0.082085475 -0.096121594 -0.017497221 0.035299625 -0.16077155 0.08862634 0.16183382 -0.03328376 0.043492865 -0.07571011 0.08982543 -0.15459274 0.06554965 -0.01629701 -0.032495297 0.077118136 0.09224394 0.12866881 -0.08053723 -0.15564686 0.14452976 0.01853584 -0.05583297 -0.032862823 -0.08216745 -0.14926389 -0.24548417 -0.08568555 0.18138105 0.013772464 0.15967225 0.25535303 0.013127541 -0.034077626 -0.067891546 -0.025820779 -0.06796101 -0.03968487 -0.06715711 0.01728313 -0.13406943 -0.08221498 -0.02401864 0.021905968 -0.30035818 0.1597839 -0.028558584 0.024215557 -0.043200262 -0.15783317 -0.08777992 0.043281928 -0.12972884 0.028085478 0.0061325626 -0.012057458 -0.009753445 -0.013569305 -0.082194336 0.04503133 0.035899293 0.09893895 0.12380754 -0.18901326 0.10114776 0.00050934235 -0.13088414 -0.085735396 0.112038665 0.09876648 -0.18978405 0.025746403 -0.11682803 -0.14350873 0.22566997 -0.0611005 0.013320508 0.020040344 0.055688426 -0.0023506065 0.046792973 0.0001250725 -0.037005868 -0.020809991 0.050690882 -0.2939131 -0.070591435 0.038846638 0.05913086
63 -0.08799041 -0.11619194 -0.14052679 -0.0048422255 -0.019944284 0.04669879 -0.011652415 -0.020350162 -0.08275699 -0.031196957 -0.09494634 -0.067970425 -0.09628174 -0.026122615 0.012437328 -0.036486767 0.04322088 -0.071101435 0.058808524 -0.19283114 -0.01075748 0.016177678 0.030951187 0.18115951 -0.06674657 -0.1043117 0.069310896 -0.04234795 0.10590276 0.006276706 0.12556529 -0.07647586 0.06148833 0.03797715 -0.0016985838 0.18605305 0.045503914 -0.14976808 -0.13764113 0.011699537 -0.09361134 0.09943545 0.018911794 -0.10027758 0.1352254 0.34263897 0.13598071 -0.09549049 0.09041247 -0.08373829 -0.0018094851 0.0563557 0.036527306 -0.25828817 0.14843388 0.059993584 0.13229752 0.008553169 -0.16062437 -0.053871367 -0.06664852 -0.06408914 0.010868325 -0.04451466 -0.09898652 -0.18814836 -0.033586904 0.21216898 0.06415511 0.07385508 0.099541515 0.1156974 -0.04410967 0.16419679 -0.10250066 -0.033594605 -0.118856765 -0.07498292 -0.010964386 -0.044085745 -0.03492698 -0.05482696 0.19022991 -0.20700312 0.048104186 0.19083944 0.095223986 -0.021383401 -0.13763176 0.0064838873 0.111256026 -0.0381414 0.016827347 -0.11620674 -0.09009275 -0.11998393 -0.06217076 -0.17445424 0.008643593 0.025116147 0.15294577 -0.10748074 0.017928481 0.10052006 0.048654318 -0.20357084 0.04785621 0.005734264 0.03679057 -0.12802401 -0.06036973 -0.03591332 -0.05134076 -0.031651314 -0.008996008 -0.10467523 -0.030099697 0.17231934 0.010566693 0.08013522 -0.06958629 -0.026612146 -0.06892923 0.14667709 -0.06632058 -0.24338555 0.08497374 0.05513311
89 0.032628417 -0.040583428 0.0066482686 -0.06618128 0.060433276 0.13132946 0.049096446 -0.1132885 -0.1020718 -0.048501905 -0.11305387 -0.19306722 -0.028000034 -0.064851515 0.20307314 0.017677356 0.09216452 0.031118145 0.044181615 -0.0787573 0.0140503915 0.016669173 0.12992966 0.06797992 0.030012041 -0.08912571 -0.11466139 0.008224814 0.0020500056 0.042687237 -0.013818728 -0.07457143 0.10363608 0.06165649 0.08561101 -0.0382066 0.05872959 -0.131525 -0.0977984 -0.0420036 -0.08339872 0.15065192 -0.12539393 -0.1241858 0.1813998 0.08870686 0.09623496 0.067350626 0.19274592 -0.110718064 0.08854854 0.14900239 0.00476488 -0.10526844 0.07267104 0.09080739 0.19826801 -0.10999056 0.008680966 -0.0035278536 -0.042376798 0.0020851772 0.029242195 -0.0040677893 -0.16733071 -0.22025308 -0.014023122 0.12351297 0.015655426 0.09535979 0.0799337 0.06504563 -0.055153247 0.12805597 -0.10006806 -0.017726388 -0.10943033 -0.044957258 0.02005203 -0.020462418 0.10371868 -0.071347006 0.1328831 -0.3517412 0.081021816 0.02540682 0.036666937 0.066543445 -0.11400847 0.03679418 0.1611758 0.034059346 0.16191582 -0.13417359 -0.16034202 -0.11895973 -0.122018725 -0.040863678 -0.083326 -0.038321108 0.01806501 1.8793233e-05 -0.12584826 0.0056133694 -0.09755514 -0.08730542 0.04801561 0.048518784 0.14555049 -0.07449203 -0.085458346 -0.0245402 -0.0046769804 -0.035606414 0.06573258 0.08705111 0.08365887 0.0889184 -0.020076415 0.0055864286 -0.07416104 -0.045759484 0.019106083 0.20469812 -0.2104082 -0.1642662 0.014474202 -0.010897818
59 0.19582742 -0.045089033 -0.063631915 -0.07069139 -0.062587015 0.097426444 -0.026698573 -0.009619978 0.008495203 0.035778087 0.009455579 -0.119915634 -0.067643 -0.13662168 0.056267425 -0.0040536704 0.09657114 -0.022736745 0.04672995 -0.20212045 0.035764858 -0.053497884 0.024840986 0.07851194 -0.15031818 -0.059389934 0.022337677 -0.0026140276 0.02597863 0.032997184 0.026136182 -0.037625074 0.12595686 0.030471494 -0.068905905 0.13591252 0.07904254 -0.012516834 -0.095757216 0.011407285 -0.21097331 0.122401536 -0.04279332 0.04024302 0.051167507 0.16836818 0.015080936 0.07994813 0.06223215 -0.11122537 0.075837195 0.049059853 -0.0017247086 -0.18386903 0.13361637 -0.020482106 0.07846686 -0.16254616 -0.16352145 0.021174828 -0.019293783 -0.015662897 0.050883114 -0.056922324 -0.06761763 -0.10784507 -0.044124577 0.124337606 -0.0032354165 0.10770086 -0.014423779 0.071469754 -0.067517355 0.14485265 0.04317501 -0.17699157 -0.124851756 0.032499857 -0.02501543 0.08174662 -0.04563017 -0.17329021 0.0815555 -0.19842881 0.1976514 -0.028074427 0.04436901 0.13162182 -0.19932257 0.070782095 -0.02854142 0.053342983 0.048901405 -0.10990864 -0.11333171 -0.16711737 -0.05601225 -0.057576682 -0.029162642 -0.021848034 0.09054851 0.06651017 -0.17250547 0.07807123 -0.12375379 -0.09428556 -0.038664788 0.046936337 0.14246745 -0.100977875 0.036322866 -0.20125237 -0.10901714 0.056832343 0.007846378 0.13600026 0.06690893 -0.050283637 0.22103797 0.1287784 -0.03448621 -0.037214875 0.07716685 0.15196474 -0.18672675 -0.07806076 -0.050717976 -0.08576616
75 0.09819269 -0.027660215 0.10702726 -0.08653791 -0.02594032 0.02242019 0.021972207 0.03447351 -0.07718402 -0.019639974 0.05274141 -0.19732228 0.031909723 -0.05164313 0.039976448 -0.024402205 0.050840076 0.12159903 0.043909296 -0.06984265 0.19755307 0.09221619 -0.019674053 0.18735763 0.057342447 -0.110840805 0.031906724 -0.036947902 -0.03140922 0.046796106 -0.047436032 -0.082683645 0.082664125 0.065675855 0.06224898 0.14033224 0.15731536 -0.031076474 -0.18182832 0.12318466 -0.10987804 0.07517137 0.06677702 -0.22376467 0.0012406913 0.16717659 0.09094793 -0.14481549 0.08710051 -0.042574134 -0.01695402 0.069999866 0.06601024 -0.13665344 0.092212565 0.1086519 0.16763566 -0.050458983 -0.06252603 0.06517555 -0.014312672 0.050945066 -0.0817849 -0.09857064 -0.0016808334 -0.1257779 0.009208946 0.035048418 -0.038699668 0.10272955 -0.04080509 0.060460147 -0.046841394 -0.023781829 0.028500026 -0.03951842 -0.089131266 0.0970505 -0.07095841 -0.0059774444 0.15027572 -0.22380051 0.14913033 -0.20751788 0.120308466 0.13721599 0.05562599 0.0069520753 -0.137848 -0.028329365 0.071703926 -0.051150475 0.19164355 -0.0043018153 -0.094023384 -0.06511238 -0.035638556 -0.15480117 0.00023711646 0.03049909 0.17952669 0.07643007 -0.13827984 0.2213173 -0.022760432 -0.21172778 0.009701165 0.09098188 0.13922222 -0.04087598 -0.026358403 -0.13032055 -0.05372891 0.07493851 0.06511555 0.08343598 0.0998937 0.051746435 0.13375516 0.03445859 -0.053612746 -0.07044408 -0.10663572 0.18270232 -0.049064346 -0.036261823 0.015606096 0.037136108
64 0.05338871 -0.03246208 -0.013825241 -0.014473005 -0.12320018 0.08775355 -0.0051003555 -0.032316003 -0.0007903894 -0.10629721 -0.030718997 -0.016280932 -0.09396795 -0.07436169 0.21372142 0.023729865 0.042333268 0.025290983 -0.049464546 -0.13133575 -0.009852412 -0.08152447 0.09637398 0.1676514 -0.03786869 -0.06820209 -0.008019268 0.049397465 0.033100195 0.07323921 -0.17585608 -0.045952164 0.017793026 0.12669438 -0.08963807 0.12917806 0.124157235 -0.020023393 -0.08936233 0.038530517 -0.03882131 0.14089887 0.09427421 -0.08142833 0.042428408 0.1949657 0.11980446 -0.0021521514 0.10877403 -0.06190754 0.015780892 0.1338254 0.034162864 -0.17406471 0.21525979 0.05884685 0.17888695 -0.10708559 -0.10063009 0.14786522 -0.08040438 -0.009685283 -0.006112499 -0.12543233 -0.047627285 -0.16911715 -0.04908841 0.054374583 0.07673842 0.07250625 0.23587129 0.088825695 -0.11873633 -0.009845184 0.053651117 -0.044506267 -0.15936077 0.0038806326 0.0699515 -0.0019068659 0.028913949 -0.23118778 0.13426094 -0.17538913 0.14630671 0.11714822 0.0007359443 -0.038321283 -0.1944116 0.073355034 0.06549033 -0.06636651 0.08872179 -0.17081037 0.033858534 -0.023537708 -0.004119728 -0.13059604 0.12336102 -0.022231828 0.019959496 -0.027951716 -0.038789 0.05334377 -0.052516084 -0.15443124 0.01091537 0.07269473 0.1442248 -0.12333726 0.015910808 -0.006400918 0.0059054117 -0.014085321 0.020732308 0.051566698 0.08863027 -0.10082744 -0.05394048 0.023765437 -0.10351627 0.015357609 -0.008045144 0.09633263 -0.037459075 -0.06274044 -0.015979819 0.22543713
33 0.09048855 -0.0023999931 -0.087050065 0.06198209 0.0024697317 0.025177786 0.07728692 -0.035319436 -0.08585013 -0.084417775 -0.08674787 -0.08241394 0.0035414442 0.089680016 -0.024472678 -0.09930093 -0.07076688 0.020514317 0.01451406 -0.049626354 0.06122251 -0.039953083 0.11389836 0.10470956 0.0056632725 -0.06717243 -0.058186647 -0.018126806 -0.020267725 -0.018322844 -0.15190755 0.004156386 0.11506488 0.13205864 0.030529998 -0.029780332 0.06596532 -0.111323856 -0.15347289 -0.07777984 0.026791442 0.09353062 -0.066160254 -0.07414812 0.198854 0.17980166 0.027085867 -0.15179117 0.10609171 -0.036216848 -0.0018746756 0.045602802 -0.049669307 -0.07779561 0.26192415 0.1020163 0.0737874 -0.015200184 -0.10426872 0.007241621 -0.020103643 0.06079813 -0.02194882 -0.006670677 -0.044894334 -0.09657702 -0.032549884 0.060164686 -0.15648668 0.08659188 0.22611865 0.07222514 -0.047226463 -0.013552721 0.052473266 -0.099222295 -0.0684308 0.018119106 -0.07519897 -0.023951557 -0.020008955 -0.15019625 0.06457921 -0.26432356 0.1920774 0.018773597 0.030172983 0.09134857 -0.08096494 0.10203402 0.019896619 0.006935797 0.06544797 -0.10975322 -0.13811323 -0.066976406 0.04859322 -0.11990462 -0.13666983 0.010229973 -0.023147177 0.03894128 -0.093597025 0.14776148 -0.035803188 -0.13187622 0.07365726 0.08438221 0.22530824 -0.23456845 0.014540506 -0.09472715 -0.15608668 0.07843134 0.00050744094 -0.0384549 0.005790208 0.112243176 0.1131567 0.117823936 0.03633789 -0.15594947 -0.083357535 0.14373057 -0.120446905 -0.13477977 0.12227004 -0.05575203
73 0.0032505847 -0.07940096 -0.08316641 -0.03024462 0.086254425 0.054218177 0.11438141 -0.026465774 0.029783493 0.066017546 -0.16726674 -0.13378583 -0.10807157 -0.03319178 0.09289948 -0.06541463 -0.01488008 0.042935397 0.07036933 -0.15642333 0.12302994 0.007426108 0.010974665 0.10033712 -0.052817833 -0.018142436 0.012326673 0.03557934 0.033369888 0.059809428 -0.04149502 0.065028846 0.11448798 0.10616614 0.04807017 0.0036183984 0.054990485 -0.2002313 -0.09949991 0.12232883 -0.15847184 -0.07023605 0.089752324 -0.19611564 0.022463797 0.24942066 0.0104749985 -0.013878246 0.16017842 0.04258514 0.062724896 0.2088174 -0.061268315 -0.2637296 0.0880559 0.05086431 0.18891068 -0.00039069762 -0.10615279 0.003414691 -0.006723575 0.07080895 -0.042965762 -0.09630128 -0.11769589 -0.10510393 -0.046637062 0.12683663 -0.08209213 -0.037793603 0.09299026 -0.0053962553 -0.022600941 0.0023802249 -0.11339198 -0.01278949 -0.08645543 0.02496831 -0.109074995 -0.013935723 0.13947305 -0.06372852 0.10316222 -0.20496932 -0.022792684 0.10157851 -0.039174307 0.040778533 -0.15640852 0.08420303 0.06713037 -0.008776195 0.058708485 -0.04562024 -0.04308457 -0.06869261 -0.02710056 -0.0995618 -0.0036995579 0.023113985 -0.00091272366 0.12230442 0.011882532 0.06381102 -0.0361219 -0.0935332 -0.08209004 -0.004952835 0.1471563 -0.21995711 -0.09639836 -0.0030015772 -0.055803895 0.033878557 -0.04965823 0.08763532 -0.029981473 -0.022776319 0.10716508 -0.030414028 -0.11168001 -0.10884481 -0.10079929 0.16508883 -0.20254554 -0.08459744 -0.05333698 0.102404624
79 0.08569402 -0.0949486 -0.034522187 0.16032657 0.10294242 0.09444242 0.07985669 -0.050775718 0.034841172 0.025456334 -0.012629193 -0.0705611 -0.0055369795 0.005389436 0.083093345 -0.13316451 0.03463262 0.10804952 -0.037265923 -0.05615745 0.06719365 0.023198137 -0.012387633 0.009537192 0.11358208 -0.07979333 0.006430305 0.06600156 0.10985465 0.15791605 0.03747288 0.10300829 0.009343487 0.027210787 0.053739652 0.0394768 0.13489173 -0.15514652 -0.14101806 -0.06927088 -0.08402752 0.120602295 0.086333126 -0.13781998 0.1616587 0.20703822 0.19306731 0.010645779 0.02971148 -0.028276103 -0.019552587 0.032983173 -0.06725439 -0.12102777 0.18399835 0.067569986 0.14733168 0.067230456 -0.096430846 0.15973268 -0.07193293 0.14666495 -0.050732244 -0.060045358 -0.13505039 -0.15136464 -0.036747966 0.038022067 0.0056958753 0.2061854 0.14065245 0.09356605 -0.044328753 0.062396012 -0.013399779 -0.058090176 -0.12468782 0.052910477 -0.12113438 -0.03466889 0.1003116 -0.077763826 0.02079521 -0.098654926 0.12172965 0.037860367 0.012133218 0.00791953 -0.20562246 0.003788646 0.011514584 -0.026931232 -0.00077240745 -0.030519588 -0.030617936 -0.16641705 -0.03801918 -0.1493779 -0.07634126 -0.012186667 -0.008152088 0.12933062 -0.0053669745 0.0665405 -0.0602671 -0.11929421 -0.14485723 0.034440987 0.13818587 -0.23446181 -0.08252737 -0.30413818 0.037500534 0.07837492 0.028121332 -0.008107268 0.00025446079 -0.09237053 0.056700177 -0.13525204 -0.11972226 -0.11226964 0.05881481 0.12219228 -0.24643767 -0.093508534 0.091821484 0.10702805
36 0.16084146 0.12272618 -0.10974449 0.050163507 0.026048822 0.07374601 0.0084856115 0.021592133 -0.1438284 -0.12176996 -0.14119154 -0.21464366 -0.07036555 0.045353852 0.059682272 -0.05329467 0.026704434 -0.009568918 0.08458848 -0.045266144 -0.06353261 -0.004226181 -0.04586261 0.0403432 0.045190703 -0.03589617 -0.04613479 -0.18293369 -0.1680394 -0.031571023 0.013993651 -0.05230267 0.03288596 -0.10038833 -0.04732981 0.035992954 0.16047299 -0.0030379333 -0.050451975 0.021892408 -0.18495595 -0.015237833 -0.0481876 -0.012446287 0.04900316 0.14962617 0.029655999 -0.12292805 -0.030000718 -0.1358299 0.06339707 0.12139181 -0.0020601198 -0.13613753 0.11282193 -0.04732405 0.1110239 -0.1179667 -0.21732377 0.26704824 -0.021894015 -0.02339907 0.0054680477 0.0035193465 -0.21490246 -0.21988605 -0.04085714 0.05036125 -0.10703215 0.12525316 0.16747835 0.11429361 -0.023758525 0.055106808 -0.046254326 -0.12799418 -0.12759791 0.11139846 -0.042903554 -0.0937903 0.05837915 -0.06864101 0.18988815 -0.25667194 0.06657661 0.10023191 -0.05915285 -0.15238753 -0.081547596 0.09358269 0.11301318 -0.10460432 -0.06238592 -0.15814629 0.11977 0.05612357 0.06326331 -0.10675521 -0.046460036 0.02407538 0.093169525 0.061207253 -0.14132951 -0.051952235 -0.011763212 -0.19154721 0.020253979 -0.022352546 0.21532421 -0.108690366 -0.18646353 -0.21759473 -0.0943031 0.020197315 -0.10533617 0.07542469 0.004918896 -0.027864177 0.150172 0.038272537 -0.06304506 0.028903551 -0.06632474 0.061996643 -0.20927958 0.008788449 0.09008295 0.0578878
81 0.14170471 0.03937105 0.0466746 -0.018782249 -0.046554774 0.17165338 0.007271611 -0.08289197 -0.00024398591 -0.03651066 0.057906732 -0.15698001 0.0950587 -0.22665183 0.1658509 -0.05995548 0.008119455 -0.09516703 -0.010093186 -0.0024572613 0.020141646 -0.14464957 0.12683636 0.11304121 -0.058281638 -0.18475704 -0.06196024 -0.06647386 -0.031948797 0.11749111 -0.08960752 0.030470533 0.10880476 0.1520181 -0.05948974 -0.0048550195 0.003386425 -0.027298912 -0.14383402 -0.002021285 -0.09150453 0.005373274 -0.07934152 -0.07501014 0.056066822 0.11780512 0.04857578 -0.18595937 0.08587532 -0.1257166 0.07548022 0.08223342 0.14599988 -0.16524899 0.062276386 0.112583056 0.116135046 -0.10332566 -0.08962397 0.09414359 -0.07685435 0.06866165 -0.013485058 -0.14416632 -0.013944833 -0.22748345 -0.04038914 0.13178621 0.057246894 -0.038020913 0.05698284 -0.042355493 -0.06791213 0.06486862 0.079315856 -0.13900109 -0.1074758 0.0382771 0.030138966 -0.08265045 0.09788154 -0.06497308 0.2736762 -0.30873913 0.08147622 0.10632925 0.068062246 0.08453559 -0.25476253 0.056727577 0.01881365 -0.06030321 0.038833678 -0.17434731 -0.20190918 0.032464497 0.016841134 -0.11924623 -0.09235496 -0.060761046 0.10435515 0.009495919 0.033072047 0.020639839 -0.019446798 -0.053566977 -0.091715276 0.080507845 0.14345495 -0.060934726 -0.023600252 -0.016910875 -0.014010895 -0.069173165 -0.007153366 0.06575357 0.07511738 0.0689115 0.014656703 0.020869156 -0.15453064 -0.025613278 0.036886457 0.15924363 -0.18006198 -0.10361763 -0.016939884 0.10892072
41 0.07667726 -0.08400455 -0.049516153 -0.047470942 -0.16626233 -0.016386308 0.089041434 0.0165796 -0.0723048 -0.0701377 -0.012615666 -0.12261285 0.026603399 -0.07293912 0.12581292 -0.028579004 0.033695433 0.13798875 0.032322437 -0.18167405 0.0016573613 0.01967143 -0.03466781 0.054697603 -0.13821404 -0.06549084 -0.124287896 0.12484493 0.0959038 0.09745648 -0.058350626 -0.03502091 0.19521025 0.21507439 0.029851105 0.0004706864 -0.09423035 -0.09518413 -0.13004963 0.19199136 -0.05268314 0.03869181 0.06937004 -0.020183316 -0.100122154 0.16177772 0.066294186 -0.19240747 0.06640528 -0.077927925 0.04258766 0.070032194 -0.05171822 -0.17023996 -0.033815537 0.088634126 0.14990576 0.06276011 -0.16280083 0.08071302 -0.07352277 0.10002818 -0.08633306 0.0471206 -0.06442817 -0.17303254 -0.13760652 0.14647272 -0.010236787 0.06522059 0.1258213 0.050595734 -0.10325023 0.17346135 0.033861835 0.016290907 -0.12106682 0.10406045 -0.061101858 0.05198262 0.10308542 -0.12700623 0.13420747 -0.26756772 0.073143095 0.053260747 -0.17034303 0.016821474 -0.11907667 0.12925176 0.021698866 -0.014974641 0.044092324 -0.07341388 -0.08359751 -0.05509517 -0.12965332 0.06820168 -0.012672719 -0.120476 0.015828436 -0.11412537 0.08902083 0.049286593 -0.12620206 -0.20090394 -0.06710155 0.15525457 0.14988986 -0.19796151 0.01898966 -0.20435406 -0.11524765 -0.015423781 0.12835371 -0.039741594 0.021208825 0.1844895 0.05356147 0.085999124 -0.0466181 0.072811596 0.019155923 0.1631001 -0.14235768 -0.071040764 -0.11143096 -0.08395428
72 0.13650756 -0.19768736 -0.061611675 0.0463569 -0.051487263 0.12901825 0.03743765 -0.06586733 0.05576661 -0.03342285 0.0863515 -0.29727983 -0.09435975 -0.18821251 0.068632 -0.034760628 0.028074244 0.17528082 0.07992687 0.014777947 -0.0108614685 -0.15266079 0.016839257 0.14952417 0.063832074 -0.07515725 0.035520967 -0.020733166 -0.0039401264 0.0020333822 -0.00040362522 0.11929434 0.19011493 0.030987112 0.07082561 0.11802821 0.09035365 -0.13189943 -0.021559628 -0.087139726 -0.06496391 0.08747412 0.070819944 -0.09200146 -0.03139984 0.1697125 -0.058712408 -0.010744012 -0.063141175 0.027614651 0.04609774 -0.019516293 0.1134997 -0.20540498 0.124857485 0.122314274 0.064986475 -0.21245092 -0.16406982 0.09991912 -0.034098424 0.16308074 -0.11769842 0.04663657 -0.07056117 -0.23243988 -0.0388304 0.11980109 -0.0128444405 0.054995734 0.15780264 -0.021769855 -0.02980605 -0.054571822 -0.035963193 -0.04404395 -0.016576556 0.07361087 -0.048441466 0.033911485 0.06427894 -0.07155163 0.09741894 -0.13221698 0.104017586 0.18230942 0.0874524 -0.06023348 -0.1995118 -0.072886206 0.050889164 -0.051992375 0.18256919 -0.20205931 -0.12144987 -0.10770315 -0.08205317 -0.07640158 0.05881951 -0.03045974 -0.0052205864 -0.016406907 -0.12791285 0.068781026 -0.010047677 -0.24577785 0.047711235 0.16124272 0.10042771 -0.037710268 0.09407555 -0.11032807 -0.052854713 0.10454127 -0.08913978 0.010475135 -0.021048335 0.004773392 0.07542066 0.04805855 -0.07898439 -0.07891547 -0.12337735 0.078572914 -0.1501101 -0.1975677 -0.02116582 0.07637843
105 0.026886208 -0.048839945 -0.16544406 0.055145457 -0.029200891 0.10383649 0.099409394 -0.056198206 -0.1372733 -0.013038153 -0.1617926 -0.17037596 -0.06875054 0.0031386253 -0.03174129 -0.03473407 0.0013411688 0.07619179 -0.051495574 -0.15224306 0.20720105 -0.0040724003 0.10119806 -0.037851747 0.2053133 -0.009478571 -0.08901993 -0.069638245 0.009766339 0.13013858 -0.021618303 -0.07537295 0.13335639 0.15100305 0.041748535 -0.050034318 -0.084003784 -0.118034855 -0.20917659 -0.014010698 -0.013152635 -0.00895672 -0.0542912 -0.16604295 0.24839588 0.15946214 -0.1552948 -0.090035245 0.08611822 -0.013203408 -0.031806465 0.17786448 0.08841642 -0.10029109 0.14344403 0.1858937 0.17243458 -0.10939796 -0.0025890195 0.105439626 -0.07990434 0.07103911 -0.025075318 -0.13264605 -0.2119251 -0.12491409 -0.02653332 0.17523463 -0.06328936 0.121238194 0.09805075 0.14245935 0.04990788 0.08911061 0.024558088 -0.15188636 0.008840284 0.06273848 -0.10411653 0.035510764 0.009342197 -0.27966946 0.05764121 -0.123005174 0.13971171 0.0344279 -0.08489388 0.035264216 -0.14283746 0.050169975 0.080835395 -0.16711806 -0.024844255 -0.17819007 -0.021212863 0.083330125 -0.0368898 -0.12809111 -0.051294323 0.15999709 0.11758059 0.044440053 0.01409447 0.013043683 -0.06775217 -0.15406021 -0.081910826 0.0009668027 0.19927324 -0.26174027 -0.029806262 -0.12851812 -0.057375908 -0.013628342 0.034668364 0.021245772 0.10062362 -0.024000667 -0.03865274 0.019653497 -0.02191957 -0.08438971 -0.006062329 0.12082034 0.011708957 -0.054502647 -0.012727023 -0.07392701
52 0.096123934 0.085069746 -0.014078309 -0.10434241 -0.026138011 -0.052056324 -0.068856604 -0.07182803 0.04526444 -0.057175513 -0.042165298 -0.04052694 0.13557044 0.027514612 0.045128822 0.01346874 0.08547669 0.001801488 0.0574887 -0.054878805 -0.08636032 0.03289824 -0.027196199 -0.0124644805 -0.051571354 -0.105039395 -0.115885325 0.039183266 0.038535543 0.017692527 -0.096890435 -0.031341188 0.045083415 -0.026045041 -0.021373127 -0.038665693 0.07625069 -0.018544322 -0.13546695 0.13396172 -0.09553002 0.041366648 -0.051218025 -0.04386641 0.09538709 0.08945833 0.022543613 0.01559326 -0.00733538 -0.10228116 0.03189715 0.12519494 0.02019934 -0.16161458 0.22399162 0.01898162 0.18516679 -0.14003834 -0.117946506 0.03165622 -0.06759754 0.06673641 -0.06839589 -0.12194867 -0.07710131 -0.17423508 -0.004669513 0.1991633 0.034586668 0.012790425 0.06855558 -0.04809698 -0.05957305 0.014243753 -0.03717793 -0.032231107 -0.17991531 0.046802018 -0.0546915 0.009967254 0.05959577 -0.08393923 0.23270904 -0.24353155 0.21291108 0.03948086 0.009722979 -0.06272785 -0.21390054 0.040617738 0.052602578 -0.087527305 0.10346754 -0.20459013 -0.047119267 -0.11000569 -0.0100058345 -0.15572129 0.06282255 0.029828988 0.00939868 -0.0047898623 -0.12180763 0.15643421 -0.03558978 -0.13406621 -0.035606798 0.17569584 0.2796231 -0.13620341 0.048843134 -0.08248096 -0.09001145 0.11145512 0.004104428 0.08408871 0.09651823 0.04991933 0.08198719 -0.16035199 -0.10404515 -0.12804128 0.023154154 0.17414854 -0.044127423 -0.010798849 -0.04515788 0.06051088
103 0.14672585 0.008847162 -0.19248514 -0.13183528 -0.07645657 0.17058164 0.06873193 0.06894146 -0.03717881 -0.060394153 0.046084158 -0.094692685 -0.050651804 -0.038009554 -0.0139962975 -0.08434552 0.19205199 -0.081035994 0.16114217 -0.07052172 0.04888349 0.11719104 0.06439662 0.08825101 -0.12356746 -0.079609826 -0.03372502 0.09450107 0.052035253 -0.061730757 -0.07727677 -0.09671418 0.048185375 0.080591574 0.007877319 0.14288598 0.088062644 0.014772368 -0.09625767 -0.06600293 -0.0741187 0.11177808 -0.051972114 -0.14807113 0.19453143 0.15337403 0.031113466 0.02157853 0.25755143 -0.0073376107 0.03999164 -0.008404487 -0.013258613 -0.17739931 0.039119225 0.09246941 0.220535 0.10087565 -8.4457235e-05 0.13831832 -0.09375914 0.039284263 -0.07756549 -0.1028042 -0.07489698 -0.21403329 0.01939727 0.23848861 -0.00714903 0.05158593 0.084728956 0.08744462 0.013407877 -0.029957566 0.05117062 -0.07516551 -0.10849643 0.07245508 -0.08523797 0.06105718 -0.024464652 -0.19192672 0.17936613 -0.24871212 0.11875396 0.1611783 -0.027981337 0.18297973 -0.2440932 -0.06288725 0.108830616 0.011213738 0.2005908 -0.025492147 -0.11316361 0.017283367 0.034536973 -0.13155429 -0.049545422 0.0019104079 0.13183406 0.0980781 0.020418325 0.05042162 0.033623446 -0.090309314 -0.07700946 -0.032479186 0.1650741 -0.076010644 -0.11324064 -0.034072246 -0.11127243 0.11450221 -0.0517669 0.17364164 -0.03212619 -0.025561284 0.17702639 0.0127366325 -0.04446837 -0.09866959 -0.06170017 0.024119204 -0.07267495 -0.07129663 0.13391171 -0.023293551
99 0.14156842 -0.04827144 0.052953802 -0.039453648 0.08948394 0.003919983 -0.07889051 -0.01846574 -0.032678735 0.067008175 -0.23794341 -0.18287162 0.03302222 0.016577458 0.09118176 -0.047362216 0.14431351 0.13656804 0.05414983 -0.0647317 0.12067224 0.16481261 0.0154417595 0.082268625 -0.019931722 -0.05598063 -0.035778683 -0.06682878 0.0958441 0.03456063 -0.027774937 -0.10905389 0.081798404 0.07394829 -0.088867754 0.114195496 -0.00070743146 -0.0634611 -0.1130393 -0.043001123 -0.054595336 0.036109895 -0.010751136 -0.17220937 0.044116884 0.23818932 -0.13429806 -0.03352921 0.14184852 -0.009226877 -0.07297972 0.084086195 0.027669717 -0.15359427 0.02410882 0.048469298 0.12861626 0.0069566937 -0.10971022 0.08817028 -0.0047820862 -0.012908432 -0.017611364 -0.16873376 -0.07282188 -0.22558583 -0.18785454 0.15484327 0.0699088 0.04905913 0.1268206 0.14712812 -0.1342617 0.12568705 0.0672669 -0.093920104 -0.017061034 0.1259721 -0.067879125 0.020714695 0.06570335 -0.17949289 0.05075847 -0.21262372 0.018407244 0.0147391055 0.0063181752 0.05803927 -0.16471514 0.14583494 0.04590625 -0.108343296 0.116655946 -0.20606886 -0.08893676 -0.08252909 0.039303787 -0.14600253 -0.006187024 -0.006686432 0.10522742 0.06613012 0.08835447 -0.08033658 0.017113203 -0.1627216 0.025770657 0.011660896 0.06414405 -0.21303806 -0.05910544 -0.031451803 -0.002921512 0.10098032 0.11157178 -0.021186998 -0.0357156 -0.0120073315 -0.008580616 0.0095921 -0.01766587 -0.09607378 0.026160084 0.11161177 -0.29064697 -0.08996597 0.046904206 0.046065982
47 0.1827483 -0.10043546 0.04032639 0.1301058 -0.064000025 0.07232223 0.12053857 -0.1222459 -0.08284204 -0.10703892 -0.009411583 -0.17196679 0.020774936 -0.055251725 0.029094344 -0.084506504 0.02078839 -0.015366453 0.12509875 -0.046434537 0.064177066 0.0155442385 -0.009638162 0.13711312 -0.100918725 -0.12859397 0.06338372 0.09525696 0.024188835 0.01901482 0.040405113 0.17073685 -0.006193484 0.069314934 0.017789464 0.018787654 0.011901326 -0.13981487 -0.09309261 -0.03424702 -0.08242959 0.062061295 -0.039715968 -0.1155641 0.047235478 0.22494884 0.06874423 0.05086666 0.1106449 -0.04532905 -0.013401364 0.17502676 -0.06743698 -0.17920214 0.051702365 0.029471736 0.024865877 0.013228384 0.015421041 0.049816437 -0.03120077 0.005746173 -0.014518567 0.0065624835 -0.08579241 -0.10589141 -0.17165647 0.040053483 -0.03156708 0.1152558 0.097011514 0.04688508 -0.1012639 0.062430285 0.078917205 -0.008610008 -0.20769192 0.10652297 0.06085486 0.013243036 -0.099379756 -0.07843078 0.11972505 -0.19678131 0.059966486 0.034198552 -0.034200013 -0.029419098 -0.12641688 0.18765981 -0.1320052 -0.09244803 0.08516676 -0.20389481 -0.06305957 -0.16100615 -0.12393159 -0.07801963 -0.08238494 -0.06744474 -0.012939258 0.20302913 -0.08777689 0.01744228 -0.071457885 -0.12876432 -0.026581563 0.16572419 0.19056982 -0.124627374 -0.054887064 -0.023661196 -0.08668277 0.049871482 0.14662564 0.09739138 0.074082255 0.061799254 0.07756122 -0.17293851 -0.05386523 0.017190179 0.05312154 0.3049602 -0.13713446 -0.0717267 0.10746979 0.03200621
114 0.029779233 -0.10991436 -0.0387716 -0.011774315 -0.03921767 0.059757736 0.06501147 -0.041441467 -0.135394 0.11513438 -0.18668726 -0.1031285 -0.09329932 -0.053702727 0.047560982 0.01466635 0.15871622 0.13715151 0.009014448 -0.068109445 0.13536811 0.053943757 0.13028933 0.1424338 -0.10862077 -0.043480605 0.020591052 0.10720446 -0.0109681655 -0.037156753 -0.12752828 0.02645562 0.05049804 -0.0051935534 -0.013777806 -0.022114689 -0.044922628 -0.00999291 -0.15483278 -0.1154978 -0.018592715 0.03782227 0.01214541 -0.13922977 0.06405761 0.28843233 -0.033495042 -0.06537538 -0.0023602725 -0.09429104 0.036384474 0.010599756 0.013484206 -0.058132406 0.20293632 0.19549581 0.047044378 0.029783657 -0.01958932 0.017873492 0.04680708 0.124950886 -0.0032125353 -0.15841138 -0.020109732 -0.17500113 -0.042397264 0.19245264 0.0703576 0.09353576 0.12039741 0.04818706 -0.12227455 0.10921089 -0.005894426 -0.25052437 -0.052143022 0.00086237455 -0.0006464382 -0.0004788726 -0.035785392 -0.23903972 0.039154764 -0.19865468 0.08392447 0.14013545 -0.061811533 0.10967902 -0.15876986 0.040746357 0.07303442 0.019667277 0.12434123 -0.17086938 -0.02201626 0.03930303 0.05303516 -0.2198023 -0.013130759 -0.029558705 0.06315288 0.039114192 -0.092976585 -0.014532054 -0.042430587 -0.09334151 -0.021901641 0.072516605 0.1909277 -0.24777633 0.0053554536 -0.11441374 -0.05023509 0.057229515 -0.020884305 0.08930178 0.07505453 -0.03132923 0.02414031 0.07197445 -0.17716858 0.06805663 -0.010016501 0.18056545 -0.07554351 -0.08536773 0.046894412 0.04601654
